%YAML:1.0
---
opencv_ml_dtree:
   format: 3
   is_classifier: 1
   var_all: 1765
   var_count: 1764
   ord_var_count: 1764
   cat_var_count: 1
   training_params:
      use_surrogates: 0
      max_categories: 6
      regression_accuracy: 9.9999997764825821e-03
      max_depth: 20
      min_sample_count: 2
      cross_validation_folds: 0
   global_var_idx: 1
   var_idx: [ 0, 1, 2, 3, 4, 5, 6, 7, 8, 9, 10, 11, 12, 13, 14, 15, 16,
       17, 18, 19, 20, 21, 22, 23, 24, 25, 26, 27, 28, 29, 30, 31, 32,
       33, 34, 35, 36, 37, 38, 39, 40, 41, 42, 43, 44, 45, 46, 47, 48,
       49, 50, 51, 52, 53, 54, 55, 56, 57, 58, 59, 60, 61, 62, 63, 64,
       65, 66, 67, 68, 69, 70, 71, 72, 73, 74, 75, 76, 77, 78, 79, 80,
       81, 82, 83, 84, 85, 86, 87, 88, 89, 90, 91, 92, 93, 94, 95, 96,
       97, 98, 99, 100, 101, 102, 103, 104, 105, 106, 107, 108, 109, 110,
       111, 112, 113, 114, 115, 116, 117, 118, 119, 120, 121, 122, 123,
       124, 125, 126, 127, 128, 129, 130, 131, 132, 133, 134, 135, 136,
       137, 138, 139, 140, 141, 142, 143, 144, 145, 146, 147, 148, 149,
       150, 151, 152, 153, 154, 155, 156, 157, 158, 159, 160, 161, 162,
       163, 164, 165, 166, 167, 168, 169, 170, 171, 172, 173, 174, 175,
       176, 177, 178, 179, 180, 181, 182, 183, 184, 185, 186, 187, 188,
       189, 190, 191, 192, 193, 194, 195, 196, 197, 198, 199, 200, 201,
       202, 203, 204, 205, 206, 207, 208, 209, 210, 211, 212, 213, 214,
       215, 216, 217, 218, 219, 220, 221, 222, 223, 224, 225, 226, 227,
       228, 229, 230, 231, 232, 233, 234, 235, 236, 237, 238, 239, 240,
       241, 242, 243, 244, 245, 246, 247, 248, 249, 250, 251, 252, 253,
       254, 255, 256, 257, 258, 259, 260, 261, 262, 263, 264, 265, 266,
       267, 268, 269, 270, 271, 272, 273, 274, 275, 276, 277, 278, 279,
       280, 281, 282, 283, 284, 285, 286, 287, 288, 289, 290, 291, 292,
       293, 294, 295, 296, 297, 298, 299, 300, 301, 302, 303, 304, 305,
       306, 307, 308, 309, 310, 311, 312, 313, 314, 315, 316, 317, 318,
       319, 320, 321, 322, 323, 324, 325, 326, 327, 328, 329, 330, 331,
       332, 333, 334, 335, 336, 337, 338, 339, 340, 341, 342, 343, 344,
       345, 346, 347, 348, 349, 350, 351, 352, 353, 354, 355, 356, 357,
       358, 359, 360, 361, 362, 363, 364, 365, 366, 367, 368, 369, 370,
       371, 372, 373, 374, 375, 376, 377, 378, 379, 380, 381, 382, 383,
       384, 385, 386, 387, 388, 389, 390, 391, 392, 393, 394, 395, 396,
       397, 398, 399, 400, 401, 402, 403, 404, 405, 406, 407, 408, 409,
       410, 411, 412, 413, 414, 415, 416, 417, 418, 419, 420, 421, 422,
       423, 424, 425, 426, 427, 428, 429, 430, 431, 432, 433, 434, 435,
       436, 437, 438, 439, 440, 441, 442, 443, 444, 445, 446, 447, 448,
       449, 450, 451, 452, 453, 454, 455, 456, 457, 458, 459, 460, 461,
       462, 463, 464, 465, 466, 467, 468, 469, 470, 471, 472, 473, 474,
       475, 476, 477, 478, 479, 480, 481, 482, 483, 484, 485, 486, 487,
       488, 489, 490, 491, 492, 493, 494, 495, 496, 497, 498, 499, 500,
       501, 502, 503, 504, 505, 506, 507, 508, 509, 510, 511, 512, 513,
       514, 515, 516, 517, 518, 519, 520, 521, 522, 523, 524, 525, 526,
       527, 528, 529, 530, 531, 532, 533, 534, 535, 536, 537, 538, 539,
       540, 541, 542, 543, 544, 545, 546, 547, 548, 549, 550, 551, 552,
       553, 554, 555, 556, 557, 558, 559, 560, 561, 562, 563, 564, 565,
       566, 567, 568, 569, 570, 571, 572, 573, 574, 575, 576, 577, 578,
       579, 580, 581, 582, 583, 584, 585, 586, 587, 588, 589, 590, 591,
       592, 593, 594, 595, 596, 597, 598, 599, 600, 601, 602, 603, 604,
       605, 606, 607, 608, 609, 610, 611, 612, 613, 614, 615, 616, 617,
       618, 619, 620, 621, 622, 623, 624, 625, 626, 627, 628, 629, 630,
       631, 632, 633, 634, 635, 636, 637, 638, 639, 640, 641, 642, 643,
       644, 645, 646, 647, 648, 649, 650, 651, 652, 653, 654, 655, 656,
       657, 658, 659, 660, 661, 662, 663, 664, 665, 666, 667, 668, 669,
       670, 671, 672, 673, 674, 675, 676, 677, 678, 679, 680, 681, 682,
       683, 684, 685, 686, 687, 688, 689, 690, 691, 692, 693, 694, 695,
       696, 697, 698, 699, 700, 701, 702, 703, 704, 705, 706, 707, 708,
       709, 710, 711, 712, 713, 714, 715, 716, 717, 718, 719, 720, 721,
       722, 723, 724, 725, 726, 727, 728, 729, 730, 731, 732, 733, 734,
       735, 736, 737, 738, 739, 740, 741, 742, 743, 744, 745, 746, 747,
       748, 749, 750, 751, 752, 753, 754, 755, 756, 757, 758, 759, 760,
       761, 762, 763, 764, 765, 766, 767, 768, 769, 770, 771, 772, 773,
       774, 775, 776, 777, 778, 779, 780, 781, 782, 783, 784, 785, 786,
       787, 788, 789, 790, 791, 792, 793, 794, 795, 796, 797, 798, 799,
       800, 801, 802, 803, 804, 805, 806, 807, 808, 809, 810, 811, 812,
       813, 814, 815, 816, 817, 818, 819, 820, 821, 822, 823, 824, 825,
       826, 827, 828, 829, 830, 831, 832, 833, 834, 835, 836, 837, 838,
       839, 840, 841, 842, 843, 844, 845, 846, 847, 848, 849, 850, 851,
       852, 853, 854, 855, 856, 857, 858, 859, 860, 861, 862, 863, 864,
       865, 866, 867, 868, 869, 870, 871, 872, 873, 874, 875, 876, 877,
       878, 879, 880, 881, 882, 883, 884, 885, 886, 887, 888, 889, 890,
       891, 892, 893, 894, 895, 896, 897, 898, 899, 900, 901, 902, 903,
       904, 905, 906, 907, 908, 909, 910, 911, 912, 913, 914, 915, 916,
       917, 918, 919, 920, 921, 922, 923, 924, 925, 926, 927, 928, 929,
       930, 931, 932, 933, 934, 935, 936, 937, 938, 939, 940, 941, 942,
       943, 944, 945, 946, 947, 948, 949, 950, 951, 952, 953, 954, 955,
       956, 957, 958, 959, 960, 961, 962, 963, 964, 965, 966, 967, 968,
       969, 970, 971, 972, 973, 974, 975, 976, 977, 978, 979, 980, 981,
       982, 983, 984, 985, 986, 987, 988, 989, 990, 991, 992, 993, 994,
       995, 996, 997, 998, 999, 1000, 1001, 1002, 1003, 1004, 1005, 1006,
       1007, 1008, 1009, 1010, 1011, 1012, 1013, 1014, 1015, 1016, 1017,
       1018, 1019, 1020, 1021, 1022, 1023, 1024, 1025, 1026, 1027, 1028,
       1029, 1030, 1031, 1032, 1033, 1034, 1035, 1036, 1037, 1038, 1039,
       1040, 1041, 1042, 1043, 1044, 1045, 1046, 1047, 1048, 1049, 1050,
       1051, 1052, 1053, 1054, 1055, 1056, 1057, 1058, 1059, 1060, 1061,
       1062, 1063, 1064, 1065, 1066, 1067, 1068, 1069, 1070, 1071, 1072,
       1073, 1074, 1075, 1076, 1077, 1078, 1079, 1080, 1081, 1082, 1083,
       1084, 1085, 1086, 1087, 1088, 1089, 1090, 1091, 1092, 1093, 1094,
       1095, 1096, 1097, 1098, 1099, 1100, 1101, 1102, 1103, 1104, 1105,
       1106, 1107, 1108, 1109, 1110, 1111, 1112, 1113, 1114, 1115, 1116,
       1117, 1118, 1119, 1120, 1121, 1122, 1123, 1124, 1125, 1126, 1127,
       1128, 1129, 1130, 1131, 1132, 1133, 1134, 1135, 1136, 1137, 1138,
       1139, 1140, 1141, 1142, 1143, 1144, 1145, 1146, 1147, 1148, 1149,
       1150, 1151, 1152, 1153, 1154, 1155, 1156, 1157, 1158, 1159, 1160,
       1161, 1162, 1163, 1164, 1165, 1166, 1167, 1168, 1169, 1170, 1171,
       1172, 1173, 1174, 1175, 1176, 1177, 1178, 1179, 1180, 1181, 1182,
       1183, 1184, 1185, 1186, 1187, 1188, 1189, 1190, 1191, 1192, 1193,
       1194, 1195, 1196, 1197, 1198, 1199, 1200, 1201, 1202, 1203, 1204,
       1205, 1206, 1207, 1208, 1209, 1210, 1211, 1212, 1213, 1214, 1215,
       1216, 1217, 1218, 1219, 1220, 1221, 1222, 1223, 1224, 1225, 1226,
       1227, 1228, 1229, 1230, 1231, 1232, 1233, 1234, 1235, 1236, 1237,
       1238, 1239, 1240, 1241, 1242, 1243, 1244, 1245, 1246, 1247, 1248,
       1249, 1250, 1251, 1252, 1253, 1254, 1255, 1256, 1257, 1258, 1259,
       1260, 1261, 1262, 1263, 1264, 1265, 1266, 1267, 1268, 1269, 1270,
       1271, 1272, 1273, 1274, 1275, 1276, 1277, 1278, 1279, 1280, 1281,
       1282, 1283, 1284, 1285, 1286, 1287, 1288, 1289, 1290, 1291, 1292,
       1293, 1294, 1295, 1296, 1297, 1298, 1299, 1300, 1301, 1302, 1303,
       1304, 1305, 1306, 1307, 1308, 1309, 1310, 1311, 1312, 1313, 1314,
       1315, 1316, 1317, 1318, 1319, 1320, 1321, 1322, 1323, 1324, 1325,
       1326, 1327, 1328, 1329, 1330, 1331, 1332, 1333, 1334, 1335, 1336,
       1337, 1338, 1339, 1340, 1341, 1342, 1343, 1344, 1345, 1346, 1347,
       1348, 1349, 1350, 1351, 1352, 1353, 1354, 1355, 1356, 1357, 1358,
       1359, 1360, 1361, 1362, 1363, 1364, 1365, 1366, 1367, 1368, 1369,
       1370, 1371, 1372, 1373, 1374, 1375, 1376, 1377, 1378, 1379, 1380,
       1381, 1382, 1383, 1384, 1385, 1386, 1387, 1388, 1389, 1390, 1391,
       1392, 1393, 1394, 1395, 1396, 1397, 1398, 1399, 1400, 1401, 1402,
       1403, 1404, 1405, 1406, 1407, 1408, 1409, 1410, 1411, 1412, 1413,
       1414, 1415, 1416, 1417, 1418, 1419, 1420, 1421, 1422, 1423, 1424,
       1425, 1426, 1427, 1428, 1429, 1430, 1431, 1432, 1433, 1434, 1435,
       1436, 1437, 1438, 1439, 1440, 1441, 1442, 1443, 1444, 1445, 1446,
       1447, 1448, 1449, 1450, 1451, 1452, 1453, 1454, 1455, 1456, 1457,
       1458, 1459, 1460, 1461, 1462, 1463, 1464, 1465, 1466, 1467, 1468,
       1469, 1470, 1471, 1472, 1473, 1474, 1475, 1476, 1477, 1478, 1479,
       1480, 1481, 1482, 1483, 1484, 1485, 1486, 1487, 1488, 1489, 1490,
       1491, 1492, 1493, 1494, 1495, 1496, 1497, 1498, 1499, 1500, 1501,
       1502, 1503, 1504, 1505, 1506, 1507, 1508, 1509, 1510, 1511, 1512,
       1513, 1514, 1515, 1516, 1517, 1518, 1519, 1520, 1521, 1522, 1523,
       1524, 1525, 1526, 1527, 1528, 1529, 1530, 1531, 1532, 1533, 1534,
       1535, 1536, 1537, 1538, 1539, 1540, 1541, 1542, 1543, 1544, 1545,
       1546, 1547, 1548, 1549, 1550, 1551, 1552, 1553, 1554, 1555, 1556,
       1557, 1558, 1559, 1560, 1561, 1562, 1563, 1564, 1565, 1566, 1567,
       1568, 1569, 1570, 1571, 1572, 1573, 1574, 1575, 1576, 1577, 1578,
       1579, 1580, 1581, 1582, 1583, 1584, 1585, 1586, 1587, 1588, 1589,
       1590, 1591, 1592, 1593, 1594, 1595, 1596, 1597, 1598, 1599, 1600,
       1601, 1602, 1603, 1604, 1605, 1606, 1607, 1608, 1609, 1610, 1611,
       1612, 1613, 1614, 1615, 1616, 1617, 1618, 1619, 1620, 1621, 1622,
       1623, 1624, 1625, 1626, 1627, 1628, 1629, 1630, 1631, 1632, 1633,
       1634, 1635, 1636, 1637, 1638, 1639, 1640, 1641, 1642, 1643, 1644,
       1645, 1646, 1647, 1648, 1649, 1650, 1651, 1652, 1653, 1654, 1655,
       1656, 1657, 1658, 1659, 1660, 1661, 1662, 1663, 1664, 1665, 1666,
       1667, 1668, 1669, 1670, 1671, 1672, 1673, 1674, 1675, 1676, 1677,
       1678, 1679, 1680, 1681, 1682, 1683, 1684, 1685, 1686, 1687, 1688,
       1689, 1690, 1691, 1692, 1693, 1694, 1695, 1696, 1697, 1698, 1699,
       1700, 1701, 1702, 1703, 1704, 1705, 1706, 1707, 1708, 1709, 1710,
       1711, 1712, 1713, 1714, 1715, 1716, 1717, 1718, 1719, 1720, 1721,
       1722, 1723, 1724, 1725, 1726, 1727, 1728, 1729, 1730, 1731, 1732,
       1733, 1734, 1735, 1736, 1737, 1738, 1739, 1740, 1741, 1742, 1743,
       1744, 1745, 1746, 1747, 1748, 1749, 1750, 1751, 1752, 1753, 1754,
       1755, 1756, 1757, 1758, 1759, 1760, 1761, 1762, 1763 ]
   var_type: [ 0, 0, 0, 0, 0, 0, 0, 0, 0, 0, 0, 0, 0, 0, 0, 0, 0, 0, 0,
       0, 0, 0, 0, 0, 0, 0, 0, 0, 0, 0, 0, 0, 0, 0, 0, 0, 0, 0, 0, 0, 0,
       0, 0, 0, 0, 0, 0, 0, 0, 0, 0, 0, 0, 0, 0, 0, 0, 0, 0, 0, 0, 0, 0,
       0, 0, 0, 0, 0, 0, 0, 0, 0, 0, 0, 0, 0, 0, 0, 0, 0, 0, 0, 0, 0, 0,
       0, 0, 0, 0, 0, 0, 0, 0, 0, 0, 0, 0, 0, 0, 0, 0, 0, 0, 0, 0, 0, 0,
       0, 0, 0, 0, 0, 0, 0, 0, 0, 0, 0, 0, 0, 0, 0, 0, 0, 0, 0, 0, 0, 0,
       0, 0, 0, 0, 0, 0, 0, 0, 0, 0, 0, 0, 0, 0, 0, 0, 0, 0, 0, 0, 0, 0,
       0, 0, 0, 0, 0, 0, 0, 0, 0, 0, 0, 0, 0, 0, 0, 0, 0, 0, 0, 0, 0, 0,
       0, 0, 0, 0, 0, 0, 0, 0, 0, 0, 0, 0, 0, 0, 0, 0, 0, 0, 0, 0, 0, 0,
       0, 0, 0, 0, 0, 0, 0, 0, 0, 0, 0, 0, 0, 0, 0, 0, 0, 0, 0, 0, 0, 0,
       0, 0, 0, 0, 0, 0, 0, 0, 0, 0, 0, 0, 0, 0, 0, 0, 0, 0, 0, 0, 0, 0,
       0, 0, 0, 0, 0, 0, 0, 0, 0, 0, 0, 0, 0, 0, 0, 0, 0, 0, 0, 0, 0, 0,
       0, 0, 0, 0, 0, 0, 0, 0, 0, 0, 0, 0, 0, 0, 0, 0, 0, 0, 0, 0, 0, 0,
       0, 0, 0, 0, 0, 0, 0, 0, 0, 0, 0, 0, 0, 0, 0, 0, 0, 0, 0, 0, 0, 0,
       0, 0, 0, 0, 0, 0, 0, 0, 0, 0, 0, 0, 0, 0, 0, 0, 0, 0, 0, 0, 0, 0,
       0, 0, 0, 0, 0, 0, 0, 0, 0, 0, 0, 0, 0, 0, 0, 0, 0, 0, 0, 0, 0, 0,
       0, 0, 0, 0, 0, 0, 0, 0, 0, 0, 0, 0, 0, 0, 0, 0, 0, 0, 0, 0, 0, 0,
       0, 0, 0, 0, 0, 0, 0, 0, 0, 0, 0, 0, 0, 0, 0, 0, 0, 0, 0, 0, 0, 0,
       0, 0, 0, 0, 0, 0, 0, 0, 0, 0, 0, 0, 0, 0, 0, 0, 0, 0, 0, 0, 0, 0,
       0, 0, 0, 0, 0, 0, 0, 0, 0, 0, 0, 0, 0, 0, 0, 0, 0, 0, 0, 0, 0, 0,
       0, 0, 0, 0, 0, 0, 0, 0, 0, 0, 0, 0, 0, 0, 0, 0, 0, 0, 0, 0, 0, 0,
       0, 0, 0, 0, 0, 0, 0, 0, 0, 0, 0, 0, 0, 0, 0, 0, 0, 0, 0, 0, 0, 0,
       0, 0, 0, 0, 0, 0, 0, 0, 0, 0, 0, 0, 0, 0, 0, 0, 0, 0, 0, 0, 0, 0,
       0, 0, 0, 0, 0, 0, 0, 0, 0, 0, 0, 0, 0, 0, 0, 0, 0, 0, 0, 0, 0, 0,
       0, 0, 0, 0, 0, 0, 0, 0, 0, 0, 0, 0, 0, 0, 0, 0, 0, 0, 0, 0, 0, 0,
       0, 0, 0, 0, 0, 0, 0, 0, 0, 0, 0, 0, 0, 0, 0, 0, 0, 0, 0, 0, 0, 0,
       0, 0, 0, 0, 0, 0, 0, 0, 0, 0, 0, 0, 0, 0, 0, 0, 0, 0, 0, 0, 0, 0,
       0, 0, 0, 0, 0, 0, 0, 0, 0, 0, 0, 0, 0, 0, 0, 0, 0, 0, 0, 0, 0, 0,
       0, 0, 0, 0, 0, 0, 0, 0, 0, 0, 0, 0, 0, 0, 0, 0, 0, 0, 0, 0, 0, 0,
       0, 0, 0, 0, 0, 0, 0, 0, 0, 0, 0, 0, 0, 0, 0, 0, 0, 0, 0, 0, 0, 0,
       0, 0, 0, 0, 0, 0, 0, 0, 0, 0, 0, 0, 0, 0, 0, 0, 0, 0, 0, 0, 0, 0,
       0, 0, 0, 0, 0, 0, 0, 0, 0, 0, 0, 0, 0, 0, 0, 0, 0, 0, 0, 0, 0, 0,
       0, 0, 0, 0, 0, 0, 0, 0, 0, 0, 0, 0, 0, 0, 0, 0, 0, 0, 0, 0, 0, 0,
       0, 0, 0, 0, 0, 0, 0, 0, 0, 0, 0, 0, 0, 0, 0, 0, 0, 0, 0, 0, 0, 0,
       0, 0, 0, 0, 0, 0, 0, 0, 0, 0, 0, 0, 0, 0, 0, 0, 0, 0, 0, 0, 0, 0,
       0, 0, 0, 0, 0, 0, 0, 0, 0, 0, 0, 0, 0, 0, 0, 0, 0, 0, 0, 0, 0, 0,
       0, 0, 0, 0, 0, 0, 0, 0, 0, 0, 0, 0, 0, 0, 0, 0, 0, 0, 0, 0, 0, 0,
       0, 0, 0, 0, 0, 0, 0, 0, 0, 0, 0, 0, 0, 0, 0, 0, 0, 0, 0, 0, 0, 0,
       0, 0, 0, 0, 0, 0, 0, 0, 0, 0, 0, 0, 0, 0, 0, 0, 0, 0, 0, 0, 0, 0,
       0, 0, 0, 0, 0, 0, 0, 0, 0, 0, 0, 0, 0, 0, 0, 0, 0, 0, 0, 0, 0, 0,
       0, 0, 0, 0, 0, 0, 0, 0, 0, 0, 0, 0, 0, 0, 0, 0, 0, 0, 0, 0, 0, 0,
       0, 0, 0, 0, 0, 0, 0, 0, 0, 0, 0, 0, 0, 0, 0, 0, 0, 0, 0, 0, 0, 0,
       0, 0, 0, 0, 0, 0, 0, 0, 0, 0, 0, 0, 0, 0, 0, 0, 0, 0, 0, 0, 0, 0,
       0, 0, 0, 0, 0, 0, 0, 0, 0, 0, 0, 0, 0, 0, 0, 0, 0, 0, 0, 0, 0, 0,
       0, 0, 0, 0, 0, 0, 0, 0, 0, 0, 0, 0, 0, 0, 0, 0, 0, 0, 0, 0, 0, 0,
       0, 0, 0, 0, 0, 0, 0, 0, 0, 0, 0, 0, 0, 0, 0, 0, 0, 0, 0, 0, 0, 0,
       0, 0, 0, 0, 0, 0, 0, 0, 0, 0, 0, 0, 0, 0, 0, 0, 0, 0, 0, 0, 0, 0,
       0, 0, 0, 0, 0, 0, 0, 0, 0, 0, 0, 0, 0, 0, 0, 0, 0, 0, 0, 0, 0, 0,
       0, 0, 0, 0, 0, 0, 0, 0, 0, 0, 0, 0, 0, 0, 0, 0, 0, 0, 0, 0, 0, 0,
       0, 0, 0, 0, 0, 0, 0, 0, 0, 0, 0, 0, 0, 0, 0, 0, 0, 0, 0, 0, 0, 0,
       0, 0, 0, 0, 0, 0, 0, 0, 0, 0, 0, 0, 0, 0, 0, 0, 0, 0, 0, 0, 0, 0,
       0, 0, 0, 0, 0, 0, 0, 0, 0, 0, 0, 0, 0, 0, 0, 0, 0, 0, 0, 0, 0, 0,
       0, 0, 0, 0, 0, 0, 0, 0, 0, 0, 0, 0, 0, 0, 0, 0, 0, 0, 0, 0, 0, 0,
       0, 0, 0, 0, 0, 0, 0, 0, 0, 0, 0, 0, 0, 0, 0, 0, 0, 0, 0, 0, 0, 0,
       0, 0, 0, 0, 0, 0, 0, 0, 0, 0, 0, 0, 0, 0, 0, 0, 0, 0, 0, 0, 0, 0,
       0, 0, 0, 0, 0, 0, 0, 0, 0, 0, 0, 0, 0, 0, 0, 0, 0, 0, 0, 0, 0, 0,
       0, 0, 0, 0, 0, 0, 0, 0, 0, 0, 0, 0, 0, 0, 0, 0, 0, 0, 0, 0, 0, 0,
       0, 0, 0, 0, 0, 0, 0, 0, 0, 0, 0, 0, 0, 0, 0, 0, 0, 0, 0, 0, 0, 0,
       0, 0, 0, 0, 0, 0, 0, 0, 0, 0, 0, 0, 0, 0, 0, 0, 0, 0, 0, 0, 0, 0,
       0, 0, 0, 0, 0, 0, 0, 0, 0, 0, 0, 0, 0, 0, 0, 0, 0, 0, 0, 0, 0, 0,
       0, 0, 0, 0, 0, 0, 0, 0, 0, 0, 0, 0, 0, 0, 0, 0, 0, 0, 0, 0, 0, 0,
       0, 0, 0, 0, 0, 0, 0, 0, 0, 0, 0, 0, 0, 0, 0, 0, 0, 0, 0, 0, 0, 0,
       0, 0, 0, 0, 0, 0, 0, 0, 0, 0, 0, 0, 0, 0, 0, 0, 0, 0, 0, 0, 0, 0,
       0, 0, 0, 0, 0, 0, 0, 0, 0, 0, 0, 0, 0, 0, 0, 0, 0, 0, 0, 0, 0, 0,
       0, 0, 0, 0, 0, 0, 0, 0, 0, 0, 0, 0, 0, 0, 0, 0, 0, 0, 0, 0, 0, 0,
       0, 0, 0, 0, 0, 0, 0, 0, 0, 0, 0, 0, 0, 0, 0, 0, 0, 0, 0, 0, 0, 0,
       0, 0, 0, 0, 0, 0, 0, 0, 0, 0, 0, 0, 0, 0, 0, 0, 0, 0, 0, 0, 0, 0,
       0, 0, 0, 0, 0, 0, 0, 0, 0, 0, 0, 0, 0, 0, 0, 0, 0, 0, 0, 0, 0, 0,
       0, 0, 0, 0, 0, 0, 0, 0, 0, 0, 0, 0, 0, 0, 0, 0, 0, 0, 0, 0, 0, 0,
       0, 0, 0, 0, 0, 0, 0, 0, 0, 0, 0, 0, 0, 0, 0, 0, 0, 0, 0, 0, 0, 0,
       0, 0, 0, 0, 0, 0, 0, 0, 0, 0, 0, 0, 0, 0, 0, 0, 0, 0, 0, 0, 0, 0,
       0, 0, 0, 0, 0, 0, 0, 0, 0, 0, 0, 0, 0, 0, 0, 0, 0, 0, 0, 0, 0, 0,
       0, 0, 0, 0, 0, 0, 0, 0, 0, 0, 0, 0, 0, 0, 0, 0, 0, 0, 0, 0, 0, 0,
       0, 0, 0, 0, 0, 0, 0, 0, 0, 0, 0, 0, 0, 0, 0, 0, 0, 0, 0, 0, 0, 0,
       0, 0, 0, 0, 0, 0, 0, 0, 0, 0, 0, 0, 0, 0, 0, 0, 0, 0, 0, 0, 0, 0,
       0, 0, 0, 0, 0, 0, 0, 0, 0, 0, 0, 0, 0, 0, 0, 0, 0, 0, 0, 0, 0, 0,
       0, 0, 0, 0, 0, 0, 0, 0, 0, 0, 0, 0, 0, 0, 0, 0, 0, 0, 0, 0, 0, 0,
       0, 0, 0, 0, 0, 0, 0, 0, 0, 0, 0, 0, 0, 0, 0, 0, 0, 0, 0, 0, 0, 0,
       0, 0, 0, 0, 0, 0, 0, 0, 0, 0, 0, 0, 0, 0, 0, 0, 0, 0, 0, 0, 0, 0,
       0, 0, 0, 0, 0, 0, 0, 0, 0, 0, 0, 0, 0, 0, 0, 0, 0, 0, 0, 0, 0, 0,
       0, 0, 0, 0, 0, 0, 0, 1 ]
   cat_ofs: [ 0, 0, 0, 0, 0, 0, 0, 0, 0, 0, 0, 0, 0, 0, 0, 0, 0, 0, 0, 0,
       0, 0, 0, 0, 0, 0, 0, 0, 0, 0, 0, 0, 0, 0, 0, 0, 0, 0, 0, 0, 0, 0,
       0, 0, 0, 0, 0, 0, 0, 0, 0, 0, 0, 0, 0, 0, 0, 0, 0, 0, 0, 0, 0, 0,
       0, 0, 0, 0, 0, 0, 0, 0, 0, 0, 0, 0, 0, 0, 0, 0, 0, 0, 0, 0, 0, 0,
       0, 0, 0, 0, 0, 0, 0, 0, 0, 0, 0, 0, 0, 0, 0, 0, 0, 0, 0, 0, 0, 0,
       0, 0, 0, 0, 0, 0, 0, 0, 0, 0, 0, 0, 0, 0, 0, 0, 0, 0, 0, 0, 0, 0,
       0, 0, 0, 0, 0, 0, 0, 0, 0, 0, 0, 0, 0, 0, 0, 0, 0, 0, 0, 0, 0, 0,
       0, 0, 0, 0, 0, 0, 0, 0, 0, 0, 0, 0, 0, 0, 0, 0, 0, 0, 0, 0, 0, 0,
       0, 0, 0, 0, 0, 0, 0, 0, 0, 0, 0, 0, 0, 0, 0, 0, 0, 0, 0, 0, 0, 0,
       0, 0, 0, 0, 0, 0, 0, 0, 0, 0, 0, 0, 0, 0, 0, 0, 0, 0, 0, 0, 0, 0,
       0, 0, 0, 0, 0, 0, 0, 0, 0, 0, 0, 0, 0, 0, 0, 0, 0, 0, 0, 0, 0, 0,
       0, 0, 0, 0, 0, 0, 0, 0, 0, 0, 0, 0, 0, 0, 0, 0, 0, 0, 0, 0, 0, 0,
       0, 0, 0, 0, 0, 0, 0, 0, 0, 0, 0, 0, 0, 0, 0, 0, 0, 0, 0, 0, 0, 0,
       0, 0, 0, 0, 0, 0, 0, 0, 0, 0, 0, 0, 0, 0, 0, 0, 0, 0, 0, 0, 0, 0,
       0, 0, 0, 0, 0, 0, 0, 0, 0, 0, 0, 0, 0, 0, 0, 0, 0, 0, 0, 0, 0, 0,
       0, 0, 0, 0, 0, 0, 0, 0, 0, 0, 0, 0, 0, 0, 0, 0, 0, 0, 0, 0, 0, 0,
       0, 0, 0, 0, 0, 0, 0, 0, 0, 0, 0, 0, 0, 0, 0, 0, 0, 0, 0, 0, 0, 0,
       0, 0, 0, 0, 0, 0, 0, 0, 0, 0, 0, 0, 0, 0, 0, 0, 0, 0, 0, 0, 0, 0,
       0, 0, 0, 0, 0, 0, 0, 0, 0, 0, 0, 0, 0, 0, 0, 0, 0, 0, 0, 0, 0, 0,
       0, 0, 0, 0, 0, 0, 0, 0, 0, 0, 0, 0, 0, 0, 0, 0, 0, 0, 0, 0, 0, 0,
       0, 0, 0, 0, 0, 0, 0, 0, 0, 0, 0, 0, 0, 0, 0, 0, 0, 0, 0, 0, 0, 0,
       0, 0, 0, 0, 0, 0, 0, 0, 0, 0, 0, 0, 0, 0, 0, 0, 0, 0, 0, 0, 0, 0,
       0, 0, 0, 0, 0, 0, 0, 0, 0, 0, 0, 0, 0, 0, 0, 0, 0, 0, 0, 0, 0, 0,
       0, 0, 0, 0, 0, 0, 0, 0, 0, 0, 0, 0, 0, 0, 0, 0, 0, 0, 0, 0, 0, 0,
       0, 0, 0, 0, 0, 0, 0, 0, 0, 0, 0, 0, 0, 0, 0, 0, 0, 0, 0, 0, 0, 0,
       0, 0, 0, 0, 0, 0, 0, 0, 0, 0, 0, 0, 0, 0, 0, 0, 0, 0, 0, 0, 0, 0,
       0, 0, 0, 0, 0, 0, 0, 0, 0, 0, 0, 0, 0, 0, 0, 0, 0, 0, 0, 0, 0, 0,
       0, 0, 0, 0, 0, 0, 0, 0, 0, 0, 0, 0, 0, 0, 0, 0, 0, 0, 0, 0, 0, 0,
       0, 0, 0, 0, 0, 0, 0, 0, 0, 0, 0, 0, 0, 0, 0, 0, 0, 0, 0, 0, 0, 0,
       0, 0, 0, 0, 0, 0, 0, 0, 0, 0, 0, 0, 0, 0, 0, 0, 0, 0, 0, 0, 0, 0,
       0, 0, 0, 0, 0, 0, 0, 0, 0, 0, 0, 0, 0, 0, 0, 0, 0, 0, 0, 0, 0, 0,
       0, 0, 0, 0, 0, 0, 0, 0, 0, 0, 0, 0, 0, 0, 0, 0, 0, 0, 0, 0, 0, 0,
       0, 0, 0, 0, 0, 0, 0, 0, 0, 0, 0, 0, 0, 0, 0, 0, 0, 0, 0, 0, 0, 0,
       0, 0, 0, 0, 0, 0, 0, 0, 0, 0, 0, 0, 0, 0, 0, 0, 0, 0, 0, 0, 0, 0,
       0, 0, 0, 0, 0, 0, 0, 0, 0, 0, 0, 0, 0, 0, 0, 0, 0, 0, 0, 0, 0, 0,
       0, 0, 0, 0, 0, 0, 0, 0, 0, 0, 0, 0, 0, 0, 0, 0, 0, 0, 0, 0, 0, 0,
       0, 0, 0, 0, 0, 0, 0, 0, 0, 0, 0, 0, 0, 0, 0, 0, 0, 0, 0, 0, 0, 0,
       0, 0, 0, 0, 0, 0, 0, 0, 0, 0, 0, 0, 0, 0, 0, 0, 0, 0, 0, 0, 0, 0,
       0, 0, 0, 0, 0, 0, 0, 0, 0, 0, 0, 0, 0, 0, 0, 0, 0, 0, 0, 0, 0, 0,
       0, 0, 0, 0, 0, 0, 0, 0, 0, 0, 0, 0, 0, 0, 0, 0, 0, 0, 0, 0, 0, 0,
       0, 0, 0, 0, 0, 0, 0, 0, 0, 0, 0, 0, 0, 0, 0, 0, 0, 0, 0, 0, 0, 0,
       0, 0, 0, 0, 0, 0, 0, 0, 0, 0, 0, 0, 0, 0, 0, 0, 0, 0, 0, 0, 0, 0,
       0, 0, 0, 0, 0, 0, 0, 0, 0, 0, 0, 0, 0, 0, 0, 0, 0, 0, 0, 0, 0, 0,
       0, 0, 0, 0, 0, 0, 0, 0, 0, 0, 0, 0, 0, 0, 0, 0, 0, 0, 0, 0, 0, 0,
       0, 0, 0, 0, 0, 0, 0, 0, 0, 0, 0, 0, 0, 0, 0, 0, 0, 0, 0, 0, 0, 0,
       0, 0, 0, 0, 0, 0, 0, 0, 0, 0, 0, 0, 0, 0, 0, 0, 0, 0, 0, 0, 0, 0,
       0, 0, 0, 0, 0, 0, 0, 0, 0, 0, 0, 0, 0, 0, 0, 0, 0, 0, 0, 0, 0, 0,
       0, 0, 0, 0, 0, 0, 0, 0, 0, 0, 0, 0, 0, 0, 0, 0, 0, 0, 0, 0, 0, 0,
       0, 0, 0, 0, 0, 0, 0, 0, 0, 0, 0, 0, 0, 0, 0, 0, 0, 0, 0, 0, 0, 0,
       0, 0, 0, 0, 0, 0, 0, 0, 0, 0, 0, 0, 0, 0, 0, 0, 0, 0, 0, 0, 0, 0,
       0, 0, 0, 0, 0, 0, 0, 0, 0, 0, 0, 0, 0, 0, 0, 0, 0, 0, 0, 0, 0, 0,
       0, 0, 0, 0, 0, 0, 0, 0, 0, 0, 0, 0, 0, 0, 0, 0, 0, 0, 0, 0, 0, 0,
       0, 0, 0, 0, 0, 0, 0, 0, 0, 0, 0, 0, 0, 0, 0, 0, 0, 0, 0, 0, 0, 0,
       0, 0, 0, 0, 0, 0, 0, 0, 0, 0, 0, 0, 0, 0, 0, 0, 0, 0, 0, 0, 0, 0,
       0, 0, 0, 0, 0, 0, 0, 0, 0, 0, 0, 0, 0, 0, 0, 0, 0, 0, 0, 0, 0, 0,
       0, 0, 0, 0, 0, 0, 0, 0, 0, 0, 0, 0, 0, 0, 0, 0, 0, 0, 0, 0, 0, 0,
       0, 0, 0, 0, 0, 0, 0, 0, 0, 0, 0, 0, 0, 0, 0, 0, 0, 0, 0, 0, 0, 0,
       0, 0, 0, 0, 0, 0, 0, 0, 0, 0, 0, 0, 0, 0, 0, 0, 0, 0, 0, 0, 0, 0,
       0, 0, 0, 0, 0, 0, 0, 0, 0, 0, 0, 0, 0, 0, 0, 0, 0, 0, 0, 0, 0, 0,
       0, 0, 0, 0, 0, 0, 0, 0, 0, 0, 0, 0, 0, 0, 0, 0, 0, 0, 0, 0, 0, 0,
       0, 0, 0, 0, 0, 0, 0, 0, 0, 0, 0, 0, 0, 0, 0, 0, 0, 0, 0, 0, 0, 0,
       0, 0, 0, 0, 0, 0, 0, 0, 0, 0, 0, 0, 0, 0, 0, 0, 0, 0, 0, 0, 0, 0,
       0, 0, 0, 0, 0, 0, 0, 0, 0, 0, 0, 0, 0, 0, 0, 0, 0, 0, 0, 0, 0, 0,
       0, 0, 0, 0, 0, 0, 0, 0, 0, 0, 0, 0, 0, 0, 0, 0, 0, 0, 0, 0, 0, 0,
       0, 0, 0, 0, 0, 0, 0, 0, 0, 0, 0, 0, 0, 0, 0, 0, 0, 0, 0, 0, 0, 0,
       0, 0, 0, 0, 0, 0, 0, 0, 0, 0, 0, 0, 0, 0, 0, 0, 0, 0, 0, 0, 0, 0,
       0, 0, 0, 0, 0, 0, 0, 0, 0, 0, 0, 0, 0, 0, 0, 0, 0, 0, 0, 0, 0, 0,
       0, 0, 0, 0, 0, 0, 0, 0, 0, 0, 0, 0, 0, 0, 0, 0, 0, 0, 0, 0, 0, 0,
       0, 0, 0, 0, 0, 0, 0, 0, 0, 0, 0, 0, 0, 0, 0, 0, 0, 0, 0, 0, 0, 0,
       0, 0, 0, 0, 0, 0, 0, 0, 0, 0, 0, 0, 0, 0, 0, 0, 0, 0, 0, 0, 0, 0,
       0, 0, 0, 0, 0, 0, 0, 0, 0, 0, 0, 0, 0, 0, 0, 0, 0, 0, 0, 0, 0, 0,
       0, 0, 0, 0, 0, 0, 0, 0, 0, 0, 0, 0, 0, 0, 0, 0, 0, 0, 0, 0, 0, 0,
       0, 0, 0, 0, 0, 0, 0, 0, 0, 0, 0, 0, 0, 0, 0, 0, 0, 0, 0, 0, 0, 0,
       0, 0, 0, 0, 0, 0, 0, 0, 0, 0, 0, 0, 0, 0, 0, 0, 0, 0, 0, 0, 0, 0,
       0, 0, 0, 0, 0, 0, 0, 0, 0, 0, 0, 0, 0, 0, 0, 0, 0, 0, 0, 0, 0, 0,
       0, 0, 0, 0, 0, 0, 0, 0, 0, 0, 0, 0, 0, 0, 0, 0, 0, 0, 0, 0, 0, 0,
       0, 0, 0, 0, 0, 0, 0, 0, 0, 0, 0, 0, 0, 0, 0, 0, 0, 0, 0, 0, 0, 0,
       0, 0, 0, 0, 0, 0, 0, 0, 0, 0, 0, 0, 0, 0, 0, 0, 0, 0, 0, 0, 0, 0,
       0, 0, 0, 0, 0, 0, 0, 0, 0, 0, 0, 0, 0, 0, 0, 0, 0, 0, 0, 0, 0, 0,
       0, 0, 0, 0, 0, 0, 0, 0, 0, 0, 0, 0, 0, 0, 0, 0, 0, 0, 0, 0, 0, 0,
       0, 0, 0, 0, 0, 0, 0, 0, 0, 0, 0, 0, 0, 0, 0, 0, 0, 0, 0, 0, 0, 0,
       0, 0, 0, 0, 0, 0, 0, 0, 0, 0, 0, 0, 0, 0, 0, 0, 0, 0, 0, 0, 0, 0,
       0, 0, 0, 0, 0, 0, 0, 0, 0, 0, 0, 0, 0, 0, 0, 0, 0, 0, 0, 0, 0, 0,
       0, 0, 0, 0, 0, 0, 0, 0, 0, 0, 0, 0, 0, 0, 0, 0, 0, 0, 0, 0, 0, 0,
       0, 0, 0, 0, 0, 0, 0, 0, 0, 0, 0, 0, 0, 0, 0, 0, 0, 0, 0, 0, 0, 0,
       0, 0, 0, 0, 0, 0, 0, 0, 0, 0, 0, 0, 0, 0, 0, 0, 0, 0, 0, 0, 0, 0,
       0, 0, 0, 0, 0, 0, 0, 0, 0, 0, 0, 0, 0, 0, 0, 0, 0, 0, 0, 0, 0, 0,
       0, 0, 0, 0, 0, 0, 0, 0, 0, 0, 0, 0, 0, 0, 0, 0, 0, 0, 0, 0, 0, 0,
       0, 0, 0, 0, 0, 0, 0, 0, 0, 0, 0, 0, 0, 0, 0, 0, 0, 0, 0, 0, 0, 0,
       0, 0, 0, 0, 0, 0, 0, 0, 0, 0, 0, 0, 0, 0, 0, 0, 0, 0, 0, 0, 0, 0,
       0, 0, 0, 0, 0, 0, 0, 0, 0, 0, 0, 0, 0, 0, 0, 0, 0, 0, 0, 0, 0, 0,
       0, 0, 0, 0, 0, 0, 0, 0, 0, 0, 0, 0, 0, 0, 0, 0, 0, 0, 0, 0, 0, 0,
       0, 0, 0, 0, 0, 0, 0, 0, 0, 0, 0, 0, 0, 0, 0, 0, 0, 0, 0, 0, 0, 0,
       0, 0, 0, 0, 0, 0, 0, 0, 0, 0, 0, 0, 0, 0, 0, 0, 0, 0, 0, 0, 0, 0,
       0, 0, 0, 0, 0, 0, 0, 0, 0, 0, 0, 0, 0, 0, 0, 0, 0, 0, 0, 0, 0, 0,
       0, 0, 0, 0, 0, 0, 0, 0, 0, 0, 0, 0, 0, 0, 0, 0, 0, 0, 0, 0, 0, 0,
       0, 0, 0, 0, 0, 0, 0, 0, 0, 0, 0, 0, 0, 0, 0, 0, 0, 0, 0, 0, 0, 0,
       0, 0, 0, 0, 0, 0, 0, 0, 0, 0, 0, 0, 0, 0, 0, 0, 0, 0, 0, 0, 0, 0,
       0, 0, 0, 0, 0, 0, 0, 0, 0, 0, 0, 0, 0, 0, 0, 0, 0, 0, 0, 0, 0, 0,
       0, 0, 0, 0, 0, 0, 0, 0, 0, 0, 0, 0, 0, 0, 0, 0, 0, 0, 0, 0, 0, 0,
       0, 0, 0, 0, 0, 0, 0, 0, 0, 0, 0, 0, 0, 0, 0, 0, 0, 0, 0, 0, 0, 0,
       0, 0, 0, 0, 0, 0, 0, 0, 0, 0, 0, 0, 0, 0, 0, 0, 0, 0, 0, 0, 0, 0,
       0, 0, 0, 0, 0, 0, 0, 0, 0, 0, 0, 0, 0, 0, 0, 0, 0, 0, 0, 0, 0, 0,
       0, 0, 0, 0, 0, 0, 0, 0, 0, 0, 0, 0, 0, 0, 0, 0, 0, 0, 0, 0, 0, 0,
       0, 0, 0, 0, 0, 0, 0, 0, 0, 0, 0, 0, 0, 0, 0, 0, 0, 0, 0, 0, 0, 0,
       0, 0, 0, 0, 0, 0, 0, 0, 0, 0, 0, 0, 0, 0, 0, 0, 0, 0, 0, 0, 0, 0,
       0, 0, 0, 0, 0, 0, 0, 0, 0, 0, 0, 0, 0, 0, 0, 0, 0, 0, 0, 0, 0, 0,
       0, 0, 0, 0, 0, 0, 0, 0, 0, 0, 0, 0, 0, 0, 0, 0, 0, 0, 0, 0, 0, 0,
       0, 0, 0, 0, 0, 0, 0, 0, 0, 0, 0, 0, 0, 0, 0, 0, 0, 0, 0, 0, 0, 0,
       0, 0, 0, 0, 0, 0, 0, 0, 0, 0, 0, 0, 0, 0, 0, 0, 0, 0, 0, 0, 0, 0,
       0, 0, 0, 0, 0, 0, 0, 0, 0, 0, 0, 0, 0, 0, 0, 0, 0, 0, 0, 0, 0, 0,
       0, 0, 0, 0, 0, 0, 0, 0, 0, 0, 0, 0, 0, 0, 0, 0, 0, 0, 0, 0, 0, 0,
       0, 0, 0, 0, 0, 0, 0, 0, 0, 0, 0, 0, 0, 0, 0, 0, 0, 0, 0, 0, 0, 0,
       0, 0, 0, 0, 0, 0, 0, 0, 0, 0, 0, 0, 0, 0, 0, 0, 0, 0, 0, 0, 0, 0,
       0, 0, 0, 0, 0, 0, 0, 0, 0, 0, 0, 0, 0, 0, 0, 0, 0, 0, 0, 0, 0, 0,
       0, 0, 0, 0, 0, 0, 0, 0, 0, 0, 0, 0, 0, 0, 0, 0, 0, 0, 0, 0, 0, 0,
       0, 0, 0, 0, 0, 0, 0, 0, 0, 0, 0, 0, 0, 0, 0, 0, 0, 0, 0, 0, 0, 0,
       0, 0, 0, 0, 0, 0, 0, 0, 0, 0, 0, 0, 0, 0, 0, 0, 0, 0, 0, 0, 0, 0,
       0, 0, 0, 0, 0, 0, 0, 0, 0, 0, 0, 0, 0, 0, 0, 0, 0, 0, 0, 0, 0, 0,
       0, 0, 0, 0, 0, 0, 0, 0, 0, 0, 0, 0, 0, 0, 0, 0, 0, 0, 0, 0, 0, 0,
       0, 0, 0, 0, 0, 0, 0, 0, 0, 0, 0, 0, 0, 0, 0, 0, 0, 0, 0, 0, 0, 0,
       0, 0, 0, 0, 0, 0, 0, 0, 0, 0, 0, 0, 0, 0, 0, 0, 0, 0, 0, 0, 0, 0,
       0, 0, 0, 0, 0, 0, 0, 0, 0, 0, 0, 0, 0, 0, 0, 0, 0, 0, 0, 0, 0, 0,
       0, 0, 0, 0, 0, 0, 0, 0, 0, 0, 0, 0, 0, 0, 0, 0, 0, 0, 0, 0, 0, 0,
       0, 0, 0, 0, 0, 0, 0, 0, 0, 0, 0, 0, 0, 0, 0, 0, 0, 0, 0, 0, 0, 0,
       0, 0, 0, 0, 0, 0, 0, 0, 0, 0, 0, 0, 0, 0, 0, 0, 0, 0, 0, 0, 0, 0,
       0, 0, 0, 0, 0, 0, 0, 0, 0, 0, 0, 0, 0, 0, 0, 0, 0, 0, 0, 0, 0, 0,
       0, 0, 0, 0, 0, 0, 0, 0, 0, 0, 0, 0, 0, 0, 0, 0, 0, 0, 0, 0, 0, 0,
       0, 0, 0, 0, 0, 0, 0, 0, 0, 0, 0, 0, 0, 0, 0, 0, 0, 0, 0, 0, 0, 0,
       0, 0, 0, 0, 0, 0, 0, 0, 0, 0, 0, 0, 0, 0, 0, 0, 0, 0, 0, 0, 0, 0,
       0, 0, 0, 0, 0, 0, 0, 0, 0, 0, 0, 0, 0, 0, 0, 0, 0, 0, 0, 0, 0, 0,
       0, 0, 0, 0, 0, 0, 0, 0, 0, 0, 0, 0, 0, 0, 0, 0, 0, 0, 0, 0, 0, 0,
       0, 0, 0, 0, 0, 0, 0, 0, 0, 0, 0, 0, 0, 0, 0, 0, 0, 0, 0, 0, 0, 0,
       0, 0, 0, 0, 0, 0, 0, 0, 0, 0, 0, 0, 0, 0, 0, 0, 0, 0, 0, 0, 0, 0,
       0, 0, 0, 0, 0, 0, 0, 0, 0, 0, 0, 0, 0, 0, 0, 0, 0, 0, 0, 0, 0, 0,
       0, 0, 0, 0, 0, 0, 0, 0, 0, 0, 0, 0, 0, 0, 0, 0, 0, 0, 0, 0, 0, 0,
       0, 0, 0, 0, 0, 0, 0, 0, 0, 0, 0, 0, 0, 0, 0, 0, 0, 0, 0, 0, 0, 0,
       0, 0, 0, 0, 0, 0, 0, 0, 0, 0, 0, 0, 0, 0, 0, 0, 0, 0, 0, 0, 0, 0,
       0, 0, 0, 0, 0, 0, 0, 0, 0, 0, 0, 0, 0, 0, 0, 0, 0, 0, 0, 0, 0, 0,
       0, 0, 0, 0, 0, 0, 0, 0, 0, 0, 0, 0, 0, 0, 0, 0, 0, 0, 0, 0, 0, 0,
       0, 0, 0, 0, 0, 0, 0, 0, 0, 0, 0, 0, 0, 0, 0, 0, 0, 0, 0, 0, 0, 0,
       0, 0, 0, 0, 0, 0, 0, 0, 0, 0, 0, 0, 0, 0, 0, 0, 0, 0, 0, 0, 0, 0,
       0, 0, 0, 0, 0, 0, 0, 0, 0, 0, 0, 0, 0, 0, 0, 0, 0, 0, 0, 0, 0, 0,
       0, 0, 0, 0, 0, 0, 0, 0, 0, 0, 0, 0, 0, 0, 0, 0, 0, 0, 0, 0, 0, 0,
       0, 0, 0, 0, 0, 0, 0, 0, 0, 0, 0, 0, 0, 0, 0, 0, 0, 0, 0, 0, 0, 0,
       0, 0, 0, 0, 0, 0, 0, 0, 0, 0, 0, 0, 0, 0, 0, 0, 0, 0, 0, 0, 0, 0,
       0, 0, 0, 0, 0, 0, 0, 0, 0, 0, 0, 0, 0, 0, 0, 0, 0, 0, 0, 0, 0, 0,
       0, 0, 0, 0, 0, 0, 0, 0, 0, 0, 0, 0, 0, 0, 0, 0, 0, 0, 0, 0, 0, 0,
       0, 0, 0, 0, 0, 0, 0, 0, 0, 0, 0, 0, 0, 0, 0, 0, 0, 0, 0, 0, 0, 0,
       0, 0, 0, 0, 0, 0, 0, 0, 0, 0, 0, 0, 0, 0, 0, 0, 0, 0, 0, 0, 0, 0,
       0, 0, 0, 0, 0, 0, 0, 0, 0, 0, 0, 0, 0, 0, 0, 0, 0, 0, 0, 0, 0, 0,
       0, 0, 0, 0, 0, 0, 0, 0, 0, 0, 0, 0, 0, 0, 0, 0, 0, 0, 0, 0, 0, 0,
       0, 0, 0, 0, 0, 0, 0, 0, 0, 0, 0, 0, 0, 0, 0, 0, 0, 0, 0, 0, 0, 0,
       0, 0, 0, 0, 0, 0, 0, 0, 0, 0, 0, 0, 0, 0, 0, 0, 0, 0, 0, 0, 0, 0,
       0, 0, 0, 0, 0, 0, 0, 0, 0, 0, 0, 0, 0, 0, 0, 0, 0, 0, 0, 0, 0, 0,
       0, 0, 0, 0, 0, 0, 0, 0, 0, 0, 0, 0, 0, 0, 0, 0, 0, 0, 0, 0, 0, 0,
       0, 0, 0, 0, 0, 0, 0, 0, 0, 0, 0, 0, 0, 0, 0, 0, 0, 0, 0, 0, 0, 0,
       0, 0, 0, 0, 0, 0, 0, 0, 0, 0, 0, 0, 0, 0, 0, 0, 0, 0, 0, 0, 0, 0,
       0, 0, 0, 0, 0, 0, 0, 0, 0, 0, 0, 0, 0, 0, 0, 0, 0, 0, 0, 0, 0, 0,
       0, 0, 0, 0, 0, 0, 0, 0, 0, 0, 0, 0, 0, 0, 0, 0, 0, 0, 0, 0, 0, 0,
       0, 0, 0, 0, 0, 0, 0, 0, 0, 0 ]
   class_labels: [ 0, 1, 2, 3, 4, 5 ]
   missing_subst: [ 0., 0., 0., 0., 0., 0., 0., 0., 0., 0., 0., 0., 0.,
       0., 0., 0., 0., 0., 0., 0., 0., 0., 0., 0., 0., 0., 0., 0., 0.,
       0., 0., 0., 0., 0., 0., 0., 0., 0., 0., 0., 0., 0., 0., 0., 0.,
       0., 0., 0., 0., 0., 0., 0., 0., 0., 0., 0., 0., 0., 0., 0., 0.,
       0., 0., 0., 0., 0., 0., 0., 0., 0., 0., 0., 0., 0., 0., 0., 0.,
       0., 0., 0., 0., 0., 0., 0., 0., 0., 0., 0., 0., 0., 0., 0., 0.,
       0., 0., 0., 0., 0., 0., 0., 0., 0., 0., 0., 0., 0., 0., 0., 0.,
       0., 0., 0., 0., 0., 0., 0., 0., 0., 0., 0., 0., 0., 0., 0., 0.,
       0., 0., 0., 0., 0., 0., 0., 0., 0., 0., 0., 0., 0., 0., 0., 0.,
       0., 0., 0., 0., 0., 0., 0., 0., 0., 0., 0., 0., 0., 0., 0., 0.,
       0., 0., 0., 0., 0., 0., 0., 0., 0., 0., 0., 0., 0., 0., 0., 0.,
       0., 0., 0., 0., 0., 0., 0., 0., 0., 0., 0., 0., 0., 0., 0., 0.,
       0., 0., 0., 0., 0., 0., 0., 0., 0., 0., 0., 0., 0., 0., 0., 0.,
       0., 0., 0., 0., 0., 0., 0., 0., 0., 0., 0., 0., 0., 0., 0., 0.,
       0., 0., 0., 0., 0., 0., 0., 0., 0., 0., 0., 0., 0., 0., 0., 0.,
       0., 0., 0., 0., 0., 0., 0., 0., 0., 0., 0., 0., 0., 0., 0., 0.,
       0., 0., 0., 0., 0., 0., 0., 0., 0., 0., 0., 0., 0., 0., 0., 0.,
       0., 0., 0., 0., 0., 0., 0., 0., 0., 0., 0., 0., 0., 0., 0., 0.,
       0., 0., 0., 0., 0., 0., 0., 0., 0., 0., 0., 0., 0., 0., 0., 0.,
       0., 0., 0., 0., 0., 0., 0., 0., 0., 0., 0., 0., 0., 0., 0., 0.,
       0., 0., 0., 0., 0., 0., 0., 0., 0., 0., 0., 0., 0., 0., 0., 0.,
       0., 0., 0., 0., 0., 0., 0., 0., 0., 0., 0., 0., 0., 0., 0., 0.,
       0., 0., 0., 0., 0., 0., 0., 0., 0., 0., 0., 0., 0., 0., 0., 0.,
       0., 0., 0., 0., 0., 0., 0., 0., 0., 0., 0., 0., 0., 0., 0., 0.,
       0., 0., 0., 0., 0., 0., 0., 0., 0., 0., 0., 0., 0., 0., 0., 0.,
       0., 0., 0., 0., 0., 0., 0., 0., 0., 0., 0., 0., 0., 0., 0., 0.,
       0., 0., 0., 0., 0., 0., 0., 0., 0., 0., 0., 0., 0., 0., 0., 0.,
       0., 0., 0., 0., 0., 0., 0., 0., 0., 0., 0., 0., 0., 0., 0., 0.,
       0., 0., 0., 0., 0., 0., 0., 0., 0., 0., 0., 0., 0., 0., 0., 0.,
       0., 0., 0., 0., 0., 0., 0., 0., 0., 0., 0., 0., 0., 0., 0., 0.,
       0., 0., 0., 0., 0., 0., 0., 0., 0., 0., 0., 0., 0., 0., 0., 0.,
       0., 0., 0., 0., 0., 0., 0., 0., 0., 0., 0., 0., 0., 0., 0., 0.,
       0., 0., 0., 0., 0., 0., 0., 0., 0., 0., 0., 0., 0., 0., 0., 0.,
       0., 0., 0., 0., 0., 0., 0., 0., 0., 0., 0., 0., 0., 0., 0., 0.,
       0., 0., 0., 0., 0., 0., 0., 0., 0., 0., 0., 0., 0., 0., 0., 0.,
       0., 0., 0., 0., 0., 0., 0., 0., 0., 0., 0., 0., 0., 0., 0., 0.,
       0., 0., 0., 0., 0., 0., 0., 0., 0., 0., 0., 0., 0., 0., 0., 0.,
       0., 0., 0., 0., 0., 0., 0., 0., 0., 0., 0., 0., 0., 0., 0., 0.,
       0., 0., 0., 0., 0., 0., 0., 0., 0., 0., 0., 0., 0., 0., 0., 0.,
       0., 0., 0., 0., 0., 0., 0., 0., 0., 0., 0., 0., 0., 0., 0., 0.,
       0., 0., 0., 0., 0., 0., 0., 0., 0., 0., 0., 0., 0., 0., 0., 0.,
       0., 0., 0., 0., 0., 0., 0., 0., 0., 0., 0., 0., 0., 0., 0., 0.,
       0., 0., 0., 0., 0., 0., 0., 0., 0., 0., 0., 0., 0., 0., 0., 0.,
       0., 0., 0., 0., 0., 0., 0., 0., 0., 0., 0., 0., 0., 0., 0., 0.,
       0., 0., 0., 0., 0., 0., 0., 0., 0., 0., 0., 0., 0., 0., 0., 0.,
       0., 0., 0., 0., 0., 0., 0., 0., 0., 0., 0., 0., 0., 0., 0., 0.,
       0., 0., 0., 0., 0., 0., 0., 0., 0., 0., 0., 0., 0., 0., 0., 0.,
       0., 0., 0., 0., 0., 0., 0., 0., 0., 0., 0., 0., 0., 0., 0., 0.,
       0., 0., 0., 0., 0., 0., 0., 0., 0., 0., 0., 0., 0., 0., 0., 0.,
       0., 0., 0., 0., 0., 0., 0., 0., 0., 0., 0., 0., 0., 0., 0., 0.,
       0., 0., 0., 0., 0., 0., 0., 0., 0., 0., 0., 0., 0., 0., 0., 0.,
       0., 0., 0., 0., 0., 0., 0., 0., 0., 0., 0., 0., 0., 0., 0., 0.,
       0., 0., 0., 0., 0., 0., 0., 0., 0., 0., 0., 0., 0., 0., 0., 0.,
       0., 0., 0., 0., 0., 0., 0., 0., 0., 0., 0., 0., 0., 0., 0., 0.,
       0., 0., 0., 0., 0., 0., 0., 0., 0., 0., 0., 0., 0., 0., 0., 0.,
       0., 0., 0., 0., 0., 0., 0., 0., 0., 0., 0., 0., 0., 0., 0., 0.,
       0., 0., 0., 0., 0., 0., 0., 0., 0., 0., 0., 0., 0., 0., 0., 0.,
       0., 0., 0., 0., 0., 0., 0., 0., 0., 0., 0., 0., 0., 0., 0., 0.,
       0., 0., 0., 0., 0., 0., 0., 0., 0., 0., 0., 0., 0., 0., 0., 0.,
       0., 0., 0., 0., 0., 0., 0., 0., 0., 0., 0., 0., 0., 0., 0., 0.,
       0., 0., 0., 0., 0., 0., 0., 0., 0., 0., 0., 0., 0., 0., 0., 0.,
       0., 0., 0., 0., 0., 0., 0., 0., 0., 0., 0., 0., 0., 0., 0., 0.,
       0., 0., 0., 0., 0., 0., 0., 0., 0., 0., 0., 0., 0., 0., 0., 0.,
       0., 0., 0., 0., 0., 0., 0., 0., 0., 0., 0., 0., 0., 0., 0., 0.,
       0., 0., 0., 0., 0., 0., 0., 0., 0., 0., 0., 0., 0., 0., 0., 0.,
       0., 0., 0., 0., 0., 0., 0., 0., 0., 0., 0., 0., 0., 0., 0., 0.,
       0., 0., 0., 0., 0., 0., 0., 0., 0., 0., 0., 0., 0., 0., 0., 0.,
       0., 0., 0., 0., 0., 0., 0., 0., 0., 0., 0., 0., 0., 0., 0., 0.,
       0., 0., 0., 0., 0., 0., 0., 0., 0., 0., 0., 0., 0., 0., 0., 0.,
       0., 0., 0., 0., 0., 0., 0., 0., 0., 0., 0., 0., 0., 0., 0., 0.,
       0., 0., 0., 0., 0., 0., 0., 0., 0., 0., 0., 0., 0., 0., 0., 0.,
       0., 0., 0., 0., 0., 0., 0., 0., 0., 0., 0., 0., 0., 0., 0., 0.,
       0., 0., 0., 0., 0., 0., 0., 0., 0., 0., 0., 0., 0., 0., 0., 0.,
       0., 0., 0., 0., 0., 0., 0., 0., 0., 0., 0., 0., 0., 0., 0., 0.,
       0., 0., 0., 0., 0., 0., 0., 0., 0., 0., 0., 0., 0., 0., 0., 0.,
       0., 0., 0., 0., 0., 0., 0., 0., 0., 0., 0., 0., 0., 0., 0., 0.,
       0., 0., 0., 0., 0., 0., 0., 0., 0., 0., 0., 0., 0., 0., 0., 0.,
       0., 0., 0., 0., 0., 0., 0., 0., 0., 0., 0., 0., 0., 0., 0., 0.,
       0., 0., 0., 0., 0., 0., 0., 0., 0., 0., 0., 0., 0., 0., 0., 0.,
       0., 0., 0., 0., 0., 0., 0., 0., 0., 0., 0., 0., 0., 0., 0., 0.,
       0., 0., 0., 0., 0., 0., 0., 0., 0., 0., 0., 0., 0., 0., 0., 0.,
       0., 0., 0., 0., 0., 0., 0., 0., 0., 0., 0., 0., 0., 0., 0., 0.,
       0., 0., 0., 0., 0., 0., 0., 0., 0., 0., 0., 0., 0., 0., 0., 0.,
       0., 0., 0., 0., 0., 0., 0., 0., 0., 0., 0., 0., 0., 0., 0., 0.,
       0., 0., 0., 0., 0., 0., 0., 0., 0., 0., 0., 0., 0., 0., 0., 0.,
       0., 0., 0., 0., 0., 0., 0., 0., 0., 0., 0., 0., 0., 0., 0., 0.,
       0., 0., 0., 0., 0., 0., 0., 0., 0., 0., 0., 0., 0., 0., 0., 0.,
       0., 0., 0., 0., 0., 0., 0., 0., 0., 0., 0., 0., 0., 0., 0., 0.,
       0., 0., 0., 0., 0., 0., 0., 0., 0., 0., 0., 0., 0., 0., 0., 0.,
       0., 0., 0., 0., 0., 0., 0., 0., 0., 0., 0., 0., 0., 0., 0., 0.,
       0., 0., 0., 0., 0., 0., 0., 0., 0., 0., 0., 0., 0., 0., 0., 0.,
       0., 0., 0., 0., 0., 0., 0., 0., 0., 0., 0., 0., 0., 0., 0., 0.,
       0., 0., 0., 0., 0., 0., 0., 0., 0., 0., 0., 0., 0., 0., 0., 0.,
       0., 0., 0., 0., 0., 0., 0., 0., 0., 0., 0., 0., 0., 0., 0., 0.,
       0., 0., 0., 0., 0., 0., 0., 0., 0., 0., 0., 0., 0., 0., 0., 0.,
       0., 0., 0., 0., 0., 0., 0., 0., 0., 0., 0., 0., 0., 0., 0., 0.,
       0., 0., 0., 0., 0., 0., 0., 0., 0., 0., 0., 0., 0., 0., 0., 0.,
       0., 0., 0., 0., 0., 0., 0., 0., 0., 0., 0., 0., 0., 0., 0., 0.,
       0., 0., 0., 0., 0., 0., 0., 0., 0., 0., 0., 0., 0., 0., 0., 0.,
       0., 0., 0., 0., 0., 0., 0., 0., 0., 0., 0., 0., 0., 0., 0., 0.,
       0., 0., 0., 0., 0., 0., 0., 0., 0., 0., 0., 0., 0., 0., 0., 0.,
       0., 0., 0., 0., 0., 0., 0., 0., 0., 0., 0., 0., 0., 0., 0., 0.,
       0., 0., 0., 0., 0., 0., 0., 0., 0., 0., 0., 0., 0., 0., 0., 0.,
       0., 0., 0., 0., 0., 0., 0., 0., 0., 0., 0., 0., 0., 0., 0., 0.,
       0., 0., 0., 0., 0., 0., 0., 0., 0., 0., 0., 0., 0., 0., 0., 0.,
       0., 0., 0., 0., 0., 0., 0., 0., 0., 0., 0., 0., 0., 0., 0., 0.,
       0., 0., 0., 0., 0., 0., 0., 0., 0., 0., 0., 0., 0., 0., 0., 0.,
       0., 0., 0., 0., 0., 0., 0., 0., 0., 0., 0., 0., 0., 0., 0., 0.,
       0., 0., 0., 0., 0., 0., 0., 0., 0., 0., 0., 0., 0., 0., 0., 0.,
       0., 0., 0., 0., 0., 0., 0., 0., 0., 0., 0., 0., 0., 0., 0., 0.,
       0., 0., 0., 0., 0., 0., 0., 0. ]
   nodes:
      -
         depth: 0
         value: 5.
         norm_class_idx: 5
         splits:
            - { var:1761, quality:3.4765505981445312e+02,
                le:1.8539600074291229e-02 }
      -
         depth: 1
         value: 4.
         norm_class_idx: 4
         splits:
            - { var:1757, quality:1.0922579193115234e+02,
                le:9.7748480737209320e-02 }
      -
         depth: 2
         value: 4.
         norm_class_idx: 4
         splits:
            - { var:1682, quality:9.0478454589843750e+01,
                le:1.8417090177536011e-01 }
      -
         depth: 3
         value: 4.
         norm_class_idx: 4
         splits:
            - { var:832, quality:1.7969230651855469e+01,
                le:1.2558744847774506e-01 }
      -
         depth: 4
         value: 5.
         norm_class_idx: 5
         splits:
            - { var:0, quality:10., le:8.9664934203028679e-03 }
      -
         depth: 5
         value: 4.
         norm_class_idx: 4
      -
         depth: 5
         value: 5.
         norm_class_idx: 5
      -
         depth: 4
         value: 4.
         norm_class_idx: 4
         splits:
            - { var:2, quality:1.7224243164062500e+01,
                le:7.6926365494728088e-02 }
      -
         depth: 5
         value: 4.
         norm_class_idx: 4
         splits:
            - { var:17, quality:15., le:3.5125799477100372e-02 }
      -
         depth: 6
         value: 0.
         norm_class_idx: 0
      -
         depth: 6
         value: 4.
         norm_class_idx: 4
      -
         depth: 5
         value: 0.
         norm_class_idx: 0
         splits:
            - { var:60, quality:7.8000001907348633e+00,
                le:4.6824060380458832e-02 }
      -
         depth: 6
         value: 0.
         norm_class_idx: 0
      -
         depth: 6
         value: 1.
         norm_class_idx: 1
         splits:
            - { var:0, quality:3.6666667461395264e+00,
                le:8.9952461421489716e-02 }
      -
         depth: 7
         value: 5.
         norm_class_idx: 5
      -
         depth: 7
         value: 1.
         norm_class_idx: 1
         splits:
            - { var:0, quality:3., le:1.0911390185356140e-01 }
      -
         depth: 8
         value: 2.
         norm_class_idx: 2
      -
         depth: 8
         value: 1.
         norm_class_idx: 1
      -
         depth: 3
         value: 4.
         norm_class_idx: 4
         splits:
            - { var:1035, quality:8.3716125488281250e+01,
                le:7.4505088850855827e-03 }
      -
         depth: 4
         value: 0.
         norm_class_idx: 0
         splits:
            - { var:20, quality:4., le:1.0912194848060608e-01 }
      -
         depth: 5
         value: 2.
         norm_class_idx: 2
      -
         depth: 5
         value: 0.
         norm_class_idx: 0
      -
         depth: 4
         value: 4.
         norm_class_idx: 4
         splits:
            - { var:1706, quality:8.5273529052734375e+01,
                le:2.5917578488588333e-02 }
      -
         depth: 5
         value: 4.
         norm_class_idx: 4
         splits:
            - { var:0, quality:4.8000001907348633e+00,
                le:7.5455866754055023e-02 }
      -
         depth: 6
         value: 4.
         norm_class_idx: 4
      -
         depth: 6
         value: 1.
         norm_class_idx: 1
         splits:
            - { var:4, quality:3.6666667461395264e+00,
                le:5.6162036955356598e-02 }
      -
         depth: 7
         value: 3.
         norm_class_idx: 3
      -
         depth: 7
         value: 1.
         norm_class_idx: 1
         splits:
            - { var:1, quality:3., le:8.7731212377548218e-02 }
      -
         depth: 8
         value: 0.
         norm_class_idx: 0
      -
         depth: 8
         value: 1.
         norm_class_idx: 1
      -
         depth: 5
         value: 4.
         norm_class_idx: 4
         splits:
            - { var:15, quality:85., le:2.3926955182105303e-03 }
      -
         depth: 6
         value: 0.
         norm_class_idx: 0
      -
         depth: 6
         value: 4.
         norm_class_idx: 4
      -
         depth: 2
         value: 0.
         norm_class_idx: 0
         splits:
            - { var:1752, quality:4.2312500000000000e+01,
                le:1.7466489225625992e-02 }
      -
         depth: 3
         value: 0.
         norm_class_idx: 0
         splits:
            - { var:177, quality:3.9716667175292969e+01,
                le:8.9387953281402588e-02 }
      -
         depth: 4
         value: 3.
         norm_class_idx: 3
         splits:
            - { var:0, quality:3.5000000000000000e+00,
                le:1.3902385532855988e-01 }
      -
         depth: 5
         value: 4.
         norm_class_idx: 4
         splits:
            - { var:5, quality:3., le:1.3014633208513260e-02 }
      -
         depth: 6
         value: 4.
         norm_class_idx: 4
      -
         depth: 6
         value: 0.
         norm_class_idx: 0
      -
         depth: 5
         value: 3.
         norm_class_idx: 3
      -
         depth: 4
         value: 0.
         norm_class_idx: 0
         splits:
            - { var:8, quality:40., le:9.5654670149087906e-03 }
      -
         depth: 5
         value: 5.
         norm_class_idx: 5
      -
         depth: 5
         value: 0.
         norm_class_idx: 0
      -
         depth: 3
         value: 3.
         norm_class_idx: 3
         splits:
            - { var:80, quality:1.3961352348327637e+01,
                le:2.7854564785957336e-01 }
      -
         depth: 4
         value: 3.
         norm_class_idx: 3
         splits:
            - { var:198, quality:1.3625000000000000e+01,
                le:2.6553219556808472e-01 }
      -
         depth: 5
         value: 3.
         norm_class_idx: 3
         splits:
            - { var:1204, quality:1.2571428298950195e+01,
                le:8.8263779878616333e-02 }
      -
         depth: 6
         value: 1.
         norm_class_idx: 1
         splits:
            - { var:14, quality:7., le:4.9606703221797943e-02 }
      -
         depth: 7
         value: 0.
         norm_class_idx: 0
      -
         depth: 7
         value: 1.
         norm_class_idx: 1
      -
         depth: 6
         value: 3.
         norm_class_idx: 3
      -
         depth: 5
         value: 5.
         norm_class_idx: 5
      -
         depth: 4
         value: 4.
         norm_class_idx: 4
         splits:
            - { var:7, quality:9., le:7.3010912165045738e-03 }
      -
         depth: 5
         value: 5.
         norm_class_idx: 5
      -
         depth: 5
         value: 4.
         norm_class_idx: 4
      -
         depth: 1
         value: 5.
         norm_class_idx: 5
         splits:
            - { var:1532, quality:3.0624468994140625e+02,
                le:1.5539776533842087e-02 }
      -
         depth: 2
         value: 4.
         norm_class_idx: 4
         splits:
            - { var:1518, quality:6.6758621215820312e+01,
                le:2.2521804273128510e-01 }
      -
         depth: 3
         value: 4.
         norm_class_idx: 4
         splits:
            - { var:165, quality:5.6299411773681641e+01,
                le:1.5079098939895630e-01 }
      -
         depth: 4
         value: 4.
         norm_class_idx: 4
         splits:
            - { var:870, quality:5.5181159973144531e+01,
                le:1.9841232895851135e-01 }
      -
         depth: 5
         value: 4.
         norm_class_idx: 4
         splits:
            - { var:573, quality:5.8206249237060547e+01,
                le:2.3466178774833679e-01 }
      -
         depth: 6
         value: 4.
         norm_class_idx: 4
         splits:
            - { var:96, quality:6.0533332824707031e+01,
                le:1.3012424111366272e-01 }
      -
         depth: 7
         value: 4.
         norm_class_idx: 4
         splits:
            - { var:24, quality:60., le:1.8447634577751160e-01 }
      -
         depth: 8
         value: 4.
         norm_class_idx: 4
      -
         depth: 8
         value: 1.
         norm_class_idx: 1
      -
         depth: 7
         value: 5.
         norm_class_idx: 5
         splits:
            - { var:0, quality:4., le:9.8794162273406982e-02 }
      -
         depth: 8
         value: 4.
         norm_class_idx: 4
      -
         depth: 8
         value: 5.
         norm_class_idx: 5
      -
         depth: 6
         value: 1.
         norm_class_idx: 1
         splits:
            - { var:1, quality:3.6666667461395264e+00,
                le:6.9423824548721313e-02 }
      -
         depth: 7
         value: 1.
         norm_class_idx: 1
         splits:
            - { var:0, quality:3., le:1.6045460477471352e-02 }
      -
         depth: 8
         value: 0.
         norm_class_idx: 0
      -
         depth: 8
         value: 1.
         norm_class_idx: 1
      -
         depth: 7
         value: 5.
         norm_class_idx: 5
      -
         depth: 5
         value: 0.
         norm_class_idx: 0
         splits:
            - { var:2, quality:4., le:7.1856409311294556e-02 }
      -
         depth: 6
         value: 3.
         norm_class_idx: 3
      -
         depth: 6
         value: 0.
         norm_class_idx: 0
      -
         depth: 4
         value: 5.
         norm_class_idx: 5
         splits:
            - { var:37, quality:1.0399999618530273e+01,
                le:4.9853712320327759e-02 }
      -
         depth: 5
         value: 4.
         norm_class_idx: 4
         splits:
            - { var:4, quality:3., le:3.1112197041511536e-01 }
      -
         depth: 6
         value: 4.
         norm_class_idx: 4
      -
         depth: 6
         value: 1.
         norm_class_idx: 1
         splits:
            - { var:0, quality:2., le:4.1252952069044113e-02 }
      -
         depth: 7
         value: 3.
         norm_class_idx: 3
      -
         depth: 7
         value: 1.
         norm_class_idx: 1
      -
         depth: 5
         value: 5.
         norm_class_idx: 5
      -
         depth: 3
         value: 0.
         norm_class_idx: 0
         splits:
            - { var:888, quality:2.9776397705078125e+01,
                le:7.6173201203346252e-02 }
      -
         depth: 4
         value: 1.
         norm_class_idx: 1
         splits:
            - { var:144, quality:1.1117647171020508e+01,
                le:3.1159383058547974e-01 }
      -
         depth: 5
         value: 1.
         norm_class_idx: 1
         splits:
            - { var:571, quality:1.0166666984558105e+01,
                le:1.4799962937831879e-01 }
      -
         depth: 6
         value: 5.
         norm_class_idx: 5
      -
         depth: 6
         value: 1.
         norm_class_idx: 1
         splits:
            - { var:202, quality:9.6000003814697266e+00,
                le:1.3590538501739502e-01 }
      -
         depth: 7
         value: 3.
         norm_class_idx: 3
         splits:
            - { var:0, quality:5., le:7.9296864569187164e-02 }
      -
         depth: 8
         value: 0.
         norm_class_idx: 0
      -
         depth: 8
         value: 3.
         norm_class_idx: 3
      -
         depth: 7
         value: 1.
         norm_class_idx: 1
      -
         depth: 5
         value: 4.
         norm_class_idx: 4
      -
         depth: 4
         value: 0.
         norm_class_idx: 0
         splits:
            - { var:823, quality:2.9758064270019531e+01,
                le:9.9785387516021729e-02 }
      -
         depth: 5
         value: 5.
         norm_class_idx: 5
         splits:
            - { var:0, quality:4., le:7.9778641462326050e-02 }
      -
         depth: 6
         value: 3.
         norm_class_idx: 3
      -
         depth: 6
         value: 5.
         norm_class_idx: 5
      -
         depth: 5
         value: 0.
         norm_class_idx: 0
         splits:
            - { var:27, quality:31., le:3.8187843561172485e-01 }
      -
         depth: 6
         value: 0.
         norm_class_idx: 0
      -
         depth: 6
         value: 4.
         norm_class_idx: 4
      -
         depth: 2
         value: 5.
         norm_class_idx: 5
         splits:
            - { var:1212, quality:2.8519604492187500e+02,
                le:5.9167793951928616e-03 }
      -
         depth: 3
         value: 3.
         norm_class_idx: 3
         splits:
            - { var:172, quality:33., le:1.0189788043498993e-01 }
      -
         depth: 4
         value: 0.
         norm_class_idx: 0
      -
         depth: 4
         value: 3.
         norm_class_idx: 3
      -
         depth: 3
         value: 5.
         norm_class_idx: 5
         splits:
            - { var:130, quality:2.8281515502929688e+02,
                le:9.9445834755897522e-02 }
      -
         depth: 4
         value: 5.
         norm_class_idx: 5
         splits:
            - { var:348, quality:1.1352044677734375e+02,
                le:6.3905860297381878e-03 }
      -
         depth: 5
         value: 3.
         norm_class_idx: 3
         splits:
            - { var:23, quality:27., le:4.0682952851057053e-02 }
      -
         depth: 6
         value: 0.
         norm_class_idx: 0
      -
         depth: 6
         value: 3.
         norm_class_idx: 3
      -
         depth: 5
         value: 5.
         norm_class_idx: 5
         splits:
            - { var:34, quality:1.0903079223632812e+02,
                le:1.8685095012187958e-02 }
      -
         depth: 6
         value: 0.
         norm_class_idx: 0
         splits:
            - { var:4, quality:24., le:1.3990336656570435e-01 }
      -
         depth: 7
         value: 0.
         norm_class_idx: 0
      -
         depth: 7
         value: 2.
         norm_class_idx: 2
      -
         depth: 6
         value: 5.
         norm_class_idx: 5
         splits:
            - { var:423, quality:1.0617827606201172e+02,
                le:2.6042951270937920e-02 }
      -
         depth: 7
         value: 3.
         norm_class_idx: 3
         splits:
            - { var:1438, quality:2.6399999618530273e+01,
                le:1.0092164576053619e-01 }
      -
         depth: 8
         value: 5.
         norm_class_idx: 5
         splits:
            - { var:2, quality:3., le:6.0357965528964996e-02 }
      -
         depth: 9
         value: 5.
         norm_class_idx: 5
      -
         depth: 9
         value: 0.
         norm_class_idx: 0
         splits:
            - { var:0, quality:2., le:4.1135624051094055e-02 }
      -
         depth: 10
         value: 2.
         norm_class_idx: 2
      -
         depth: 10
         value: 0.
         norm_class_idx: 0
      -
         depth: 8
         value: 3.
         norm_class_idx: 3
      -
         depth: 7
         value: 5.
         norm_class_idx: 5
         splits:
            - { var:53, quality:1.0242226409912109e+02,
                le:1.7652359604835510e-01 }
      -
         depth: 8
         value: 1.
         norm_class_idx: 1
         splits:
            - { var:407, quality:7.2317481994628906e+01,
                le:8.9472070336341858e-02 }
      -
         depth: 9
         value: 1.
         norm_class_idx: 1
         splits:
            - { var:328, quality:5.8507663726806641e+01,
                le:2.8518253564834595e-01 }
      -
         depth: 10
         value: 1.
         norm_class_idx: 1
         splits:
            - { var:117, quality:5.9314102172851562e+01,
                le:3.4118264913558960e-01 }
      -
         depth: 11
         value: 1.
         norm_class_idx: 1
         splits:
            - { var:1734, quality:6.2965065002441406e+01,
                le:7.4526034295558929e-02 }
      -
         depth: 12
         value: 5.
         norm_class_idx: 5
         splits:
            - { var:317, quality:1.1250000000000000e+01,
                le:2.3344977200031281e-01 }
      -
         depth: 13
         value: 5.
         norm_class_idx: 5
         splits:
            - { var:48, quality:9.2285718917846680e+00,
                le:7.3438264429569244e-02 }
      -
         depth: 14
         value: 3.
         norm_class_idx: 3
         splits:
            - { var:29, quality:5., le:1.9896507263183594e-01 }
      -
         depth: 15
         value: 3.
         norm_class_idx: 3
      -
         depth: 15
         value: 0.
         norm_class_idx: 0
         splits:
            - { var:1, quality:4., le:3.7308786064386368e-02 }
      -
         depth: 16
         value: 0.
         norm_class_idx: 0
      -
         depth: 16
         value: 2.
         norm_class_idx: 2
      -
         depth: 14
         value: 5.
         norm_class_idx: 5
         splits:
            - { var:26, quality:10., le:3.4398481249809265e-02 }
      -
         depth: 15
         value: 4.
         norm_class_idx: 4
      -
         depth: 15
         value: 5.
         norm_class_idx: 5
      -
         depth: 13
         value: 1.
         norm_class_idx: 1
         splits:
            - { var:5, quality:8., le:9.8716408014297485e-02 }
      -
         depth: 14
         value: 1.
         norm_class_idx: 1
      -
         depth: 14
         value: 0.
         norm_class_idx: 0
      -
         depth: 12
         value: 1.
         norm_class_idx: 1
         splits:
            - { var:700, quality:6.3091892242431641e+01,
                le:2.9527643322944641e-01 }
      -
         depth: 13
         value: 1.
         norm_class_idx: 1
         splits:
            - { var:3, quality:6.5032867431640625e+01,
                le:1.5943020582199097e-01 }
      -
         depth: 14
         value: 1.
         norm_class_idx: 1
         splits:
            - { var:1047, quality:6.7086959838867188e+01,
                le:3.0206078290939331e-01 }
      -
         depth: 15
         value: 1.
         norm_class_idx: 1
         splits:
            - { var:18, quality:68., le:3.3463585376739502e-01 }
      -
         depth: 16
         value: 1.
         norm_class_idx: 1
      -
         depth: 16
         value: 3.
         norm_class_idx: 3
      -
         depth: 15
         value: 4.
         norm_class_idx: 4
      -
         depth: 14
         value: 2.
         norm_class_idx: 2
         splits:
            - { var:1, quality:3., le:1.6247941553592682e-01 }
      -
         depth: 15
         value: 2.
         norm_class_idx: 2
      -
         depth: 15
         value: 3.
         norm_class_idx: 3
      -
         depth: 13
         value: 2.
         norm_class_idx: 2
         splits:
            - { var:9, quality:4., le:2.0404872298240662e-01 }
      -
         depth: 14
         value: 2.
         norm_class_idx: 2
      -
         depth: 14
         value: 0.
         norm_class_idx: 0
      -
         depth: 11
         value: 0.
         norm_class_idx: 0
         splits:
            - { var:71, quality:8.8000001907348633e+00,
                le:1.9629864394664764e-01 }
      -
         depth: 12
         value: 0.
         norm_class_idx: 0
      -
         depth: 12
         value: 3.
         norm_class_idx: 3
         splits:
            - { var:1, quality:3.6666667461395264e+00,
                le:5.5276755243539810e-02 }
      -
         depth: 13
         value: 3.
         norm_class_idx: 3
      -
         depth: 13
         value: 5.
         norm_class_idx: 5
         splits:
            - { var:1, quality:3., le:8.4843896329402924e-02 }
      -
         depth: 14
         value: 2.
         norm_class_idx: 2
      -
         depth: 14
         value: 5.
         norm_class_idx: 5
      -
         depth: 10
         value: 2.
         norm_class_idx: 2
         splits:
            - { var:87, quality:1.6222221374511719e+01,
                le:6.8953521549701691e-02 }
      -
         depth: 11
         value: 2.
         norm_class_idx: 2
      -
         depth: 11
         value: 5.
         norm_class_idx: 5
         splits:
            - { var:0, quality:9., le:2.5821906328201294e-01 }
      -
         depth: 12
         value: 5.
         norm_class_idx: 5
      -
         depth: 12
         value: 4.
         norm_class_idx: 4
      -
         depth: 9
         value: 2.
         norm_class_idx: 2
         splits:
            - { var:1511, quality:3.7068027496337891e+01,
                le:3.3415161073207855e-02 }
      -
         depth: 10
         value: 4.
         norm_class_idx: 4
         splits:
            - { var:457, quality:2.3653846740722656e+01,
                le:1.0306428372859955e-01 }
      -
         depth: 11
         value: 4.
         norm_class_idx: 4
         splits:
            - { var:42, quality:16., le:4.3250165879726410e-02 }
      -
         depth: 12
         value: 4.
         norm_class_idx: 4
      -
         depth: 12
         value: 1.
         norm_class_idx: 1
      -
         depth: 11
         value: 0.
         norm_class_idx: 0
         splits:
            - { var:871, quality:1.7083333969116211e+01,
                le:7.7429853379726410e-02 }
      -
         depth: 12
         value: 1.
         norm_class_idx: 1
         splits:
            - { var:0, quality:5.5999999046325684e+00,
                le:1.8080338835716248e-01 }
      -
         depth: 13
         value: 4.
         norm_class_idx: 4
         splits:
            - { var:1, quality:5., le:4.6300858259201050e-02 }
      -
         depth: 14
         value: 3.
         norm_class_idx: 3
      -
         depth: 14
         value: 4.
         norm_class_idx: 4
      -
         depth: 13
         value: 1.
         norm_class_idx: 1
      -
         depth: 12
         value: 0.
         norm_class_idx: 0
         splits:
            - { var:10, quality:17., le:3.1738825142383575e-02 }
      -
         depth: 13
         value: 1.
         norm_class_idx: 1
      -
         depth: 13
         value: 0.
         norm_class_idx: 0
      -
         depth: 10
         value: 2.
         norm_class_idx: 2
         splits:
            - { var:1471, quality:3.2409091949462891e+01,
                le:1.8499462306499481e-01 }
      -
         depth: 11
         value: 2.
         norm_class_idx: 2
         splits:
            - { var:874, quality:2.9130434036254883e+01,
                le:5.9481903910636902e-02 }
      -
         depth: 12
         value: 2.
         norm_class_idx: 2
      -
         depth: 12
         value: 2.
         norm_class_idx: 2
         splits:
            - { var:1001, quality:1.4976623535156250e+01,
                le:5.4906032979488373e-02 }
      -
         depth: 13
         value: 1.
         norm_class_idx: 1
         splits:
            - { var:12, quality:9., le:3.8547243922948837e-02 }
      -
         depth: 14
         value: 0.
         norm_class_idx: 0
         splits:
            - { var:0, quality:2., le:1.4640116691589355e-01 }
      -
         depth: 15
         value: 5.
         norm_class_idx: 5
      -
         depth: 15
         value: 0.
         norm_class_idx: 0
      -
         depth: 14
         value: 1.
         norm_class_idx: 1
      -
         depth: 13
         value: 2.
         norm_class_idx: 2
         splits:
            - { var:1532, quality:1.4664335250854492e+01,
                le:4.9825541675090790e-02 }
      -
         depth: 14
         value: 3.
         norm_class_idx: 3
         splits:
            - { var:671, quality:9.8571424484252930e+00,
                le:8.4897562861442566e-02 }
      -
         depth: 15
         value: 3.
         norm_class_idx: 3
      -
         depth: 15
         value: 5.
         norm_class_idx: 5
         splits:
            - { var:2, quality:6., le:1.4873056113719940e-01 }
      -
         depth: 16
         value: 5.
         norm_class_idx: 5
      -
         depth: 16
         value: 0.
         norm_class_idx: 0
      -
         depth: 14
         value: 2.
         norm_class_idx: 2
         splits:
            - { var:1606, quality:1.5375000000000000e+01,
                le:3.6446787416934967e-02 }
      -
         depth: 15
         value: 4.
         norm_class_idx: 4
         splits:
            - { var:44, quality:5., le:5.9644989669322968e-02 }
      -
         depth: 16
         value: 4.
         norm_class_idx: 4
      -
         depth: 16
         value: 0.
         norm_class_idx: 0
      -
         depth: 15
         value: 2.
         norm_class_idx: 2
         splits:
            - { var:100, quality:15., le:4.1565543413162231e-01 }
      -
         depth: 16
         value: 2.
         norm_class_idx: 2
      -
         depth: 16
         value: 3.
         norm_class_idx: 3
      -
         depth: 11
         value: 5.
         norm_class_idx: 5
         splits:
            - { var:1157, quality:2.0008096694946289e+01,
                le:1.0252923518419266e-01 }
      -
         depth: 12
         value: 1.
         norm_class_idx: 1
         splits:
            - { var:27, quality:9., le:1.7300891876220703e-01 }
      -
         depth: 13
         value: 1.
         norm_class_idx: 1
      -
         depth: 13
         value: 0.
         norm_class_idx: 0
         splits:
            - { var:34, quality:4., le:7.4827268719673157e-02 }
      -
         depth: 14
         value: 2.
         norm_class_idx: 2
         splits:
            - { var:0, quality:2., le:7.2405658662319183e-02 }
      -
         depth: 15
         value: 3.
         norm_class_idx: 3
      -
         depth: 15
         value: 2.
         norm_class_idx: 2
      -
         depth: 14
         value: 0.
         norm_class_idx: 0
      -
         depth: 12
         value: 5.
         norm_class_idx: 5
         splits:
            - { var:117, quality:18., le:1.4268937706947327e-01 }
      -
         depth: 13
         value: 1.
         norm_class_idx: 1
      -
         depth: 13
         value: 5.
         norm_class_idx: 5
      -
         depth: 8
         value: 5.
         norm_class_idx: 5
         splits:
            - { var:6, quality:5.7117240905761719e+01,
                le:1.2670956552028656e-02 }
      -
         depth: 9
         value: 4.
         norm_class_idx: 4
         splits:
            - { var:20, quality:2.1833333969116211e+01,
                le:1.8706163763999939e-01 }
      -
         depth: 10
         value: 4.
         norm_class_idx: 4
      -
         depth: 10
         value: 0.
         norm_class_idx: 0
         splits:
            - { var:541, quality:8.8000001907348633e+00,
                le:1.0440454632043839e-01 }
      -
         depth: 11
         value: 3.
         norm_class_idx: 3
         splits:
            - { var:0, quality:3.6666667461395264e+00,
                le:1.6249217092990875e-02 }
      -
         depth: 12
         value: 4.
         norm_class_idx: 4
      -
         depth: 12
         value: 3.
         norm_class_idx: 3
         splits:
            - { var:0, quality:3., le:4.5184224843978882e-02 }
      -
         depth: 13
         value: 3.
         norm_class_idx: 3
      -
         depth: 13
         value: 5.
         norm_class_idx: 5
      -
         depth: 11
         value: 0.
         norm_class_idx: 0
      -
         depth: 9
         value: 5.
         norm_class_idx: 5
         splits:
            - { var:1477, quality:5.3950874328613281e+01,
                le:6.6410079598426819e-02 }
      -
         depth: 10
         value: 3.
         norm_class_idx: 3
         splits:
            - { var:1576, quality:1.8361110687255859e+01,
                le:5.6037582457065582e-02 }
      -
         depth: 11
         value: 5.
         norm_class_idx: 5
         splits:
            - { var:25, quality:4.8000001907348633e+00,
                le:1.0353407263755798e-01 }
      -
         depth: 12
         value: 2.
         norm_class_idx: 2
         splits:
            - { var:0, quality:3.6666667461395264e+00,
                le:5.6267522275447845e-02 }
      -
         depth: 13
         value: 4.
         norm_class_idx: 4
      -
         depth: 13
         value: 2.
         norm_class_idx: 2
         splits:
            - { var:1, quality:3., le:1.1079965531826019e-01 }
      -
         depth: 14
         value: 2.
         norm_class_idx: 2
      -
         depth: 14
         value: 0.
         norm_class_idx: 0
      -
         depth: 12
         value: 5.
         norm_class_idx: 5
      -
         depth: 11
         value: 3.
         norm_class_idx: 3
         splits:
            - { var:1, quality:18., le:1.3080570101737976e-01 }
      -
         depth: 12
         value: 3.
         norm_class_idx: 3
      -
         depth: 12
         value: 5.
         norm_class_idx: 5
      -
         depth: 10
         value: 5.
         norm_class_idx: 5
         splits:
            - { var:240, quality:5.2003028869628906e+01,
                le:3.0586510896682739e-01 }
      -
         depth: 11
         value: 5.
         norm_class_idx: 5
         splits:
            - { var:217, quality:4.9101448059082031e+01,
                le:2.4190347641706467e-02 }
      -
         depth: 12
         value: 4.
         norm_class_idx: 4
         splits:
            - { var:14, quality:5., le:6.1520107090473175e-02 }
      -
         depth: 13
         value: 4.
         norm_class_idx: 4
      -
         depth: 13
         value: 1.
         norm_class_idx: 1
      -
         depth: 12
         value: 5.
         norm_class_idx: 5
         splits:
            - { var:5, quality:5.2569229125976562e+01,
                le:9.4622910022735596e-02 }
      -
         depth: 13
         value: 5.
         norm_class_idx: 5
         splits:
            - { var:1196, quality:5.4024589538574219e+01,
                le:2.3740939795970917e-02 }
      -
         depth: 14
         value: 0.
         norm_class_idx: 0
         splits:
            - { var:0, quality:4., le:1.4271494746208191e-01 }
      -
         depth: 15
         value: 0.
         norm_class_idx: 0
      -
         depth: 15
         value: 3.
         norm_class_idx: 3
      -
         depth: 14
         value: 5.
         norm_class_idx: 5
         splits:
            - { var:1399, quality:5.5770114898681641e+01,
                le:4.2821407318115234e-02 }
      -
         depth: 15
         value: 3.
         norm_class_idx: 3
         splits:
            - { var:0, quality:3., le:8.7472282350063324e-02 }
      -
         depth: 16
         value: 3.
         norm_class_idx: 3
      -
         depth: 16
         value: 1.
         norm_class_idx: 1
      -
         depth: 15
         value: 5.
         norm_class_idx: 5
         splits:
            - { var:405, quality:57., le:4.7777071595191956e-02 }
      -
         depth: 16
         value: 2.
         norm_class_idx: 2
      -
         depth: 16
         value: 5.
         norm_class_idx: 5
      -
         depth: 13
         value: 2.
         norm_class_idx: 2
      -
         depth: 11
         value: 1.
         norm_class_idx: 1
         splits:
            - { var:1055, quality:1.5329411506652832e+01,
                le:2.4479568004608154e-01 }
      -
         depth: 12
         value: 1.
         norm_class_idx: 1
         splits:
            - { var:943, quality:1.5985347747802734e+01,
                le:1.3621127605438232e-01 }
      -
         depth: 13
         value: 5.
         norm_class_idx: 5
         splits:
            - { var:239, quality:1.2166666984558105e+01,
                le:3.3080539107322693e-01 }
      -
         depth: 14
         value: 5.
         norm_class_idx: 5
         splits:
            - { var:4, quality:1.0666666984558105e+01,
                le:4.7931835055351257e-02 }
      -
         depth: 15
         value: 0.
         norm_class_idx: 0
         splits:
            - { var:0, quality:3., le:1.9581472873687744e-01 }
      -
         depth: 16
         value: 0.
         norm_class_idx: 0
      -
         depth: 16
         value: 3.
         norm_class_idx: 3
      -
         depth: 15
         value: 5.
         norm_class_idx: 5
      -
         depth: 14
         value: 4.
         norm_class_idx: 4
         splits:
            - { var:32, quality:9., le:3.9065465331077576e-02 }
      -
         depth: 15
         value: 3.
         norm_class_idx: 3
      -
         depth: 15
         value: 4.
         norm_class_idx: 4
      -
         depth: 13
         value: 1.
         norm_class_idx: 1
         splits:
            - { var:36, quality:12., le:2.1894715726375580e-01 }
      -
         depth: 14
         value: 1.
         norm_class_idx: 1
      -
         depth: 14
         value: 4.
         norm_class_idx: 4
      -
         depth: 12
         value: 2.
         norm_class_idx: 2
         splits:
            - { var:23, quality:10., le:6.1252072453498840e-02 }
      -
         depth: 13
         value: 2.
         norm_class_idx: 2
      -
         depth: 13
         value: 1.
         norm_class_idx: 1
      -
         depth: 4
         value: 5.
         norm_class_idx: 5
         splits:
            - { var:290, quality:2.1338014221191406e+02,
                le:5.6307386606931686e-02 }
      -
         depth: 5
         value: 1.
         norm_class_idx: 1
         splits:
            - { var:1304, quality:6.3011905670166016e+01,
                le:3.1746286153793335e-01 }
      -
         depth: 6
         value: 1.
         norm_class_idx: 1
         splits:
            - { var:447, quality:6.3377010345458984e+01,
                le:6.8704992532730103e-02 }
      -
         depth: 7
         value: 1.
         norm_class_idx: 1
         splits:
            - { var:31, quality:45., le:1.1441247165203094e-01 }
      -
         depth: 8
         value: 2.
         norm_class_idx: 2
      -
         depth: 8
         value: 1.
         norm_class_idx: 1
      -
         depth: 7
         value: 5.
         norm_class_idx: 5
         splits:
            - { var:445, quality:3.2670230865478516e+01,
                le:9.3328610062599182e-02 }
      -
         depth: 8
         value: 1.
         norm_class_idx: 1
         splits:
            - { var:266, quality:1.8517646789550781e+01,
                le:2.0231170579791069e-02 }
      -
         depth: 9
         value: 2.
         norm_class_idx: 2
         splits:
            - { var:0, quality:5., le:1.1814652383327484e-01 }
      -
         depth: 10
         value: 2.
         norm_class_idx: 2
      -
         depth: 10
         value: 5.
         norm_class_idx: 5
      -
         depth: 9
         value: 1.
         norm_class_idx: 1
         splits:
            - { var:1, quality:17., le:1.8204447627067566e-01 }
      -
         depth: 10
         value: 1.
         norm_class_idx: 1
      -
         depth: 10
         value: 0.
         norm_class_idx: 0
      -
         depth: 8
         value: 5.
         norm_class_idx: 5
         splits:
            - { var:700, quality:2.9422222137451172e+01,
                le:4.4026192277669907e-02 }
      -
         depth: 9
         value: 3.
         norm_class_idx: 3
         splits:
            - { var:48, quality:1.0714285850524902e+01,
                le:3.4591924399137497e-02 }
      -
         depth: 10
         value: 3.
         norm_class_idx: 3
      -
         depth: 10
         value: 2.
         norm_class_idx: 2
         splits:
            - { var:12, quality:5., le:5.5269397795200348e-02 }
      -
         depth: 11
         value: 2.
         norm_class_idx: 2
      -
         depth: 11
         value: 1.
         norm_class_idx: 1
         splits:
            - { var:0, quality:2., le:6.8984039127826691e-02 }
      -
         depth: 12
         value: 4.
         norm_class_idx: 4
      -
         depth: 12
         value: 1.
         norm_class_idx: 1
      -
         depth: 9
         value: 5.
         norm_class_idx: 5
         splits:
            - { var:1577, quality:3.0500000000000000e+01,
                le:5.1318045705556870e-02 }
      -
         depth: 10
         value: 1.
         norm_class_idx: 1
         splits:
            - { var:8, quality:5.1999998092651367e+00,
                le:1.4299966394901276e-01 }
      -
         depth: 11
         value: 1.
         norm_class_idx: 1
         splits:
            - { var:4, quality:4., le:8.9081041514873505e-02 }
      -
         depth: 12
         value: 0.
         norm_class_idx: 0
      -
         depth: 12
         value: 1.
         norm_class_idx: 1
      -
         depth: 11
         value: 2.
         norm_class_idx: 2
      -
         depth: 10
         value: 5.
         norm_class_idx: 5
      -
         depth: 6
         value: 2.
         norm_class_idx: 2
         splits:
            - { var:47, quality:2.2666666030883789e+01,
                le:2.0755089819431305e-01 }
      -
         depth: 7
         value: 2.
         norm_class_idx: 2
      -
         depth: 7
         value: 1.
         norm_class_idx: 1
         splits:
            - { var:0, quality:3., le:8.1673279404640198e-02 }
      -
         depth: 8
         value: 1.
         norm_class_idx: 1
      -
         depth: 8
         value: 5.
         norm_class_idx: 5
      -
         depth: 5
         value: 5.
         norm_class_idx: 5
         splits:
            - { var:1624, quality:1.8466293334960938e+02,
                le:8.0903701484203339e-02 }
      -
         depth: 6
         value: 5.
         norm_class_idx: 5
         splits:
            - { var:1657, quality:4.7349697113037109e+01,
                le:1.8711653351783752e-01 }
      -
         depth: 7
         value: 5.
         norm_class_idx: 5
         splits:
            - { var:1504, quality:3.5083332061767578e+01,
                le:1.2662041187286377e-01 }
      -
         depth: 8
         value: 5.
         norm_class_idx: 5
         splits:
            - { var:1700, quality:3.0022966384887695e+01,
                le:1.0281690210103989e-01 }
      -
         depth: 9
         value: 2.
         norm_class_idx: 2
         splits:
            - { var:6, quality:1.5461538314819336e+01,
                le:3.1512945890426636e-02 }
      -
         depth: 10
         value: 0.
         norm_class_idx: 0
      -
         depth: 10
         value: 2.
         norm_class_idx: 2
         splits:
            - { var:11, quality:12., le:2.4384485185146332e-01 }
      -
         depth: 11
         value: 2.
         norm_class_idx: 2
      -
         depth: 11
         value: 3.
         norm_class_idx: 3
      -
         depth: 9
         value: 5.
         norm_class_idx: 5
         splits:
            - { var:497, quality:2.9189922332763672e+01,
                le:5.1607444882392883e-02 }
      -
         depth: 10
         value: 0.
         norm_class_idx: 0
         splits:
            - { var:52, quality:6.7500000000000000e+00,
                le:1.1784999072551727e-01 }
      -
         depth: 11
         value: 0.
         norm_class_idx: 0
         splits:
            - { var:49, quality:5.5000000000000000e+00,
                le:7.1965858340263367e-02 }
      -
         depth: 12
         value: 0.
         norm_class_idx: 0
      -
         depth: 12
         value: 3.
         norm_class_idx: 3
         splits:
            - { var:0, quality:3., le:1.5655124187469482e-01 }
      -
         depth: 13
         value: 2.
         norm_class_idx: 2
      -
         depth: 13
         value: 3.
         norm_class_idx: 3
      -
         depth: 11
         value: 1.
         norm_class_idx: 1
      -
         depth: 10
         value: 5.
         norm_class_idx: 5
         splits:
            - { var:1124, quality:3.2231182098388672e+01,
                le:1.0115328431129456e-01 }
      -
         depth: 11
         value: 3.
         norm_class_idx: 3
         splits:
            - { var:106, quality:6.7500000000000000e+00,
                le:1.7069667577743530e-01 }
      -
         depth: 12
         value: 4.
         norm_class_idx: 4
         splits:
            - { var:25, quality:5.5999999046325684e+00,
                le:3.4634098410606384e-02 }
      -
         depth: 13
         value: 4.
         norm_class_idx: 4
      -
         depth: 13
         value: 5.
         norm_class_idx: 5
         splits:
            - { var:0, quality:5., le:6.1055354773998260e-02 }
      -
         depth: 14
         value: 2.
         norm_class_idx: 2
      -
         depth: 14
         value: 5.
         norm_class_idx: 5
      -
         depth: 12
         value: 3.
         norm_class_idx: 3
      -
         depth: 11
         value: 5.
         norm_class_idx: 5
         splits:
            - { var:35, quality:31., le:5.4666772484779358e-02 }
      -
         depth: 12
         value: 0.
         norm_class_idx: 0
      -
         depth: 12
         value: 5.
         norm_class_idx: 5
      -
         depth: 8
         value: 3.
         norm_class_idx: 3
         splits:
            - { var:295, quality:2.0333333969116211e+01,
                le:5.8063719421625137e-02 }
      -
         depth: 9
         value: 5.
         norm_class_idx: 5
         splits:
            - { var:38, quality:4.6666665077209473e+00,
                le:8.6551114916801453e-02 }
      -
         depth: 10
         value: 2.
         norm_class_idx: 2
         splits:
            - { var:1, quality:3., le:1.0205464065074921e-01 }
      -
         depth: 11
         value: 2.
         norm_class_idx: 2
      -
         depth: 11
         value: 0.
         norm_class_idx: 0
      -
         depth: 10
         value: 5.
         norm_class_idx: 5
      -
         depth: 9
         value: 3.
         norm_class_idx: 3
      -
         depth: 7
         value: 1.
         norm_class_idx: 1
         splits:
            - { var:1326, quality:3.1204677581787109e+01,
                le:8.0172464251518250e-02 }
      -
         depth: 8
         value: 1.
         norm_class_idx: 1
         splits:
            - { var:214, quality:2.9095785140991211e+01,
                le:3.1188023090362549e-01 }
      -
         depth: 9
         value: 1.
         norm_class_idx: 1
         splits:
            - { var:159, quality:28., le:2.9758729040622711e-02 }
      -
         depth: 10
         value: 0.
         norm_class_idx: 0
      -
         depth: 10
         value: 1.
         norm_class_idx: 1
      -
         depth: 9
         value: 2.
         norm_class_idx: 2
         splits:
            - { var:4, quality:7.5000000000000000e+00,
                le:1.0974863171577454e-01 }
      -
         depth: 10
         value: 0.
         norm_class_idx: 0
         splits:
            - { var:0, quality:4., le:1.3370856642723083e-01 }
      -
         depth: 11
         value: 0.
         norm_class_idx: 0
      -
         depth: 11
         value: 4.
         norm_class_idx: 4
      -
         depth: 10
         value: 2.
         norm_class_idx: 2
      -
         depth: 8
         value: 5.
         norm_class_idx: 5
         splits:
            - { var:44, quality:1.7904762268066406e+01,
                le:6.4684502780437469e-02 }
      -
         depth: 9
         value: 1.
         norm_class_idx: 1
         splits:
            - { var:734, quality:8., le:1.2304590642452240e-01 }
      -
         depth: 10
         value: 1.
         norm_class_idx: 1
      -
         depth: 10
         value: 0.
         norm_class_idx: 0
         splits:
            - { var:104, quality:6.3333334922790527e+00,
                le:1.4341494441032410e-01 }
      -
         depth: 11
         value: 2.
         norm_class_idx: 2
         splits:
            - { var:0, quality:4.6666665077209473e+00,
                le:7.4972003698348999e-02 }
      -
         depth: 12
         value: 4.
         norm_class_idx: 4
         splits:
            - { var:0, quality:3., le:4.9390360713005066e-02 }
      -
         depth: 13
         value: 4.
         norm_class_idx: 4
      -
         depth: 13
         value: 3.
         norm_class_idx: 3
      -
         depth: 12
         value: 2.
         norm_class_idx: 2
      -
         depth: 11
         value: 0.
         norm_class_idx: 0
      -
         depth: 9
         value: 5.
         norm_class_idx: 5
         splits:
            - { var:1235, quality:1.9500000000000000e+01,
                le:1.8153887987136841e-01 }
      -
         depth: 10
         value: 5.
         norm_class_idx: 5
      -
         depth: 10
         value: 1.
         norm_class_idx: 1
         splits:
            - { var:0, quality:4., le:3.1092472374439240e-02 }
      -
         depth: 11
         value: 0.
         norm_class_idx: 0
      -
         depth: 11
         value: 1.
         norm_class_idx: 1
      -
         depth: 6
         value: 5.
         norm_class_idx: 5
         splits:
            - { var:832, quality:1.6116009521484375e+02,
                le:2.7367867529392242e-02 }
      -
         depth: 7
         value: 2.
         norm_class_idx: 2
         splits:
            - { var:0, quality:12., le:1.7636708915233612e-01 }
      -
         depth: 8
         value: 2.
         norm_class_idx: 2
      -
         depth: 8
         value: 5.
         norm_class_idx: 5
      -
         depth: 7
         value: 5.
         norm_class_idx: 5
         splits:
            - { var:1097, quality:1.6254876708984375e+02,
                le:3.0816039443016052e-01 }
      -
         depth: 8
         value: 5.
         norm_class_idx: 5
         splits:
            - { var:1267, quality:1.6674412536621094e+02,
                le:3.2822482287883759e-02 }
      -
         depth: 9
         value: 1.
         norm_class_idx: 1
         splits:
            - { var:1648, quality:1.4238095283508301e+01,
                le:2.0413658022880554e-01 }
      -
         depth: 10
         value: 1.
         norm_class_idx: 1
         splits:
            - { var:1687, quality:1.4333333015441895e+01,
                le:2.1774712204933167e-01 }
      -
         depth: 11
         value: 1.
         norm_class_idx: 1
         splits:
            - { var:866, quality:12., le:1.3849654793739319e-01 }
      -
         depth: 12
         value: 1.
         norm_class_idx: 1
      -
         depth: 12
         value: 0.
         norm_class_idx: 0
         splits:
            - { var:0, quality:2., le:1.1099139228463173e-02 }
      -
         depth: 13
         value: 5.
         norm_class_idx: 5
      -
         depth: 13
         value: 0.
         norm_class_idx: 0
         splits:
            - { var:0, quality:2., le:5.1747962832450867e-02 }
      -
         depth: 14
         value: 4.
         norm_class_idx: 4
      -
         depth: 14
         value: 0.
         norm_class_idx: 0
      -
         depth: 11
         value: 5.
         norm_class_idx: 5
      -
         depth: 10
         value: 0.
         norm_class_idx: 0
      -
         depth: 9
         value: 5.
         norm_class_idx: 5
         splits:
            - { var:621, quality:1.6899534606933594e+02,
                le:3.0863916873931885e-01 }
      -
         depth: 10
         value: 5.
         norm_class_idx: 5
         splits:
            - { var:1284, quality:1.7110612487792969e+02,
                le:3.1907975673675537e-01 }
      -
         depth: 11
         value: 5.
         norm_class_idx: 5
         splits:
            - { var:1240, quality:1.7331666564941406e+02,
                le:4.3478710576891899e-03 }
      -
         depth: 12
         value: 0.
         norm_class_idx: 0
      -
         depth: 12
         value: 5.
         norm_class_idx: 5
         splits:
            - { var:1513, quality:1.7678002929687500e+02,
                le:1.6659456491470337e-01 }
      -
         depth: 13
         value: 5.
         norm_class_idx: 5
         splits:
            - { var:146, quality:1.7862962341308594e+02,
                le:1.4340575784444809e-02 }
      -
         depth: 14
         value: 4.
         norm_class_idx: 4
         splits:
            - { var:36, quality:4.5714287757873535e+00,
                le:5.6562025099992752e-02 }
      -
         depth: 15
         value: 4.
         norm_class_idx: 4
      -
         depth: 15
         value: 1.
         norm_class_idx: 1
         splits:
            - { var:4, quality:3.4000000953674316e+00,
                le:1.9866998493671417e-01 }
      -
         depth: 16
         value: 1.
         norm_class_idx: 1
         splits:
            - { var:21, quality:3., le:5.7330809533596039e-02 }
      -
         depth: 17
         value: 1.
         norm_class_idx: 1
      -
         depth: 17
         value: 0.
         norm_class_idx: 0
         splits:
            - { var:0, quality:2., le:5.1098451018333435e-02 }
      -
         depth: 18
         value: 0.
         norm_class_idx: 0
      -
         depth: 18
         value: 2.
         norm_class_idx: 2
      -
         depth: 16
         value: 5.
         norm_class_idx: 5
      -
         depth: 14
         value: 5.
         norm_class_idx: 5
         splits:
            - { var:121, quality:1.8224528503417969e+02,
                le:1.2457951903343201e-02 }
      -
         depth: 15
         value: 1.
         norm_class_idx: 1
         splits:
            - { var:2, quality:4., le:3.3431805670261383e-02 }
      -
         depth: 16
         value: 4.
         norm_class_idx: 4
      -
         depth: 16
         value: 1.
         norm_class_idx: 1
      -
         depth: 15
         value: 5.
         norm_class_idx: 5
         splits:
            - { var:1561, quality:1.8429179382324219e+02,
                le:2.5809191167354584e-02 }
      -
         depth: 16
         value: 3.
         norm_class_idx: 3
         splits:
            - { var:10, quality:4., le:1.6226047277450562e-01 }
      -
         depth: 17
         value: 2.
         norm_class_idx: 2
      -
         depth: 17
         value: 3.
         norm_class_idx: 3
      -
         depth: 16
         value: 5.
         norm_class_idx: 5
         splits:
            - { var:472, quality:1.8671485900878906e+02,
                le:2.6928352192044258e-02 }
      -
         depth: 17
         value: 1.
         norm_class_idx: 1
         splits:
            - { var:0, quality:4., le:6.4813986420631409e-02 }
      -
         depth: 18
         value: 2.
         norm_class_idx: 2
      -
         depth: 18
         value: 1.
         norm_class_idx: 1
      -
         depth: 17
         value: 5.
         norm_class_idx: 5
         splits:
            - { var:522, quality:1.8824035644531250e+02,
                le:1.5147024765610695e-02 }
      -
         depth: 18
         value: 5.
         norm_class_idx: 5
         splits:
            - { var:792, quality:8.3333330154418945e+00,
                le:9.7879141569137573e-02 }
      -
         depth: 19
         value: 2.
         norm_class_idx: 2
         splits:
            - { var:4, quality:4.6666665077209473e+00,
                le:2.2580313682556152e-01 }
      -
         depth: 20
         value: 0.
         norm_class_idx: 0
      -
         depth: 20
         value: 2.
         norm_class_idx: 2
      -
         depth: 19
         value: 5.
         norm_class_idx: 5
      -
         depth: 18
         value: 5.
         norm_class_idx: 5
         splits:
            - { var:31, quality:1.8604232788085938e+02,
                le:2.9212642461061478e-02 }
      -
         depth: 19
         value: 3.
         norm_class_idx: 3
      -
         depth: 19
         value: 5.
         norm_class_idx: 5
         splits:
            - { var:5, quality:1.8701063537597656e+02,
                le:2.7240025997161865e-01 }
      -
         depth: 20
         value: 5.
         norm_class_idx: 5
      -
         depth: 20
         value: 1.
         norm_class_idx: 1
      -
         depth: 13
         value: 3.
         norm_class_idx: 3
         splits:
            - { var:4, quality:8.7500000000000000e+00,
                le:1.2480601668357849e-01 }
      -
         depth: 14
         value: 3.
         norm_class_idx: 3
      -
         depth: 14
         value: 2.
         norm_class_idx: 2
         splits:
            - { var:30, quality:5.5999999046325684e+00,
                le:1.5889406204223633e-01 }
      -
         depth: 15
         value: 5.
         norm_class_idx: 5
         splits:
            - { var:2, quality:5., le:1.2849470973014832e-01 }
      -
         depth: 16
         value: 1.
         norm_class_idx: 1
      -
         depth: 16
         value: 5.
         norm_class_idx: 5
      -
         depth: 15
         value: 2.
         norm_class_idx: 2
      -
         depth: 11
         value: 3.
         norm_class_idx: 3
      -
         depth: 10
         value: 2.
         norm_class_idx: 2
         splits:
            - { var:25, quality:1.0666666984558105e+01,
                le:6.5328642725944519e-02 }
      -
         depth: 11
         value: 5.
         norm_class_idx: 5
         splits:
            - { var:0, quality:3., le:1.3199979066848755e-01 }
      -
         depth: 12
         value: 3.
         norm_class_idx: 3
      -
         depth: 12
         value: 5.
         norm_class_idx: 5
      -
         depth: 11
         value: 2.
         norm_class_idx: 2
      -
         depth: 8
         value: 1.
         norm_class_idx: 1
         splits:
            - { var:142, quality:1.1600000381469727e+01,
                le:8.0780580639839172e-02 }
      -
         depth: 9
         value: 2.
         norm_class_idx: 2
         splits:
            - { var:11, quality:5., le:1.0973365604877472e-01 }
      -
         depth: 10
         value: 3.
         norm_class_idx: 3
      -
         depth: 10
         value: 2.
         norm_class_idx: 2
      -
         depth: 9
         value: 1.
         norm_class_idx: 1
