%YAML:1.0
---
opencv_ml_dtree:
   format: 3
   is_classifier: 1
   var_all: 1765
   var_count: 1764
   ord_var_count: 1764
   cat_var_count: 1
   training_params:
      use_surrogates: 0
      max_categories: 6
      regression_accuracy: 9.9999997764825821e-03
      max_depth: 20
      min_sample_count: 2
      cross_validation_folds: 0
   global_var_idx: 1
   var_idx: [ 0, 1, 2, 3, 4, 5, 6, 7, 8, 9, 10, 11, 12, 13, 14, 15, 16,
       17, 18, 19, 20, 21, 22, 23, 24, 25, 26, 27, 28, 29, 30, 31, 32,
       33, 34, 35, 36, 37, 38, 39, 40, 41, 42, 43, 44, 45, 46, 47, 48,
       49, 50, 51, 52, 53, 54, 55, 56, 57, 58, 59, 60, 61, 62, 63, 64,
       65, 66, 67, 68, 69, 70, 71, 72, 73, 74, 75, 76, 77, 78, 79, 80,
       81, 82, 83, 84, 85, 86, 87, 88, 89, 90, 91, 92, 93, 94, 95, 96,
       97, 98, 99, 100, 101, 102, 103, 104, 105, 106, 107, 108, 109, 110,
       111, 112, 113, 114, 115, 116, 117, 118, 119, 120, 121, 122, 123,
       124, 125, 126, 127, 128, 129, 130, 131, 132, 133, 134, 135, 136,
       137, 138, 139, 140, 141, 142, 143, 144, 145, 146, 147, 148, 149,
       150, 151, 152, 153, 154, 155, 156, 157, 158, 159, 160, 161, 162,
       163, 164, 165, 166, 167, 168, 169, 170, 171, 172, 173, 174, 175,
       176, 177, 178, 179, 180, 181, 182, 183, 184, 185, 186, 187, 188,
       189, 190, 191, 192, 193, 194, 195, 196, 197, 198, 199, 200, 201,
       202, 203, 204, 205, 206, 207, 208, 209, 210, 211, 212, 213, 214,
       215, 216, 217, 218, 219, 220, 221, 222, 223, 224, 225, 226, 227,
       228, 229, 230, 231, 232, 233, 234, 235, 236, 237, 238, 239, 240,
       241, 242, 243, 244, 245, 246, 247, 248, 249, 250, 251, 252, 253,
       254, 255, 256, 257, 258, 259, 260, 261, 262, 263, 264, 265, 266,
       267, 268, 269, 270, 271, 272, 273, 274, 275, 276, 277, 278, 279,
       280, 281, 282, 283, 284, 285, 286, 287, 288, 289, 290, 291, 292,
       293, 294, 295, 296, 297, 298, 299, 300, 301, 302, 303, 304, 305,
       306, 307, 308, 309, 310, 311, 312, 313, 314, 315, 316, 317, 318,
       319, 320, 321, 322, 323, 324, 325, 326, 327, 328, 329, 330, 331,
       332, 333, 334, 335, 336, 337, 338, 339, 340, 341, 342, 343, 344,
       345, 346, 347, 348, 349, 350, 351, 352, 353, 354, 355, 356, 357,
       358, 359, 360, 361, 362, 363, 364, 365, 366, 367, 368, 369, 370,
       371, 372, 373, 374, 375, 376, 377, 378, 379, 380, 381, 382, 383,
       384, 385, 386, 387, 388, 389, 390, 391, 392, 393, 394, 395, 396,
       397, 398, 399, 400, 401, 402, 403, 404, 405, 406, 407, 408, 409,
       410, 411, 412, 413, 414, 415, 416, 417, 418, 419, 420, 421, 422,
       423, 424, 425, 426, 427, 428, 429, 430, 431, 432, 433, 434, 435,
       436, 437, 438, 439, 440, 441, 442, 443, 444, 445, 446, 447, 448,
       449, 450, 451, 452, 453, 454, 455, 456, 457, 458, 459, 460, 461,
       462, 463, 464, 465, 466, 467, 468, 469, 470, 471, 472, 473, 474,
       475, 476, 477, 478, 479, 480, 481, 482, 483, 484, 485, 486, 487,
       488, 489, 490, 491, 492, 493, 494, 495, 496, 497, 498, 499, 500,
       501, 502, 503, 504, 505, 506, 507, 508, 509, 510, 511, 512, 513,
       514, 515, 516, 517, 518, 519, 520, 521, 522, 523, 524, 525, 526,
       527, 528, 529, 530, 531, 532, 533, 534, 535, 536, 537, 538, 539,
       540, 541, 542, 543, 544, 545, 546, 547, 548, 549, 550, 551, 552,
       553, 554, 555, 556, 557, 558, 559, 560, 561, 562, 563, 564, 565,
       566, 567, 568, 569, 570, 571, 572, 573, 574, 575, 576, 577, 578,
       579, 580, 581, 582, 583, 584, 585, 586, 587, 588, 589, 590, 591,
       592, 593, 594, 595, 596, 597, 598, 599, 600, 601, 602, 603, 604,
       605, 606, 607, 608, 609, 610, 611, 612, 613, 614, 615, 616, 617,
       618, 619, 620, 621, 622, 623, 624, 625, 626, 627, 628, 629, 630,
       631, 632, 633, 634, 635, 636, 637, 638, 639, 640, 641, 642, 643,
       644, 645, 646, 647, 648, 649, 650, 651, 652, 653, 654, 655, 656,
       657, 658, 659, 660, 661, 662, 663, 664, 665, 666, 667, 668, 669,
       670, 671, 672, 673, 674, 675, 676, 677, 678, 679, 680, 681, 682,
       683, 684, 685, 686, 687, 688, 689, 690, 691, 692, 693, 694, 695,
       696, 697, 698, 699, 700, 701, 702, 703, 704, 705, 706, 707, 708,
       709, 710, 711, 712, 713, 714, 715, 716, 717, 718, 719, 720, 721,
       722, 723, 724, 725, 726, 727, 728, 729, 730, 731, 732, 733, 734,
       735, 736, 737, 738, 739, 740, 741, 742, 743, 744, 745, 746, 747,
       748, 749, 750, 751, 752, 753, 754, 755, 756, 757, 758, 759, 760,
       761, 762, 763, 764, 765, 766, 767, 768, 769, 770, 771, 772, 773,
       774, 775, 776, 777, 778, 779, 780, 781, 782, 783, 784, 785, 786,
       787, 788, 789, 790, 791, 792, 793, 794, 795, 796, 797, 798, 799,
       800, 801, 802, 803, 804, 805, 806, 807, 808, 809, 810, 811, 812,
       813, 814, 815, 816, 817, 818, 819, 820, 821, 822, 823, 824, 825,
       826, 827, 828, 829, 830, 831, 832, 833, 834, 835, 836, 837, 838,
       839, 840, 841, 842, 843, 844, 845, 846, 847, 848, 849, 850, 851,
       852, 853, 854, 855, 856, 857, 858, 859, 860, 861, 862, 863, 864,
       865, 866, 867, 868, 869, 870, 871, 872, 873, 874, 875, 876, 877,
       878, 879, 880, 881, 882, 883, 884, 885, 886, 887, 888, 889, 890,
       891, 892, 893, 894, 895, 896, 897, 898, 899, 900, 901, 902, 903,
       904, 905, 906, 907, 908, 909, 910, 911, 912, 913, 914, 915, 916,
       917, 918, 919, 920, 921, 922, 923, 924, 925, 926, 927, 928, 929,
       930, 931, 932, 933, 934, 935, 936, 937, 938, 939, 940, 941, 942,
       943, 944, 945, 946, 947, 948, 949, 950, 951, 952, 953, 954, 955,
       956, 957, 958, 959, 960, 961, 962, 963, 964, 965, 966, 967, 968,
       969, 970, 971, 972, 973, 974, 975, 976, 977, 978, 979, 980, 981,
       982, 983, 984, 985, 986, 987, 988, 989, 990, 991, 992, 993, 994,
       995, 996, 997, 998, 999, 1000, 1001, 1002, 1003, 1004, 1005, 1006,
       1007, 1008, 1009, 1010, 1011, 1012, 1013, 1014, 1015, 1016, 1017,
       1018, 1019, 1020, 1021, 1022, 1023, 1024, 1025, 1026, 1027, 1028,
       1029, 1030, 1031, 1032, 1033, 1034, 1035, 1036, 1037, 1038, 1039,
       1040, 1041, 1042, 1043, 1044, 1045, 1046, 1047, 1048, 1049, 1050,
       1051, 1052, 1053, 1054, 1055, 1056, 1057, 1058, 1059, 1060, 1061,
       1062, 1063, 1064, 1065, 1066, 1067, 1068, 1069, 1070, 1071, 1072,
       1073, 1074, 1075, 1076, 1077, 1078, 1079, 1080, 1081, 1082, 1083,
       1084, 1085, 1086, 1087, 1088, 1089, 1090, 1091, 1092, 1093, 1094,
       1095, 1096, 1097, 1098, 1099, 1100, 1101, 1102, 1103, 1104, 1105,
       1106, 1107, 1108, 1109, 1110, 1111, 1112, 1113, 1114, 1115, 1116,
       1117, 1118, 1119, 1120, 1121, 1122, 1123, 1124, 1125, 1126, 1127,
       1128, 1129, 1130, 1131, 1132, 1133, 1134, 1135, 1136, 1137, 1138,
       1139, 1140, 1141, 1142, 1143, 1144, 1145, 1146, 1147, 1148, 1149,
       1150, 1151, 1152, 1153, 1154, 1155, 1156, 1157, 1158, 1159, 1160,
       1161, 1162, 1163, 1164, 1165, 1166, 1167, 1168, 1169, 1170, 1171,
       1172, 1173, 1174, 1175, 1176, 1177, 1178, 1179, 1180, 1181, 1182,
       1183, 1184, 1185, 1186, 1187, 1188, 1189, 1190, 1191, 1192, 1193,
       1194, 1195, 1196, 1197, 1198, 1199, 1200, 1201, 1202, 1203, 1204,
       1205, 1206, 1207, 1208, 1209, 1210, 1211, 1212, 1213, 1214, 1215,
       1216, 1217, 1218, 1219, 1220, 1221, 1222, 1223, 1224, 1225, 1226,
       1227, 1228, 1229, 1230, 1231, 1232, 1233, 1234, 1235, 1236, 1237,
       1238, 1239, 1240, 1241, 1242, 1243, 1244, 1245, 1246, 1247, 1248,
       1249, 1250, 1251, 1252, 1253, 1254, 1255, 1256, 1257, 1258, 1259,
       1260, 1261, 1262, 1263, 1264, 1265, 1266, 1267, 1268, 1269, 1270,
       1271, 1272, 1273, 1274, 1275, 1276, 1277, 1278, 1279, 1280, 1281,
       1282, 1283, 1284, 1285, 1286, 1287, 1288, 1289, 1290, 1291, 1292,
       1293, 1294, 1295, 1296, 1297, 1298, 1299, 1300, 1301, 1302, 1303,
       1304, 1305, 1306, 1307, 1308, 1309, 1310, 1311, 1312, 1313, 1314,
       1315, 1316, 1317, 1318, 1319, 1320, 1321, 1322, 1323, 1324, 1325,
       1326, 1327, 1328, 1329, 1330, 1331, 1332, 1333, 1334, 1335, 1336,
       1337, 1338, 1339, 1340, 1341, 1342, 1343, 1344, 1345, 1346, 1347,
       1348, 1349, 1350, 1351, 1352, 1353, 1354, 1355, 1356, 1357, 1358,
       1359, 1360, 1361, 1362, 1363, 1364, 1365, 1366, 1367, 1368, 1369,
       1370, 1371, 1372, 1373, 1374, 1375, 1376, 1377, 1378, 1379, 1380,
       1381, 1382, 1383, 1384, 1385, 1386, 1387, 1388, 1389, 1390, 1391,
       1392, 1393, 1394, 1395, 1396, 1397, 1398, 1399, 1400, 1401, 1402,
       1403, 1404, 1405, 1406, 1407, 1408, 1409, 1410, 1411, 1412, 1413,
       1414, 1415, 1416, 1417, 1418, 1419, 1420, 1421, 1422, 1423, 1424,
       1425, 1426, 1427, 1428, 1429, 1430, 1431, 1432, 1433, 1434, 1435,
       1436, 1437, 1438, 1439, 1440, 1441, 1442, 1443, 1444, 1445, 1446,
       1447, 1448, 1449, 1450, 1451, 1452, 1453, 1454, 1455, 1456, 1457,
       1458, 1459, 1460, 1461, 1462, 1463, 1464, 1465, 1466, 1467, 1468,
       1469, 1470, 1471, 1472, 1473, 1474, 1475, 1476, 1477, 1478, 1479,
       1480, 1481, 1482, 1483, 1484, 1485, 1486, 1487, 1488, 1489, 1490,
       1491, 1492, 1493, 1494, 1495, 1496, 1497, 1498, 1499, 1500, 1501,
       1502, 1503, 1504, 1505, 1506, 1507, 1508, 1509, 1510, 1511, 1512,
       1513, 1514, 1515, 1516, 1517, 1518, 1519, 1520, 1521, 1522, 1523,
       1524, 1525, 1526, 1527, 1528, 1529, 1530, 1531, 1532, 1533, 1534,
       1535, 1536, 1537, 1538, 1539, 1540, 1541, 1542, 1543, 1544, 1545,
       1546, 1547, 1548, 1549, 1550, 1551, 1552, 1553, 1554, 1555, 1556,
       1557, 1558, 1559, 1560, 1561, 1562, 1563, 1564, 1565, 1566, 1567,
       1568, 1569, 1570, 1571, 1572, 1573, 1574, 1575, 1576, 1577, 1578,
       1579, 1580, 1581, 1582, 1583, 1584, 1585, 1586, 1587, 1588, 1589,
       1590, 1591, 1592, 1593, 1594, 1595, 1596, 1597, 1598, 1599, 1600,
       1601, 1602, 1603, 1604, 1605, 1606, 1607, 1608, 1609, 1610, 1611,
       1612, 1613, 1614, 1615, 1616, 1617, 1618, 1619, 1620, 1621, 1622,
       1623, 1624, 1625, 1626, 1627, 1628, 1629, 1630, 1631, 1632, 1633,
       1634, 1635, 1636, 1637, 1638, 1639, 1640, 1641, 1642, 1643, 1644,
       1645, 1646, 1647, 1648, 1649, 1650, 1651, 1652, 1653, 1654, 1655,
       1656, 1657, 1658, 1659, 1660, 1661, 1662, 1663, 1664, 1665, 1666,
       1667, 1668, 1669, 1670, 1671, 1672, 1673, 1674, 1675, 1676, 1677,
       1678, 1679, 1680, 1681, 1682, 1683, 1684, 1685, 1686, 1687, 1688,
       1689, 1690, 1691, 1692, 1693, 1694, 1695, 1696, 1697, 1698, 1699,
       1700, 1701, 1702, 1703, 1704, 1705, 1706, 1707, 1708, 1709, 1710,
       1711, 1712, 1713, 1714, 1715, 1716, 1717, 1718, 1719, 1720, 1721,
       1722, 1723, 1724, 1725, 1726, 1727, 1728, 1729, 1730, 1731, 1732,
       1733, 1734, 1735, 1736, 1737, 1738, 1739, 1740, 1741, 1742, 1743,
       1744, 1745, 1746, 1747, 1748, 1749, 1750, 1751, 1752, 1753, 1754,
       1755, 1756, 1757, 1758, 1759, 1760, 1761, 1762, 1763 ]
   var_type: [ 0, 0, 0, 0, 0, 0, 0, 0, 0, 0, 0, 0, 0, 0, 0, 0, 0, 0, 0,
       0, 0, 0, 0, 0, 0, 0, 0, 0, 0, 0, 0, 0, 0, 0, 0, 0, 0, 0, 0, 0, 0,
       0, 0, 0, 0, 0, 0, 0, 0, 0, 0, 0, 0, 0, 0, 0, 0, 0, 0, 0, 0, 0, 0,
       0, 0, 0, 0, 0, 0, 0, 0, 0, 0, 0, 0, 0, 0, 0, 0, 0, 0, 0, 0, 0, 0,
       0, 0, 0, 0, 0, 0, 0, 0, 0, 0, 0, 0, 0, 0, 0, 0, 0, 0, 0, 0, 0, 0,
       0, 0, 0, 0, 0, 0, 0, 0, 0, 0, 0, 0, 0, 0, 0, 0, 0, 0, 0, 0, 0, 0,
       0, 0, 0, 0, 0, 0, 0, 0, 0, 0, 0, 0, 0, 0, 0, 0, 0, 0, 0, 0, 0, 0,
       0, 0, 0, 0, 0, 0, 0, 0, 0, 0, 0, 0, 0, 0, 0, 0, 0, 0, 0, 0, 0, 0,
       0, 0, 0, 0, 0, 0, 0, 0, 0, 0, 0, 0, 0, 0, 0, 0, 0, 0, 0, 0, 0, 0,
       0, 0, 0, 0, 0, 0, 0, 0, 0, 0, 0, 0, 0, 0, 0, 0, 0, 0, 0, 0, 0, 0,
       0, 0, 0, 0, 0, 0, 0, 0, 0, 0, 0, 0, 0, 0, 0, 0, 0, 0, 0, 0, 0, 0,
       0, 0, 0, 0, 0, 0, 0, 0, 0, 0, 0, 0, 0, 0, 0, 0, 0, 0, 0, 0, 0, 0,
       0, 0, 0, 0, 0, 0, 0, 0, 0, 0, 0, 0, 0, 0, 0, 0, 0, 0, 0, 0, 0, 0,
       0, 0, 0, 0, 0, 0, 0, 0, 0, 0, 0, 0, 0, 0, 0, 0, 0, 0, 0, 0, 0, 0,
       0, 0, 0, 0, 0, 0, 0, 0, 0, 0, 0, 0, 0, 0, 0, 0, 0, 0, 0, 0, 0, 0,
       0, 0, 0, 0, 0, 0, 0, 0, 0, 0, 0, 0, 0, 0, 0, 0, 0, 0, 0, 0, 0, 0,
       0, 0, 0, 0, 0, 0, 0, 0, 0, 0, 0, 0, 0, 0, 0, 0, 0, 0, 0, 0, 0, 0,
       0, 0, 0, 0, 0, 0, 0, 0, 0, 0, 0, 0, 0, 0, 0, 0, 0, 0, 0, 0, 0, 0,
       0, 0, 0, 0, 0, 0, 0, 0, 0, 0, 0, 0, 0, 0, 0, 0, 0, 0, 0, 0, 0, 0,
       0, 0, 0, 0, 0, 0, 0, 0, 0, 0, 0, 0, 0, 0, 0, 0, 0, 0, 0, 0, 0, 0,
       0, 0, 0, 0, 0, 0, 0, 0, 0, 0, 0, 0, 0, 0, 0, 0, 0, 0, 0, 0, 0, 0,
       0, 0, 0, 0, 0, 0, 0, 0, 0, 0, 0, 0, 0, 0, 0, 0, 0, 0, 0, 0, 0, 0,
       0, 0, 0, 0, 0, 0, 0, 0, 0, 0, 0, 0, 0, 0, 0, 0, 0, 0, 0, 0, 0, 0,
       0, 0, 0, 0, 0, 0, 0, 0, 0, 0, 0, 0, 0, 0, 0, 0, 0, 0, 0, 0, 0, 0,
       0, 0, 0, 0, 0, 0, 0, 0, 0, 0, 0, 0, 0, 0, 0, 0, 0, 0, 0, 0, 0, 0,
       0, 0, 0, 0, 0, 0, 0, 0, 0, 0, 0, 0, 0, 0, 0, 0, 0, 0, 0, 0, 0, 0,
       0, 0, 0, 0, 0, 0, 0, 0, 0, 0, 0, 0, 0, 0, 0, 0, 0, 0, 0, 0, 0, 0,
       0, 0, 0, 0, 0, 0, 0, 0, 0, 0, 0, 0, 0, 0, 0, 0, 0, 0, 0, 0, 0, 0,
       0, 0, 0, 0, 0, 0, 0, 0, 0, 0, 0, 0, 0, 0, 0, 0, 0, 0, 0, 0, 0, 0,
       0, 0, 0, 0, 0, 0, 0, 0, 0, 0, 0, 0, 0, 0, 0, 0, 0, 0, 0, 0, 0, 0,
       0, 0, 0, 0, 0, 0, 0, 0, 0, 0, 0, 0, 0, 0, 0, 0, 0, 0, 0, 0, 0, 0,
       0, 0, 0, 0, 0, 0, 0, 0, 0, 0, 0, 0, 0, 0, 0, 0, 0, 0, 0, 0, 0, 0,
       0, 0, 0, 0, 0, 0, 0, 0, 0, 0, 0, 0, 0, 0, 0, 0, 0, 0, 0, 0, 0, 0,
       0, 0, 0, 0, 0, 0, 0, 0, 0, 0, 0, 0, 0, 0, 0, 0, 0, 0, 0, 0, 0, 0,
       0, 0, 0, 0, 0, 0, 0, 0, 0, 0, 0, 0, 0, 0, 0, 0, 0, 0, 0, 0, 0, 0,
       0, 0, 0, 0, 0, 0, 0, 0, 0, 0, 0, 0, 0, 0, 0, 0, 0, 0, 0, 0, 0, 0,
       0, 0, 0, 0, 0, 0, 0, 0, 0, 0, 0, 0, 0, 0, 0, 0, 0, 0, 0, 0, 0, 0,
       0, 0, 0, 0, 0, 0, 0, 0, 0, 0, 0, 0, 0, 0, 0, 0, 0, 0, 0, 0, 0, 0,
       0, 0, 0, 0, 0, 0, 0, 0, 0, 0, 0, 0, 0, 0, 0, 0, 0, 0, 0, 0, 0, 0,
       0, 0, 0, 0, 0, 0, 0, 0, 0, 0, 0, 0, 0, 0, 0, 0, 0, 0, 0, 0, 0, 0,
       0, 0, 0, 0, 0, 0, 0, 0, 0, 0, 0, 0, 0, 0, 0, 0, 0, 0, 0, 0, 0, 0,
       0, 0, 0, 0, 0, 0, 0, 0, 0, 0, 0, 0, 0, 0, 0, 0, 0, 0, 0, 0, 0, 0,
       0, 0, 0, 0, 0, 0, 0, 0, 0, 0, 0, 0, 0, 0, 0, 0, 0, 0, 0, 0, 0, 0,
       0, 0, 0, 0, 0, 0, 0, 0, 0, 0, 0, 0, 0, 0, 0, 0, 0, 0, 0, 0, 0, 0,
       0, 0, 0, 0, 0, 0, 0, 0, 0, 0, 0, 0, 0, 0, 0, 0, 0, 0, 0, 0, 0, 0,
       0, 0, 0, 0, 0, 0, 0, 0, 0, 0, 0, 0, 0, 0, 0, 0, 0, 0, 0, 0, 0, 0,
       0, 0, 0, 0, 0, 0, 0, 0, 0, 0, 0, 0, 0, 0, 0, 0, 0, 0, 0, 0, 0, 0,
       0, 0, 0, 0, 0, 0, 0, 0, 0, 0, 0, 0, 0, 0, 0, 0, 0, 0, 0, 0, 0, 0,
       0, 0, 0, 0, 0, 0, 0, 0, 0, 0, 0, 0, 0, 0, 0, 0, 0, 0, 0, 0, 0, 0,
       0, 0, 0, 0, 0, 0, 0, 0, 0, 0, 0, 0, 0, 0, 0, 0, 0, 0, 0, 0, 0, 0,
       0, 0, 0, 0, 0, 0, 0, 0, 0, 0, 0, 0, 0, 0, 0, 0, 0, 0, 0, 0, 0, 0,
       0, 0, 0, 0, 0, 0, 0, 0, 0, 0, 0, 0, 0, 0, 0, 0, 0, 0, 0, 0, 0, 0,
       0, 0, 0, 0, 0, 0, 0, 0, 0, 0, 0, 0, 0, 0, 0, 0, 0, 0, 0, 0, 0, 0,
       0, 0, 0, 0, 0, 0, 0, 0, 0, 0, 0, 0, 0, 0, 0, 0, 0, 0, 0, 0, 0, 0,
       0, 0, 0, 0, 0, 0, 0, 0, 0, 0, 0, 0, 0, 0, 0, 0, 0, 0, 0, 0, 0, 0,
       0, 0, 0, 0, 0, 0, 0, 0, 0, 0, 0, 0, 0, 0, 0, 0, 0, 0, 0, 0, 0, 0,
       0, 0, 0, 0, 0, 0, 0, 0, 0, 0, 0, 0, 0, 0, 0, 0, 0, 0, 0, 0, 0, 0,
       0, 0, 0, 0, 0, 0, 0, 0, 0, 0, 0, 0, 0, 0, 0, 0, 0, 0, 0, 0, 0, 0,
       0, 0, 0, 0, 0, 0, 0, 0, 0, 0, 0, 0, 0, 0, 0, 0, 0, 0, 0, 0, 0, 0,
       0, 0, 0, 0, 0, 0, 0, 0, 0, 0, 0, 0, 0, 0, 0, 0, 0, 0, 0, 0, 0, 0,
       0, 0, 0, 0, 0, 0, 0, 0, 0, 0, 0, 0, 0, 0, 0, 0, 0, 0, 0, 0, 0, 0,
       0, 0, 0, 0, 0, 0, 0, 0, 0, 0, 0, 0, 0, 0, 0, 0, 0, 0, 0, 0, 0, 0,
       0, 0, 0, 0, 0, 0, 0, 0, 0, 0, 0, 0, 0, 0, 0, 0, 0, 0, 0, 0, 0, 0,
       0, 0, 0, 0, 0, 0, 0, 0, 0, 0, 0, 0, 0, 0, 0, 0, 0, 0, 0, 0, 0, 0,
       0, 0, 0, 0, 0, 0, 0, 0, 0, 0, 0, 0, 0, 0, 0, 0, 0, 0, 0, 0, 0, 0,
       0, 0, 0, 0, 0, 0, 0, 0, 0, 0, 0, 0, 0, 0, 0, 0, 0, 0, 0, 0, 0, 0,
       0, 0, 0, 0, 0, 0, 0, 0, 0, 0, 0, 0, 0, 0, 0, 0, 0, 0, 0, 0, 0, 0,
       0, 0, 0, 0, 0, 0, 0, 0, 0, 0, 0, 0, 0, 0, 0, 0, 0, 0, 0, 0, 0, 0,
       0, 0, 0, 0, 0, 0, 0, 0, 0, 0, 0, 0, 0, 0, 0, 0, 0, 0, 0, 0, 0, 0,
       0, 0, 0, 0, 0, 0, 0, 0, 0, 0, 0, 0, 0, 0, 0, 0, 0, 0, 0, 0, 0, 0,
       0, 0, 0, 0, 0, 0, 0, 0, 0, 0, 0, 0, 0, 0, 0, 0, 0, 0, 0, 0, 0, 0,
       0, 0, 0, 0, 0, 0, 0, 0, 0, 0, 0, 0, 0, 0, 0, 0, 0, 0, 0, 0, 0, 0,
       0, 0, 0, 0, 0, 0, 0, 0, 0, 0, 0, 0, 0, 0, 0, 0, 0, 0, 0, 0, 0, 0,
       0, 0, 0, 0, 0, 0, 0, 0, 0, 0, 0, 0, 0, 0, 0, 0, 0, 0, 0, 0, 0, 0,
       0, 0, 0, 0, 0, 0, 0, 0, 0, 0, 0, 0, 0, 0, 0, 0, 0, 0, 0, 0, 0, 0,
       0, 0, 0, 0, 0, 0, 0, 0, 0, 0, 0, 0, 0, 0, 0, 0, 0, 0, 0, 0, 0, 0,
       0, 0, 0, 0, 0, 0, 0, 0, 0, 0, 0, 0, 0, 0, 0, 0, 0, 0, 0, 0, 0, 0,
       0, 0, 0, 0, 0, 0, 0, 0, 0, 0, 0, 0, 0, 0, 0, 0, 0, 0, 0, 0, 0, 0,
       0, 0, 0, 0, 0, 0, 0, 0, 0, 0, 0, 0, 0, 0, 0, 0, 0, 0, 0, 0, 0, 0,
       0, 0, 0, 0, 0, 0, 0, 0, 0, 0, 0, 0, 0, 0, 0, 0, 0, 0, 0, 0, 0, 0,
       0, 0, 0, 0, 0, 0, 0, 1 ]
   cat_ofs: [ 0, 0, 0, 0, 0, 0, 0, 0, 0, 0, 0, 0, 0, 0, 0, 0, 0, 0, 0, 0,
       0, 0, 0, 0, 0, 0, 0, 0, 0, 0, 0, 0, 0, 0, 0, 0, 0, 0, 0, 0, 0, 0,
       0, 0, 0, 0, 0, 0, 0, 0, 0, 0, 0, 0, 0, 0, 0, 0, 0, 0, 0, 0, 0, 0,
       0, 0, 0, 0, 0, 0, 0, 0, 0, 0, 0, 0, 0, 0, 0, 0, 0, 0, 0, 0, 0, 0,
       0, 0, 0, 0, 0, 0, 0, 0, 0, 0, 0, 0, 0, 0, 0, 0, 0, 0, 0, 0, 0, 0,
       0, 0, 0, 0, 0, 0, 0, 0, 0, 0, 0, 0, 0, 0, 0, 0, 0, 0, 0, 0, 0, 0,
       0, 0, 0, 0, 0, 0, 0, 0, 0, 0, 0, 0, 0, 0, 0, 0, 0, 0, 0, 0, 0, 0,
       0, 0, 0, 0, 0, 0, 0, 0, 0, 0, 0, 0, 0, 0, 0, 0, 0, 0, 0, 0, 0, 0,
       0, 0, 0, 0, 0, 0, 0, 0, 0, 0, 0, 0, 0, 0, 0, 0, 0, 0, 0, 0, 0, 0,
       0, 0, 0, 0, 0, 0, 0, 0, 0, 0, 0, 0, 0, 0, 0, 0, 0, 0, 0, 0, 0, 0,
       0, 0, 0, 0, 0, 0, 0, 0, 0, 0, 0, 0, 0, 0, 0, 0, 0, 0, 0, 0, 0, 0,
       0, 0, 0, 0, 0, 0, 0, 0, 0, 0, 0, 0, 0, 0, 0, 0, 0, 0, 0, 0, 0, 0,
       0, 0, 0, 0, 0, 0, 0, 0, 0, 0, 0, 0, 0, 0, 0, 0, 0, 0, 0, 0, 0, 0,
       0, 0, 0, 0, 0, 0, 0, 0, 0, 0, 0, 0, 0, 0, 0, 0, 0, 0, 0, 0, 0, 0,
       0, 0, 0, 0, 0, 0, 0, 0, 0, 0, 0, 0, 0, 0, 0, 0, 0, 0, 0, 0, 0, 0,
       0, 0, 0, 0, 0, 0, 0, 0, 0, 0, 0, 0, 0, 0, 0, 0, 0, 0, 0, 0, 0, 0,
       0, 0, 0, 0, 0, 0, 0, 0, 0, 0, 0, 0, 0, 0, 0, 0, 0, 0, 0, 0, 0, 0,
       0, 0, 0, 0, 0, 0, 0, 0, 0, 0, 0, 0, 0, 0, 0, 0, 0, 0, 0, 0, 0, 0,
       0, 0, 0, 0, 0, 0, 0, 0, 0, 0, 0, 0, 0, 0, 0, 0, 0, 0, 0, 0, 0, 0,
       0, 0, 0, 0, 0, 0, 0, 0, 0, 0, 0, 0, 0, 0, 0, 0, 0, 0, 0, 0, 0, 0,
       0, 0, 0, 0, 0, 0, 0, 0, 0, 0, 0, 0, 0, 0, 0, 0, 0, 0, 0, 0, 0, 0,
       0, 0, 0, 0, 0, 0, 0, 0, 0, 0, 0, 0, 0, 0, 0, 0, 0, 0, 0, 0, 0, 0,
       0, 0, 0, 0, 0, 0, 0, 0, 0, 0, 0, 0, 0, 0, 0, 0, 0, 0, 0, 0, 0, 0,
       0, 0, 0, 0, 0, 0, 0, 0, 0, 0, 0, 0, 0, 0, 0, 0, 0, 0, 0, 0, 0, 0,
       0, 0, 0, 0, 0, 0, 0, 0, 0, 0, 0, 0, 0, 0, 0, 0, 0, 0, 0, 0, 0, 0,
       0, 0, 0, 0, 0, 0, 0, 0, 0, 0, 0, 0, 0, 0, 0, 0, 0, 0, 0, 0, 0, 0,
       0, 0, 0, 0, 0, 0, 0, 0, 0, 0, 0, 0, 0, 0, 0, 0, 0, 0, 0, 0, 0, 0,
       0, 0, 0, 0, 0, 0, 0, 0, 0, 0, 0, 0, 0, 0, 0, 0, 0, 0, 0, 0, 0, 0,
       0, 0, 0, 0, 0, 0, 0, 0, 0, 0, 0, 0, 0, 0, 0, 0, 0, 0, 0, 0, 0, 0,
       0, 0, 0, 0, 0, 0, 0, 0, 0, 0, 0, 0, 0, 0, 0, 0, 0, 0, 0, 0, 0, 0,
       0, 0, 0, 0, 0, 0, 0, 0, 0, 0, 0, 0, 0, 0, 0, 0, 0, 0, 0, 0, 0, 0,
       0, 0, 0, 0, 0, 0, 0, 0, 0, 0, 0, 0, 0, 0, 0, 0, 0, 0, 0, 0, 0, 0,
       0, 0, 0, 0, 0, 0, 0, 0, 0, 0, 0, 0, 0, 0, 0, 0, 0, 0, 0, 0, 0, 0,
       0, 0, 0, 0, 0, 0, 0, 0, 0, 0, 0, 0, 0, 0, 0, 0, 0, 0, 0, 0, 0, 0,
       0, 0, 0, 0, 0, 0, 0, 0, 0, 0, 0, 0, 0, 0, 0, 0, 0, 0, 0, 0, 0, 0,
       0, 0, 0, 0, 0, 0, 0, 0, 0, 0, 0, 0, 0, 0, 0, 0, 0, 0, 0, 0, 0, 0,
       0, 0, 0, 0, 0, 0, 0, 0, 0, 0, 0, 0, 0, 0, 0, 0, 0, 0, 0, 0, 0, 0,
       0, 0, 0, 0, 0, 0, 0, 0, 0, 0, 0, 0, 0, 0, 0, 0, 0, 0, 0, 0, 0, 0,
       0, 0, 0, 0, 0, 0, 0, 0, 0, 0, 0, 0, 0, 0, 0, 0, 0, 0, 0, 0, 0, 0,
       0, 0, 0, 0, 0, 0, 0, 0, 0, 0, 0, 0, 0, 0, 0, 0, 0, 0, 0, 0, 0, 0,
       0, 0, 0, 0, 0, 0, 0, 0, 0, 0, 0, 0, 0, 0, 0, 0, 0, 0, 0, 0, 0, 0,
       0, 0, 0, 0, 0, 0, 0, 0, 0, 0, 0, 0, 0, 0, 0, 0, 0, 0, 0, 0, 0, 0,
       0, 0, 0, 0, 0, 0, 0, 0, 0, 0, 0, 0, 0, 0, 0, 0, 0, 0, 0, 0, 0, 0,
       0, 0, 0, 0, 0, 0, 0, 0, 0, 0, 0, 0, 0, 0, 0, 0, 0, 0, 0, 0, 0, 0,
       0, 0, 0, 0, 0, 0, 0, 0, 0, 0, 0, 0, 0, 0, 0, 0, 0, 0, 0, 0, 0, 0,
       0, 0, 0, 0, 0, 0, 0, 0, 0, 0, 0, 0, 0, 0, 0, 0, 0, 0, 0, 0, 0, 0,
       0, 0, 0, 0, 0, 0, 0, 0, 0, 0, 0, 0, 0, 0, 0, 0, 0, 0, 0, 0, 0, 0,
       0, 0, 0, 0, 0, 0, 0, 0, 0, 0, 0, 0, 0, 0, 0, 0, 0, 0, 0, 0, 0, 0,
       0, 0, 0, 0, 0, 0, 0, 0, 0, 0, 0, 0, 0, 0, 0, 0, 0, 0, 0, 0, 0, 0,
       0, 0, 0, 0, 0, 0, 0, 0, 0, 0, 0, 0, 0, 0, 0, 0, 0, 0, 0, 0, 0, 0,
       0, 0, 0, 0, 0, 0, 0, 0, 0, 0, 0, 0, 0, 0, 0, 0, 0, 0, 0, 0, 0, 0,
       0, 0, 0, 0, 0, 0, 0, 0, 0, 0, 0, 0, 0, 0, 0, 0, 0, 0, 0, 0, 0, 0,
       0, 0, 0, 0, 0, 0, 0, 0, 0, 0, 0, 0, 0, 0, 0, 0, 0, 0, 0, 0, 0, 0,
       0, 0, 0, 0, 0, 0, 0, 0, 0, 0, 0, 0, 0, 0, 0, 0, 0, 0, 0, 0, 0, 0,
       0, 0, 0, 0, 0, 0, 0, 0, 0, 0, 0, 0, 0, 0, 0, 0, 0, 0, 0, 0, 0, 0,
       0, 0, 0, 0, 0, 0, 0, 0, 0, 0, 0, 0, 0, 0, 0, 0, 0, 0, 0, 0, 0, 0,
       0, 0, 0, 0, 0, 0, 0, 0, 0, 0, 0, 0, 0, 0, 0, 0, 0, 0, 0, 0, 0, 0,
       0, 0, 0, 0, 0, 0, 0, 0, 0, 0, 0, 0, 0, 0, 0, 0, 0, 0, 0, 0, 0, 0,
       0, 0, 0, 0, 0, 0, 0, 0, 0, 0, 0, 0, 0, 0, 0, 0, 0, 0, 0, 0, 0, 0,
       0, 0, 0, 0, 0, 0, 0, 0, 0, 0, 0, 0, 0, 0, 0, 0, 0, 0, 0, 0, 0, 0,
       0, 0, 0, 0, 0, 0, 0, 0, 0, 0, 0, 0, 0, 0, 0, 0, 0, 0, 0, 0, 0, 0,
       0, 0, 0, 0, 0, 0, 0, 0, 0, 0, 0, 0, 0, 0, 0, 0, 0, 0, 0, 0, 0, 0,
       0, 0, 0, 0, 0, 0, 0, 0, 0, 0, 0, 0, 0, 0, 0, 0, 0, 0, 0, 0, 0, 0,
       0, 0, 0, 0, 0, 0, 0, 0, 0, 0, 0, 0, 0, 0, 0, 0, 0, 0, 0, 0, 0, 0,
       0, 0, 0, 0, 0, 0, 0, 0, 0, 0, 0, 0, 0, 0, 0, 0, 0, 0, 0, 0, 0, 0,
       0, 0, 0, 0, 0, 0, 0, 0, 0, 0, 0, 0, 0, 0, 0, 0, 0, 0, 0, 0, 0, 0,
       0, 0, 0, 0, 0, 0, 0, 0, 0, 0, 0, 0, 0, 0, 0, 0, 0, 0, 0, 0, 0, 0,
       0, 0, 0, 0, 0, 0, 0, 0, 0, 0, 0, 0, 0, 0, 0, 0, 0, 0, 0, 0, 0, 0,
       0, 0, 0, 0, 0, 0, 0, 0, 0, 0, 0, 0, 0, 0, 0, 0, 0, 0, 0, 0, 0, 0,
       0, 0, 0, 0, 0, 0, 0, 0, 0, 0, 0, 0, 0, 0, 0, 0, 0, 0, 0, 0, 0, 0,
       0, 0, 0, 0, 0, 0, 0, 0, 0, 0, 0, 0, 0, 0, 0, 0, 0, 0, 0, 0, 0, 0,
       0, 0, 0, 0, 0, 0, 0, 0, 0, 0, 0, 0, 0, 0, 0, 0, 0, 0, 0, 0, 0, 0,
       0, 0, 0, 0, 0, 0, 0, 0, 0, 0, 0, 0, 0, 0, 0, 0, 0, 0, 0, 0, 0, 0,
       0, 0, 0, 0, 0, 0, 0, 0, 0, 0, 0, 0, 0, 0, 0, 0, 0, 0, 0, 0, 0, 0,
       0, 0, 0, 0, 0, 0, 0, 0, 0, 0, 0, 0, 0, 0, 0, 0, 0, 0, 0, 0, 0, 0,
       0, 0, 0, 0, 0, 0, 0, 0, 0, 0, 0, 0, 0, 0, 0, 0, 0, 0, 0, 0, 0, 0,
       0, 0, 0, 0, 0, 0, 0, 0, 0, 0, 0, 0, 0, 0, 0, 0, 0, 0, 0, 0, 0, 0,
       0, 0, 0, 0, 0, 0, 0, 0, 0, 0, 0, 0, 0, 0, 0, 0, 0, 0, 0, 0, 0, 0,
       0, 0, 0, 0, 0, 0, 0, 0, 0, 0, 0, 0, 0, 0, 0, 0, 0, 0, 0, 0, 0, 0,
       0, 0, 0, 0, 0, 0, 0, 0, 0, 0, 0, 0, 0, 0, 0, 0, 0, 0, 0, 0, 0, 0,
       0, 0, 0, 0, 0, 0, 0, 0, 0, 0, 0, 0, 0, 0, 0, 0, 0, 0, 0, 0, 0, 0,
       0, 0, 0, 0, 0, 0, 0, 0, 0, 0, 0, 0, 0, 0, 0, 0, 0, 0, 0, 0, 0, 0,
       0, 0, 0, 0, 0, 0, 0, 0, 0, 0, 0, 0, 0, 0, 0, 0, 0, 0, 0, 0, 0, 0,
       0, 0, 0, 0, 0, 0, 0, 0, 0, 0, 0, 0, 0, 0, 0, 0, 0, 0, 0, 0, 0, 0,
       0, 0, 0, 0, 0, 0, 0, 0, 0, 0, 0, 0, 0, 0, 0, 0, 0, 0, 0, 0, 0, 0,
       0, 0, 0, 0, 0, 0, 0, 0, 0, 0, 0, 0, 0, 0, 0, 0, 0, 0, 0, 0, 0, 0,
       0, 0, 0, 0, 0, 0, 0, 0, 0, 0, 0, 0, 0, 0, 0, 0, 0, 0, 0, 0, 0, 0,
       0, 0, 0, 0, 0, 0, 0, 0, 0, 0, 0, 0, 0, 0, 0, 0, 0, 0, 0, 0, 0, 0,
       0, 0, 0, 0, 0, 0, 0, 0, 0, 0, 0, 0, 0, 0, 0, 0, 0, 0, 0, 0, 0, 0,
       0, 0, 0, 0, 0, 0, 0, 0, 0, 0, 0, 0, 0, 0, 0, 0, 0, 0, 0, 0, 0, 0,
       0, 0, 0, 0, 0, 0, 0, 0, 0, 0, 0, 0, 0, 0, 0, 0, 0, 0, 0, 0, 0, 0,
       0, 0, 0, 0, 0, 0, 0, 0, 0, 0, 0, 0, 0, 0, 0, 0, 0, 0, 0, 0, 0, 0,
       0, 0, 0, 0, 0, 0, 0, 0, 0, 0, 0, 0, 0, 0, 0, 0, 0, 0, 0, 0, 0, 0,
       0, 0, 0, 0, 0, 0, 0, 0, 0, 0, 0, 0, 0, 0, 0, 0, 0, 0, 0, 0, 0, 0,
       0, 0, 0, 0, 0, 0, 0, 0, 0, 0, 0, 0, 0, 0, 0, 0, 0, 0, 0, 0, 0, 0,
       0, 0, 0, 0, 0, 0, 0, 0, 0, 0, 0, 0, 0, 0, 0, 0, 0, 0, 0, 0, 0, 0,
       0, 0, 0, 0, 0, 0, 0, 0, 0, 0, 0, 0, 0, 0, 0, 0, 0, 0, 0, 0, 0, 0,
       0, 0, 0, 0, 0, 0, 0, 0, 0, 0, 0, 0, 0, 0, 0, 0, 0, 0, 0, 0, 0, 0,
       0, 0, 0, 0, 0, 0, 0, 0, 0, 0, 0, 0, 0, 0, 0, 0, 0, 0, 0, 0, 0, 0,
       0, 0, 0, 0, 0, 0, 0, 0, 0, 0, 0, 0, 0, 0, 0, 0, 0, 0, 0, 0, 0, 0,
       0, 0, 0, 0, 0, 0, 0, 0, 0, 0, 0, 0, 0, 0, 0, 0, 0, 0, 0, 0, 0, 0,
       0, 0, 0, 0, 0, 0, 0, 0, 0, 0, 0, 0, 0, 0, 0, 0, 0, 0, 0, 0, 0, 0,
       0, 0, 0, 0, 0, 0, 0, 0, 0, 0, 0, 0, 0, 0, 0, 0, 0, 0, 0, 0, 0, 0,
       0, 0, 0, 0, 0, 0, 0, 0, 0, 0, 0, 0, 0, 0, 0, 0, 0, 0, 0, 0, 0, 0,
       0, 0, 0, 0, 0, 0, 0, 0, 0, 0, 0, 0, 0, 0, 0, 0, 0, 0, 0, 0, 0, 0,
       0, 0, 0, 0, 0, 0, 0, 0, 0, 0, 0, 0, 0, 0, 0, 0, 0, 0, 0, 0, 0, 0,
       0, 0, 0, 0, 0, 0, 0, 0, 0, 0, 0, 0, 0, 0, 0, 0, 0, 0, 0, 0, 0, 0,
       0, 0, 0, 0, 0, 0, 0, 0, 0, 0, 0, 0, 0, 0, 0, 0, 0, 0, 0, 0, 0, 0,
       0, 0, 0, 0, 0, 0, 0, 0, 0, 0, 0, 0, 0, 0, 0, 0, 0, 0, 0, 0, 0, 0,
       0, 0, 0, 0, 0, 0, 0, 0, 0, 0, 0, 0, 0, 0, 0, 0, 0, 0, 0, 0, 0, 0,
       0, 0, 0, 0, 0, 0, 0, 0, 0, 0, 0, 0, 0, 0, 0, 0, 0, 0, 0, 0, 0, 0,
       0, 0, 0, 0, 0, 0, 0, 0, 0, 0, 0, 0, 0, 0, 0, 0, 0, 0, 0, 0, 0, 0,
       0, 0, 0, 0, 0, 0, 0, 0, 0, 0, 0, 0, 0, 0, 0, 0, 0, 0, 0, 0, 0, 0,
       0, 0, 0, 0, 0, 0, 0, 0, 0, 0, 0, 0, 0, 0, 0, 0, 0, 0, 0, 0, 0, 0,
       0, 0, 0, 0, 0, 0, 0, 0, 0, 0, 0, 0, 0, 0, 0, 0, 0, 0, 0, 0, 0, 0,
       0, 0, 0, 0, 0, 0, 0, 0, 0, 0, 0, 0, 0, 0, 0, 0, 0, 0, 0, 0, 0, 0,
       0, 0, 0, 0, 0, 0, 0, 0, 0, 0, 0, 0, 0, 0, 0, 0, 0, 0, 0, 0, 0, 0,
       0, 0, 0, 0, 0, 0, 0, 0, 0, 0, 0, 0, 0, 0, 0, 0, 0, 0, 0, 0, 0, 0,
       0, 0, 0, 0, 0, 0, 0, 0, 0, 0, 0, 0, 0, 0, 0, 0, 0, 0, 0, 0, 0, 0,
       0, 0, 0, 0, 0, 0, 0, 0, 0, 0, 0, 0, 0, 0, 0, 0, 0, 0, 0, 0, 0, 0,
       0, 0, 0, 0, 0, 0, 0, 0, 0, 0, 0, 0, 0, 0, 0, 0, 0, 0, 0, 0, 0, 0,
       0, 0, 0, 0, 0, 0, 0, 0, 0, 0, 0, 0, 0, 0, 0, 0, 0, 0, 0, 0, 0, 0,
       0, 0, 0, 0, 0, 0, 0, 0, 0, 0, 0, 0, 0, 0, 0, 0, 0, 0, 0, 0, 0, 0,
       0, 0, 0, 0, 0, 0, 0, 0, 0, 0, 0, 0, 0, 0, 0, 0, 0, 0, 0, 0, 0, 0,
       0, 0, 0, 0, 0, 0, 0, 0, 0, 0, 0, 0, 0, 0, 0, 0, 0, 0, 0, 0, 0, 0,
       0, 0, 0, 0, 0, 0, 0, 0, 0, 0, 0, 0, 0, 0, 0, 0, 0, 0, 0, 0, 0, 0,
       0, 0, 0, 0, 0, 0, 0, 0, 0, 0, 0, 0, 0, 0, 0, 0, 0, 0, 0, 0, 0, 0,
       0, 0, 0, 0, 0, 0, 0, 0, 0, 0, 0, 0, 0, 0, 0, 0, 0, 0, 0, 0, 0, 0,
       0, 0, 0, 0, 0, 0, 0, 0, 0, 0, 0, 0, 0, 0, 0, 0, 0, 0, 0, 0, 0, 0,
       0, 0, 0, 0, 0, 0, 0, 0, 0, 0, 0, 0, 0, 0, 0, 0, 0, 0, 0, 0, 0, 0,
       0, 0, 0, 0, 0, 0, 0, 0, 0, 0, 0, 0, 0, 0, 0, 0, 0, 0, 0, 0, 0, 0,
       0, 0, 0, 0, 0, 0, 0, 0, 0, 0, 0, 0, 0, 0, 0, 0, 0, 0, 0, 0, 0, 0,
       0, 0, 0, 0, 0, 0, 0, 0, 0, 0, 0, 0, 0, 0, 0, 0, 0, 0, 0, 0, 0, 0,
       0, 0, 0, 0, 0, 0, 0, 0, 0, 0, 0, 0, 0, 0, 0, 0, 0, 0, 0, 0, 0, 0,
       0, 0, 0, 0, 0, 0, 0, 0, 0, 0, 0, 0, 0, 0, 0, 0, 0, 0, 0, 0, 0, 0,
       0, 0, 0, 0, 0, 0, 0, 0, 0, 0, 0, 0, 0, 0, 0, 0, 0, 0, 0, 0, 0, 0,
       0, 0, 0, 0, 0, 0, 0, 0, 0, 0, 0, 0, 0, 0, 0, 0, 0, 0, 0, 0, 0, 0,
       0, 0, 0, 0, 0, 0, 0, 0, 0, 0, 0, 0, 0, 0, 0, 0, 0, 0, 0, 0, 0, 0,
       0, 0, 0, 0, 0, 0, 0, 0, 0, 0, 0, 0, 0, 0, 0, 0, 0, 0, 0, 0, 0, 0,
       0, 0, 0, 0, 0, 0, 0, 0, 0, 0, 0, 0, 0, 0, 0, 0, 0, 0, 0, 0, 0, 0,
       0, 0, 0, 0, 0, 0, 0, 0, 0, 0, 0, 0, 0, 0, 0, 0, 0, 0, 0, 0, 0, 0,
       0, 0, 0, 0, 0, 0, 0, 0, 0, 0, 0, 0, 0, 0, 0, 0, 0, 0, 0, 0, 0, 0,
       0, 0, 0, 0, 0, 0, 0, 0, 0, 0, 0, 0, 0, 0, 0, 0, 0, 0, 0, 0, 0, 0,
       0, 0, 0, 0, 0, 0, 0, 0, 0, 0, 0, 0, 0, 0, 0, 0, 0, 0, 0, 0, 0, 0,
       0, 0, 0, 0, 0, 0, 0, 0, 0, 0, 0, 0, 0, 0, 0, 0, 0, 0, 0, 0, 0, 0,
       0, 0, 0, 0, 0, 0, 0, 0, 0, 0, 0, 0, 0, 0, 0, 0, 0, 0, 0, 0, 0, 0,
       0, 0, 0, 0, 0, 0, 0, 0, 0, 0, 0, 0, 0, 0, 0, 0, 0, 0, 0, 0, 0, 0,
       0, 0, 0, 0, 0, 0, 0, 0, 0, 0, 0, 0, 0, 0, 0, 0, 0, 0, 0, 0, 0, 0,
       0, 0, 0, 0, 0, 0, 0, 0, 0, 0, 0, 0, 0, 0, 0, 0, 0, 0, 0, 0, 0, 0,
       0, 0, 0, 0, 0, 0, 0, 0, 0, 0, 0, 0, 0, 0, 0, 0, 0, 0, 0, 0, 0, 0,
       0, 0, 0, 0, 0, 0, 0, 0, 0, 0, 0, 0, 0, 0, 0, 0, 0, 0, 0, 0, 0, 0,
       0, 0, 0, 0, 0, 0, 0, 0, 0, 0, 0, 0, 0, 0, 0, 0, 0, 0, 0, 0, 0, 0,
       0, 0, 0, 0, 0, 0, 0, 0, 0, 0, 0, 0, 0, 0, 0, 0, 0, 0, 0, 0, 0, 0,
       0, 0, 0, 0, 0, 0, 0, 0, 0, 0, 0, 0, 0, 0, 0, 0, 0, 0, 0, 0, 0, 0,
       0, 0, 0, 0, 0, 0, 0, 0, 0, 0, 0, 0, 0, 0, 0, 0, 0, 0, 0, 0, 0, 0,
       0, 0, 0, 0, 0, 0, 0, 0, 0, 0, 0, 0, 0, 0, 0, 0, 0, 0, 0, 0, 0, 0,
       0, 0, 0, 0, 0, 0, 0, 0, 0, 0, 0, 0, 0, 0, 0, 0, 0, 0, 0, 0, 0, 0,
       0, 0, 0, 0, 0, 0, 0, 0, 0, 0, 0, 0, 0, 0, 0, 0, 0, 0, 0, 0, 0, 0,
       0, 0, 0, 0, 0, 0, 0, 0, 0, 0, 0, 0, 0, 0, 0, 0, 0, 0, 0, 0, 0, 0,
       0, 0, 0, 0, 0, 0, 0, 0, 0, 0, 0, 0, 0, 0, 0, 0, 0, 0, 0, 0, 0, 0,
       0, 0, 0, 0, 0, 0, 0, 0, 0, 0 ]
   class_labels: [ 0, 1, 2, 3, 4, 5 ]
   missing_subst: [ 0., 0., 0., 0., 0., 0., 0., 0., 0., 0., 0., 0., 0.,
       0., 0., 0., 0., 0., 0., 0., 0., 0., 0., 0., 0., 0., 0., 0., 0.,
       0., 0., 0., 0., 0., 0., 0., 0., 0., 0., 0., 0., 0., 0., 0., 0.,
       0., 0., 0., 0., 0., 0., 0., 0., 0., 0., 0., 0., 0., 0., 0., 0.,
       0., 0., 0., 0., 0., 0., 0., 0., 0., 0., 0., 0., 0., 0., 0., 0.,
       0., 0., 0., 0., 0., 0., 0., 0., 0., 0., 0., 0., 0., 0., 0., 0.,
       0., 0., 0., 0., 0., 0., 0., 0., 0., 0., 0., 0., 0., 0., 0., 0.,
       0., 0., 0., 0., 0., 0., 0., 0., 0., 0., 0., 0., 0., 0., 0., 0.,
       0., 0., 0., 0., 0., 0., 0., 0., 0., 0., 0., 0., 0., 0., 0., 0.,
       0., 0., 0., 0., 0., 0., 0., 0., 0., 0., 0., 0., 0., 0., 0., 0.,
       0., 0., 0., 0., 0., 0., 0., 0., 0., 0., 0., 0., 0., 0., 0., 0.,
       0., 0., 0., 0., 0., 0., 0., 0., 0., 0., 0., 0., 0., 0., 0., 0.,
       0., 0., 0., 0., 0., 0., 0., 0., 0., 0., 0., 0., 0., 0., 0., 0.,
       0., 0., 0., 0., 0., 0., 0., 0., 0., 0., 0., 0., 0., 0., 0., 0.,
       0., 0., 0., 0., 0., 0., 0., 0., 0., 0., 0., 0., 0., 0., 0., 0.,
       0., 0., 0., 0., 0., 0., 0., 0., 0., 0., 0., 0., 0., 0., 0., 0.,
       0., 0., 0., 0., 0., 0., 0., 0., 0., 0., 0., 0., 0., 0., 0., 0.,
       0., 0., 0., 0., 0., 0., 0., 0., 0., 0., 0., 0., 0., 0., 0., 0.,
       0., 0., 0., 0., 0., 0., 0., 0., 0., 0., 0., 0., 0., 0., 0., 0.,
       0., 0., 0., 0., 0., 0., 0., 0., 0., 0., 0., 0., 0., 0., 0., 0.,
       0., 0., 0., 0., 0., 0., 0., 0., 0., 0., 0., 0., 0., 0., 0., 0.,
       0., 0., 0., 0., 0., 0., 0., 0., 0., 0., 0., 0., 0., 0., 0., 0.,
       0., 0., 0., 0., 0., 0., 0., 0., 0., 0., 0., 0., 0., 0., 0., 0.,
       0., 0., 0., 0., 0., 0., 0., 0., 0., 0., 0., 0., 0., 0., 0., 0.,
       0., 0., 0., 0., 0., 0., 0., 0., 0., 0., 0., 0., 0., 0., 0., 0.,
       0., 0., 0., 0., 0., 0., 0., 0., 0., 0., 0., 0., 0., 0., 0., 0.,
       0., 0., 0., 0., 0., 0., 0., 0., 0., 0., 0., 0., 0., 0., 0., 0.,
       0., 0., 0., 0., 0., 0., 0., 0., 0., 0., 0., 0., 0., 0., 0., 0.,
       0., 0., 0., 0., 0., 0., 0., 0., 0., 0., 0., 0., 0., 0., 0., 0.,
       0., 0., 0., 0., 0., 0., 0., 0., 0., 0., 0., 0., 0., 0., 0., 0.,
       0., 0., 0., 0., 0., 0., 0., 0., 0., 0., 0., 0., 0., 0., 0., 0.,
       0., 0., 0., 0., 0., 0., 0., 0., 0., 0., 0., 0., 0., 0., 0., 0.,
       0., 0., 0., 0., 0., 0., 0., 0., 0., 0., 0., 0., 0., 0., 0., 0.,
       0., 0., 0., 0., 0., 0., 0., 0., 0., 0., 0., 0., 0., 0., 0., 0.,
       0., 0., 0., 0., 0., 0., 0., 0., 0., 0., 0., 0., 0., 0., 0., 0.,
       0., 0., 0., 0., 0., 0., 0., 0., 0., 0., 0., 0., 0., 0., 0., 0.,
       0., 0., 0., 0., 0., 0., 0., 0., 0., 0., 0., 0., 0., 0., 0., 0.,
       0., 0., 0., 0., 0., 0., 0., 0., 0., 0., 0., 0., 0., 0., 0., 0.,
       0., 0., 0., 0., 0., 0., 0., 0., 0., 0., 0., 0., 0., 0., 0., 0.,
       0., 0., 0., 0., 0., 0., 0., 0., 0., 0., 0., 0., 0., 0., 0., 0.,
       0., 0., 0., 0., 0., 0., 0., 0., 0., 0., 0., 0., 0., 0., 0., 0.,
       0., 0., 0., 0., 0., 0., 0., 0., 0., 0., 0., 0., 0., 0., 0., 0.,
       0., 0., 0., 0., 0., 0., 0., 0., 0., 0., 0., 0., 0., 0., 0., 0.,
       0., 0., 0., 0., 0., 0., 0., 0., 0., 0., 0., 0., 0., 0., 0., 0.,
       0., 0., 0., 0., 0., 0., 0., 0., 0., 0., 0., 0., 0., 0., 0., 0.,
       0., 0., 0., 0., 0., 0., 0., 0., 0., 0., 0., 0., 0., 0., 0., 0.,
       0., 0., 0., 0., 0., 0., 0., 0., 0., 0., 0., 0., 0., 0., 0., 0.,
       0., 0., 0., 0., 0., 0., 0., 0., 0., 0., 0., 0., 0., 0., 0., 0.,
       0., 0., 0., 0., 0., 0., 0., 0., 0., 0., 0., 0., 0., 0., 0., 0.,
       0., 0., 0., 0., 0., 0., 0., 0., 0., 0., 0., 0., 0., 0., 0., 0.,
       0., 0., 0., 0., 0., 0., 0., 0., 0., 0., 0., 0., 0., 0., 0., 0.,
       0., 0., 0., 0., 0., 0., 0., 0., 0., 0., 0., 0., 0., 0., 0., 0.,
       0., 0., 0., 0., 0., 0., 0., 0., 0., 0., 0., 0., 0., 0., 0., 0.,
       0., 0., 0., 0., 0., 0., 0., 0., 0., 0., 0., 0., 0., 0., 0., 0.,
       0., 0., 0., 0., 0., 0., 0., 0., 0., 0., 0., 0., 0., 0., 0., 0.,
       0., 0., 0., 0., 0., 0., 0., 0., 0., 0., 0., 0., 0., 0., 0., 0.,
       0., 0., 0., 0., 0., 0., 0., 0., 0., 0., 0., 0., 0., 0., 0., 0.,
       0., 0., 0., 0., 0., 0., 0., 0., 0., 0., 0., 0., 0., 0., 0., 0.,
       0., 0., 0., 0., 0., 0., 0., 0., 0., 0., 0., 0., 0., 0., 0., 0.,
       0., 0., 0., 0., 0., 0., 0., 0., 0., 0., 0., 0., 0., 0., 0., 0.,
       0., 0., 0., 0., 0., 0., 0., 0., 0., 0., 0., 0., 0., 0., 0., 0.,
       0., 0., 0., 0., 0., 0., 0., 0., 0., 0., 0., 0., 0., 0., 0., 0.,
       0., 0., 0., 0., 0., 0., 0., 0., 0., 0., 0., 0., 0., 0., 0., 0.,
       0., 0., 0., 0., 0., 0., 0., 0., 0., 0., 0., 0., 0., 0., 0., 0.,
       0., 0., 0., 0., 0., 0., 0., 0., 0., 0., 0., 0., 0., 0., 0., 0.,
       0., 0., 0., 0., 0., 0., 0., 0., 0., 0., 0., 0., 0., 0., 0., 0.,
       0., 0., 0., 0., 0., 0., 0., 0., 0., 0., 0., 0., 0., 0., 0., 0.,
       0., 0., 0., 0., 0., 0., 0., 0., 0., 0., 0., 0., 0., 0., 0., 0.,
       0., 0., 0., 0., 0., 0., 0., 0., 0., 0., 0., 0., 0., 0., 0., 0.,
       0., 0., 0., 0., 0., 0., 0., 0., 0., 0., 0., 0., 0., 0., 0., 0.,
       0., 0., 0., 0., 0., 0., 0., 0., 0., 0., 0., 0., 0., 0., 0., 0.,
       0., 0., 0., 0., 0., 0., 0., 0., 0., 0., 0., 0., 0., 0., 0., 0.,
       0., 0., 0., 0., 0., 0., 0., 0., 0., 0., 0., 0., 0., 0., 0., 0.,
       0., 0., 0., 0., 0., 0., 0., 0., 0., 0., 0., 0., 0., 0., 0., 0.,
       0., 0., 0., 0., 0., 0., 0., 0., 0., 0., 0., 0., 0., 0., 0., 0.,
       0., 0., 0., 0., 0., 0., 0., 0., 0., 0., 0., 0., 0., 0., 0., 0.,
       0., 0., 0., 0., 0., 0., 0., 0., 0., 0., 0., 0., 0., 0., 0., 0.,
       0., 0., 0., 0., 0., 0., 0., 0., 0., 0., 0., 0., 0., 0., 0., 0.,
       0., 0., 0., 0., 0., 0., 0., 0., 0., 0., 0., 0., 0., 0., 0., 0.,
       0., 0., 0., 0., 0., 0., 0., 0., 0., 0., 0., 0., 0., 0., 0., 0.,
       0., 0., 0., 0., 0., 0., 0., 0., 0., 0., 0., 0., 0., 0., 0., 0.,
       0., 0., 0., 0., 0., 0., 0., 0., 0., 0., 0., 0., 0., 0., 0., 0.,
       0., 0., 0., 0., 0., 0., 0., 0., 0., 0., 0., 0., 0., 0., 0., 0.,
       0., 0., 0., 0., 0., 0., 0., 0., 0., 0., 0., 0., 0., 0., 0., 0.,
       0., 0., 0., 0., 0., 0., 0., 0., 0., 0., 0., 0., 0., 0., 0., 0.,
       0., 0., 0., 0., 0., 0., 0., 0., 0., 0., 0., 0., 0., 0., 0., 0.,
       0., 0., 0., 0., 0., 0., 0., 0., 0., 0., 0., 0., 0., 0., 0., 0.,
       0., 0., 0., 0., 0., 0., 0., 0., 0., 0., 0., 0., 0., 0., 0., 0.,
       0., 0., 0., 0., 0., 0., 0., 0., 0., 0., 0., 0., 0., 0., 0., 0.,
       0., 0., 0., 0., 0., 0., 0., 0., 0., 0., 0., 0., 0., 0., 0., 0.,
       0., 0., 0., 0., 0., 0., 0., 0., 0., 0., 0., 0., 0., 0., 0., 0.,
       0., 0., 0., 0., 0., 0., 0., 0., 0., 0., 0., 0., 0., 0., 0., 0.,
       0., 0., 0., 0., 0., 0., 0., 0., 0., 0., 0., 0., 0., 0., 0., 0.,
       0., 0., 0., 0., 0., 0., 0., 0., 0., 0., 0., 0., 0., 0., 0., 0.,
       0., 0., 0., 0., 0., 0., 0., 0., 0., 0., 0., 0., 0., 0., 0., 0.,
       0., 0., 0., 0., 0., 0., 0., 0., 0., 0., 0., 0., 0., 0., 0., 0.,
       0., 0., 0., 0., 0., 0., 0., 0., 0., 0., 0., 0., 0., 0., 0., 0.,
       0., 0., 0., 0., 0., 0., 0., 0., 0., 0., 0., 0., 0., 0., 0., 0.,
       0., 0., 0., 0., 0., 0., 0., 0., 0., 0., 0., 0., 0., 0., 0., 0.,
       0., 0., 0., 0., 0., 0., 0., 0., 0., 0., 0., 0., 0., 0., 0., 0.,
       0., 0., 0., 0., 0., 0., 0., 0., 0., 0., 0., 0., 0., 0., 0., 0.,
       0., 0., 0., 0., 0., 0., 0., 0., 0., 0., 0., 0., 0., 0., 0., 0.,
       0., 0., 0., 0., 0., 0., 0., 0., 0., 0., 0., 0., 0., 0., 0., 0.,
       0., 0., 0., 0., 0., 0., 0., 0., 0., 0., 0., 0., 0., 0., 0., 0.,
       0., 0., 0., 0., 0., 0., 0., 0., 0., 0., 0., 0., 0., 0., 0., 0.,
       0., 0., 0., 0., 0., 0., 0., 0., 0., 0., 0., 0., 0., 0., 0., 0.,
       0., 0., 0., 0., 0., 0., 0., 0., 0., 0., 0., 0., 0., 0., 0., 0.,
       0., 0., 0., 0., 0., 0., 0., 0., 0., 0., 0., 0., 0., 0., 0., 0.,
       0., 0., 0., 0., 0., 0., 0., 0., 0., 0., 0., 0., 0., 0., 0., 0.,
       0., 0., 0., 0., 0., 0., 0., 0., 0., 0., 0., 0., 0., 0., 0., 0.,
       0., 0., 0., 0., 0., 0., 0., 0. ]
   nodes:
      -
         depth: 0
         value: 5.
         norm_class_idx: 5
         splits:
            - { var:6, quality:3.4680508422851562e+02,
                le:1.7318740487098694e-02 }
      -
         depth: 1
         value: 4.
         norm_class_idx: 4
         splits:
            - { var:10, quality:1.2554865264892578e+02,
                le:2.1649268269538879e-01 }
      -
         depth: 2
         value: 4.
         norm_class_idx: 4
         splits:
            - { var:1661, quality:1.0365396881103516e+02,
                le:1.1134125292301178e-01 }
      -
         depth: 3
         value: 4.
         norm_class_idx: 4
         splits:
            - { var:1706, quality:1.0176667022705078e+02,
                le:5.2054077386856079e-03 }
      -
         depth: 4
         value: 0.
         norm_class_idx: 0
      -
         depth: 4
         value: 4.
         norm_class_idx: 4
         splits:
            - { var:1006, quality:1.0119089508056641e+02,
                le:1.1913852393627167e-01 }
      -
         depth: 5
         value: 4.
         norm_class_idx: 4
         splits:
            - { var:1208, quality:1.0386666870117188e+02,
                le:3.0437815189361572e-01 }
      -
         depth: 6
         value: 4.
         norm_class_idx: 4
         splits:
            - { var:254, quality:1.0505555725097656e+02,
                le:3.1093224883079529e-01 }
      -
         depth: 7
         value: 4.
         norm_class_idx: 4
         splits:
            - { var:193, quality:1.0601869201660156e+02,
                le:3.4854882955551147e-01 }
      -
         depth: 8
         value: 4.
         norm_class_idx: 4
         splits:
            - { var:614, quality:107., le:2.6738286018371582e-01 }
      -
         depth: 9
         value: 4.
         norm_class_idx: 4
      -
         depth: 9
         value: 0.
         norm_class_idx: 0
      -
         depth: 8
         value: 5.
         norm_class_idx: 5
      -
         depth: 7
         value: 0.
         norm_class_idx: 0
      -
         depth: 6
         value: 0.
         norm_class_idx: 0
         splits:
            - { var:0, quality:3., le:7.7742978930473328e-02 }
      -
         depth: 7
         value: 0.
         norm_class_idx: 0
      -
         depth: 7
         value: 1.
         norm_class_idx: 1
      -
         depth: 5
         value: 3.
         norm_class_idx: 3
         splits:
            - { var:2, quality:3.4000000953674316e+00,
                le:3.8150459527969360e-02 }
      -
         depth: 6
         value: 3.
         norm_class_idx: 3
      -
         depth: 6
         value: 5.
         norm_class_idx: 5
         splits:
            - { var:16, quality:3., le:5.3867295384407043e-02 }
      -
         depth: 7
         value: 5.
         norm_class_idx: 5
      -
         depth: 7
         value: 0.
         norm_class_idx: 0
         splits:
            - { var:0, quality:2., le:5.9633415192365646e-02 }
      -
         depth: 8
         value: 4.
         norm_class_idx: 4
      -
         depth: 8
         value: 0.
         norm_class_idx: 0
      -
         depth: 3
         value: 5.
         norm_class_idx: 5
         splits:
            - { var:227, quality:1.9222221374511719e+01,
                le:1.8491014838218689e-02 }
      -
         depth: 4
         value: 4.
         norm_class_idx: 4
         splits:
            - { var:1, quality:9., le:8.1184610724449158e-02 }
      -
         depth: 5
         value: 4.
         norm_class_idx: 4
      -
         depth: 5
         value: 0.
         norm_class_idx: 0
      -
         depth: 4
         value: 5.
         norm_class_idx: 5
         splits:
            - { var:1146, quality:1.7458646774291992e+01,
                le:2.6493903994560242e-01 }
      -
         depth: 5
         value: 5.
         norm_class_idx: 5
         splits:
            - { var:6, quality:18., le:7.0631643757224083e-03 }
      -
         depth: 6
         value: 1.
         norm_class_idx: 1
      -
         depth: 6
         value: 5.
         norm_class_idx: 5
      -
         depth: 5
         value: 3.
         norm_class_idx: 3
         splits:
            - { var:2, quality:4.5000000000000000e+00,
                le:3.1350456178188324e-02 }
      -
         depth: 6
         value: 3.
         norm_class_idx: 3
      -
         depth: 6
         value: 1.
         norm_class_idx: 1
         splits:
            - { var:0, quality:3., le:3.8677155971527100e-02 }
      -
         depth: 7
         value: 2.
         norm_class_idx: 2
      -
         depth: 7
         value: 1.
         norm_class_idx: 1
      -
         depth: 2
         value: 0.
         norm_class_idx: 0
         splits:
            - { var:1320, quality:5.0109092712402344e+01,
                le:1.9084650278091431e-01 }
      -
         depth: 3
         value: 4.
         norm_class_idx: 4
         splits:
            - { var:1478, quality:2.0306619644165039e+01,
                le:9.4743192195892334e-02 }
      -
         depth: 4
         value: 4.
         norm_class_idx: 4
         splits:
            - { var:34, quality:13., le:3.2978501170873642e-02 }
      -
         depth: 5
         value: 0.
         norm_class_idx: 0
      -
         depth: 5
         value: 4.
         norm_class_idx: 4
      -
         depth: 4
         value: 0.
         norm_class_idx: 0
         splits:
            - { var:477, quality:1.6261537551879883e+01,
                le:2.7422068640589714e-02 }
      -
         depth: 5
         value: 0.
         norm_class_idx: 0
         splits:
            - { var:683, quality:1.3399999618530273e+01,
                le:2.2141090035438538e-01 }
      -
         depth: 6
         value: 0.
         norm_class_idx: 0
      -
         depth: 6
         value: 4.
         norm_class_idx: 4
         splits:
            - { var:0, quality:5., le:3.8161993026733398e-02 }
      -
         depth: 7
         value: 3.
         norm_class_idx: 3
      -
         depth: 7
         value: 4.
         norm_class_idx: 4
      -
         depth: 5
         value: 5.
         norm_class_idx: 5
         splits:
            - { var:539, quality:1.4274999618530273e+01,
                le:9.0623974800109863e-02 }
      -
         depth: 6
         value: 3.
         norm_class_idx: 3
         splits:
            - { var:26, quality:7., le:5.2542865276336670e-02 }
      -
         depth: 7
         value: 0.
         norm_class_idx: 0
         splits:
            - { var:0, quality:6., le:3.0844746157526970e-02 }
      -
         depth: 8
         value: 1.
         norm_class_idx: 1
      -
         depth: 8
         value: 0.
         norm_class_idx: 0
      -
         depth: 7
         value: 3.
         norm_class_idx: 3
      -
         depth: 6
         value: 5.
         norm_class_idx: 5
         splits:
            - { var:69, quality:1.4666666984558105e+01,
                le:2.4311895668506622e-01 }
      -
         depth: 7
         value: 5.
         norm_class_idx: 5
      -
         depth: 7
         value: 1.
         norm_class_idx: 1
         splits:
            - { var:0, quality:3., le:8.5621260106563568e-02 }
      -
         depth: 8
         value: 1.
         norm_class_idx: 1
      -
         depth: 8
         value: 2.
         norm_class_idx: 2
      -
         depth: 3
         value: 0.
         norm_class_idx: 0
         splits:
            - { var:511, quality:4.4304347991943359e+01,
                le:1.2285801768302917e-01 }
      -
         depth: 4
         value: 0.
         norm_class_idx: 0
         splits:
            - { var:1131, quality:4.4666667938232422e+01,
                le:2.4315230548381805e-01 }
      -
         depth: 5
         value: 0.
         norm_class_idx: 0
      -
         depth: 5
         value: 1.
         norm_class_idx: 1
         splits:
            - { var:0, quality:3., le:4.2495772242546082e-02 }
      -
         depth: 6
         value: 4.
         norm_class_idx: 4
      -
         depth: 6
         value: 1.
         norm_class_idx: 1
      -
         depth: 4
         value: 3.
         norm_class_idx: 3
      -
         depth: 1
         value: 5.
         norm_class_idx: 5
         splits:
            - { var:227, quality:2.8910968017578125e+02,
                le:1.6264684498310089e-02 }
      -
         depth: 2
         value: 4.
         norm_class_idx: 4
         splits:
            - { var:1602, quality:6.1495239257812500e+01,
                le:2.1954058110713959e-01 }
      -
         depth: 3
         value: 0.
         norm_class_idx: 0
         splits:
            - { var:482, quality:3.8237289428710938e+01,
                le:3.1756436824798584e-01 }
      -
         depth: 4
         value: 5.
         norm_class_idx: 5
         splits:
            - { var:1623, quality:2.1774118423461914e+01,
                le:1.2827071547508240e-01 }
      -
         depth: 5
         value: 4.
         norm_class_idx: 4
         splits:
            - { var:943, quality:1.4785714149475098e+01,
                le:1.8045163154602051e-01 }
      -
         depth: 6
         value: 4.
         norm_class_idx: 4
         splits:
            - { var:249, quality:1.5272727012634277e+01,
                le:2.0728027820587158e-01 }
      -
         depth: 7
         value: 4.
         norm_class_idx: 4
         splits:
            - { var:204, quality:1.3800000190734863e+01,
                le:1.2763100862503052e-01 }
      -
         depth: 8
         value: 4.
         norm_class_idx: 4
      -
         depth: 8
         value: 3.
         norm_class_idx: 3
         splits:
            - { var:0, quality:3.6666667461395264e+00,
                le:1.7600840330123901e-01 }
      -
         depth: 9
         value: 3.
         norm_class_idx: 3
         splits:
            - { var:2, quality:3., le:8.8708847761154175e-02 }
      -
         depth: 10
         value: 3.
         norm_class_idx: 3
      -
         depth: 10
         value: 0.
         norm_class_idx: 0
      -
         depth: 9
         value: 5.
         norm_class_idx: 5
      -
         depth: 7
         value: 0.
         norm_class_idx: 0
         splits:
            - { var:14, quality:9.6666669845581055e+00,
                le:8.4070734679698944e-02 }
      -
         depth: 8
         value: 0.
         norm_class_idx: 0
      -
         depth: 8
         value: 3.
         norm_class_idx: 3
         splits:
            - { var:0, quality:3., le:1.6607739031314850e-01 }
      -
         depth: 9
         value: 3.
         norm_class_idx: 3
      -
         depth: 9
         value: 2.
         norm_class_idx: 2
      -
         depth: 6
         value: 1.
         norm_class_idx: 1
      -
         depth: 5
         value: 5.
         norm_class_idx: 5
         splits:
            - { var:1120, quality:1.8771930694580078e+01,
                le:1.0435878485441208e-01 }
      -
         depth: 6
         value: 3.
         norm_class_idx: 3
         splits:
            - { var:1, quality:3.5000000000000000e+00,
                le:1.0681137442588806e-01 }
      -
         depth: 7
         value: 3.
         norm_class_idx: 3
      -
         depth: 7
         value: 4.
         norm_class_idx: 4
         splits:
            - { var:2, quality:3., le:1.8552751839160919e-01 }
      -
         depth: 8
         value: 1.
         norm_class_idx: 1
      -
         depth: 8
         value: 4.
         norm_class_idx: 4
      -
         depth: 6
         value: 5.
         norm_class_idx: 5
         splits:
            - { var:72, quality:19., le:3.9628699421882629e-02 }
      -
         depth: 7
         value: 1.
         norm_class_idx: 1
      -
         depth: 7
         value: 5.
         norm_class_idx: 5
      -
         depth: 4
         value: 0.
         norm_class_idx: 0
      -
         depth: 3
         value: 4.
         norm_class_idx: 4
         splits:
            - { var:721, quality:4.6512577056884766e+01,
                le:1.1017115414142609e-01 }
      -
         depth: 4
         value: 4.
         norm_class_idx: 4
         splits:
            - { var:358, quality:4.7786666870117188e+01,
                le:2.4286657571792603e-01 }
      -
         depth: 5
         value: 4.
         norm_class_idx: 4
         splits:
            - { var:897, quality:49., le:2.3922178149223328e-01 }
      -
         depth: 6
         value: 4.
         norm_class_idx: 4
      -
         depth: 6
         value: 0.
         norm_class_idx: 0
      -
         depth: 5
         value: 0.
         norm_class_idx: 0
         splits:
            - { var:0, quality:3., le:1.7241033911705017e-01 }
      -
         depth: 6
         value: 0.
         norm_class_idx: 0
      -
         depth: 6
         value: 1.
         norm_class_idx: 1
      -
         depth: 4
         value: 3.
         norm_class_idx: 3
         splits:
            - { var:117, quality:6.2500000000000000e+00,
                le:2.0506514608860016e-01 }
      -
         depth: 5
         value: 3.
         norm_class_idx: 3
      -
         depth: 5
         value: 5.
         norm_class_idx: 5
         splits:
            - { var:43, quality:4.8000001907348633e+00,
                le:1.0463413596153259e-01 }
      -
         depth: 6
         value: 0.
         norm_class_idx: 0
         splits:
            - { var:0, quality:3.6666667461395264e+00,
                le:1.6491720080375671e-01 }
      -
         depth: 7
         value: 4.
         norm_class_idx: 4
         splits:
            - { var:0, quality:3., le:9.5011450350284576e-02 }
      -
         depth: 8
         value: 1.
         norm_class_idx: 1
      -
         depth: 8
         value: 4.
         norm_class_idx: 4
      -
         depth: 7
         value: 0.
         norm_class_idx: 0
      -
         depth: 6
         value: 5.
         norm_class_idx: 5
      -
         depth: 2
         value: 5.
         norm_class_idx: 5
         splits:
            - { var:447, quality:2.7151141357421875e+02,
                le:6.0587964951992035e-02 }
      -
         depth: 3
         value: 1.
         norm_class_idx: 1
         splits:
            - { var:80, quality:8.2226188659667969e+01,
                le:1.4071691036224365e-01 }
      -
         depth: 4
         value: 1.
         norm_class_idx: 1
         splits:
            - { var:1457, quality:8.0847900390625000e+01,
                le:2.9389506578445435e-01 }
      -
         depth: 5
         value: 1.
         norm_class_idx: 1
         splits:
            - { var:118, quality:7.4579544067382812e+01,
                le:2.0287360250949860e-01 }
      -
         depth: 6
         value: 1.
         norm_class_idx: 1
         splits:
            - { var:234, quality:7.5146987915039062e+01,
                le:6.1126314103603363e-02 }
      -
         depth: 7
         value: 2.
         norm_class_idx: 2
         splits:
            - { var:0, quality:5., le:4.7276850789785385e-02 }
      -
         depth: 8
         value: 4.
         norm_class_idx: 4
      -
         depth: 8
         value: 2.
         norm_class_idx: 2
      -
         depth: 7
         value: 1.
         norm_class_idx: 1
         splits:
            - { var:1339, quality:7.7601264953613281e+01,
                le:3.0271183699369431e-02 }
      -
         depth: 8
         value: 5.
         norm_class_idx: 5
         splits:
            - { var:1, quality:4., le:4.3963707983493805e-02 }
      -
         depth: 9
         value: 2.
         norm_class_idx: 2
      -
         depth: 9
         value: 5.
         norm_class_idx: 5
      -
         depth: 8
         value: 1.
         norm_class_idx: 1
         splits:
            - { var:54, quality:7.7025642395019531e+01,
                le:4.5763432979583740e-01 }
      -
         depth: 9
         value: 1.
         norm_class_idx: 1
         splits:
            - { var:114, quality:78., le:1.9880786538124084e-01 }
      -
         depth: 10
         value: 1.
         norm_class_idx: 1
      -
         depth: 10
         value: 5.
         norm_class_idx: 5
      -
         depth: 9
         value: 5.
         norm_class_idx: 5
      -
         depth: 6
         value: 2.
         norm_class_idx: 2
         splits:
            - { var:144, quality:1.2571428298950195e+01,
                le:2.4348205327987671e-01 }
      -
         depth: 7
         value: 2.
         norm_class_idx: 2
      -
         depth: 7
         value: 5.
         norm_class_idx: 5
         splits:
            - { var:4, quality:7., le:1.0497762262821198e-01 }
      -
         depth: 8
         value: 1.
         norm_class_idx: 1
      -
         depth: 8
         value: 5.
         norm_class_idx: 5
      -
         depth: 5
         value: 2.
         norm_class_idx: 2
         splits:
            - { var:49, quality:2.0666666030883789e+01,
                le:1.0598213970661163e-01 }
      -
         depth: 6
         value: 1.
         norm_class_idx: 1
         splits:
            - { var:0, quality:3., le:2.9955846071243286e-01 }
      -
         depth: 7
         value: 1.
         norm_class_idx: 1
      -
         depth: 7
         value: 5.
         norm_class_idx: 5
      -
         depth: 6
         value: 2.
         norm_class_idx: 2
      -
         depth: 4
         value: 3.
         norm_class_idx: 3
         splits:
            - { var:254, quality:32., le:2.0676371455192566e-01 }
      -
         depth: 5
         value: 5.
         norm_class_idx: 5
         splits:
            - { var:301, quality:2.5706348419189453e+01,
                le:3.2042893767356873e-01 }
      -
         depth: 6
         value: 5.
         norm_class_idx: 5
         splits:
            - { var:44, quality:2.3296371459960938e+01,
                le:1.0733301192522049e-01 }
      -
         depth: 7
         value: 1.
         norm_class_idx: 1
         splits:
            - { var:778, quality:1.5899999618530273e+01,
                le:2.4993616342544556e-01 }
      -
         depth: 8
         value: 1.
         norm_class_idx: 1
         splits:
            - { var:11, quality:16., le:2.5466832518577576e-01 }
      -
         depth: 9
         value: 1.
         norm_class_idx: 1
      -
         depth: 9
         value: 3.
         norm_class_idx: 3
      -
         depth: 8
         value: 0.
         norm_class_idx: 0
         splits:
            - { var:6, quality:7.5999999046325684e+00,
                le:3.3780992031097412e-02 }
      -
         depth: 9
         value: 0.
         norm_class_idx: 0
      -
         depth: 9
         value: 3.
         norm_class_idx: 3
         splits:
            - { var:2, quality:5.4285712242126465e+00,
                le:5.0523240119218826e-02 }
      -
         depth: 10
         value: 4.
         norm_class_idx: 4
      -
         depth: 10
         value: 3.
         norm_class_idx: 3
         splits:
            - { var:6, quality:5., le:6.2540590763092041e-02 }
      -
         depth: 11
         value: 3.
         norm_class_idx: 3
      -
         depth: 11
         value: 2.
         norm_class_idx: 2
         splits:
            - { var:5, quality:4., le:2.8333213180303574e-02 }
      -
         depth: 12
         value: 2.
         norm_class_idx: 2
      -
         depth: 12
         value: 5.
         norm_class_idx: 5
      -
         depth: 7
         value: 5.
         norm_class_idx: 5
         splits:
            - { var:496, quality:2.2038646697998047e+01,
                le:4.8309989273548126e-02 }
      -
         depth: 8
         value: 1.
         norm_class_idx: 1
         splits:
            - { var:1, quality:5.8000001907348633e+00,
                le:6.5682053565979004e-02 }
      -
         depth: 9
         value: 3.
         norm_class_idx: 3
         splits:
            - { var:0, quality:3.6666667461395264e+00,
                le:8.8851004838943481e-02 }
      -
         depth: 10
         value: 4.
         norm_class_idx: 4
         splits:
            - { var:2, quality:3., le:7.0721760392189026e-02 }
      -
         depth: 11
         value: 2.
         norm_class_idx: 2
      -
         depth: 11
         value: 4.
         norm_class_idx: 4
      -
         depth: 10
         value: 3.
         norm_class_idx: 3
      -
         depth: 9
         value: 1.
         norm_class_idx: 1
      -
         depth: 8
         value: 5.
         norm_class_idx: 5
         splits:
            - { var:7, quality:22., le:1.0668504983186722e-01 }
      -
         depth: 9
         value: 5.
         norm_class_idx: 5
      -
         depth: 9
         value: 2.
         norm_class_idx: 2
      -
         depth: 6
         value: 2.
         norm_class_idx: 2
         splits:
            - { var:1, quality:12., le:3.0078679323196411e-02 }
      -
         depth: 7
         value: 1.
         norm_class_idx: 1
      -
         depth: 7
         value: 2.
         norm_class_idx: 2
      -
         depth: 5
         value: 3.
         norm_class_idx: 3
         splits:
            - { var:30, quality:1.9666666030883789e+01,
                le:2.9991379380226135e-01 }
      -
         depth: 6
         value: 3.
         norm_class_idx: 3
      -
         depth: 6
         value: 0.
         norm_class_idx: 0
         splits:
            - { var:0, quality:3., le:5.0800513476133347e-02 }
      -
         depth: 7
         value: 0.
         norm_class_idx: 0
      -
         depth: 7
         value: 1.
         norm_class_idx: 1
      -
         depth: 3
         value: 5.
         norm_class_idx: 5
         splits:
            - { var:373, quality:2.2948634338378906e+02,
                le:1.3597687706351280e-02 }
      -
         depth: 4
         value: 3.
         norm_class_idx: 3
         splits:
            - { var:567, quality:3.4400001525878906e+01,
                le:2.3888660967350006e-01 }
      -
         depth: 5
         value: 3.
         norm_class_idx: 3
      -
         depth: 5
         value: 1.
         norm_class_idx: 1
         splits:
            - { var:0, quality:5., le:2.4772962927818298e-01 }
      -
         depth: 6
         value: 1.
         norm_class_idx: 1
      -
         depth: 6
         value: 5.
         norm_class_idx: 5
      -
         depth: 4
         value: 5.
         norm_class_idx: 5
         splits:
            - { var:1615, quality:2.2634513854980469e+02,
                le:3.4310355782508850e-02 }
      -
         depth: 5
         value: 0.
         norm_class_idx: 0
         splits:
            - { var:1381, quality:5.9419353485107422e+01,
                le:2.9086613655090332e-01 }
      -
         depth: 6
         value: 0.
         norm_class_idx: 0
         splits:
            - { var:1488, quality:5.5115646362304688e+01,
                le:3.3135417103767395e-01 }
      -
         depth: 7
         value: 5.
         norm_class_idx: 5
         splits:
            - { var:51, quality:4.8505050659179688e+01,
                le:4.4297978281974792e-02 }
      -
         depth: 8
         value: 0.
         norm_class_idx: 0
         splits:
            - { var:511, quality:3.4982353210449219e+01,
                le:9.0346252545714378e-03 }
      -
         depth: 9
         value: 0.
         norm_class_idx: 0
         splits:
            - { var:18, quality:20., le:2.1120327711105347e-01 }
      -
         depth: 10
         value: 0.
         norm_class_idx: 0
      -
         depth: 10
         value: 4.
         norm_class_idx: 4
      -
         depth: 9
         value: 4.
         norm_class_idx: 4
         splits:
            - { var:1007, quality:2.5551942825317383e+01,
                le:4.9708932638168335e-02 }
      -
         depth: 10
         value: 4.
         norm_class_idx: 4
         splits:
            - { var:577, quality:2.5981817245483398e+01,
                le:2.0548866689205170e-01 }
      -
         depth: 11
         value: 4.
         norm_class_idx: 4
         splits:
            - { var:1061, quality:2.3250000000000000e+01,
                le:5.2508033812046051e-02 }
      -
         depth: 12
         value: 0.
         norm_class_idx: 0
         splits:
            - { var:0, quality:6., le:4.6469256281852722e-02 }
      -
         depth: 13
         value: 0.
         norm_class_idx: 0
      -
         depth: 13
         value: 1.
         norm_class_idx: 1
      -
         depth: 12
         value: 4.
         norm_class_idx: 4
         splits:
            - { var:12, quality:23., le:1.7491006851196289e-01 }
      -
         depth: 13
         value: 4.
         norm_class_idx: 4
      -
         depth: 13
         value: 2.
         norm_class_idx: 2
      -
         depth: 11
         value: 0.
         norm_class_idx: 0
         splits:
            - { var:0, quality:11., le:2.5814202427864075e-01 }
      -
         depth: 12
         value: 0.
         norm_class_idx: 0
      -
         depth: 12
         value: 4.
         norm_class_idx: 4
      -
         depth: 10
         value: 5.
         norm_class_idx: 5
         splits:
            - { var:1391, quality:1.5666666984558105e+01,
                le:9.4406694173812866e-02 }
      -
         depth: 11
         value: 3.
         norm_class_idx: 3
         splits:
            - { var:789, quality:7.5357141494750977e+00,
                le:7.9225286841392517e-02 }
      -
         depth: 12
         value: 3.
         norm_class_idx: 3
         splits:
            - { var:1, quality:7., le:7.7456362545490265e-02 }
      -
         depth: 13
         value: 3.
         norm_class_idx: 3
      -
         depth: 13
         value: 2.
         norm_class_idx: 2
      -
         depth: 12
         value: 4.
         norm_class_idx: 4
         splits:
            - { var:11, quality:4.8000001907348633e+00,
                le:1.2299218773841858e-01 }
      -
         depth: 13
         value: 4.
         norm_class_idx: 4
      -
         depth: 13
         value: 0.
         norm_class_idx: 0
         splits:
            - { var:0, quality:3.6666667461395264e+00,
                le:1.5159773826599121e-01 }
      -
         depth: 14
         value: 1.
         norm_class_idx: 1
         splits:
            - { var:0, quality:3., le:1.0010282695293427e-01 }
      -
         depth: 15
         value: 5.
         norm_class_idx: 5
      -
         depth: 15
         value: 1.
         norm_class_idx: 1
      -
         depth: 14
         value: 0.
         norm_class_idx: 0
      -
         depth: 11
         value: 5.
         norm_class_idx: 5
      -
         depth: 8
         value: 1.
         norm_class_idx: 1
         splits:
            - { var:590, quality:3.4768180847167969e+01,
                le:4.5428719371557236e-02 }
      -
         depth: 9
         value: 3.
         norm_class_idx: 3
         splits:
            - { var:451, quality:1.6799999237060547e+01,
                le:1.0447745025157928e-01 }
      -
         depth: 10
         value: 2.
         norm_class_idx: 2
         splits:
            - { var:1, quality:3.6666667461395264e+00,
                le:9.2355318367481232e-02 }
      -
         depth: 11
         value: 5.
         norm_class_idx: 5
      -
         depth: 11
         value: 2.
         norm_class_idx: 2
         splits:
            - { var:0, quality:3., le:1.0923494398593903e-01 }
      -
         depth: 12
         value: 4.
         norm_class_idx: 4
      -
         depth: 12
         value: 2.
         norm_class_idx: 2
      -
         depth: 10
         value: 3.
         norm_class_idx: 3
      -
         depth: 9
         value: 1.
         norm_class_idx: 1
         splits:
            - { var:1566, quality:3.3206897735595703e+01,
                le:1.0730770975351334e-01 }
      -
         depth: 10
         value: 1.
         norm_class_idx: 1
         splits:
            - { var:393, quality:2.8777778625488281e+01,
                le:1.1874103546142578e-01 }
      -
         depth: 11
         value: 5.
         norm_class_idx: 5
         splits:
            - { var:875, quality:9.6581192016601562e+00,
                le:1.4426831901073456e-01 }
      -
         depth: 12
         value: 2.
         norm_class_idx: 2
         splits:
            - { var:227, quality:8., le:9.7804501652717590e-02 }
      -
         depth: 13
         value: 1.
         norm_class_idx: 1
         splits:
            - { var:11, quality:6., le:1.0730929672718048e-01 }
      -
         depth: 14
         value: 3.
         norm_class_idx: 3
         splits:
            - { var:6, quality:4., le:4.7939520329236984e-02 }
      -
         depth: 15
         value: 4.
         norm_class_idx: 4
      -
         depth: 15
         value: 3.
         norm_class_idx: 3
      -
         depth: 14
         value: 1.
         norm_class_idx: 1
      -
         depth: 13
         value: 2.
         norm_class_idx: 2
      -
         depth: 12
         value: 5.
         norm_class_idx: 5
         splits:
            - { var:36, quality:9., le:5.3965792059898376e-02 }
      -
         depth: 13
         value: 4.
         norm_class_idx: 4
      -
         depth: 13
         value: 5.
         norm_class_idx: 5
      -
         depth: 11
         value: 1.
         norm_class_idx: 1
         splits:
            - { var:663, quality:2.9211822509765625e+01,
                le:2.5549685955047607e-01 }
      -
         depth: 12
         value: 1.
         norm_class_idx: 1
         splits:
            - { var:1, quality:29., le:1.3636052608489990e-02 }
      -
         depth: 13
         value: 2.
         norm_class_idx: 2
      -
         depth: 13
         value: 1.
         norm_class_idx: 1
      -
         depth: 12
         value: 0.
         norm_class_idx: 0
         splits:
            - { var:9, quality:4.5000000000000000e+00,
                le:1.2371067702770233e-01 }
      -
         depth: 13
         value: 3.
         norm_class_idx: 3
         splits:
            - { var:2, quality:3., le:5.0028875470161438e-02 }
      -
         depth: 14
         value: 1.
         norm_class_idx: 1
      -
         depth: 14
         value: 3.
         norm_class_idx: 3
      -
         depth: 13
         value: 0.
         norm_class_idx: 0
      -
         depth: 10
         value: 5.
         norm_class_idx: 5
         splits:
            - { var:516, quality:1.8222221374511719e+01,
                le:2.4620911478996277e-01 }
      -
         depth: 11
         value: 5.
         norm_class_idx: 5
         splits:
            - { var:260, quality:1.9666666030883789e+01,
                le:2.2599741816520691e-02 }
      -
         depth: 12
         value: 3.
         norm_class_idx: 3
         splits:
            - { var:1, quality:3., le:4.5845422893762589e-02 }
      -
         depth: 13
         value: 3.
         norm_class_idx: 3
      -
         depth: 13
         value: 0.
         norm_class_idx: 0
      -
         depth: 12
         value: 5.
         norm_class_idx: 5
      -
         depth: 11
         value: 4.
         norm_class_idx: 4
         splits:
            - { var:26, quality:5.4000000953674316e+00,
                le:6.8890750408172607e-02 }
      -
         depth: 12
         value: 4.
         norm_class_idx: 4
      -
         depth: 12
         value: 0.
         norm_class_idx: 0
         splits:
            - { var:2, quality:3., le:1.0819587111473083e-01 }
      -
         depth: 13
         value: 0.
         norm_class_idx: 0
      -
         depth: 13
         value: 1.
         norm_class_idx: 1
         splits:
            - { var:0, quality:2., le:6.1366498470306396e-02 }
      -
         depth: 14
         value: 2.
         norm_class_idx: 2
      -
         depth: 14
         value: 1.
         norm_class_idx: 1
      -
         depth: 7
         value: 0.
         norm_class_idx: 0
         splits:
            - { var:1, quality:21., le:1.6200026869773865e-01 }
      -
         depth: 8
         value: 0.
         norm_class_idx: 0
      -
         depth: 8
         value: 5.
         norm_class_idx: 5
      -
         depth: 6
         value: 2.
         norm_class_idx: 2
         splits:
            - { var:46, quality:20., le:8.0019026994705200e-02 }
      -
         depth: 7
         value: 4.
         norm_class_idx: 4
      -
         depth: 7
         value: 2.
         norm_class_idx: 2
      -
         depth: 5
         value: 5.
         norm_class_idx: 5
         splits:
            - { var:481, quality:2.0189459228515625e+02,
                le:2.0882804691791534e-01 }
      -
         depth: 6
         value: 5.
         norm_class_idx: 5
         splits:
            - { var:1320, quality:1.2506846618652344e+02,
                le:6.8926379084587097e-02 }
      -
         depth: 7
         value: 1.
         norm_class_idx: 1
         splits:
            - { var:1210, quality:4.3525863647460938e+01,
                le:1.1067686975002289e-01 }
      -
         depth: 8
         value: 1.
         norm_class_idx: 1
         splits:
            - { var:101, quality:3.4666667938232422e+01,
                le:4.5227900147438049e-02 }
      -
         depth: 9
         value: 2.
         norm_class_idx: 2
         splits:
            - { var:2, quality:4., le:2.6744726300239563e-01 }
      -
         depth: 10
         value: 2.
         norm_class_idx: 2
      -
         depth: 10
         value: 3.
         norm_class_idx: 3
      -
         depth: 9
         value: 1.
         norm_class_idx: 1
         splits:
            - { var:929, quality:35., le:4.2471811175346375e-02 }
      -
         depth: 10
         value: 3.
         norm_class_idx: 3
      -
         depth: 10
         value: 1.
         norm_class_idx: 1
      -
         depth: 8
         value: 2.
         norm_class_idx: 2
         splits:
            - { var:294, quality:2.3004901885986328e+01,
                le:5.1553085446357727e-02 }
      -
         depth: 9
         value: 2.
         norm_class_idx: 2
         splits:
            - { var:181, quality:2.6879999160766602e+01,
                le:2.4392185732722282e-02 }
      -
         depth: 10
         value: 1.
         norm_class_idx: 1
      -
         depth: 10
         value: 2.
         norm_class_idx: 2
         splits:
            - { var:1473, quality:2.2500000000000000e+01,
                le:6.6827215254306793e-02 }
      -
         depth: 11
         value: 2.
         norm_class_idx: 2
      -
         depth: 11
         value: 1.
         norm_class_idx: 1
         splits:
            - { var:2, quality:3., le:1.2758269906044006e-01 }
      -
         depth: 12
         value: 0.
         norm_class_idx: 0
      -
         depth: 12
         value: 1.
         norm_class_idx: 1
      -
         depth: 9
         value: 5.
         norm_class_idx: 5
         splits:
            - { var:473, quality:1.2625000000000000e+01,
                le:7.6678395271301270e-02 }
      -
         depth: 10
         value: 5.
         norm_class_idx: 5
      -
         depth: 10
         value: 3.
         norm_class_idx: 3
         splits:
            - { var:511, quality:9.7777776718139648e+00,
                le:6.9929450750350952e-02 }
      -
         depth: 11
         value: 1.
         norm_class_idx: 1
         splits:
            - { var:36, quality:5.8000001907348633e+00,
                le:1.1759877204895020e-01 }
      -
         depth: 12
         value: 1.
         norm_class_idx: 1
      -
         depth: 12
         value: 0.
         norm_class_idx: 0
         splits:
            - { var:0, quality:3.6666667461395264e+00,
                le:6.5343603491783142e-02 }
      -
         depth: 13
         value: 0.
         norm_class_idx: 0
      -
         depth: 13
         value: 4.
         norm_class_idx: 4
         splits:
            - { var:0, quality:3., le:3.0107656121253967e-01 }
      -
         depth: 14
         value: 4.
         norm_class_idx: 4
      -
         depth: 14
         value: 5.
         norm_class_idx: 5
      -
         depth: 11
         value: 3.
         norm_class_idx: 3
      -
         depth: 7
         value: 5.
         norm_class_idx: 5
         splits:
            - { var:112, quality:1.0784188079833984e+02,
                le:3.7583872675895691e-02 }
      -
         depth: 8
         value: 1.
         norm_class_idx: 1
         splits:
            - { var:1763, quality:3.3502098083496094e+01,
                le:1.2548673152923584e-01 }
      -
         depth: 9
         value: 1.
         norm_class_idx: 1
         splits:
            - { var:1191, quality:2.9288770675659180e+01,
                le:8.5157856345176697e-02 }
      -
         depth: 10
         value: 4.
         norm_class_idx: 4
         splits:
            - { var:1084, quality:1.1222222328186035e+01,
                le:1.5532526373863220e-01 }
      -
         depth: 11
         value: 3.
         norm_class_idx: 3
         splits:
            - { var:7, quality:6.5999999046325684e+00,
                le:5.0184950232505798e-02 }
      -
         depth: 12
         value: 3.
         norm_class_idx: 3
      -
         depth: 12
         value: 2.
         norm_class_idx: 2
         splits:
            - { var:4, quality:5., le:1.4856158196926117e-01 }
      -
         depth: 13
         value: 1.
         norm_class_idx: 1
      -
         depth: 13
         value: 2.
         norm_class_idx: 2
      -
         depth: 11
         value: 4.
         norm_class_idx: 4
      -
         depth: 10
         value: 1.
         norm_class_idx: 1
         splits:
            - { var:1541, quality:3.1583011627197266e+01,
                le:3.7766233086585999e-02 }
      -
         depth: 11
         value: 0.
         norm_class_idx: 0
         splits:
            - { var:1, quality:7., le:2.1069003269076347e-02 }
      -
         depth: 12
         value: 5.
         norm_class_idx: 5
      -
         depth: 12
         value: 0.
         norm_class_idx: 0
      -
         depth: 11
         value: 1.
         norm_class_idx: 1
         splits:
            - { var:1715, quality:3.1681818008422852e+01,
                le:1.1146957054734230e-02 }
      -
         depth: 12
         value: 0.
         norm_class_idx: 0
         splits:
            - { var:0, quality:4., le:1.0165455937385559e-01 }
      -
         depth: 13
         value: 0.
         norm_class_idx: 0
      -
         depth: 13
         value: 2.
         norm_class_idx: 2
      -
         depth: 12
         value: 1.
         norm_class_idx: 1
         splits:
            - { var:3, quality:32., le:1.8092232942581177e-01 }
      -
         depth: 13
         value: 1.
         norm_class_idx: 1
      -
         depth: 13
         value: 3.
         norm_class_idx: 3
      -
         depth: 9
         value: 5.
         norm_class_idx: 5
         splits:
            - { var:1521, quality:2.3257143020629883e+01,
                le:9.3016266822814941e-02 }
      -
         depth: 10
         value: 3.
         norm_class_idx: 3
         splits:
            - { var:21, quality:14., le:1.5384584665298462e-01 }
      -
         depth: 11
         value: 3.
         norm_class_idx: 3
      -
         depth: 11
         value: 2.
         norm_class_idx: 2
      -
         depth: 10
         value: 5.
         norm_class_idx: 5
         splits:
            - { var:1258, quality:1.7443849563598633e+01,
                le:4.4775329530239105e-02 }
      -
         depth: 11
         value: 2.
         norm_class_idx: 2
         splits:
            - { var:34, quality:8.3333330154418945e+00,
                le:1.1589297652244568e-01 }
      -
         depth: 12
         value: 2.
         norm_class_idx: 2
      -
         depth: 12
         value: 1.
         norm_class_idx: 1
         splits:
            - { var:6, quality:6., le:6.8980529904365540e-02 }
      -
         depth: 13
         value: 5.
         norm_class_idx: 5
      -
         depth: 13
         value: 1.
         norm_class_idx: 1
      -
         depth: 11
         value: 5.
         norm_class_idx: 5
         splits:
            - { var:14, quality:16., le:8.3388611674308777e-02 }
      -
         depth: 12
         value: 5.
         norm_class_idx: 5
      -
         depth: 12
         value: 0.
         norm_class_idx: 0
      -
         depth: 8
         value: 5.
         norm_class_idx: 5
         splits:
            - { var:725, quality:1.0049230957031250e+02,
                le:3.2442456483840942e-01 }
      -
         depth: 9
         value: 5.
         norm_class_idx: 5
         splits:
            - { var:810, quality:9.7588233947753906e+01,
                le:1.4136461541056633e-02 }
      -
         depth: 10
         value: 3.
         norm_class_idx: 3
      -
         depth: 10
         value: 5.
         norm_class_idx: 5
         splits:
            - { var:167, quality:9.7860443115234375e+01,
                le:3.1732328236103058e-02 }
      -
         depth: 11
         value: 2.
         norm_class_idx: 2
         splits:
            - { var:1112, quality:9.1428575515747070e+00,
                le:1.6843344271183014e-01 }
      -
         depth: 12
         value: 2.
         norm_class_idx: 2
      -
         depth: 12
         value: 1.
         norm_class_idx: 1
         splits:
            - { var:100, quality:4.5000000000000000e+00,
                le:2.3075470328330994e-01 }
      -
         depth: 13
         value: 3.
         norm_class_idx: 3
         splits:
            - { var:1, quality:3., le:4.1465736925601959e-02 }
      -
         depth: 14
         value: 3.
         norm_class_idx: 3
      -
         depth: 14
         value: 0.
         norm_class_idx: 0
      -
         depth: 13
         value: 1.
         norm_class_idx: 1
      -
         depth: 11
         value: 5.
         norm_class_idx: 5
         splits:
            - { var:38, quality:1.0070384979248047e+02,
                le:3.9992406964302063e-02 }
      -
         depth: 12
         value: 1.
         norm_class_idx: 1
         splits:
            - { var:691, quality:7., le:1.8076668679714203e-01 }
      -
         depth: 13
         value: 2.
         norm_class_idx: 2
         splits:
            - { var:105, quality:4.4000000953674316e+00,
                le:1.2658810615539551e-01 }
      -
         depth: 14
         value: 2.
         norm_class_idx: 2
      -
         depth: 14
         value: 3.
         norm_class_idx: 3
         splits:
            - { var:20, quality:3., le:1.1297816038131714e-01 }
      -
         depth: 15
         value: 3.
         norm_class_idx: 3
      -
         depth: 15
         value: 0.
         norm_class_idx: 0
         splits:
            - { var:0, quality:2., le:2.7049344033002853e-02 }
      -
         depth: 16
         value: 4.
         norm_class_idx: 4
      -
         depth: 16
         value: 0.
         norm_class_idx: 0
      -
         depth: 13
         value: 1.
         norm_class_idx: 1
      -
         depth: 12
         value: 5.
         norm_class_idx: 5
         splits:
            - { var:1390, quality:1.0462051391601562e+02,
                le:7.8788608312606812e-02 }
      -
         depth: 13
         value: 5.
         norm_class_idx: 5
         splits:
            - { var:181, quality:1.4303571701049805e+01,
                le:6.6563926637172699e-02 }
      -
         depth: 14
         value: 5.
         norm_class_idx: 5
         splits:
            - { var:389, quality:1.4181818008422852e+01,
                le:5.3561095148324966e-02 }
      -
         depth: 15
         value: 1.
         norm_class_idx: 1
      -
         depth: 15
         value: 5.
         norm_class_idx: 5
         splits:
            - { var:19, quality:11., le:2.0707818865776062e-01 }
      -
         depth: 16
         value: 5.
         norm_class_idx: 5
      -
         depth: 16
         value: 4.
         norm_class_idx: 4
      -
         depth: 14
         value: 3.
         norm_class_idx: 3
         splits:
            - { var:1008, quality:1.0199999809265137e+01,
                le:2.9828472062945366e-02 }
      -
         depth: 15
         value: 2.
         norm_class_idx: 2
         splits:
            - { var:3, quality:4., le:6.5637484192848206e-02 }
      -
         depth: 16
         value: 5.
         norm_class_idx: 5
      -
         depth: 16
         value: 2.
         norm_class_idx: 2
      -
         depth: 15
         value: 3.
         norm_class_idx: 3
         splits:
            - { var:5, quality:10., le:2.1589968353509903e-02 }
      -
         depth: 16
         value: 1.
         norm_class_idx: 1
      -
         depth: 16
         value: 3.
         norm_class_idx: 3
      -
         depth: 13
         value: 5.
         norm_class_idx: 5
         splits:
            - { var:779, quality:1.0234920501708984e+02,
                le:2.2955693304538727e-02 }
      -
         depth: 14
         value: 1.
         norm_class_idx: 1
      -
         depth: 14
         value: 5.
         norm_class_idx: 5
         splits:
            - { var:49, quality:1.0437355041503906e+02,
                le:3.8556188344955444e-01 }
      -
         depth: 15
         value: 5.
         norm_class_idx: 5
         splits:
            - { var:800, quality:1.0656858062744141e+02,
                le:2.8701793402433395e-02 }
      -
         depth: 16
         value: 3.
         norm_class_idx: 3
         splits:
            - { var:18, quality:6.5000000000000000e+00,
                le:1.1656063050031662e-01 }
      -
         depth: 17
         value: 5.
         norm_class_idx: 5
         splits:
            - { var:0, quality:4., le:8.2118496298789978e-02 }
      -
         depth: 18
         value: 5.
         norm_class_idx: 5
      -
         depth: 18
         value: 1.
         norm_class_idx: 1
      -
         depth: 17
         value: 3.
         norm_class_idx: 3
      -
         depth: 16
         value: 5.
         norm_class_idx: 5
         splits:
            - { var:72, quality:1.0710810852050781e+02,
                le:2.2973865270614624e-02 }
      -
         depth: 17
         value: 1.
         norm_class_idx: 1
      -
         depth: 17
         value: 5.
         norm_class_idx: 5
         splits:
            - { var:616, quality:1.0801834869384766e+02,
                le:3.8818959146738052e-02 }
      -
         depth: 18
         value: 3.
         norm_class_idx: 3
      -
         depth: 18
         value: 5.
         norm_class_idx: 5
         splits:
            - { var:149, quality:109., le:2.5499388575553894e-01 }
      -
         depth: 19
         value: 5.
         norm_class_idx: 5
      -
         depth: 19
         value: 1.
         norm_class_idx: 1
      -
         depth: 15
         value: 2.
         norm_class_idx: 2
         splits:
            - { var:5, quality:4., le:6.2253564596176147e-02 }
      -
         depth: 16
         value: 2.
         norm_class_idx: 2
      -
         depth: 16
         value: 1.
         norm_class_idx: 1
      -
         depth: 9
         value: 2.
         norm_class_idx: 2
         splits:
            - { var:1316, quality:2.1055555343627930e+01,
                le:7.8116014599800110e-02 }
      -
         depth: 10
         value: 2.
         norm_class_idx: 2
         splits:
            - { var:1223, quality:2.4142856597900391e+01,
                le:7.8077405691146851e-02 }
      -
         depth: 11
         value: 3.
         norm_class_idx: 3
         splits:
            - { var:7, quality:7., le:6.0362197458744049e-02 }
      -
         depth: 12
         value: 3.
         norm_class_idx: 3
      -
         depth: 12
         value: 1.
         norm_class_idx: 1
      -
         depth: 11
         value: 2.
         norm_class_idx: 2
      -
         depth: 10
         value: 0.
         norm_class_idx: 0
         splits:
            - { var:155, quality:1.0333333015441895e+01,
                le:3.2501794397830963e-02 }
      -
         depth: 11
         value: 0.
         norm_class_idx: 0
      -
         depth: 11
         value: 5.
         norm_class_idx: 5
         splits:
            - { var:14, quality:6., le:1.3257178664207458e-01 }
      -
         depth: 12
         value: 5.
         norm_class_idx: 5
      -
         depth: 12
         value: 1.
         norm_class_idx: 1
      -
         depth: 6
         value: 5.
         norm_class_idx: 5
         splits:
            - { var:537, quality:1.0984912109375000e+02,
                le:1.6474705189466476e-02 }
      -
         depth: 7
         value: 3.
         norm_class_idx: 3
         splits:
            - { var:1, quality:15., le:1.5555290877819061e-01 }
      -
         depth: 8
         value: 3.
         norm_class_idx: 3
      -
         depth: 8
         value: 0.
         norm_class_idx: 0
      -
         depth: 7
         value: 5.
         norm_class_idx: 5
         splits:
            - { var:261, quality:1.0584390258789062e+02,
                le:4.1615225374698639e-02 }
      -
         depth: 8
         value: 3.
         norm_class_idx: 3
         splits:
            - { var:724, quality:9.7115383148193359e+00,
                le:2.0241284370422363e-01 }
      -
         depth: 9
         value: 3.
         norm_class_idx: 3
         splits:
            - { var:1, quality:8., le:1.5417206287384033e-01 }
      -
         depth: 10
         value: 3.
         norm_class_idx: 3
      -
         depth: 10
         value: 0.
         norm_class_idx: 0
      -
         depth: 9
         value: 2.
         norm_class_idx: 2
         splits:
            - { var:737, quality:7.5000000000000000e+00,
                le:4.9588050693273544e-02 }
      -
         depth: 10
         value: 1.
         norm_class_idx: 1
         splits:
            - { var:11, quality:5.1999998092651367e+00,
                le:2.2626635432243347e-01 }
      -
         depth: 11
         value: 5.
         norm_class_idx: 5
         splits:
            - { var:1, quality:4., le:8.4890648722648621e-02 }
      -
         depth: 12
         value: 5.
         norm_class_idx: 5
      -
         depth: 12
         value: 0.
         norm_class_idx: 0
      -
         depth: 11
         value: 1.
         norm_class_idx: 1
      -
         depth: 10
         value: 2.
         norm_class_idx: 2
      -
         depth: 8
         value: 5.
         norm_class_idx: 5
         splits:
            - { var:726, quality:1.0999386596679688e+02,
                le:1.6115326434373856e-02 }
      -
         depth: 9
         value: 3.
         norm_class_idx: 3
      -
         depth: 9
         value: 5.
         norm_class_idx: 5
         splits:
            - { var:1334, quality:1.1182742309570312e+02,
                le:1.2119075283408165e-02 }
      -
         depth: 10
         value: 3.
         norm_class_idx: 3
         splits:
            - { var:2, quality:7., le:1.2725907564163208e-01 }
      -
         depth: 11
         value: 3.
         norm_class_idx: 3
      -
         depth: 11
         value: 1.
         norm_class_idx: 1
      -
         depth: 10
         value: 5.
         norm_class_idx: 5
         splits:
            - { var:145, quality:1.1497490692138672e+02,
                le:1.9249625504016876e-02 }
      -
         depth: 11
         value: 2.
         norm_class_idx: 2
         splits:
            - { var:4, quality:7., le:3.1564962863922119e-01 }
      -
         depth: 12
         value: 2.
         norm_class_idx: 2
      -
         depth: 12
         value: 5.
         norm_class_idx: 5
      -
         depth: 11
         value: 5.
         norm_class_idx: 5
         splits:
            - { var:1466, quality:117., le:2.3311454802751541e-02 }
      -
         depth: 12
         value: 2.
         norm_class_idx: 2
         splits:
            - { var:21, quality:5., le:2.7121510356664658e-02 }
      -
         depth: 13
         value: 3.
         norm_class_idx: 3
      -
         depth: 13
         value: 2.
         norm_class_idx: 2
      -
         depth: 12
         value: 5.
         norm_class_idx: 5
         splits:
            - { var:929, quality:1.1949641418457031e+02,
                le:2.5251823663711548e-01 }
      -
         depth: 13
         value: 5.
         norm_class_idx: 5
         splits:
            - { var:1182, quality:1.1871625518798828e+02,
                le:3.1697651743888855e-01 }
      -
         depth: 14
         value: 5.
         norm_class_idx: 5
         splits:
            - { var:64, quality:120., le:4.2877495288848877e-01 }
      -
         depth: 15
         value: 5.
         norm_class_idx: 5
      -
         depth: 15
         value: 2.
         norm_class_idx: 2
      -
         depth: 14
         value: 1.
         norm_class_idx: 1
         splits:
            - { var:2, quality:3., le:1.3088950514793396e-01 }
      -
         depth: 15
         value: 1.
         norm_class_idx: 1
      -
         depth: 15
         value: 2.
         norm_class_idx: 2
      -
         depth: 13
         value: 5.
         norm_class_idx: 5
         splits:
            - { var:1050, quality:11., le:9.8442561924457550e-02 }
      -
         depth: 14
         value: 5.
         norm_class_idx: 5
      -
         depth: 14
         value: 1.
         norm_class_idx: 1
         splits:
            - { var:118, quality:6.3333334922790527e+00,
                le:4.6666517853736877e-02 }
      -
         depth: 15
         value: 1.
         norm_class_idx: 1
      -
         depth: 15
         value: 3.
         norm_class_idx: 3
         splits:
            - { var:11, quality:4.6666665077209473e+00,
                le:1.6055253148078918e-01 }
      -
         depth: 16
         value: 4.
         norm_class_idx: 4
         splits:
            - { var:4, quality:3., le:1.3672727346420288e-01 }
      -
         depth: 17
         value: 4.
         norm_class_idx: 4
      -
         depth: 17
         value: 0.
         norm_class_idx: 0
      -
         depth: 16
         value: 3.
         norm_class_idx: 3
