%YAML:1.0
---
opencv_ml_dtree:
   format: 3
   is_classifier: 1
   var_all: 1765
   var_count: 1764
   ord_var_count: 1764
   cat_var_count: 1
   training_params:
      use_surrogates: 0
      max_categories: 6
      regression_accuracy: 9.9999997764825821e-03
      max_depth: 20
      min_sample_count: 2
      cross_validation_folds: 0
   global_var_idx: 1
   var_idx: [ 0, 1, 2, 3, 4, 5, 6, 7, 8, 9, 10, 11, 12, 13, 14, 15, 16,
       17, 18, 19, 20, 21, 22, 23, 24, 25, 26, 27, 28, 29, 30, 31, 32,
       33, 34, 35, 36, 37, 38, 39, 40, 41, 42, 43, 44, 45, 46, 47, 48,
       49, 50, 51, 52, 53, 54, 55, 56, 57, 58, 59, 60, 61, 62, 63, 64,
       65, 66, 67, 68, 69, 70, 71, 72, 73, 74, 75, 76, 77, 78, 79, 80,
       81, 82, 83, 84, 85, 86, 87, 88, 89, 90, 91, 92, 93, 94, 95, 96,
       97, 98, 99, 100, 101, 102, 103, 104, 105, 106, 107, 108, 109, 110,
       111, 112, 113, 114, 115, 116, 117, 118, 119, 120, 121, 122, 123,
       124, 125, 126, 127, 128, 129, 130, 131, 132, 133, 134, 135, 136,
       137, 138, 139, 140, 141, 142, 143, 144, 145, 146, 147, 148, 149,
       150, 151, 152, 153, 154, 155, 156, 157, 158, 159, 160, 161, 162,
       163, 164, 165, 166, 167, 168, 169, 170, 171, 172, 173, 174, 175,
       176, 177, 178, 179, 180, 181, 182, 183, 184, 185, 186, 187, 188,
       189, 190, 191, 192, 193, 194, 195, 196, 197, 198, 199, 200, 201,
       202, 203, 204, 205, 206, 207, 208, 209, 210, 211, 212, 213, 214,
       215, 216, 217, 218, 219, 220, 221, 222, 223, 224, 225, 226, 227,
       228, 229, 230, 231, 232, 233, 234, 235, 236, 237, 238, 239, 240,
       241, 242, 243, 244, 245, 246, 247, 248, 249, 250, 251, 252, 253,
       254, 255, 256, 257, 258, 259, 260, 261, 262, 263, 264, 265, 266,
       267, 268, 269, 270, 271, 272, 273, 274, 275, 276, 277, 278, 279,
       280, 281, 282, 283, 284, 285, 286, 287, 288, 289, 290, 291, 292,
       293, 294, 295, 296, 297, 298, 299, 300, 301, 302, 303, 304, 305,
       306, 307, 308, 309, 310, 311, 312, 313, 314, 315, 316, 317, 318,
       319, 320, 321, 322, 323, 324, 325, 326, 327, 328, 329, 330, 331,
       332, 333, 334, 335, 336, 337, 338, 339, 340, 341, 342, 343, 344,
       345, 346, 347, 348, 349, 350, 351, 352, 353, 354, 355, 356, 357,
       358, 359, 360, 361, 362, 363, 364, 365, 366, 367, 368, 369, 370,
       371, 372, 373, 374, 375, 376, 377, 378, 379, 380, 381, 382, 383,
       384, 385, 386, 387, 388, 389, 390, 391, 392, 393, 394, 395, 396,
       397, 398, 399, 400, 401, 402, 403, 404, 405, 406, 407, 408, 409,
       410, 411, 412, 413, 414, 415, 416, 417, 418, 419, 420, 421, 422,
       423, 424, 425, 426, 427, 428, 429, 430, 431, 432, 433, 434, 435,
       436, 437, 438, 439, 440, 441, 442, 443, 444, 445, 446, 447, 448,
       449, 450, 451, 452, 453, 454, 455, 456, 457, 458, 459, 460, 461,
       462, 463, 464, 465, 466, 467, 468, 469, 470, 471, 472, 473, 474,
       475, 476, 477, 478, 479, 480, 481, 482, 483, 484, 485, 486, 487,
       488, 489, 490, 491, 492, 493, 494, 495, 496, 497, 498, 499, 500,
       501, 502, 503, 504, 505, 506, 507, 508, 509, 510, 511, 512, 513,
       514, 515, 516, 517, 518, 519, 520, 521, 522, 523, 524, 525, 526,
       527, 528, 529, 530, 531, 532, 533, 534, 535, 536, 537, 538, 539,
       540, 541, 542, 543, 544, 545, 546, 547, 548, 549, 550, 551, 552,
       553, 554, 555, 556, 557, 558, 559, 560, 561, 562, 563, 564, 565,
       566, 567, 568, 569, 570, 571, 572, 573, 574, 575, 576, 577, 578,
       579, 580, 581, 582, 583, 584, 585, 586, 587, 588, 589, 590, 591,
       592, 593, 594, 595, 596, 597, 598, 599, 600, 601, 602, 603, 604,
       605, 606, 607, 608, 609, 610, 611, 612, 613, 614, 615, 616, 617,
       618, 619, 620, 621, 622, 623, 624, 625, 626, 627, 628, 629, 630,
       631, 632, 633, 634, 635, 636, 637, 638, 639, 640, 641, 642, 643,
       644, 645, 646, 647, 648, 649, 650, 651, 652, 653, 654, 655, 656,
       657, 658, 659, 660, 661, 662, 663, 664, 665, 666, 667, 668, 669,
       670, 671, 672, 673, 674, 675, 676, 677, 678, 679, 680, 681, 682,
       683, 684, 685, 686, 687, 688, 689, 690, 691, 692, 693, 694, 695,
       696, 697, 698, 699, 700, 701, 702, 703, 704, 705, 706, 707, 708,
       709, 710, 711, 712, 713, 714, 715, 716, 717, 718, 719, 720, 721,
       722, 723, 724, 725, 726, 727, 728, 729, 730, 731, 732, 733, 734,
       735, 736, 737, 738, 739, 740, 741, 742, 743, 744, 745, 746, 747,
       748, 749, 750, 751, 752, 753, 754, 755, 756, 757, 758, 759, 760,
       761, 762, 763, 764, 765, 766, 767, 768, 769, 770, 771, 772, 773,
       774, 775, 776, 777, 778, 779, 780, 781, 782, 783, 784, 785, 786,
       787, 788, 789, 790, 791, 792, 793, 794, 795, 796, 797, 798, 799,
       800, 801, 802, 803, 804, 805, 806, 807, 808, 809, 810, 811, 812,
       813, 814, 815, 816, 817, 818, 819, 820, 821, 822, 823, 824, 825,
       826, 827, 828, 829, 830, 831, 832, 833, 834, 835, 836, 837, 838,
       839, 840, 841, 842, 843, 844, 845, 846, 847, 848, 849, 850, 851,
       852, 853, 854, 855, 856, 857, 858, 859, 860, 861, 862, 863, 864,
       865, 866, 867, 868, 869, 870, 871, 872, 873, 874, 875, 876, 877,
       878, 879, 880, 881, 882, 883, 884, 885, 886, 887, 888, 889, 890,
       891, 892, 893, 894, 895, 896, 897, 898, 899, 900, 901, 902, 903,
       904, 905, 906, 907, 908, 909, 910, 911, 912, 913, 914, 915, 916,
       917, 918, 919, 920, 921, 922, 923, 924, 925, 926, 927, 928, 929,
       930, 931, 932, 933, 934, 935, 936, 937, 938, 939, 940, 941, 942,
       943, 944, 945, 946, 947, 948, 949, 950, 951, 952, 953, 954, 955,
       956, 957, 958, 959, 960, 961, 962, 963, 964, 965, 966, 967, 968,
       969, 970, 971, 972, 973, 974, 975, 976, 977, 978, 979, 980, 981,
       982, 983, 984, 985, 986, 987, 988, 989, 990, 991, 992, 993, 994,
       995, 996, 997, 998, 999, 1000, 1001, 1002, 1003, 1004, 1005, 1006,
       1007, 1008, 1009, 1010, 1011, 1012, 1013, 1014, 1015, 1016, 1017,
       1018, 1019, 1020, 1021, 1022, 1023, 1024, 1025, 1026, 1027, 1028,
       1029, 1030, 1031, 1032, 1033, 1034, 1035, 1036, 1037, 1038, 1039,
       1040, 1041, 1042, 1043, 1044, 1045, 1046, 1047, 1048, 1049, 1050,
       1051, 1052, 1053, 1054, 1055, 1056, 1057, 1058, 1059, 1060, 1061,
       1062, 1063, 1064, 1065, 1066, 1067, 1068, 1069, 1070, 1071, 1072,
       1073, 1074, 1075, 1076, 1077, 1078, 1079, 1080, 1081, 1082, 1083,
       1084, 1085, 1086, 1087, 1088, 1089, 1090, 1091, 1092, 1093, 1094,
       1095, 1096, 1097, 1098, 1099, 1100, 1101, 1102, 1103, 1104, 1105,
       1106, 1107, 1108, 1109, 1110, 1111, 1112, 1113, 1114, 1115, 1116,
       1117, 1118, 1119, 1120, 1121, 1122, 1123, 1124, 1125, 1126, 1127,
       1128, 1129, 1130, 1131, 1132, 1133, 1134, 1135, 1136, 1137, 1138,
       1139, 1140, 1141, 1142, 1143, 1144, 1145, 1146, 1147, 1148, 1149,
       1150, 1151, 1152, 1153, 1154, 1155, 1156, 1157, 1158, 1159, 1160,
       1161, 1162, 1163, 1164, 1165, 1166, 1167, 1168, 1169, 1170, 1171,
       1172, 1173, 1174, 1175, 1176, 1177, 1178, 1179, 1180, 1181, 1182,
       1183, 1184, 1185, 1186, 1187, 1188, 1189, 1190, 1191, 1192, 1193,
       1194, 1195, 1196, 1197, 1198, 1199, 1200, 1201, 1202, 1203, 1204,
       1205, 1206, 1207, 1208, 1209, 1210, 1211, 1212, 1213, 1214, 1215,
       1216, 1217, 1218, 1219, 1220, 1221, 1222, 1223, 1224, 1225, 1226,
       1227, 1228, 1229, 1230, 1231, 1232, 1233, 1234, 1235, 1236, 1237,
       1238, 1239, 1240, 1241, 1242, 1243, 1244, 1245, 1246, 1247, 1248,
       1249, 1250, 1251, 1252, 1253, 1254, 1255, 1256, 1257, 1258, 1259,
       1260, 1261, 1262, 1263, 1264, 1265, 1266, 1267, 1268, 1269, 1270,
       1271, 1272, 1273, 1274, 1275, 1276, 1277, 1278, 1279, 1280, 1281,
       1282, 1283, 1284, 1285, 1286, 1287, 1288, 1289, 1290, 1291, 1292,
       1293, 1294, 1295, 1296, 1297, 1298, 1299, 1300, 1301, 1302, 1303,
       1304, 1305, 1306, 1307, 1308, 1309, 1310, 1311, 1312, 1313, 1314,
       1315, 1316, 1317, 1318, 1319, 1320, 1321, 1322, 1323, 1324, 1325,
       1326, 1327, 1328, 1329, 1330, 1331, 1332, 1333, 1334, 1335, 1336,
       1337, 1338, 1339, 1340, 1341, 1342, 1343, 1344, 1345, 1346, 1347,
       1348, 1349, 1350, 1351, 1352, 1353, 1354, 1355, 1356, 1357, 1358,
       1359, 1360, 1361, 1362, 1363, 1364, 1365, 1366, 1367, 1368, 1369,
       1370, 1371, 1372, 1373, 1374, 1375, 1376, 1377, 1378, 1379, 1380,
       1381, 1382, 1383, 1384, 1385, 1386, 1387, 1388, 1389, 1390, 1391,
       1392, 1393, 1394, 1395, 1396, 1397, 1398, 1399, 1400, 1401, 1402,
       1403, 1404, 1405, 1406, 1407, 1408, 1409, 1410, 1411, 1412, 1413,
       1414, 1415, 1416, 1417, 1418, 1419, 1420, 1421, 1422, 1423, 1424,
       1425, 1426, 1427, 1428, 1429, 1430, 1431, 1432, 1433, 1434, 1435,
       1436, 1437, 1438, 1439, 1440, 1441, 1442, 1443, 1444, 1445, 1446,
       1447, 1448, 1449, 1450, 1451, 1452, 1453, 1454, 1455, 1456, 1457,
       1458, 1459, 1460, 1461, 1462, 1463, 1464, 1465, 1466, 1467, 1468,
       1469, 1470, 1471, 1472, 1473, 1474, 1475, 1476, 1477, 1478, 1479,
       1480, 1481, 1482, 1483, 1484, 1485, 1486, 1487, 1488, 1489, 1490,
       1491, 1492, 1493, 1494, 1495, 1496, 1497, 1498, 1499, 1500, 1501,
       1502, 1503, 1504, 1505, 1506, 1507, 1508, 1509, 1510, 1511, 1512,
       1513, 1514, 1515, 1516, 1517, 1518, 1519, 1520, 1521, 1522, 1523,
       1524, 1525, 1526, 1527, 1528, 1529, 1530, 1531, 1532, 1533, 1534,
       1535, 1536, 1537, 1538, 1539, 1540, 1541, 1542, 1543, 1544, 1545,
       1546, 1547, 1548, 1549, 1550, 1551, 1552, 1553, 1554, 1555, 1556,
       1557, 1558, 1559, 1560, 1561, 1562, 1563, 1564, 1565, 1566, 1567,
       1568, 1569, 1570, 1571, 1572, 1573, 1574, 1575, 1576, 1577, 1578,
       1579, 1580, 1581, 1582, 1583, 1584, 1585, 1586, 1587, 1588, 1589,
       1590, 1591, 1592, 1593, 1594, 1595, 1596, 1597, 1598, 1599, 1600,
       1601, 1602, 1603, 1604, 1605, 1606, 1607, 1608, 1609, 1610, 1611,
       1612, 1613, 1614, 1615, 1616, 1617, 1618, 1619, 1620, 1621, 1622,
       1623, 1624, 1625, 1626, 1627, 1628, 1629, 1630, 1631, 1632, 1633,
       1634, 1635, 1636, 1637, 1638, 1639, 1640, 1641, 1642, 1643, 1644,
       1645, 1646, 1647, 1648, 1649, 1650, 1651, 1652, 1653, 1654, 1655,
       1656, 1657, 1658, 1659, 1660, 1661, 1662, 1663, 1664, 1665, 1666,
       1667, 1668, 1669, 1670, 1671, 1672, 1673, 1674, 1675, 1676, 1677,
       1678, 1679, 1680, 1681, 1682, 1683, 1684, 1685, 1686, 1687, 1688,
       1689, 1690, 1691, 1692, 1693, 1694, 1695, 1696, 1697, 1698, 1699,
       1700, 1701, 1702, 1703, 1704, 1705, 1706, 1707, 1708, 1709, 1710,
       1711, 1712, 1713, 1714, 1715, 1716, 1717, 1718, 1719, 1720, 1721,
       1722, 1723, 1724, 1725, 1726, 1727, 1728, 1729, 1730, 1731, 1732,
       1733, 1734, 1735, 1736, 1737, 1738, 1739, 1740, 1741, 1742, 1743,
       1744, 1745, 1746, 1747, 1748, 1749, 1750, 1751, 1752, 1753, 1754,
       1755, 1756, 1757, 1758, 1759, 1760, 1761, 1762, 1763 ]
   var_type: [ 0, 0, 0, 0, 0, 0, 0, 0, 0, 0, 0, 0, 0, 0, 0, 0, 0, 0, 0,
       0, 0, 0, 0, 0, 0, 0, 0, 0, 0, 0, 0, 0, 0, 0, 0, 0, 0, 0, 0, 0, 0,
       0, 0, 0, 0, 0, 0, 0, 0, 0, 0, 0, 0, 0, 0, 0, 0, 0, 0, 0, 0, 0, 0,
       0, 0, 0, 0, 0, 0, 0, 0, 0, 0, 0, 0, 0, 0, 0, 0, 0, 0, 0, 0, 0, 0,
       0, 0, 0, 0, 0, 0, 0, 0, 0, 0, 0, 0, 0, 0, 0, 0, 0, 0, 0, 0, 0, 0,
       0, 0, 0, 0, 0, 0, 0, 0, 0, 0, 0, 0, 0, 0, 0, 0, 0, 0, 0, 0, 0, 0,
       0, 0, 0, 0, 0, 0, 0, 0, 0, 0, 0, 0, 0, 0, 0, 0, 0, 0, 0, 0, 0, 0,
       0, 0, 0, 0, 0, 0, 0, 0, 0, 0, 0, 0, 0, 0, 0, 0, 0, 0, 0, 0, 0, 0,
       0, 0, 0, 0, 0, 0, 0, 0, 0, 0, 0, 0, 0, 0, 0, 0, 0, 0, 0, 0, 0, 0,
       0, 0, 0, 0, 0, 0, 0, 0, 0, 0, 0, 0, 0, 0, 0, 0, 0, 0, 0, 0, 0, 0,
       0, 0, 0, 0, 0, 0, 0, 0, 0, 0, 0, 0, 0, 0, 0, 0, 0, 0, 0, 0, 0, 0,
       0, 0, 0, 0, 0, 0, 0, 0, 0, 0, 0, 0, 0, 0, 0, 0, 0, 0, 0, 0, 0, 0,
       0, 0, 0, 0, 0, 0, 0, 0, 0, 0, 0, 0, 0, 0, 0, 0, 0, 0, 0, 0, 0, 0,
       0, 0, 0, 0, 0, 0, 0, 0, 0, 0, 0, 0, 0, 0, 0, 0, 0, 0, 0, 0, 0, 0,
       0, 0, 0, 0, 0, 0, 0, 0, 0, 0, 0, 0, 0, 0, 0, 0, 0, 0, 0, 0, 0, 0,
       0, 0, 0, 0, 0, 0, 0, 0, 0, 0, 0, 0, 0, 0, 0, 0, 0, 0, 0, 0, 0, 0,
       0, 0, 0, 0, 0, 0, 0, 0, 0, 0, 0, 0, 0, 0, 0, 0, 0, 0, 0, 0, 0, 0,
       0, 0, 0, 0, 0, 0, 0, 0, 0, 0, 0, 0, 0, 0, 0, 0, 0, 0, 0, 0, 0, 0,
       0, 0, 0, 0, 0, 0, 0, 0, 0, 0, 0, 0, 0, 0, 0, 0, 0, 0, 0, 0, 0, 0,
       0, 0, 0, 0, 0, 0, 0, 0, 0, 0, 0, 0, 0, 0, 0, 0, 0, 0, 0, 0, 0, 0,
       0, 0, 0, 0, 0, 0, 0, 0, 0, 0, 0, 0, 0, 0, 0, 0, 0, 0, 0, 0, 0, 0,
       0, 0, 0, 0, 0, 0, 0, 0, 0, 0, 0, 0, 0, 0, 0, 0, 0, 0, 0, 0, 0, 0,
       0, 0, 0, 0, 0, 0, 0, 0, 0, 0, 0, 0, 0, 0, 0, 0, 0, 0, 0, 0, 0, 0,
       0, 0, 0, 0, 0, 0, 0, 0, 0, 0, 0, 0, 0, 0, 0, 0, 0, 0, 0, 0, 0, 0,
       0, 0, 0, 0, 0, 0, 0, 0, 0, 0, 0, 0, 0, 0, 0, 0, 0, 0, 0, 0, 0, 0,
       0, 0, 0, 0, 0, 0, 0, 0, 0, 0, 0, 0, 0, 0, 0, 0, 0, 0, 0, 0, 0, 0,
       0, 0, 0, 0, 0, 0, 0, 0, 0, 0, 0, 0, 0, 0, 0, 0, 0, 0, 0, 0, 0, 0,
       0, 0, 0, 0, 0, 0, 0, 0, 0, 0, 0, 0, 0, 0, 0, 0, 0, 0, 0, 0, 0, 0,
       0, 0, 0, 0, 0, 0, 0, 0, 0, 0, 0, 0, 0, 0, 0, 0, 0, 0, 0, 0, 0, 0,
       0, 0, 0, 0, 0, 0, 0, 0, 0, 0, 0, 0, 0, 0, 0, 0, 0, 0, 0, 0, 0, 0,
       0, 0, 0, 0, 0, 0, 0, 0, 0, 0, 0, 0, 0, 0, 0, 0, 0, 0, 0, 0, 0, 0,
       0, 0, 0, 0, 0, 0, 0, 0, 0, 0, 0, 0, 0, 0, 0, 0, 0, 0, 0, 0, 0, 0,
       0, 0, 0, 0, 0, 0, 0, 0, 0, 0, 0, 0, 0, 0, 0, 0, 0, 0, 0, 0, 0, 0,
       0, 0, 0, 0, 0, 0, 0, 0, 0, 0, 0, 0, 0, 0, 0, 0, 0, 0, 0, 0, 0, 0,
       0, 0, 0, 0, 0, 0, 0, 0, 0, 0, 0, 0, 0, 0, 0, 0, 0, 0, 0, 0, 0, 0,
       0, 0, 0, 0, 0, 0, 0, 0, 0, 0, 0, 0, 0, 0, 0, 0, 0, 0, 0, 0, 0, 0,
       0, 0, 0, 0, 0, 0, 0, 0, 0, 0, 0, 0, 0, 0, 0, 0, 0, 0, 0, 0, 0, 0,
       0, 0, 0, 0, 0, 0, 0, 0, 0, 0, 0, 0, 0, 0, 0, 0, 0, 0, 0, 0, 0, 0,
       0, 0, 0, 0, 0, 0, 0, 0, 0, 0, 0, 0, 0, 0, 0, 0, 0, 0, 0, 0, 0, 0,
       0, 0, 0, 0, 0, 0, 0, 0, 0, 0, 0, 0, 0, 0, 0, 0, 0, 0, 0, 0, 0, 0,
       0, 0, 0, 0, 0, 0, 0, 0, 0, 0, 0, 0, 0, 0, 0, 0, 0, 0, 0, 0, 0, 0,
       0, 0, 0, 0, 0, 0, 0, 0, 0, 0, 0, 0, 0, 0, 0, 0, 0, 0, 0, 0, 0, 0,
       0, 0, 0, 0, 0, 0, 0, 0, 0, 0, 0, 0, 0, 0, 0, 0, 0, 0, 0, 0, 0, 0,
       0, 0, 0, 0, 0, 0, 0, 0, 0, 0, 0, 0, 0, 0, 0, 0, 0, 0, 0, 0, 0, 0,
       0, 0, 0, 0, 0, 0, 0, 0, 0, 0, 0, 0, 0, 0, 0, 0, 0, 0, 0, 0, 0, 0,
       0, 0, 0, 0, 0, 0, 0, 0, 0, 0, 0, 0, 0, 0, 0, 0, 0, 0, 0, 0, 0, 0,
       0, 0, 0, 0, 0, 0, 0, 0, 0, 0, 0, 0, 0, 0, 0, 0, 0, 0, 0, 0, 0, 0,
       0, 0, 0, 0, 0, 0, 0, 0, 0, 0, 0, 0, 0, 0, 0, 0, 0, 0, 0, 0, 0, 0,
       0, 0, 0, 0, 0, 0, 0, 0, 0, 0, 0, 0, 0, 0, 0, 0, 0, 0, 0, 0, 0, 0,
       0, 0, 0, 0, 0, 0, 0, 0, 0, 0, 0, 0, 0, 0, 0, 0, 0, 0, 0, 0, 0, 0,
       0, 0, 0, 0, 0, 0, 0, 0, 0, 0, 0, 0, 0, 0, 0, 0, 0, 0, 0, 0, 0, 0,
       0, 0, 0, 0, 0, 0, 0, 0, 0, 0, 0, 0, 0, 0, 0, 0, 0, 0, 0, 0, 0, 0,
       0, 0, 0, 0, 0, 0, 0, 0, 0, 0, 0, 0, 0, 0, 0, 0, 0, 0, 0, 0, 0, 0,
       0, 0, 0, 0, 0, 0, 0, 0, 0, 0, 0, 0, 0, 0, 0, 0, 0, 0, 0, 0, 0, 0,
       0, 0, 0, 0, 0, 0, 0, 0, 0, 0, 0, 0, 0, 0, 0, 0, 0, 0, 0, 0, 0, 0,
       0, 0, 0, 0, 0, 0, 0, 0, 0, 0, 0, 0, 0, 0, 0, 0, 0, 0, 0, 0, 0, 0,
       0, 0, 0, 0, 0, 0, 0, 0, 0, 0, 0, 0, 0, 0, 0, 0, 0, 0, 0, 0, 0, 0,
       0, 0, 0, 0, 0, 0, 0, 0, 0, 0, 0, 0, 0, 0, 0, 0, 0, 0, 0, 0, 0, 0,
       0, 0, 0, 0, 0, 0, 0, 0, 0, 0, 0, 0, 0, 0, 0, 0, 0, 0, 0, 0, 0, 0,
       0, 0, 0, 0, 0, 0, 0, 0, 0, 0, 0, 0, 0, 0, 0, 0, 0, 0, 0, 0, 0, 0,
       0, 0, 0, 0, 0, 0, 0, 0, 0, 0, 0, 0, 0, 0, 0, 0, 0, 0, 0, 0, 0, 0,
       0, 0, 0, 0, 0, 0, 0, 0, 0, 0, 0, 0, 0, 0, 0, 0, 0, 0, 0, 0, 0, 0,
       0, 0, 0, 0, 0, 0, 0, 0, 0, 0, 0, 0, 0, 0, 0, 0, 0, 0, 0, 0, 0, 0,
       0, 0, 0, 0, 0, 0, 0, 0, 0, 0, 0, 0, 0, 0, 0, 0, 0, 0, 0, 0, 0, 0,
       0, 0, 0, 0, 0, 0, 0, 0, 0, 0, 0, 0, 0, 0, 0, 0, 0, 0, 0, 0, 0, 0,
       0, 0, 0, 0, 0, 0, 0, 0, 0, 0, 0, 0, 0, 0, 0, 0, 0, 0, 0, 0, 0, 0,
       0, 0, 0, 0, 0, 0, 0, 0, 0, 0, 0, 0, 0, 0, 0, 0, 0, 0, 0, 0, 0, 0,
       0, 0, 0, 0, 0, 0, 0, 0, 0, 0, 0, 0, 0, 0, 0, 0, 0, 0, 0, 0, 0, 0,
       0, 0, 0, 0, 0, 0, 0, 0, 0, 0, 0, 0, 0, 0, 0, 0, 0, 0, 0, 0, 0, 0,
       0, 0, 0, 0, 0, 0, 0, 0, 0, 0, 0, 0, 0, 0, 0, 0, 0, 0, 0, 0, 0, 0,
       0, 0, 0, 0, 0, 0, 0, 0, 0, 0, 0, 0, 0, 0, 0, 0, 0, 0, 0, 0, 0, 0,
       0, 0, 0, 0, 0, 0, 0, 0, 0, 0, 0, 0, 0, 0, 0, 0, 0, 0, 0, 0, 0, 0,
       0, 0, 0, 0, 0, 0, 0, 0, 0, 0, 0, 0, 0, 0, 0, 0, 0, 0, 0, 0, 0, 0,
       0, 0, 0, 0, 0, 0, 0, 0, 0, 0, 0, 0, 0, 0, 0, 0, 0, 0, 0, 0, 0, 0,
       0, 0, 0, 0, 0, 0, 0, 0, 0, 0, 0, 0, 0, 0, 0, 0, 0, 0, 0, 0, 0, 0,
       0, 0, 0, 0, 0, 0, 0, 0, 0, 0, 0, 0, 0, 0, 0, 0, 0, 0, 0, 0, 0, 0,
       0, 0, 0, 0, 0, 0, 0, 0, 0, 0, 0, 0, 0, 0, 0, 0, 0, 0, 0, 0, 0, 0,
       0, 0, 0, 0, 0, 0, 0, 0, 0, 0, 0, 0, 0, 0, 0, 0, 0, 0, 0, 0, 0, 0,
       0, 0, 0, 0, 0, 0, 0, 0, 0, 0, 0, 0, 0, 0, 0, 0, 0, 0, 0, 0, 0, 0,
       0, 0, 0, 0, 0, 0, 0, 0, 0, 0, 0, 0, 0, 0, 0, 0, 0, 0, 0, 0, 0, 0,
       0, 0, 0, 0, 0, 0, 0, 1 ]
   cat_ofs: [ 0, 0, 0, 0, 0, 0, 0, 0, 0, 0, 0, 0, 0, 0, 0, 0, 0, 0, 0, 0,
       0, 0, 0, 0, 0, 0, 0, 0, 0, 0, 0, 0, 0, 0, 0, 0, 0, 0, 0, 0, 0, 0,
       0, 0, 0, 0, 0, 0, 0, 0, 0, 0, 0, 0, 0, 0, 0, 0, 0, 0, 0, 0, 0, 0,
       0, 0, 0, 0, 0, 0, 0, 0, 0, 0, 0, 0, 0, 0, 0, 0, 0, 0, 0, 0, 0, 0,
       0, 0, 0, 0, 0, 0, 0, 0, 0, 0, 0, 0, 0, 0, 0, 0, 0, 0, 0, 0, 0, 0,
       0, 0, 0, 0, 0, 0, 0, 0, 0, 0, 0, 0, 0, 0, 0, 0, 0, 0, 0, 0, 0, 0,
       0, 0, 0, 0, 0, 0, 0, 0, 0, 0, 0, 0, 0, 0, 0, 0, 0, 0, 0, 0, 0, 0,
       0, 0, 0, 0, 0, 0, 0, 0, 0, 0, 0, 0, 0, 0, 0, 0, 0, 0, 0, 0, 0, 0,
       0, 0, 0, 0, 0, 0, 0, 0, 0, 0, 0, 0, 0, 0, 0, 0, 0, 0, 0, 0, 0, 0,
       0, 0, 0, 0, 0, 0, 0, 0, 0, 0, 0, 0, 0, 0, 0, 0, 0, 0, 0, 0, 0, 0,
       0, 0, 0, 0, 0, 0, 0, 0, 0, 0, 0, 0, 0, 0, 0, 0, 0, 0, 0, 0, 0, 0,
       0, 0, 0, 0, 0, 0, 0, 0, 0, 0, 0, 0, 0, 0, 0, 0, 0, 0, 0, 0, 0, 0,
       0, 0, 0, 0, 0, 0, 0, 0, 0, 0, 0, 0, 0, 0, 0, 0, 0, 0, 0, 0, 0, 0,
       0, 0, 0, 0, 0, 0, 0, 0, 0, 0, 0, 0, 0, 0, 0, 0, 0, 0, 0, 0, 0, 0,
       0, 0, 0, 0, 0, 0, 0, 0, 0, 0, 0, 0, 0, 0, 0, 0, 0, 0, 0, 0, 0, 0,
       0, 0, 0, 0, 0, 0, 0, 0, 0, 0, 0, 0, 0, 0, 0, 0, 0, 0, 0, 0, 0, 0,
       0, 0, 0, 0, 0, 0, 0, 0, 0, 0, 0, 0, 0, 0, 0, 0, 0, 0, 0, 0, 0, 0,
       0, 0, 0, 0, 0, 0, 0, 0, 0, 0, 0, 0, 0, 0, 0, 0, 0, 0, 0, 0, 0, 0,
       0, 0, 0, 0, 0, 0, 0, 0, 0, 0, 0, 0, 0, 0, 0, 0, 0, 0, 0, 0, 0, 0,
       0, 0, 0, 0, 0, 0, 0, 0, 0, 0, 0, 0, 0, 0, 0, 0, 0, 0, 0, 0, 0, 0,
       0, 0, 0, 0, 0, 0, 0, 0, 0, 0, 0, 0, 0, 0, 0, 0, 0, 0, 0, 0, 0, 0,
       0, 0, 0, 0, 0, 0, 0, 0, 0, 0, 0, 0, 0, 0, 0, 0, 0, 0, 0, 0, 0, 0,
       0, 0, 0, 0, 0, 0, 0, 0, 0, 0, 0, 0, 0, 0, 0, 0, 0, 0, 0, 0, 0, 0,
       0, 0, 0, 0, 0, 0, 0, 0, 0, 0, 0, 0, 0, 0, 0, 0, 0, 0, 0, 0, 0, 0,
       0, 0, 0, 0, 0, 0, 0, 0, 0, 0, 0, 0, 0, 0, 0, 0, 0, 0, 0, 0, 0, 0,
       0, 0, 0, 0, 0, 0, 0, 0, 0, 0, 0, 0, 0, 0, 0, 0, 0, 0, 0, 0, 0, 0,
       0, 0, 0, 0, 0, 0, 0, 0, 0, 0, 0, 0, 0, 0, 0, 0, 0, 0, 0, 0, 0, 0,
       0, 0, 0, 0, 0, 0, 0, 0, 0, 0, 0, 0, 0, 0, 0, 0, 0, 0, 0, 0, 0, 0,
       0, 0, 0, 0, 0, 0, 0, 0, 0, 0, 0, 0, 0, 0, 0, 0, 0, 0, 0, 0, 0, 0,
       0, 0, 0, 0, 0, 0, 0, 0, 0, 0, 0, 0, 0, 0, 0, 0, 0, 0, 0, 0, 0, 0,
       0, 0, 0, 0, 0, 0, 0, 0, 0, 0, 0, 0, 0, 0, 0, 0, 0, 0, 0, 0, 0, 0,
       0, 0, 0, 0, 0, 0, 0, 0, 0, 0, 0, 0, 0, 0, 0, 0, 0, 0, 0, 0, 0, 0,
       0, 0, 0, 0, 0, 0, 0, 0, 0, 0, 0, 0, 0, 0, 0, 0, 0, 0, 0, 0, 0, 0,
       0, 0, 0, 0, 0, 0, 0, 0, 0, 0, 0, 0, 0, 0, 0, 0, 0, 0, 0, 0, 0, 0,
       0, 0, 0, 0, 0, 0, 0, 0, 0, 0, 0, 0, 0, 0, 0, 0, 0, 0, 0, 0, 0, 0,
       0, 0, 0, 0, 0, 0, 0, 0, 0, 0, 0, 0, 0, 0, 0, 0, 0, 0, 0, 0, 0, 0,
       0, 0, 0, 0, 0, 0, 0, 0, 0, 0, 0, 0, 0, 0, 0, 0, 0, 0, 0, 0, 0, 0,
       0, 0, 0, 0, 0, 0, 0, 0, 0, 0, 0, 0, 0, 0, 0, 0, 0, 0, 0, 0, 0, 0,
       0, 0, 0, 0, 0, 0, 0, 0, 0, 0, 0, 0, 0, 0, 0, 0, 0, 0, 0, 0, 0, 0,
       0, 0, 0, 0, 0, 0, 0, 0, 0, 0, 0, 0, 0, 0, 0, 0, 0, 0, 0, 0, 0, 0,
       0, 0, 0, 0, 0, 0, 0, 0, 0, 0, 0, 0, 0, 0, 0, 0, 0, 0, 0, 0, 0, 0,
       0, 0, 0, 0, 0, 0, 0, 0, 0, 0, 0, 0, 0, 0, 0, 0, 0, 0, 0, 0, 0, 0,
       0, 0, 0, 0, 0, 0, 0, 0, 0, 0, 0, 0, 0, 0, 0, 0, 0, 0, 0, 0, 0, 0,
       0, 0, 0, 0, 0, 0, 0, 0, 0, 0, 0, 0, 0, 0, 0, 0, 0, 0, 0, 0, 0, 0,
       0, 0, 0, 0, 0, 0, 0, 0, 0, 0, 0, 0, 0, 0, 0, 0, 0, 0, 0, 0, 0, 0,
       0, 0, 0, 0, 0, 0, 0, 0, 0, 0, 0, 0, 0, 0, 0, 0, 0, 0, 0, 0, 0, 0,
       0, 0, 0, 0, 0, 0, 0, 0, 0, 0, 0, 0, 0, 0, 0, 0, 0, 0, 0, 0, 0, 0,
       0, 0, 0, 0, 0, 0, 0, 0, 0, 0, 0, 0, 0, 0, 0, 0, 0, 0, 0, 0, 0, 0,
       0, 0, 0, 0, 0, 0, 0, 0, 0, 0, 0, 0, 0, 0, 0, 0, 0, 0, 0, 0, 0, 0,
       0, 0, 0, 0, 0, 0, 0, 0, 0, 0, 0, 0, 0, 0, 0, 0, 0, 0, 0, 0, 0, 0,
       0, 0, 0, 0, 0, 0, 0, 0, 0, 0, 0, 0, 0, 0, 0, 0, 0, 0, 0, 0, 0, 0,
       0, 0, 0, 0, 0, 0, 0, 0, 0, 0, 0, 0, 0, 0, 0, 0, 0, 0, 0, 0, 0, 0,
       0, 0, 0, 0, 0, 0, 0, 0, 0, 0, 0, 0, 0, 0, 0, 0, 0, 0, 0, 0, 0, 0,
       0, 0, 0, 0, 0, 0, 0, 0, 0, 0, 0, 0, 0, 0, 0, 0, 0, 0, 0, 0, 0, 0,
       0, 0, 0, 0, 0, 0, 0, 0, 0, 0, 0, 0, 0, 0, 0, 0, 0, 0, 0, 0, 0, 0,
       0, 0, 0, 0, 0, 0, 0, 0, 0, 0, 0, 0, 0, 0, 0, 0, 0, 0, 0, 0, 0, 0,
       0, 0, 0, 0, 0, 0, 0, 0, 0, 0, 0, 0, 0, 0, 0, 0, 0, 0, 0, 0, 0, 0,
       0, 0, 0, 0, 0, 0, 0, 0, 0, 0, 0, 0, 0, 0, 0, 0, 0, 0, 0, 0, 0, 0,
       0, 0, 0, 0, 0, 0, 0, 0, 0, 0, 0, 0, 0, 0, 0, 0, 0, 0, 0, 0, 0, 0,
       0, 0, 0, 0, 0, 0, 0, 0, 0, 0, 0, 0, 0, 0, 0, 0, 0, 0, 0, 0, 0, 0,
       0, 0, 0, 0, 0, 0, 0, 0, 0, 0, 0, 0, 0, 0, 0, 0, 0, 0, 0, 0, 0, 0,
       0, 0, 0, 0, 0, 0, 0, 0, 0, 0, 0, 0, 0, 0, 0, 0, 0, 0, 0, 0, 0, 0,
       0, 0, 0, 0, 0, 0, 0, 0, 0, 0, 0, 0, 0, 0, 0, 0, 0, 0, 0, 0, 0, 0,
       0, 0, 0, 0, 0, 0, 0, 0, 0, 0, 0, 0, 0, 0, 0, 0, 0, 0, 0, 0, 0, 0,
       0, 0, 0, 0, 0, 0, 0, 0, 0, 0, 0, 0, 0, 0, 0, 0, 0, 0, 0, 0, 0, 0,
       0, 0, 0, 0, 0, 0, 0, 0, 0, 0, 0, 0, 0, 0, 0, 0, 0, 0, 0, 0, 0, 0,
       0, 0, 0, 0, 0, 0, 0, 0, 0, 0, 0, 0, 0, 0, 0, 0, 0, 0, 0, 0, 0, 0,
       0, 0, 0, 0, 0, 0, 0, 0, 0, 0, 0, 0, 0, 0, 0, 0, 0, 0, 0, 0, 0, 0,
       0, 0, 0, 0, 0, 0, 0, 0, 0, 0, 0, 0, 0, 0, 0, 0, 0, 0, 0, 0, 0, 0,
       0, 0, 0, 0, 0, 0, 0, 0, 0, 0, 0, 0, 0, 0, 0, 0, 0, 0, 0, 0, 0, 0,
       0, 0, 0, 0, 0, 0, 0, 0, 0, 0, 0, 0, 0, 0, 0, 0, 0, 0, 0, 0, 0, 0,
       0, 0, 0, 0, 0, 0, 0, 0, 0, 0, 0, 0, 0, 0, 0, 0, 0, 0, 0, 0, 0, 0,
       0, 0, 0, 0, 0, 0, 0, 0, 0, 0, 0, 0, 0, 0, 0, 0, 0, 0, 0, 0, 0, 0,
       0, 0, 0, 0, 0, 0, 0, 0, 0, 0, 0, 0, 0, 0, 0, 0, 0, 0, 0, 0, 0, 0,
       0, 0, 0, 0, 0, 0, 0, 0, 0, 0, 0, 0, 0, 0, 0, 0, 0, 0, 0, 0, 0, 0,
       0, 0, 0, 0, 0, 0, 0, 0, 0, 0, 0, 0, 0, 0, 0, 0, 0, 0, 0, 0, 0, 0,
       0, 0, 0, 0, 0, 0, 0, 0, 0, 0, 0, 0, 0, 0, 0, 0, 0, 0, 0, 0, 0, 0,
       0, 0, 0, 0, 0, 0, 0, 0, 0, 0, 0, 0, 0, 0, 0, 0, 0, 0, 0, 0, 0, 0,
       0, 0, 0, 0, 0, 0, 0, 0, 0, 0, 0, 0, 0, 0, 0, 0, 0, 0, 0, 0, 0, 0,
       0, 0, 0, 0, 0, 0, 0, 0, 0, 0, 0, 0, 0, 0, 0, 0, 0, 0, 0, 0, 0, 0,
       0, 0, 0, 0, 0, 0, 0, 0, 0, 0, 0, 0, 0, 0, 0, 0, 0, 0, 0, 0, 0, 0,
       0, 0, 0, 0, 0, 0, 0, 0, 0, 0, 0, 0, 0, 0, 0, 0, 0, 0, 0, 0, 0, 0,
       0, 0, 0, 0, 0, 0, 0, 0, 0, 0, 0, 0, 0, 0, 0, 0, 0, 0, 0, 0, 0, 0,
       0, 0, 0, 0, 0, 0, 0, 0, 0, 0, 0, 0, 0, 0, 0, 0, 0, 0, 0, 0, 0, 0,
       0, 0, 0, 0, 0, 0, 0, 0, 0, 0, 0, 0, 0, 0, 0, 0, 0, 0, 0, 0, 0, 0,
       0, 0, 0, 0, 0, 0, 0, 0, 0, 0, 0, 0, 0, 0, 0, 0, 0, 0, 0, 0, 0, 0,
       0, 0, 0, 0, 0, 0, 0, 0, 0, 0, 0, 0, 0, 0, 0, 0, 0, 0, 0, 0, 0, 0,
       0, 0, 0, 0, 0, 0, 0, 0, 0, 0, 0, 0, 0, 0, 0, 0, 0, 0, 0, 0, 0, 0,
       0, 0, 0, 0, 0, 0, 0, 0, 0, 0, 0, 0, 0, 0, 0, 0, 0, 0, 0, 0, 0, 0,
       0, 0, 0, 0, 0, 0, 0, 0, 0, 0, 0, 0, 0, 0, 0, 0, 0, 0, 0, 0, 0, 0,
       0, 0, 0, 0, 0, 0, 0, 0, 0, 0, 0, 0, 0, 0, 0, 0, 0, 0, 0, 0, 0, 0,
       0, 0, 0, 0, 0, 0, 0, 0, 0, 0, 0, 0, 0, 0, 0, 0, 0, 0, 0, 0, 0, 0,
       0, 0, 0, 0, 0, 0, 0, 0, 0, 0, 0, 0, 0, 0, 0, 0, 0, 0, 0, 0, 0, 0,
       0, 0, 0, 0, 0, 0, 0, 0, 0, 0, 0, 0, 0, 0, 0, 0, 0, 0, 0, 0, 0, 0,
       0, 0, 0, 0, 0, 0, 0, 0, 0, 0, 0, 0, 0, 0, 0, 0, 0, 0, 0, 0, 0, 0,
       0, 0, 0, 0, 0, 0, 0, 0, 0, 0, 0, 0, 0, 0, 0, 0, 0, 0, 0, 0, 0, 0,
       0, 0, 0, 0, 0, 0, 0, 0, 0, 0, 0, 0, 0, 0, 0, 0, 0, 0, 0, 0, 0, 0,
       0, 0, 0, 0, 0, 0, 0, 0, 0, 0, 0, 0, 0, 0, 0, 0, 0, 0, 0, 0, 0, 0,
       0, 0, 0, 0, 0, 0, 0, 0, 0, 0, 0, 0, 0, 0, 0, 0, 0, 0, 0, 0, 0, 0,
       0, 0, 0, 0, 0, 0, 0, 0, 0, 0, 0, 0, 0, 0, 0, 0, 0, 0, 0, 0, 0, 0,
       0, 0, 0, 0, 0, 0, 0, 0, 0, 0, 0, 0, 0, 0, 0, 0, 0, 0, 0, 0, 0, 0,
       0, 0, 0, 0, 0, 0, 0, 0, 0, 0, 0, 0, 0, 0, 0, 0, 0, 0, 0, 0, 0, 0,
       0, 0, 0, 0, 0, 0, 0, 0, 0, 0, 0, 0, 0, 0, 0, 0, 0, 0, 0, 0, 0, 0,
       0, 0, 0, 0, 0, 0, 0, 0, 0, 0, 0, 0, 0, 0, 0, 0, 0, 0, 0, 0, 0, 0,
       0, 0, 0, 0, 0, 0, 0, 0, 0, 0, 0, 0, 0, 0, 0, 0, 0, 0, 0, 0, 0, 0,
       0, 0, 0, 0, 0, 0, 0, 0, 0, 0, 0, 0, 0, 0, 0, 0, 0, 0, 0, 0, 0, 0,
       0, 0, 0, 0, 0, 0, 0, 0, 0, 0, 0, 0, 0, 0, 0, 0, 0, 0, 0, 0, 0, 0,
       0, 0, 0, 0, 0, 0, 0, 0, 0, 0, 0, 0, 0, 0, 0, 0, 0, 0, 0, 0, 0, 0,
       0, 0, 0, 0, 0, 0, 0, 0, 0, 0, 0, 0, 0, 0, 0, 0, 0, 0, 0, 0, 0, 0,
       0, 0, 0, 0, 0, 0, 0, 0, 0, 0, 0, 0, 0, 0, 0, 0, 0, 0, 0, 0, 0, 0,
       0, 0, 0, 0, 0, 0, 0, 0, 0, 0, 0, 0, 0, 0, 0, 0, 0, 0, 0, 0, 0, 0,
       0, 0, 0, 0, 0, 0, 0, 0, 0, 0, 0, 0, 0, 0, 0, 0, 0, 0, 0, 0, 0, 0,
       0, 0, 0, 0, 0, 0, 0, 0, 0, 0, 0, 0, 0, 0, 0, 0, 0, 0, 0, 0, 0, 0,
       0, 0, 0, 0, 0, 0, 0, 0, 0, 0, 0, 0, 0, 0, 0, 0, 0, 0, 0, 0, 0, 0,
       0, 0, 0, 0, 0, 0, 0, 0, 0, 0, 0, 0, 0, 0, 0, 0, 0, 0, 0, 0, 0, 0,
       0, 0, 0, 0, 0, 0, 0, 0, 0, 0, 0, 0, 0, 0, 0, 0, 0, 0, 0, 0, 0, 0,
       0, 0, 0, 0, 0, 0, 0, 0, 0, 0, 0, 0, 0, 0, 0, 0, 0, 0, 0, 0, 0, 0,
       0, 0, 0, 0, 0, 0, 0, 0, 0, 0, 0, 0, 0, 0, 0, 0, 0, 0, 0, 0, 0, 0,
       0, 0, 0, 0, 0, 0, 0, 0, 0, 0, 0, 0, 0, 0, 0, 0, 0, 0, 0, 0, 0, 0,
       0, 0, 0, 0, 0, 0, 0, 0, 0, 0, 0, 0, 0, 0, 0, 0, 0, 0, 0, 0, 0, 0,
       0, 0, 0, 0, 0, 0, 0, 0, 0, 0, 0, 0, 0, 0, 0, 0, 0, 0, 0, 0, 0, 0,
       0, 0, 0, 0, 0, 0, 0, 0, 0, 0, 0, 0, 0, 0, 0, 0, 0, 0, 0, 0, 0, 0,
       0, 0, 0, 0, 0, 0, 0, 0, 0, 0, 0, 0, 0, 0, 0, 0, 0, 0, 0, 0, 0, 0,
       0, 0, 0, 0, 0, 0, 0, 0, 0, 0, 0, 0, 0, 0, 0, 0, 0, 0, 0, 0, 0, 0,
       0, 0, 0, 0, 0, 0, 0, 0, 0, 0, 0, 0, 0, 0, 0, 0, 0, 0, 0, 0, 0, 0,
       0, 0, 0, 0, 0, 0, 0, 0, 0, 0, 0, 0, 0, 0, 0, 0, 0, 0, 0, 0, 0, 0,
       0, 0, 0, 0, 0, 0, 0, 0, 0, 0, 0, 0, 0, 0, 0, 0, 0, 0, 0, 0, 0, 0,
       0, 0, 0, 0, 0, 0, 0, 0, 0, 0, 0, 0, 0, 0, 0, 0, 0, 0, 0, 0, 0, 0,
       0, 0, 0, 0, 0, 0, 0, 0, 0, 0, 0, 0, 0, 0, 0, 0, 0, 0, 0, 0, 0, 0,
       0, 0, 0, 0, 0, 0, 0, 0, 0, 0, 0, 0, 0, 0, 0, 0, 0, 0, 0, 0, 0, 0,
       0, 0, 0, 0, 0, 0, 0, 0, 0, 0, 0, 0, 0, 0, 0, 0, 0, 0, 0, 0, 0, 0,
       0, 0, 0, 0, 0, 0, 0, 0, 0, 0, 0, 0, 0, 0, 0, 0, 0, 0, 0, 0, 0, 0,
       0, 0, 0, 0, 0, 0, 0, 0, 0, 0, 0, 0, 0, 0, 0, 0, 0, 0, 0, 0, 0, 0,
       0, 0, 0, 0, 0, 0, 0, 0, 0, 0, 0, 0, 0, 0, 0, 0, 0, 0, 0, 0, 0, 0,
       0, 0, 0, 0, 0, 0, 0, 0, 0, 0, 0, 0, 0, 0, 0, 0, 0, 0, 0, 0, 0, 0,
       0, 0, 0, 0, 0, 0, 0, 0, 0, 0, 0, 0, 0, 0, 0, 0, 0, 0, 0, 0, 0, 0,
       0, 0, 0, 0, 0, 0, 0, 0, 0, 0, 0, 0, 0, 0, 0, 0, 0, 0, 0, 0, 0, 0,
       0, 0, 0, 0, 0, 0, 0, 0, 0, 0, 0, 0, 0, 0, 0, 0, 0, 0, 0, 0, 0, 0,
       0, 0, 0, 0, 0, 0, 0, 0, 0, 0, 0, 0, 0, 0, 0, 0, 0, 0, 0, 0, 0, 0,
       0, 0, 0, 0, 0, 0, 0, 0, 0, 0, 0, 0, 0, 0, 0, 0, 0, 0, 0, 0, 0, 0,
       0, 0, 0, 0, 0, 0, 0, 0, 0, 0, 0, 0, 0, 0, 0, 0, 0, 0, 0, 0, 0, 0,
       0, 0, 0, 0, 0, 0, 0, 0, 0, 0, 0, 0, 0, 0, 0, 0, 0, 0, 0, 0, 0, 0,
       0, 0, 0, 0, 0, 0, 0, 0, 0, 0, 0, 0, 0, 0, 0, 0, 0, 0, 0, 0, 0, 0,
       0, 0, 0, 0, 0, 0, 0, 0, 0, 0, 0, 0, 0, 0, 0, 0, 0, 0, 0, 0, 0, 0,
       0, 0, 0, 0, 0, 0, 0, 0, 0, 0, 0, 0, 0, 0, 0, 0, 0, 0, 0, 0, 0, 0,
       0, 0, 0, 0, 0, 0, 0, 0, 0, 0, 0, 0, 0, 0, 0, 0, 0, 0, 0, 0, 0, 0,
       0, 0, 0, 0, 0, 0, 0, 0, 0, 0, 0, 0, 0, 0, 0, 0, 0, 0, 0, 0, 0, 0,
       0, 0, 0, 0, 0, 0, 0, 0, 0, 0, 0, 0, 0, 0, 0, 0, 0, 0, 0, 0, 0, 0,
       0, 0, 0, 0, 0, 0, 0, 0, 0, 0, 0, 0, 0, 0, 0, 0, 0, 0, 0, 0, 0, 0,
       0, 0, 0, 0, 0, 0, 0, 0, 0, 0, 0, 0, 0, 0, 0, 0, 0, 0, 0, 0, 0, 0,
       0, 0, 0, 0, 0, 0, 0, 0, 0, 0, 0, 0, 0, 0, 0, 0, 0, 0, 0, 0, 0, 0,
       0, 0, 0, 0, 0, 0, 0, 0, 0, 0, 0, 0, 0, 0, 0, 0, 0, 0, 0, 0, 0, 0,
       0, 0, 0, 0, 0, 0, 0, 0, 0, 0, 0, 0, 0, 0, 0, 0, 0, 0, 0, 0, 0, 0,
       0, 0, 0, 0, 0, 0, 0, 0, 0, 0, 0, 0, 0, 0, 0, 0, 0, 0, 0, 0, 0, 0,
       0, 0, 0, 0, 0, 0, 0, 0, 0, 0, 0, 0, 0, 0, 0, 0, 0, 0, 0, 0, 0, 0,
       0, 0, 0, 0, 0, 0, 0, 0, 0, 0, 0, 0, 0, 0, 0, 0, 0, 0, 0, 0, 0, 0,
       0, 0, 0, 0, 0, 0, 0, 0, 0, 0, 0, 0, 0, 0, 0, 0, 0, 0, 0, 0, 0, 0,
       0, 0, 0, 0, 0, 0, 0, 0, 0, 0, 0, 0, 0, 0, 0, 0, 0, 0, 0, 0, 0, 0,
       0, 0, 0, 0, 0, 0, 0, 0, 0, 0, 0, 0, 0, 0, 0, 0, 0, 0, 0, 0, 0, 0,
       0, 0, 0, 0, 0, 0, 0, 0, 0, 0, 0, 0, 0, 0, 0, 0, 0, 0, 0, 0, 0, 0,
       0, 0, 0, 0, 0, 0, 0, 0, 0, 0 ]
   class_labels: [ 0, 1, 2, 3, 4, 5 ]
   missing_subst: [ 0., 0., 0., 0., 0., 0., 0., 0., 0., 0., 0., 0., 0.,
       0., 0., 0., 0., 0., 0., 0., 0., 0., 0., 0., 0., 0., 0., 0., 0.,
       0., 0., 0., 0., 0., 0., 0., 0., 0., 0., 0., 0., 0., 0., 0., 0.,
       0., 0., 0., 0., 0., 0., 0., 0., 0., 0., 0., 0., 0., 0., 0., 0.,
       0., 0., 0., 0., 0., 0., 0., 0., 0., 0., 0., 0., 0., 0., 0., 0.,
       0., 0., 0., 0., 0., 0., 0., 0., 0., 0., 0., 0., 0., 0., 0., 0.,
       0., 0., 0., 0., 0., 0., 0., 0., 0., 0., 0., 0., 0., 0., 0., 0.,
       0., 0., 0., 0., 0., 0., 0., 0., 0., 0., 0., 0., 0., 0., 0., 0.,
       0., 0., 0., 0., 0., 0., 0., 0., 0., 0., 0., 0., 0., 0., 0., 0.,
       0., 0., 0., 0., 0., 0., 0., 0., 0., 0., 0., 0., 0., 0., 0., 0.,
       0., 0., 0., 0., 0., 0., 0., 0., 0., 0., 0., 0., 0., 0., 0., 0.,
       0., 0., 0., 0., 0., 0., 0., 0., 0., 0., 0., 0., 0., 0., 0., 0.,
       0., 0., 0., 0., 0., 0., 0., 0., 0., 0., 0., 0., 0., 0., 0., 0.,
       0., 0., 0., 0., 0., 0., 0., 0., 0., 0., 0., 0., 0., 0., 0., 0.,
       0., 0., 0., 0., 0., 0., 0., 0., 0., 0., 0., 0., 0., 0., 0., 0.,
       0., 0., 0., 0., 0., 0., 0., 0., 0., 0., 0., 0., 0., 0., 0., 0.,
       0., 0., 0., 0., 0., 0., 0., 0., 0., 0., 0., 0., 0., 0., 0., 0.,
       0., 0., 0., 0., 0., 0., 0., 0., 0., 0., 0., 0., 0., 0., 0., 0.,
       0., 0., 0., 0., 0., 0., 0., 0., 0., 0., 0., 0., 0., 0., 0., 0.,
       0., 0., 0., 0., 0., 0., 0., 0., 0., 0., 0., 0., 0., 0., 0., 0.,
       0., 0., 0., 0., 0., 0., 0., 0., 0., 0., 0., 0., 0., 0., 0., 0.,
       0., 0., 0., 0., 0., 0., 0., 0., 0., 0., 0., 0., 0., 0., 0., 0.,
       0., 0., 0., 0., 0., 0., 0., 0., 0., 0., 0., 0., 0., 0., 0., 0.,
       0., 0., 0., 0., 0., 0., 0., 0., 0., 0., 0., 0., 0., 0., 0., 0.,
       0., 0., 0., 0., 0., 0., 0., 0., 0., 0., 0., 0., 0., 0., 0., 0.,
       0., 0., 0., 0., 0., 0., 0., 0., 0., 0., 0., 0., 0., 0., 0., 0.,
       0., 0., 0., 0., 0., 0., 0., 0., 0., 0., 0., 0., 0., 0., 0., 0.,
       0., 0., 0., 0., 0., 0., 0., 0., 0., 0., 0., 0., 0., 0., 0., 0.,
       0., 0., 0., 0., 0., 0., 0., 0., 0., 0., 0., 0., 0., 0., 0., 0.,
       0., 0., 0., 0., 0., 0., 0., 0., 0., 0., 0., 0., 0., 0., 0., 0.,
       0., 0., 0., 0., 0., 0., 0., 0., 0., 0., 0., 0., 0., 0., 0., 0.,
       0., 0., 0., 0., 0., 0., 0., 0., 0., 0., 0., 0., 0., 0., 0., 0.,
       0., 0., 0., 0., 0., 0., 0., 0., 0., 0., 0., 0., 0., 0., 0., 0.,
       0., 0., 0., 0., 0., 0., 0., 0., 0., 0., 0., 0., 0., 0., 0., 0.,
       0., 0., 0., 0., 0., 0., 0., 0., 0., 0., 0., 0., 0., 0., 0., 0.,
       0., 0., 0., 0., 0., 0., 0., 0., 0., 0., 0., 0., 0., 0., 0., 0.,
       0., 0., 0., 0., 0., 0., 0., 0., 0., 0., 0., 0., 0., 0., 0., 0.,
       0., 0., 0., 0., 0., 0., 0., 0., 0., 0., 0., 0., 0., 0., 0., 0.,
       0., 0., 0., 0., 0., 0., 0., 0., 0., 0., 0., 0., 0., 0., 0., 0.,
       0., 0., 0., 0., 0., 0., 0., 0., 0., 0., 0., 0., 0., 0., 0., 0.,
       0., 0., 0., 0., 0., 0., 0., 0., 0., 0., 0., 0., 0., 0., 0., 0.,
       0., 0., 0., 0., 0., 0., 0., 0., 0., 0., 0., 0., 0., 0., 0., 0.,
       0., 0., 0., 0., 0., 0., 0., 0., 0., 0., 0., 0., 0., 0., 0., 0.,
       0., 0., 0., 0., 0., 0., 0., 0., 0., 0., 0., 0., 0., 0., 0., 0.,
       0., 0., 0., 0., 0., 0., 0., 0., 0., 0., 0., 0., 0., 0., 0., 0.,
       0., 0., 0., 0., 0., 0., 0., 0., 0., 0., 0., 0., 0., 0., 0., 0.,
       0., 0., 0., 0., 0., 0., 0., 0., 0., 0., 0., 0., 0., 0., 0., 0.,
       0., 0., 0., 0., 0., 0., 0., 0., 0., 0., 0., 0., 0., 0., 0., 0.,
       0., 0., 0., 0., 0., 0., 0., 0., 0., 0., 0., 0., 0., 0., 0., 0.,
       0., 0., 0., 0., 0., 0., 0., 0., 0., 0., 0., 0., 0., 0., 0., 0.,
       0., 0., 0., 0., 0., 0., 0., 0., 0., 0., 0., 0., 0., 0., 0., 0.,
       0., 0., 0., 0., 0., 0., 0., 0., 0., 0., 0., 0., 0., 0., 0., 0.,
       0., 0., 0., 0., 0., 0., 0., 0., 0., 0., 0., 0., 0., 0., 0., 0.,
       0., 0., 0., 0., 0., 0., 0., 0., 0., 0., 0., 0., 0., 0., 0., 0.,
       0., 0., 0., 0., 0., 0., 0., 0., 0., 0., 0., 0., 0., 0., 0., 0.,
       0., 0., 0., 0., 0., 0., 0., 0., 0., 0., 0., 0., 0., 0., 0., 0.,
       0., 0., 0., 0., 0., 0., 0., 0., 0., 0., 0., 0., 0., 0., 0., 0.,
       0., 0., 0., 0., 0., 0., 0., 0., 0., 0., 0., 0., 0., 0., 0., 0.,
       0., 0., 0., 0., 0., 0., 0., 0., 0., 0., 0., 0., 0., 0., 0., 0.,
       0., 0., 0., 0., 0., 0., 0., 0., 0., 0., 0., 0., 0., 0., 0., 0.,
       0., 0., 0., 0., 0., 0., 0., 0., 0., 0., 0., 0., 0., 0., 0., 0.,
       0., 0., 0., 0., 0., 0., 0., 0., 0., 0., 0., 0., 0., 0., 0., 0.,
       0., 0., 0., 0., 0., 0., 0., 0., 0., 0., 0., 0., 0., 0., 0., 0.,
       0., 0., 0., 0., 0., 0., 0., 0., 0., 0., 0., 0., 0., 0., 0., 0.,
       0., 0., 0., 0., 0., 0., 0., 0., 0., 0., 0., 0., 0., 0., 0., 0.,
       0., 0., 0., 0., 0., 0., 0., 0., 0., 0., 0., 0., 0., 0., 0., 0.,
       0., 0., 0., 0., 0., 0., 0., 0., 0., 0., 0., 0., 0., 0., 0., 0.,
       0., 0., 0., 0., 0., 0., 0., 0., 0., 0., 0., 0., 0., 0., 0., 0.,
       0., 0., 0., 0., 0., 0., 0., 0., 0., 0., 0., 0., 0., 0., 0., 0.,
       0., 0., 0., 0., 0., 0., 0., 0., 0., 0., 0., 0., 0., 0., 0., 0.,
       0., 0., 0., 0., 0., 0., 0., 0., 0., 0., 0., 0., 0., 0., 0., 0.,
       0., 0., 0., 0., 0., 0., 0., 0., 0., 0., 0., 0., 0., 0., 0., 0.,
       0., 0., 0., 0., 0., 0., 0., 0., 0., 0., 0., 0., 0., 0., 0., 0.,
       0., 0., 0., 0., 0., 0., 0., 0., 0., 0., 0., 0., 0., 0., 0., 0.,
       0., 0., 0., 0., 0., 0., 0., 0., 0., 0., 0., 0., 0., 0., 0., 0.,
       0., 0., 0., 0., 0., 0., 0., 0., 0., 0., 0., 0., 0., 0., 0., 0.,
       0., 0., 0., 0., 0., 0., 0., 0., 0., 0., 0., 0., 0., 0., 0., 0.,
       0., 0., 0., 0., 0., 0., 0., 0., 0., 0., 0., 0., 0., 0., 0., 0.,
       0., 0., 0., 0., 0., 0., 0., 0., 0., 0., 0., 0., 0., 0., 0., 0.,
       0., 0., 0., 0., 0., 0., 0., 0., 0., 0., 0., 0., 0., 0., 0., 0.,
       0., 0., 0., 0., 0., 0., 0., 0., 0., 0., 0., 0., 0., 0., 0., 0.,
       0., 0., 0., 0., 0., 0., 0., 0., 0., 0., 0., 0., 0., 0., 0., 0.,
       0., 0., 0., 0., 0., 0., 0., 0., 0., 0., 0., 0., 0., 0., 0., 0.,
       0., 0., 0., 0., 0., 0., 0., 0., 0., 0., 0., 0., 0., 0., 0., 0.,
       0., 0., 0., 0., 0., 0., 0., 0., 0., 0., 0., 0., 0., 0., 0., 0.,
       0., 0., 0., 0., 0., 0., 0., 0., 0., 0., 0., 0., 0., 0., 0., 0.,
       0., 0., 0., 0., 0., 0., 0., 0., 0., 0., 0., 0., 0., 0., 0., 0.,
       0., 0., 0., 0., 0., 0., 0., 0., 0., 0., 0., 0., 0., 0., 0., 0.,
       0., 0., 0., 0., 0., 0., 0., 0., 0., 0., 0., 0., 0., 0., 0., 0.,
       0., 0., 0., 0., 0., 0., 0., 0., 0., 0., 0., 0., 0., 0., 0., 0.,
       0., 0., 0., 0., 0., 0., 0., 0., 0., 0., 0., 0., 0., 0., 0., 0.,
       0., 0., 0., 0., 0., 0., 0., 0., 0., 0., 0., 0., 0., 0., 0., 0.,
       0., 0., 0., 0., 0., 0., 0., 0., 0., 0., 0., 0., 0., 0., 0., 0.,
       0., 0., 0., 0., 0., 0., 0., 0., 0., 0., 0., 0., 0., 0., 0., 0.,
       0., 0., 0., 0., 0., 0., 0., 0., 0., 0., 0., 0., 0., 0., 0., 0.,
       0., 0., 0., 0., 0., 0., 0., 0., 0., 0., 0., 0., 0., 0., 0., 0.,
       0., 0., 0., 0., 0., 0., 0., 0., 0., 0., 0., 0., 0., 0., 0., 0.,
       0., 0., 0., 0., 0., 0., 0., 0., 0., 0., 0., 0., 0., 0., 0., 0.,
       0., 0., 0., 0., 0., 0., 0., 0., 0., 0., 0., 0., 0., 0., 0., 0.,
       0., 0., 0., 0., 0., 0., 0., 0., 0., 0., 0., 0., 0., 0., 0., 0.,
       0., 0., 0., 0., 0., 0., 0., 0., 0., 0., 0., 0., 0., 0., 0., 0.,
       0., 0., 0., 0., 0., 0., 0., 0., 0., 0., 0., 0., 0., 0., 0., 0.,
       0., 0., 0., 0., 0., 0., 0., 0., 0., 0., 0., 0., 0., 0., 0., 0.,
       0., 0., 0., 0., 0., 0., 0., 0., 0., 0., 0., 0., 0., 0., 0., 0.,
       0., 0., 0., 0., 0., 0., 0., 0., 0., 0., 0., 0., 0., 0., 0., 0.,
       0., 0., 0., 0., 0., 0., 0., 0., 0., 0., 0., 0., 0., 0., 0., 0.,
       0., 0., 0., 0., 0., 0., 0., 0., 0., 0., 0., 0., 0., 0., 0., 0.,
       0., 0., 0., 0., 0., 0., 0., 0., 0., 0., 0., 0., 0., 0., 0., 0.,
       0., 0., 0., 0., 0., 0., 0., 0., 0., 0., 0., 0., 0., 0., 0., 0.,
       0., 0., 0., 0., 0., 0., 0., 0., 0., 0., 0., 0., 0., 0., 0., 0.,
       0., 0., 0., 0., 0., 0., 0., 0. ]
   nodes:
      -
         depth: 0
         value: 5.
         norm_class_idx: 5
         splits:
            - { var:1532, quality:3.5191751098632812e+02,
                le:1.9764102995395660e-02 }
      -
         depth: 1
         value: 4.
         norm_class_idx: 4
         splits:
            - { var:1546, quality:1.2210463714599609e+02,
                le:2.2240635752677917e-01 }
      -
         depth: 2
         value: 4.
         norm_class_idx: 4
         splits:
            - { var:1611, quality:9.8790763854980469e+01,
                le:2.6160219311714172e-01 }
      -
         depth: 3
         value: 4.
         norm_class_idx: 4
         splits:
            - { var:210, quality:2.5566316604614258e+01,
                le:4.2855460196733475e-02 }
      -
         depth: 4
         value: 0.
         norm_class_idx: 0
         splits:
            - { var:477, quality:19., le:3.6683037877082825e-02 }
      -
         depth: 5
         value: 0.
         norm_class_idx: 0
      -
         depth: 5
         value: 5.
         norm_class_idx: 5
         splits:
            - { var:80, quality:8.5000000000000000e+00,
                le:2.4854803085327148e-01 }
      -
         depth: 6
         value: 5.
         norm_class_idx: 5
      -
         depth: 6
         value: 4.
         norm_class_idx: 4
         splits:
            - { var:1, quality:3., le:3.1735952943563461e-02 }
      -
         depth: 7
         value: 4.
         norm_class_idx: 4
      -
         depth: 7
         value: 1.
         norm_class_idx: 1
      -
         depth: 4
         value: 4.
         norm_class_idx: 4
         splits:
            - { var:752, quality:2.1578947067260742e+01,
                le:2.4357438087463379e-01 }
      -
         depth: 5
         value: 1.
         norm_class_idx: 1
         splits:
            - { var:788, quality:9.2857141494750977e+00,
                le:2.3017895221710205e-01 }
      -
         depth: 6
         value: 4.
         norm_class_idx: 4
         splits:
            - { var:62, quality:8.8888893127441406e+00,
                le:1.1463904380798340e-01 }
      -
         depth: 7
         value: 4.
         norm_class_idx: 4
         splits:
            - { var:105, quality:7.5000000000000000e+00,
                le:6.6197358071804047e-02 }
      -
         depth: 8
         value: 3.
         norm_class_idx: 3
         splits:
            - { var:2, quality:4., le:9.7454689443111420e-02 }
      -
         depth: 9
         value: 3.
         norm_class_idx: 3
      -
         depth: 9
         value: 0.
         norm_class_idx: 0
      -
         depth: 8
         value: 4.
         norm_class_idx: 4
      -
         depth: 7
         value: 5.
         norm_class_idx: 5
      -
         depth: 6
         value: 1.
         norm_class_idx: 1
      -
         depth: 5
         value: 4.
         norm_class_idx: 4
         splits:
            - { var:0, quality:19., le:2.0113536715507507e-01 }
      -
         depth: 6
         value: 4.
         norm_class_idx: 4
      -
         depth: 6
         value: 2.
         norm_class_idx: 2
      -
         depth: 3
         value: 4.
         norm_class_idx: 4
         splits:
            - { var:1524, quality:8.7942108154296875e+01,
                le:2.3225978016853333e-02 }
      -
         depth: 4
         value: 3.
         norm_class_idx: 3
         splits:
            - { var:0, quality:4., le:2.7690142393112183e-01 }
      -
         depth: 5
         value: 3.
         norm_class_idx: 3
      -
         depth: 5
         value: 5.
         norm_class_idx: 5
      -
         depth: 4
         value: 4.
         norm_class_idx: 4
         splits:
            - { var:129, quality:8.9753623962402344e+01,
                le:2.2765159606933594e-01 }
      -
         depth: 5
         value: 4.
         norm_class_idx: 4
         splits:
            - { var:1370, quality:92., le:2.6268658041954041e-01 }
      -
         depth: 6
         value: 4.
         norm_class_idx: 4
      -
         depth: 6
         value: 5.
         norm_class_idx: 5
      -
         depth: 5
         value: 5.
         norm_class_idx: 5
         splits:
            - { var:0, quality:3., le:1.5516681969165802e-01 }
      -
         depth: 6
         value: 5.
         norm_class_idx: 5
      -
         depth: 6
         value: 0.
         norm_class_idx: 0
      -
         depth: 2
         value: 0.
         norm_class_idx: 0
         splits:
            - { var:1283, quality:5.3535713195800781e+01,
                le:2.5383311510086060e-01 }
      -
         depth: 3
         value: 4.
         norm_class_idx: 4
         splits:
            - { var:990, quality:2.6536397933959961e+01,
                le:1.0665393620729446e-01 }
      -
         depth: 4
         value: 4.
         norm_class_idx: 4
         splits:
            - { var:1485, quality:2.0583333969116211e+01,
                le:2.4903323501348495e-02 }
      -
         depth: 5
         value: 0.
         norm_class_idx: 0
      -
         depth: 5
         value: 4.
         norm_class_idx: 4
         splits:
            - { var:105, quality:2.0600000381469727e+01,
                le:1.3312363624572754e-01 }
      -
         depth: 6
         value: 4.
         norm_class_idx: 4
         splits:
            - { var:6, quality:20., le:1.9969855248928070e-01 }
      -
         depth: 7
         value: 4.
         norm_class_idx: 4
      -
         depth: 7
         value: 1.
         norm_class_idx: 1
      -
         depth: 6
         value: 3.
         norm_class_idx: 3
         splits:
            - { var:4, quality:4., le:1.5035235881805420e-01 }
      -
         depth: 7
         value: 3.
         norm_class_idx: 3
      -
         depth: 7
         value: 1.
         norm_class_idx: 1
      -
         depth: 4
         value: 5.
         norm_class_idx: 5
         splits:
            - { var:1521, quality:1.8157142639160156e+01,
                le:7.4322260916233063e-02 }
      -
         depth: 5
         value: 0.
         norm_class_idx: 0
         splits:
            - { var:1, quality:3.7999999523162842e+00,
                le:5.6865677237510681e-02 }
      -
         depth: 6
         value: 3.
         norm_class_idx: 3
      -
         depth: 6
         value: 0.
         norm_class_idx: 0
         splits:
            - { var:1, quality:3.6666667461395264e+00,
                le:1.1359093338251114e-01 }
      -
         depth: 7
         value: 1.
         norm_class_idx: 1
         splits:
            - { var:1, quality:3., le:8.1206619739532471e-02 }
      -
         depth: 8
         value: 4.
         norm_class_idx: 4
      -
         depth: 8
         value: 1.
         norm_class_idx: 1
      -
         depth: 7
         value: 0.
         norm_class_idx: 0
      -
         depth: 5
         value: 5.
         norm_class_idx: 5
         splits:
            - { var:65, quality:19., le:4.2457652091979980e-01 }
      -
         depth: 6
         value: 5.
         norm_class_idx: 5
      -
         depth: 6
         value: 0.
         norm_class_idx: 0
      -
         depth: 3
         value: 0.
         norm_class_idx: 0
         splits:
            - { var:1105, quality:5.0654998779296875e+01,
                le:5.8539688587188721e-02 }
      -
         depth: 4
         value: 3.
         norm_class_idx: 3
         splits:
            - { var:195, quality:12., le:8.8990576565265656e-02 }
      -
         depth: 5
         value: 5.
         norm_class_idx: 5
         splits:
            - { var:6, quality:5.6666665077209473e+00,
                le:8.0219082534313202e-02 }
      -
         depth: 6
         value: 0.
         norm_class_idx: 0
         splits:
            - { var:0, quality:3., le:7.9249724745750427e-02 }
      -
         depth: 7
         value: 1.
         norm_class_idx: 1
      -
         depth: 7
         value: 0.
         norm_class_idx: 0
      -
         depth: 6
         value: 5.
         norm_class_idx: 5
      -
         depth: 5
         value: 3.
         norm_class_idx: 3
      -
         depth: 4
         value: 0.
         norm_class_idx: 0
         splits:
            - { var:888, quality:4.8666667938232422e+01,
                le:4.2484126985073090e-02 }
      -
         depth: 5
         value: 1.
         norm_class_idx: 1
         splits:
            - { var:0, quality:3., le:5.0987441092729568e-02 }
      -
         depth: 6
         value: 4.
         norm_class_idx: 4
      -
         depth: 6
         value: 1.
         norm_class_idx: 1
      -
         depth: 5
         value: 0.
         norm_class_idx: 0
      -
         depth: 1
         value: 5.
         norm_class_idx: 5
         splits:
            - { var:6, quality:2.9807174682617188e+02,
                le:1.4531077817082405e-02 }
      -
         depth: 2
         value: 4.
         norm_class_idx: 4
         splits:
            - { var:33, quality:6.4590248107910156e+01,
                le:2.0985972136259079e-02 }
      -
         depth: 3
         value: 0.
         norm_class_idx: 0
         splits:
            - { var:24, quality:23., le:1.6215734183788300e-02 }
      -
         depth: 4
         value: 0.
         norm_class_idx: 0
      -
         depth: 4
         value: 3.
         norm_class_idx: 3
      -
         depth: 3
         value: 4.
         norm_class_idx: 4
         splits:
            - { var:1231, quality:5.8190589904785156e+01,
                le:7.2237692773342133e-02 }
      -
         depth: 4
         value: 4.
         norm_class_idx: 4
         splits:
            - { var:1451, quality:6.0845832824707031e+01,
                le:2.5864189863204956e-01 }
      -
         depth: 5
         value: 4.
         norm_class_idx: 4
         splits:
            - { var:1017, quality:5.5803390502929688e+01,
                le:2.1484240889549255e-01 }
      -
         depth: 6
         value: 4.
         norm_class_idx: 4
         splits:
            - { var:87, quality:5.6035087585449219e+01,
                le:1.6185230016708374e-01 }
      -
         depth: 7
         value: 4.
         norm_class_idx: 4
         splits:
            - { var:24, quality:57., le:1.4587831497192383e-01 }
      -
         depth: 8
         value: 4.
         norm_class_idx: 4
      -
         depth: 8
         value: 1.
         norm_class_idx: 1
      -
         depth: 7
         value: 0.
         norm_class_idx: 0
      -
         depth: 6
         value: 5.
         norm_class_idx: 5
         splits:
            - { var:0, quality:5., le:2.8642088174819946e-02 }
      -
         depth: 7
         value: 1.
         norm_class_idx: 1
      -
         depth: 7
         value: 5.
         norm_class_idx: 5
      -
         depth: 5
         value: 0.
         norm_class_idx: 0
         splits:
            - { var:39, quality:15., le:1.4093589968979359e-02 }
      -
         depth: 6
         value: 4.
         norm_class_idx: 4
      -
         depth: 6
         value: 0.
         norm_class_idx: 0
      -
         depth: 4
         value: 5.
         norm_class_idx: 5
         splits:
            - { var:796, quality:2.0496732711791992e+01,
                le:2.3093189299106598e-01 }
      -
         depth: 5
         value: 5.
         norm_class_idx: 5
         splits:
            - { var:33, quality:1.8666666030883789e+01,
                le:5.0977658480405807e-02 }
      -
         depth: 6
         value: 3.
         norm_class_idx: 3
         splits:
            - { var:9, quality:8., le:3.0723369121551514e-01 }
      -
         depth: 7
         value: 3.
         norm_class_idx: 3
      -
         depth: 7
         value: 4.
         norm_class_idx: 4
      -
         depth: 6
         value: 5.
         norm_class_idx: 5
         splits:
            - { var:360, quality:1.9111110687255859e+01,
                le:2.4436937272548676e-01 }
      -
         depth: 7
         value: 5.
         norm_class_idx: 5
         splits:
            - { var:24, quality:18., le:1.1670498549938202e-01 }
      -
         depth: 8
         value: 5.
         norm_class_idx: 5
      -
         depth: 8
         value: 3.
         norm_class_idx: 3
      -
         depth: 7
         value: 1.
         norm_class_idx: 1
         splits:
            - { var:0, quality:6.1999998092651367e+00,
                le:2.3360259830951691e-02 }
      -
         depth: 8
         value: 1.
         norm_class_idx: 1
      -
         depth: 8
         value: 0.
         norm_class_idx: 0
         splits:
            - { var:0, quality:4., le:8.8514886796474457e-02 }
      -
         depth: 9
         value: 0.
         norm_class_idx: 0
      -
         depth: 9
         value: 2.
         norm_class_idx: 2
      -
         depth: 5
         value: 4.
         norm_class_idx: 4
         splits:
            - { var:1, quality:1.3333333015441895e+01,
                le:1.0745654255151749e-01 }
      -
         depth: 6
         value: 4.
         norm_class_idx: 4
      -
         depth: 6
         value: 1.
         norm_class_idx: 1
         splits:
            - { var:0, quality:4.6666665077209473e+00,
                le:1.1138647049665451e-01 }
      -
         depth: 7
         value: 1.
         norm_class_idx: 1
      -
         depth: 7
         value: 0.
         norm_class_idx: 0
         splits:
            - { var:0, quality:3., le:1.6184604167938232e-01 }
      -
         depth: 8
         value: 0.
         norm_class_idx: 0
      -
         depth: 8
         value: 5.
         norm_class_idx: 5
      -
         depth: 2
         value: 5.
         norm_class_idx: 5
         splits:
            - { var:447, quality:2.7636669921875000e+02,
                le:6.1328761279582977e-02 }
      -
         depth: 3
         value: 1.
         norm_class_idx: 1
         splits:
            - { var:743, quality:7.6168235778808594e+01,
                le:9.5499046146869659e-02 }
      -
         depth: 4
         value: 2.
         norm_class_idx: 2
         splits:
            - { var:89, quality:3.0647058486938477e+01,
                le:1.6593655943870544e-01 }
      -
         depth: 5
         value: 2.
         norm_class_idx: 2
      -
         depth: 5
         value: 1.
         norm_class_idx: 1
         splits:
            - { var:1626, quality:8.9714288711547852e+00,
                le:7.2438418865203857e-02 }
      -
         depth: 6
         value: 5.
         norm_class_idx: 5
         splits:
            - { var:44, quality:7., le:8.6168594658374786e-02 }
      -
         depth: 7
         value: 4.
         norm_class_idx: 4
      -
         depth: 7
         value: 5.
         norm_class_idx: 5
      -
         depth: 6
         value: 1.
         norm_class_idx: 1
         splits:
            - { var:74, quality:8.6666669845581055e+00,
                le:1.0290387272834778e-01 }
      -
         depth: 7
         value: 1.
         norm_class_idx: 1
      -
         depth: 7
         value: 2.
         norm_class_idx: 2
         splits:
            - { var:2, quality:3., le:7.1955502033233643e-02 }
      -
         depth: 8
         value: 3.
         norm_class_idx: 3
      -
         depth: 8
         value: 2.
         norm_class_idx: 2
      -
         depth: 4
         value: 1.
         norm_class_idx: 1
         splits:
            - { var:508, quality:7.0275817871093750e+01,
                le:1.8125481903553009e-01 }
      -
         depth: 5
         value: 1.
         norm_class_idx: 1
         splits:
            - { var:1658, quality:5.9222221374511719e+01,
                le:3.9473369717597961e-02 }
      -
         depth: 6
         value: 5.
         norm_class_idx: 5
         splits:
            - { var:10, quality:6.6666665077209473e+00,
                le:1.4395992457866669e-01 }
      -
         depth: 7
         value: 2.
         norm_class_idx: 2
         splits:
            - { var:0, quality:3., le:1.4358446002006531e-01 }
      -
         depth: 8
         value: 1.
         norm_class_idx: 1
      -
         depth: 8
         value: 2.
         norm_class_idx: 2
      -
         depth: 7
         value: 5.
         norm_class_idx: 5
      -
         depth: 6
         value: 1.
         norm_class_idx: 1
         splits:
            - { var:593, quality:6.0303031921386719e+01,
                le:4.8552520573139191e-02 }
      -
         depth: 7
         value: 2.
         norm_class_idx: 2
         splits:
            - { var:9, quality:4., le:1.6137827932834625e-01 }
      -
         depth: 8
         value: 0.
         norm_class_idx: 0
         splits:
            - { var:0, quality:2., le:4.8410344868898392e-02 }
      -
         depth: 9
         value: 5.
         norm_class_idx: 5
      -
         depth: 9
         value: 0.
         norm_class_idx: 0
      -
         depth: 8
         value: 2.
         norm_class_idx: 2
      -
         depth: 7
         value: 1.
         norm_class_idx: 1
         splits:
            - { var:322, quality:6.1093750000000000e+01,
                le:1.4980222098529339e-02 }
      -
         depth: 8
         value: 0.
         norm_class_idx: 0
      -
         depth: 8
         value: 1.
         norm_class_idx: 1
         splits:
            - { var:801, quality:63., le:3.0377447605133057e-01 }
      -
         depth: 9
         value: 1.
         norm_class_idx: 1
      -
         depth: 9
         value: 2.
         norm_class_idx: 2
      -
         depth: 5
         value: 5.
         norm_class_idx: 5
         splits:
            - { var:292, quality:2.7807359695434570e+01,
                le:1.1526750028133392e-01 }
      -
         depth: 6
         value: 1.
         norm_class_idx: 1
         splits:
            - { var:640, quality:1.7836257934570312e+01,
                le:1.2364286184310913e-01 }
      -
         depth: 7
         value: 1.
         norm_class_idx: 1
         splits:
            - { var:7, quality:19., le:2.4770725518465042e-02 }
      -
         depth: 8
         value: 3.
         norm_class_idx: 3
      -
         depth: 8
         value: 1.
         norm_class_idx: 1
      -
         depth: 7
         value: 2.
         norm_class_idx: 2
         splits:
            - { var:10, quality:7.5000000000000000e+00,
                le:1.1838242411613464e-01 }
      -
         depth: 8
         value: 2.
         norm_class_idx: 2
      -
         depth: 8
         value: 5.
         norm_class_idx: 5
         splits:
            - { var:0, quality:4., le:9.5598474144935608e-02 }
      -
         depth: 9
         value: 3.
         norm_class_idx: 3
      -
         depth: 9
         value: 5.
         norm_class_idx: 5
      -
         depth: 6
         value: 5.
         norm_class_idx: 5
         splits:
            - { var:486, quality:2.2962963104248047e+01,
                le:7.8098163008689880e-02 }
      -
         depth: 7
         value: 3.
         norm_class_idx: 3
         splits:
            - { var:21, quality:5., le:2.1858611702919006e-01 }
      -
         depth: 8
         value: 3.
         norm_class_idx: 3
      -
         depth: 8
         value: 1.
         norm_class_idx: 1
      -
         depth: 7
         value: 5.
         norm_class_idx: 5
         splits:
            - { var:264, quality:2.5083333969116211e+01,
                le:7.3160946369171143e-02 }
      -
         depth: 8
         value: 2.
         norm_class_idx: 2
      -
         depth: 8
         value: 5.
         norm_class_idx: 5
         splits:
            - { var:1, quality:24., le:2.1526418626308441e-02 }
      -
         depth: 9
         value: 0.
         norm_class_idx: 0
      -
         depth: 9
         value: 5.
         norm_class_idx: 5
      -
         depth: 3
         value: 5.
         norm_class_idx: 5
         splits:
            - { var:967, quality:2.3922673034667969e+02,
                le:3.9925411343574524e-02 }
      -
         depth: 4
         value: 3.
         norm_class_idx: 3
         splits:
            - { var:998, quality:3.3500000000000000e+01,
                le:1.1472889780998230e-01 }
      -
         depth: 5
         value: 3.
         norm_class_idx: 3
      -
         depth: 5
         value: 2.
         norm_class_idx: 2
         splits:
            - { var:2, quality:5.1999998092651367e+00,
                le:9.7329802811145782e-02 }
      -
         depth: 6
         value: 5.
         norm_class_idx: 5
         splits:
            - { var:48, quality:4., le:4.6366933733224869e-02 }
      -
         depth: 7
         value: 0.
         norm_class_idx: 0
      -
         depth: 7
         value: 5.
         norm_class_idx: 5
      -
         depth: 6
         value: 2.
         norm_class_idx: 2
      -
         depth: 4
         value: 5.
         norm_class_idx: 5
         splits:
            - { var:321, quality:2.3555815124511719e+02,
                le:9.4754416495561600e-03 }
      -
         depth: 5
         value: 3.
         norm_class_idx: 3
         splits:
            - { var:245, quality:2.9500000000000000e+01,
                le:3.0521385371685028e-02 }
      -
         depth: 6
         value: 0.
         norm_class_idx: 0
         splits:
            - { var:0, quality:4., le:1.0505983233451843e-01 }
      -
         depth: 7
         value: 5.
         norm_class_idx: 5
      -
         depth: 7
         value: 0.
         norm_class_idx: 0
      -
         depth: 6
         value: 3.
         norm_class_idx: 3
      -
         depth: 5
         value: 5.
         norm_class_idx: 5
         splits:
            - { var:1604, quality:2.3294338989257812e+02,
                le:4.9434825778007507e-02 }
      -
         depth: 6
         value: 5.
         norm_class_idx: 5
         splits:
            - { var:449, quality:1.0436619567871094e+02,
                le:8.7609037756919861e-02 }
      -
         depth: 7
         value: 2.
         norm_class_idx: 2
         splits:
            - { var:1336, quality:5.5051013946533203e+01,
                le:3.0393332242965698e-01 }
      -
         depth: 8
         value: 1.
         norm_class_idx: 1
         splits:
            - { var:592, quality:4.1868965148925781e+01,
                le:8.9288569986820221e-02 }
      -
         depth: 9
         value: 1.
         norm_class_idx: 1
         splits:
            - { var:1476, quality:3.2601188659667969e+01,
                le:8.0410584807395935e-02 }
      -
         depth: 10
         value: 0.
         norm_class_idx: 0
         splits:
            - { var:989, quality:6.8333334922790527e+00,
                le:2.9519310221076012e-02 }
      -
         depth: 11
         value: 0.
         norm_class_idx: 0
      -
         depth: 11
         value: 2.
         norm_class_idx: 2
         splits:
            - { var:262, quality:6.2500000000000000e+00,
                le:1.4468465745449066e-01 }
      -
         depth: 12
         value: 4.
         norm_class_idx: 4
         splits:
            - { var:16, quality:4.8000001907348633e+00,
                le:1.1088323593139648e-01 }
      -
         depth: 13
         value: 4.
         norm_class_idx: 4
      -
         depth: 13
         value: 3.
         norm_class_idx: 3
         splits:
            - { var:3, quality:3.6666667461395264e+00,
                le:4.7782726585865021e-02 }
      -
         depth: 14
         value: 5.
         norm_class_idx: 5
      -
         depth: 14
         value: 3.
         norm_class_idx: 3
         splits:
            - { var:3, quality:3., le:6.0525305569171906e-02 }
      -
         depth: 15
         value: 1.
         norm_class_idx: 1
      -
         depth: 15
         value: 3.
         norm_class_idx: 3
      -
         depth: 12
         value: 2.
         norm_class_idx: 2
      -
         depth: 10
         value: 1.
         norm_class_idx: 1
         splits:
            - { var:180, quality:3.4166667938232422e+01,
                le:1.7232576012611389e-01 }
      -
         depth: 11
         value: 1.
         norm_class_idx: 1
         splits:
            - { var:28, quality:35., le:3.6453574895858765e-01 }
      -
         depth: 12
         value: 1.
         norm_class_idx: 1
      -
         depth: 12
         value: 3.
         norm_class_idx: 3
      -
         depth: 11
         value: 5.
         norm_class_idx: 5
         splits:
            - { var:3, quality:4., le:5.1264252513647079e-02 }
      -
         depth: 12
         value: 0.
         norm_class_idx: 0
         splits:
            - { var:0, quality:2., le:7.4581019580364227e-02 }
      -
         depth: 13
         value: 1.
         norm_class_idx: 1
      -
         depth: 13
         value: 0.
         norm_class_idx: 0
      -
         depth: 12
         value: 5.
         norm_class_idx: 5
      -
         depth: 9
         value: 2.
         norm_class_idx: 2
         splits:
            - { var:1354, quality:2.6468750000000000e+01,
                le:4.0694192051887512e-02 }
      -
         depth: 10
         value: 3.
         norm_class_idx: 3
         splits:
            - { var:440, quality:1.4500000000000000e+01,
                le:1.3393041491508484e-01 }
      -
         depth: 11
         value: 3.
         norm_class_idx: 3
      -
         depth: 11
         value: 1.
         norm_class_idx: 1
         splits:
            - { var:0, quality:4., le:4.0048040449619293e-02 }
      -
         depth: 12
         value: 4.
         norm_class_idx: 4
      -
         depth: 12
         value: 1.
         norm_class_idx: 1
      -
         depth: 10
         value: 2.
         norm_class_idx: 2
         splits:
            - { var:154, quality:2.5883350372314453e+01,
                le:6.3781701028347015e-02 }
      -
         depth: 11
         value: 2.
         norm_class_idx: 2
         splits:
            - { var:504, quality:2.5832258224487305e+01,
                le:2.3293327540159225e-02 }
      -
         depth: 12
         value: 1.
         norm_class_idx: 1
         splits:
            - { var:73, quality:7.5999999046325684e+00,
                le:1.1793321371078491e-01 }
      -
         depth: 13
         value: 1.
         norm_class_idx: 1
      -
         depth: 13
         value: 0.
         norm_class_idx: 0
         splits:
            - { var:2, quality:5., le:4.4952176511287689e-02 }
      -
         depth: 14
         value: 4.
         norm_class_idx: 4
      -
         depth: 14
         value: 0.
         norm_class_idx: 0
      -
         depth: 12
         value: 2.
         norm_class_idx: 2
         splits:
            - { var:119, quality:2.6574073791503906e+01,
                le:1.7063818871974945e-02 }
      -
         depth: 13
         value: 3.
         norm_class_idx: 3
         splits:
            - { var:5, quality:3., le:3.6782540380954742e-02 }
      -
         depth: 14
         value: 1.
         norm_class_idx: 1
      -
         depth: 14
         value: 3.
         norm_class_idx: 3
      -
         depth: 13
         value: 2.
         norm_class_idx: 2
         splits:
            - { var:88, quality:27., le:2.5446853041648865e-01 }
      -
         depth: 14
         value: 2.
         norm_class_idx: 2
      -
         depth: 14
         value: 5.
         norm_class_idx: 5
      -
         depth: 11
         value: 5.
         norm_class_idx: 5
         splits:
            - { var:1047, quality:1.4333333015441895e+01,
                le:7.3579370975494385e-02 }
      -
         depth: 12
         value: 5.
         norm_class_idx: 5
      -
         depth: 12
         value: 1.
         norm_class_idx: 1
         splits:
            - { var:62, quality:7.1428570747375488e+00,
                le:1.1606526374816895e-01 }
      -
         depth: 13
         value: 3.
         norm_class_idx: 3
         splits:
            - { var:1, quality:4.5000000000000000e+00,
                le:3.7769079208374023e-02 }
      -
         depth: 14
         value: 3.
         norm_class_idx: 3
      -
         depth: 14
         value: 0.
         norm_class_idx: 0
         splits:
            - { var:0, quality:3., le:9.7356885671615601e-02 }
      -
         depth: 15
         value: 2.
         norm_class_idx: 2
      -
         depth: 15
         value: 0.
         norm_class_idx: 0
      -
         depth: 13
         value: 1.
         norm_class_idx: 1
      -
         depth: 8
         value: 2.
         norm_class_idx: 2
         splits:
            - { var:1, quality:25., le:1.8231771886348724e-01 }
      -
         depth: 9
         value: 2.
         norm_class_idx: 2
      -
         depth: 9
         value: 1.
         norm_class_idx: 1
      -
         depth: 7
         value: 5.
         norm_class_idx: 5
         splits:
            - { var:497, quality:8.1120323181152344e+01,
                le:6.2508068978786469e-02 }
      -
         depth: 8
         value: 0.
         norm_class_idx: 0
         splits:
            - { var:1503, quality:4.0375553131103516e+01,
                le:5.2994243800640106e-02 }
      -
         depth: 9
         value: 0.
         norm_class_idx: 0
         splits:
            - { var:1720, quality:3.3439025878906250e+01,
                le:2.2357310354709625e-01 }
      -
         depth: 10
         value: 4.
         norm_class_idx: 4
         splits:
            - { var:248, quality:1.5478787422180176e+01,
                le:2.2498527169227600e-01 }
      -
         depth: 11
         value: 4.
         norm_class_idx: 4
         splits:
            - { var:41, quality:1.4977375984191895e+01,
                le:2.0236376672983170e-02 }
      -
         depth: 12
         value: 4.
         norm_class_idx: 4
         splits:
            - { var:14, quality:13., le:1.3696881942451000e-02 }
      -
         depth: 13
         value: 0.
         norm_class_idx: 0
      -
         depth: 13
         value: 4.
         norm_class_idx: 4
      -
         depth: 12
         value: 1.
         norm_class_idx: 1
         splits:
            - { var:208, quality:8.3333330154418945e+00,
                le:1.0467396676540375e-01 }
      -
         depth: 13
         value: 2.
         norm_class_idx: 2
         splits:
            - { var:7, quality:7.1428570747375488e+00,
                le:3.5059411078691483e-02 }
      -
         depth: 14
         value: 5.
         norm_class_idx: 5
         splits:
            - { var:14, quality:4.5000000000000000e+00,
                le:6.3631691038608551e-02 }
      -
         depth: 15
         value: 5.
         norm_class_idx: 5
      -
         depth: 15
         value: 0.
         norm_class_idx: 0
         splits:
            - { var:0, quality:3., le:2.8731131926178932e-02 }
      -
         depth: 16
         value: 3.
         norm_class_idx: 3
      -
         depth: 16
         value: 0.
         norm_class_idx: 0
      -
         depth: 14
         value: 2.
         norm_class_idx: 2
      -
         depth: 13
         value: 1.
         norm_class_idx: 1
      -
         depth: 11
         value: 0.
         norm_class_idx: 0
         splits:
            - { var:40, quality:10., le:1.6280311346054077e-01 }
      -
         depth: 12
         value: 0.
         norm_class_idx: 0
      -
         depth: 12
         value: 1.
         norm_class_idx: 1
      -
         depth: 10
         value: 0.
         norm_class_idx: 0
      -
         depth: 9
         value: 1.
         norm_class_idx: 1
         splits:
            - { var:1478, quality:2.4760234832763672e+01,
                le:9.7762331366539001e-02 }
      -
         depth: 10
         value: 3.
         norm_class_idx: 3
         splits:
            - { var:869, quality:1.4800000190734863e+01,
                le:1.5135797858238220e-01 }
      -
         depth: 11
         value: 3.
         norm_class_idx: 3
      -
         depth: 11
         value: 4.
         norm_class_idx: 4
         splits:
            - { var:147, quality:10., le:4.1168086230754852e-02 }
      -
         depth: 12
         value: 4.
         norm_class_idx: 4
      -
         depth: 12
         value: 5.
         norm_class_idx: 5
      -
         depth: 10
         value: 1.
         norm_class_idx: 1
         splits:
            - { var:1656, quality:2.5845518112182617e+01,
                le:1.8686127662658691e-01 }
      -
         depth: 11
         value: 5.
         norm_class_idx: 5
         splits:
            - { var:1327, quality:1.5782051086425781e+01,
                le:1.1481672525405884e-01 }
      -
         depth: 12
         value: 2.
         norm_class_idx: 2
         splits:
            - { var:241, quality:9.8000001907348633e+00,
                le:3.8081073760986328e-01 }
      -
         depth: 13
         value: 2.
         norm_class_idx: 2
      -
         depth: 13
         value: 0.
         norm_class_idx: 0
         splits:
            - { var:0, quality:3.6666667461395264e+00,
                le:6.5703876316547394e-02 }
      -
         depth: 14
         value: 0.
         norm_class_idx: 0
         splits:
            - { var:2, quality:3., le:1.7930880188941956e-01 }
      -
         depth: 15
         value: 0.
         norm_class_idx: 0
      -
         depth: 15
         value: 3.
         norm_class_idx: 3
      -
         depth: 14
         value: 1.
         norm_class_idx: 1
      -
         depth: 12
         value: 5.
         norm_class_idx: 5
         splits:
            - { var:1, quality:12., le:3.2249838113784790e-02 }
      -
         depth: 13
         value: 3.
         norm_class_idx: 3
      -
         depth: 13
         value: 5.
         norm_class_idx: 5
      -
         depth: 11
         value: 1.
         norm_class_idx: 1
         splits:
            - { var:354, quality:2.5376623153686523e+01,
                le:6.8132109940052032e-02 }
      -
         depth: 12
         value: 5.
         norm_class_idx: 5
         splits:
            - { var:0, quality:7., le:2.3017162084579468e-01 }
      -
         depth: 13
         value: 5.
         norm_class_idx: 5
      -
         depth: 13
         value: 1.
         norm_class_idx: 1
      -
         depth: 12
         value: 1.
         norm_class_idx: 1
         splits:
            - { var:10, quality:22., le:2.7179390192031860e-01 }
      -
         depth: 13
         value: 1.
         norm_class_idx: 1
      -
         depth: 13
         value: 0.
         norm_class_idx: 0
      -
         depth: 8
         value: 5.
         norm_class_idx: 5
         splits:
            - { var:1679, quality:6.4878021240234375e+01,
                le:1.8469713628292084e-02 }
      -
         depth: 9
         value: 1.
         norm_class_idx: 1
         splits:
            - { var:101, quality:1.3837606430053711e+01,
                le:7.2916224598884583e-02 }
      -
         depth: 10
         value: 4.
         norm_class_idx: 4
         splits:
            - { var:7, quality:9., le:1.2619428336620331e-01 }
      -
         depth: 11
         value: 4.
         norm_class_idx: 4
      -
         depth: 11
         value: 1.
         norm_class_idx: 1
      -
         depth: 10
         value: 1.
         norm_class_idx: 1
         splits:
            - { var:472, quality:1.2896969795227051e+01,
                le:1.0209971666336060e-01 }
      -
         depth: 11
         value: 2.
         norm_class_idx: 2
         splits:
            - { var:35, quality:9.5000000000000000e+00,
                le:1.0275132954120636e-01 }
      -
         depth: 12
         value: 0.
         norm_class_idx: 0
         splits:
            - { var:0, quality:4., le:1.2931933999061584e-01 }
      -
         depth: 13
         value: 0.
         norm_class_idx: 0
      -
         depth: 13
         value: 4.
         norm_class_idx: 4
      -
         depth: 12
         value: 2.
         norm_class_idx: 2
      -
         depth: 11
         value: 1.
         norm_class_idx: 1
         splits:
            - { var:115, quality:15., le:5.4479546844959259e-02 }
      -
         depth: 12
         value: 1.
         norm_class_idx: 1
      -
         depth: 12
         value: 5.
         norm_class_idx: 5
      -
         depth: 9
         value: 5.
         norm_class_idx: 5
         splits:
            - { var:1064, quality:6.7775169372558594e+01,
                le:1.5444600954651833e-02 }
      -
         depth: 10
         value: 3.
         norm_class_idx: 3
         splits:
            - { var:97, quality:9.3999996185302734e+00,
                le:1.0804048925638199e-01 }
      -
         depth: 11
         value: 0.
         norm_class_idx: 0
         splits:
            - { var:1, quality:5., le:3.7501432001590729e-02 }
      -
         depth: 12
         value: 2.
         norm_class_idx: 2
      -
         depth: 12
         value: 0.
         norm_class_idx: 0
      -
         depth: 11
         value: 3.
         norm_class_idx: 3
      -
         depth: 10
         value: 5.
         norm_class_idx: 5
         splits:
            - { var:1723, quality:7.0069564819335938e+01,
                le:6.2604099512100220e-02 }
      -
         depth: 11
         value: 5.
         norm_class_idx: 5
         splits:
            - { var:906, quality:1.0625000000000000e+01,
                le:1.4735028147697449e-01 }
      -
         depth: 12
         value: 1.
         norm_class_idx: 1
         splits:
            - { var:17, quality:7.3968253135681152e+00,
                le:9.8832800984382629e-02 }
      -
         depth: 13
         value: 1.
         norm_class_idx: 1
         splits:
            - { var:0, quality:7., le:4.3225824832916260e-02 }
      -
         depth: 14
         value: 3.
         norm_class_idx: 3
      -
         depth: 14
         value: 1.
         norm_class_idx: 1
      -
         depth: 13
         value: 4.
         norm_class_idx: 4
         splits:
            - { var:23, quality:4.6666665077209473e+00,
                le:6.2921501696109772e-02 }
      -
         depth: 14
         value: 2.
         norm_class_idx: 2
         splits:
            - { var:7, quality:3.5000000000000000e+00,
                le:3.6515884101390839e-02 }
      -
         depth: 15
         value: 5.
         norm_class_idx: 5
      -
         depth: 15
         value: 2.
         norm_class_idx: 2
         splits:
            - { var:0, quality:3., le:1.5147864818572998e-01 }
      -
         depth: 16
         value: 0.
         norm_class_idx: 0
      -
         depth: 16
         value: 2.
         norm_class_idx: 2
      -
         depth: 14
         value: 4.
         norm_class_idx: 4
      -
         depth: 12
         value: 5.
         norm_class_idx: 5
      -
         depth: 11
         value: 5.
         norm_class_idx: 5
         splits:
            - { var:616, quality:6.8666664123535156e+01,
                le:5.1799140870571136e-02 }
      -
         depth: 12
         value: 2.
         norm_class_idx: 2
         splits:
            - { var:0, quality:3., le:1.9828614592552185e-01 }
      -
         depth: 13
         value: 2.
         norm_class_idx: 2
      -
         depth: 13
         value: 1.
         norm_class_idx: 1
      -
         depth: 12
         value: 5.
         norm_class_idx: 5
      -
         depth: 6
         value: 5.
         norm_class_idx: 5
         splits:
            - { var:661, quality:1.6158485412597656e+02,
                le:6.3271731138229370e-02 }
      -
         depth: 7
         value: 3.
         norm_class_idx: 3
         splits:
            - { var:397, quality:2.6688888549804688e+01,
                le:2.1300693973898888e-02 }
      -
         depth: 8
         value: 3.
         norm_class_idx: 3
      -
         depth: 8
         value: 5.
         norm_class_idx: 5
         splits:
            - { var:145, quality:1.7979999542236328e+01,
                le:6.7676186561584473e-02 }
      -
         depth: 9
         value: 5.
         norm_class_idx: 5
         splits:
            - { var:83, quality:1.4476190567016602e+01,
                le:3.8081638514995575e-02 }
      -
         depth: 10
         value: 2.
         norm_class_idx: 2
         splits:
            - { var:4, quality:4.6666665077209473e+00,
                le:9.4962887465953827e-02 }
      -
         depth: 11
         value: 1.
         norm_class_idx: 1
         splits:
            - { var:0, quality:3., le:5.2294306457042694e-02 }
      -
         depth: 12
         value: 0.
         norm_class_idx: 0
      -
         depth: 12
         value: 1.
         norm_class_idx: 1
      -
         depth: 11
         value: 2.
         norm_class_idx: 2
      -
         depth: 10
         value: 5.
         norm_class_idx: 5
         splits:
            - { var:6, quality:14., le:1.8673308193683624e-02 }
      -
         depth: 11
         value: 0.
         norm_class_idx: 0
      -
         depth: 11
         value: 5.
         norm_class_idx: 5
      -
         depth: 9
         value: 3.
         norm_class_idx: 3
         splits:
            - { var:1027, quality:1.6375000000000000e+01,
                le:6.6091135144233704e-02 }
      -
         depth: 10
         value: 2.
         norm_class_idx: 2
         splits:
            - { var:334, quality:1.4285714149475098e+01,
                le:2.1818289160728455e-01 }
      -
         depth: 11
         value: 2.
         norm_class_idx: 2
      -
         depth: 11
         value: 1.
         norm_class_idx: 1
         splits:
            - { var:1, quality:7., le:9.9849049001932144e-03 }
      -
         depth: 12
         value: 3.
         norm_class_idx: 3
      -
         depth: 12
         value: 1.
         norm_class_idx: 1
      -
         depth: 10
         value: 3.
         norm_class_idx: 3
      -
         depth: 7
         value: 5.
         norm_class_idx: 5
         splits:
            - { var:51, quality:1.5781527709960938e+02,
                le:4.9177046865224838e-02 }
      -
         depth: 8
         value: 5.
         norm_class_idx: 5
         splits:
            - { var:792, quality:4.9493907928466797e+01,
                le:1.8224251270294189e-01 }
      -
         depth: 9
         value: 1.
         norm_class_idx: 1
         splits:
            - { var:1376, quality:2.8208791732788086e+01,
                le:2.1951779723167419e-01 }
      -
         depth: 10
         value: 5.
         norm_class_idx: 5
         splits:
            - { var:773, quality:1.8551723480224609e+01,
                le:2.7446973323822021e-01 }
      -
         depth: 11
         value: 5.
         norm_class_idx: 5
         splits:
            - { var:967, quality:1.9351190567016602e+01,
                le:1.2145809829235077e-01 }
      -
         depth: 12
         value: 5.
         norm_class_idx: 5
         splits:
            - { var:29, quality:1.4666666984558105e+01,
                le:3.3627313375473022e-01 }
      -
         depth: 13
         value: 5.
         norm_class_idx: 5
      -
         depth: 13
         value: 0.
         norm_class_idx: 0
         splits:
            - { var:1, quality:3., le:2.8265245258808136e-02 }
      -
         depth: 14
         value: 3.
         norm_class_idx: 3
      -
         depth: 14
         value: 0.
         norm_class_idx: 0
      -
         depth: 12
         value: 1.
         norm_class_idx: 1
         splits:
            - { var:1457, quality:1.5647058486938477e+01,
                le:5.5256612598896027e-02 }
      -
         depth: 13
         value: 3.
         norm_class_idx: 3
      -
         depth: 13
         value: 1.
         norm_class_idx: 1
         splits:
            - { var:1647, quality:1.4782221794128418e+01,
                le:2.6876971125602722e-01 }
      -
         depth: 14
         value: 1.
         norm_class_idx: 1
         splits:
            - { var:666, quality:1.2375000000000000e+01,
                le:6.7941412329673767e-02 }
      -
         depth: 15
         value: 1.
         norm_class_idx: 1
      -
         depth: 15
         value: 2.
         norm_class_idx: 2
         splits:
            - { var:420, quality:7.1666665077209473e+00,
                le:5.5579125881195068e-02 }
      -
         depth: 16
         value: 2.
         norm_class_idx: 2
      -
         depth: 16
         value: 5.
         norm_class_idx: 5
         splits:
            - { var:130, quality:6.7500000000000000e+00,
                le:9.8364949226379395e-02 }
      -
         depth: 17
         value: 0.
         norm_class_idx: 0
         splits:
            - { var:10, quality:5.5999999046325684e+00,
                le:1.5755955874919891e-01 }
      -
         depth: 18
         value: 1.
         norm_class_idx: 1
      -
         depth: 18
         value: 0.
         norm_class_idx: 0
         splits:
            - { var:4, quality:5., le:5.5179622024297714e-02 }
      -
         depth: 19
         value: 0.
         norm_class_idx: 0
      -
         depth: 19
         value: 3.
         norm_class_idx: 3
      -
         depth: 17
         value: 5.
         norm_class_idx: 5
      -
         depth: 14
         value: 4.
         norm_class_idx: 4
         splits:
            - { var:5, quality:9., le:8.7770037353038788e-03 }
      -
         depth: 15
         value: 0.
         norm_class_idx: 0
      -
         depth: 15
         value: 4.
         norm_class_idx: 4
      -
         depth: 11
         value: 2.
         norm_class_idx: 2
      -
         depth: 10
         value: 1.
         norm_class_idx: 1
         splits:
            - { var:308, quality:2.1460868835449219e+01,
                le:2.6962757110595703e-01 }
      -
         depth: 11
         value: 1.
         norm_class_idx: 1
         splits:
            - { var:340, quality:22., le:2.3698973655700684e-01 }
      -
         depth: 12
         value: 1.
         norm_class_idx: 1
      -
         depth: 12
         value: 2.
         norm_class_idx: 2
      -
         depth: 11
         value: 0.
         norm_class_idx: 0
         splits:
            - { var:4, quality:4., le:9.5767565071582794e-02 }
      -
         depth: 12
         value: 4.
         norm_class_idx: 4
      -
         depth: 12
         value: 0.
         norm_class_idx: 0
      -
         depth: 9
         value: 5.
         norm_class_idx: 5
         splits:
            - { var:902, quality:3.5950000762939453e+01,
                le:5.3784303367137909e-02 }
      -
         depth: 10
         value: 2.
         norm_class_idx: 2
         splits:
            - { var:16, quality:5., le:4.7570087015628815e-02 }
      -
         depth: 11
         value: 3.
         norm_class_idx: 3
      -
         depth: 11
         value: 2.
         norm_class_idx: 2
      -
         depth: 10
         value: 5.
         norm_class_idx: 5
         splits:
            - { var:7, quality:3.6720722198486328e+01,
                le:1.6194621101021767e-02 }
      -
         depth: 11
         value: 0.
         norm_class_idx: 0
         splits:
            - { var:0, quality:3., le:1.0073119774460793e-02 }
      -
         depth: 12
         value: 4.
         norm_class_idx: 4
      -
         depth: 12
         value: 0.
         norm_class_idx: 0
      -
         depth: 11
         value: 5.
         norm_class_idx: 5
         splits:
            - { var:19, quality:37., le:3.8614004850387573e-01 }
      -
         depth: 12
         value: 5.
         norm_class_idx: 5
      -
         depth: 12
         value: 1.
         norm_class_idx: 1
      -
         depth: 8
         value: 5.
         norm_class_idx: 5
         splits:
            - { var:137, quality:1.3570716857910156e+02,
                le:3.3753275871276855e-01 }
      -
         depth: 9
         value: 5.
         norm_class_idx: 5
         splits:
            - { var:801, quality:1.3651632690429688e+02,
                le:3.2166111469268799e-01 }
      -
         depth: 10
         value: 5.
         norm_class_idx: 5
         splits:
            - { var:1097, quality:1.3753918457031250e+02,
                le:2.9710000753402710e-01 }
      -
         depth: 11
         value: 5.
         norm_class_idx: 5
         splits:
            - { var:1451, quality:1.4143115234375000e+02,
                le:3.5927057266235352e-01 }
      -
         depth: 12
         value: 5.
         norm_class_idx: 5
         splits:
            - { var:485, quality:1.4459936523437500e+02,
                le:1.3588869944214821e-02 }
      -
         depth: 13
         value: 4.
         norm_class_idx: 4
         splits:
            - { var:0, quality:6.5999999046325684e+00,
                le:7.5150139629840851e-02 }
      -
         depth: 14
         value: 4.
         norm_class_idx: 4
      -
         depth: 14
         value: 0.
         norm_class_idx: 0
         splits:
            - { var:1, quality:5., le:8.7280958890914917e-02 }
      -
         depth: 15
         value: 5.
         norm_class_idx: 5
      -
         depth: 15
         value: 0.
         norm_class_idx: 0
      -
         depth: 13
         value: 5.
         norm_class_idx: 5
         splits:
            - { var:15, quality:1.4596199035644531e+02,
                le:2.5626066327095032e-01 }
      -
         depth: 14
         value: 5.
         norm_class_idx: 5
         splits:
            - { var:238, quality:1.4814793395996094e+02,
                le:5.8461911976337433e-02 }
      -
         depth: 15
         value: 0.
         norm_class_idx: 0
      -
         depth: 15
         value: 5.
         norm_class_idx: 5
         splits:
            - { var:626, quality:1.4982633972167969e+02,
                le:1.8092857673764229e-02 }
      -
         depth: 16
         value: 2.
         norm_class_idx: 2
      -
         depth: 16
         value: 5.
         norm_class_idx: 5
         splits:
            - { var:113, quality:1.5152120971679688e+02,
                le:2.3837369680404663e-01 }
      -
         depth: 17
         value: 5.
         norm_class_idx: 5
         splits:
            - { var:1572, quality:1.5320986938476562e+02,
                le:3.0128377676010132e-01 }
      -
         depth: 18
         value: 5.
         norm_class_idx: 5
         splits:
            - { var:776, quality:1.5507499694824219e+02,
                le:6.6167330369353294e-03 }
      -
         depth: 19
         value: 1.
         norm_class_idx: 1
      -
         depth: 19
         value: 5.
         norm_class_idx: 5
         splits:
            - { var:1, quality:1.5603773498535156e+02,
                le:1.2865419499576092e-02 }
      -
         depth: 20
         value: 2.
         norm_class_idx: 2
      -
         depth: 20
         value: 5.
         norm_class_idx: 5
      -
         depth: 18
         value: 1.
         norm_class_idx: 1
         splits:
            - { var:0, quality:2., le:5.6695677340030670e-02 }
      -
         depth: 19
         value: 2.
         norm_class_idx: 2
      -
         depth: 19
         value: 1.
         norm_class_idx: 1
      -
         depth: 17
         value: 1.
         norm_class_idx: 1
      -
         depth: 14
         value: 2.
         norm_class_idx: 2
         splits:
            - { var:19, quality:3., le:9.3640521168708801e-02 }
      -
         depth: 15
         value: 2.
         norm_class_idx: 2
      -
         depth: 15
         value: 1.
         norm_class_idx: 1
      -
         depth: 12
         value: 3.
         norm_class_idx: 3
         splits:
            - { var:4, quality:6., le:1.6565735638141632e-01 }
      -
         depth: 13
         value: 4.
         norm_class_idx: 4
      -
         depth: 13
         value: 3.
         norm_class_idx: 3
      -
         depth: 11
         value: 1.
         norm_class_idx: 1
         splits:
            - { var:19, quality:6.5000000000000000e+00,
                le:1.2267737090587616e-01 }
      -
         depth: 12
         value: 2.
         norm_class_idx: 2
         splits:
            - { var:0, quality:3., le:1.9706392288208008e-01 }
      -
         depth: 13
         value: 2.
         norm_class_idx: 2
      -
         depth: 13
         value: 4.
         norm_class_idx: 4
      -
         depth: 12
         value: 1.
         norm_class_idx: 1
      -
         depth: 10
         value: 2.
         norm_class_idx: 2
         splits:
            - { var:15, quality:8., le:2.1654877066612244e-01 }
      -
         depth: 11
         value: 2.
         norm_class_idx: 2
      -
         depth: 11
         value: 3.
         norm_class_idx: 3
      -
         depth: 9
         value: 3.
         norm_class_idx: 3
         splits:
            - { var:101, quality:13., le:3.8578832149505615e-01 }
      -
         depth: 10
         value: 3.
         norm_class_idx: 3
      -
         depth: 10
         value: 5.
         norm_class_idx: 5
