%YAML:1.0
---
opencv_ml_dtree:
   format: 3
   is_classifier: 1
   var_all: 1765
   var_count: 1764
   ord_var_count: 1764
   cat_var_count: 1
   training_params:
      use_surrogates: 0
      max_categories: 6
      regression_accuracy: 9.9999997764825821e-03
      max_depth: 20
      min_sample_count: 2
      cross_validation_folds: 0
   global_var_idx: 1
   var_idx: [ 0, 1, 2, 3, 4, 5, 6, 7, 8, 9, 10, 11, 12, 13, 14, 15, 16,
       17, 18, 19, 20, 21, 22, 23, 24, 25, 26, 27, 28, 29, 30, 31, 32,
       33, 34, 35, 36, 37, 38, 39, 40, 41, 42, 43, 44, 45, 46, 47, 48,
       49, 50, 51, 52, 53, 54, 55, 56, 57, 58, 59, 60, 61, 62, 63, 64,
       65, 66, 67, 68, 69, 70, 71, 72, 73, 74, 75, 76, 77, 78, 79, 80,
       81, 82, 83, 84, 85, 86, 87, 88, 89, 90, 91, 92, 93, 94, 95, 96,
       97, 98, 99, 100, 101, 102, 103, 104, 105, 106, 107, 108, 109, 110,
       111, 112, 113, 114, 115, 116, 117, 118, 119, 120, 121, 122, 123,
       124, 125, 126, 127, 128, 129, 130, 131, 132, 133, 134, 135, 136,
       137, 138, 139, 140, 141, 142, 143, 144, 145, 146, 147, 148, 149,
       150, 151, 152, 153, 154, 155, 156, 157, 158, 159, 160, 161, 162,
       163, 164, 165, 166, 167, 168, 169, 170, 171, 172, 173, 174, 175,
       176, 177, 178, 179, 180, 181, 182, 183, 184, 185, 186, 187, 188,
       189, 190, 191, 192, 193, 194, 195, 196, 197, 198, 199, 200, 201,
       202, 203, 204, 205, 206, 207, 208, 209, 210, 211, 212, 213, 214,
       215, 216, 217, 218, 219, 220, 221, 222, 223, 224, 225, 226, 227,
       228, 229, 230, 231, 232, 233, 234, 235, 236, 237, 238, 239, 240,
       241, 242, 243, 244, 245, 246, 247, 248, 249, 250, 251, 252, 253,
       254, 255, 256, 257, 258, 259, 260, 261, 262, 263, 264, 265, 266,
       267, 268, 269, 270, 271, 272, 273, 274, 275, 276, 277, 278, 279,
       280, 281, 282, 283, 284, 285, 286, 287, 288, 289, 290, 291, 292,
       293, 294, 295, 296, 297, 298, 299, 300, 301, 302, 303, 304, 305,
       306, 307, 308, 309, 310, 311, 312, 313, 314, 315, 316, 317, 318,
       319, 320, 321, 322, 323, 324, 325, 326, 327, 328, 329, 330, 331,
       332, 333, 334, 335, 336, 337, 338, 339, 340, 341, 342, 343, 344,
       345, 346, 347, 348, 349, 350, 351, 352, 353, 354, 355, 356, 357,
       358, 359, 360, 361, 362, 363, 364, 365, 366, 367, 368, 369, 370,
       371, 372, 373, 374, 375, 376, 377, 378, 379, 380, 381, 382, 383,
       384, 385, 386, 387, 388, 389, 390, 391, 392, 393, 394, 395, 396,
       397, 398, 399, 400, 401, 402, 403, 404, 405, 406, 407, 408, 409,
       410, 411, 412, 413, 414, 415, 416, 417, 418, 419, 420, 421, 422,
       423, 424, 425, 426, 427, 428, 429, 430, 431, 432, 433, 434, 435,
       436, 437, 438, 439, 440, 441, 442, 443, 444, 445, 446, 447, 448,
       449, 450, 451, 452, 453, 454, 455, 456, 457, 458, 459, 460, 461,
       462, 463, 464, 465, 466, 467, 468, 469, 470, 471, 472, 473, 474,
       475, 476, 477, 478, 479, 480, 481, 482, 483, 484, 485, 486, 487,
       488, 489, 490, 491, 492, 493, 494, 495, 496, 497, 498, 499, 500,
       501, 502, 503, 504, 505, 506, 507, 508, 509, 510, 511, 512, 513,
       514, 515, 516, 517, 518, 519, 520, 521, 522, 523, 524, 525, 526,
       527, 528, 529, 530, 531, 532, 533, 534, 535, 536, 537, 538, 539,
       540, 541, 542, 543, 544, 545, 546, 547, 548, 549, 550, 551, 552,
       553, 554, 555, 556, 557, 558, 559, 560, 561, 562, 563, 564, 565,
       566, 567, 568, 569, 570, 571, 572, 573, 574, 575, 576, 577, 578,
       579, 580, 581, 582, 583, 584, 585, 586, 587, 588, 589, 590, 591,
       592, 593, 594, 595, 596, 597, 598, 599, 600, 601, 602, 603, 604,
       605, 606, 607, 608, 609, 610, 611, 612, 613, 614, 615, 616, 617,
       618, 619, 620, 621, 622, 623, 624, 625, 626, 627, 628, 629, 630,
       631, 632, 633, 634, 635, 636, 637, 638, 639, 640, 641, 642, 643,
       644, 645, 646, 647, 648, 649, 650, 651, 652, 653, 654, 655, 656,
       657, 658, 659, 660, 661, 662, 663, 664, 665, 666, 667, 668, 669,
       670, 671, 672, 673, 674, 675, 676, 677, 678, 679, 680, 681, 682,
       683, 684, 685, 686, 687, 688, 689, 690, 691, 692, 693, 694, 695,
       696, 697, 698, 699, 700, 701, 702, 703, 704, 705, 706, 707, 708,
       709, 710, 711, 712, 713, 714, 715, 716, 717, 718, 719, 720, 721,
       722, 723, 724, 725, 726, 727, 728, 729, 730, 731, 732, 733, 734,
       735, 736, 737, 738, 739, 740, 741, 742, 743, 744, 745, 746, 747,
       748, 749, 750, 751, 752, 753, 754, 755, 756, 757, 758, 759, 760,
       761, 762, 763, 764, 765, 766, 767, 768, 769, 770, 771, 772, 773,
       774, 775, 776, 777, 778, 779, 780, 781, 782, 783, 784, 785, 786,
       787, 788, 789, 790, 791, 792, 793, 794, 795, 796, 797, 798, 799,
       800, 801, 802, 803, 804, 805, 806, 807, 808, 809, 810, 811, 812,
       813, 814, 815, 816, 817, 818, 819, 820, 821, 822, 823, 824, 825,
       826, 827, 828, 829, 830, 831, 832, 833, 834, 835, 836, 837, 838,
       839, 840, 841, 842, 843, 844, 845, 846, 847, 848, 849, 850, 851,
       852, 853, 854, 855, 856, 857, 858, 859, 860, 861, 862, 863, 864,
       865, 866, 867, 868, 869, 870, 871, 872, 873, 874, 875, 876, 877,
       878, 879, 880, 881, 882, 883, 884, 885, 886, 887, 888, 889, 890,
       891, 892, 893, 894, 895, 896, 897, 898, 899, 900, 901, 902, 903,
       904, 905, 906, 907, 908, 909, 910, 911, 912, 913, 914, 915, 916,
       917, 918, 919, 920, 921, 922, 923, 924, 925, 926, 927, 928, 929,
       930, 931, 932, 933, 934, 935, 936, 937, 938, 939, 940, 941, 942,
       943, 944, 945, 946, 947, 948, 949, 950, 951, 952, 953, 954, 955,
       956, 957, 958, 959, 960, 961, 962, 963, 964, 965, 966, 967, 968,
       969, 970, 971, 972, 973, 974, 975, 976, 977, 978, 979, 980, 981,
       982, 983, 984, 985, 986, 987, 988, 989, 990, 991, 992, 993, 994,
       995, 996, 997, 998, 999, 1000, 1001, 1002, 1003, 1004, 1005, 1006,
       1007, 1008, 1009, 1010, 1011, 1012, 1013, 1014, 1015, 1016, 1017,
       1018, 1019, 1020, 1021, 1022, 1023, 1024, 1025, 1026, 1027, 1028,
       1029, 1030, 1031, 1032, 1033, 1034, 1035, 1036, 1037, 1038, 1039,
       1040, 1041, 1042, 1043, 1044, 1045, 1046, 1047, 1048, 1049, 1050,
       1051, 1052, 1053, 1054, 1055, 1056, 1057, 1058, 1059, 1060, 1061,
       1062, 1063, 1064, 1065, 1066, 1067, 1068, 1069, 1070, 1071, 1072,
       1073, 1074, 1075, 1076, 1077, 1078, 1079, 1080, 1081, 1082, 1083,
       1084, 1085, 1086, 1087, 1088, 1089, 1090, 1091, 1092, 1093, 1094,
       1095, 1096, 1097, 1098, 1099, 1100, 1101, 1102, 1103, 1104, 1105,
       1106, 1107, 1108, 1109, 1110, 1111, 1112, 1113, 1114, 1115, 1116,
       1117, 1118, 1119, 1120, 1121, 1122, 1123, 1124, 1125, 1126, 1127,
       1128, 1129, 1130, 1131, 1132, 1133, 1134, 1135, 1136, 1137, 1138,
       1139, 1140, 1141, 1142, 1143, 1144, 1145, 1146, 1147, 1148, 1149,
       1150, 1151, 1152, 1153, 1154, 1155, 1156, 1157, 1158, 1159, 1160,
       1161, 1162, 1163, 1164, 1165, 1166, 1167, 1168, 1169, 1170, 1171,
       1172, 1173, 1174, 1175, 1176, 1177, 1178, 1179, 1180, 1181, 1182,
       1183, 1184, 1185, 1186, 1187, 1188, 1189, 1190, 1191, 1192, 1193,
       1194, 1195, 1196, 1197, 1198, 1199, 1200, 1201, 1202, 1203, 1204,
       1205, 1206, 1207, 1208, 1209, 1210, 1211, 1212, 1213, 1214, 1215,
       1216, 1217, 1218, 1219, 1220, 1221, 1222, 1223, 1224, 1225, 1226,
       1227, 1228, 1229, 1230, 1231, 1232, 1233, 1234, 1235, 1236, 1237,
       1238, 1239, 1240, 1241, 1242, 1243, 1244, 1245, 1246, 1247, 1248,
       1249, 1250, 1251, 1252, 1253, 1254, 1255, 1256, 1257, 1258, 1259,
       1260, 1261, 1262, 1263, 1264, 1265, 1266, 1267, 1268, 1269, 1270,
       1271, 1272, 1273, 1274, 1275, 1276, 1277, 1278, 1279, 1280, 1281,
       1282, 1283, 1284, 1285, 1286, 1287, 1288, 1289, 1290, 1291, 1292,
       1293, 1294, 1295, 1296, 1297, 1298, 1299, 1300, 1301, 1302, 1303,
       1304, 1305, 1306, 1307, 1308, 1309, 1310, 1311, 1312, 1313, 1314,
       1315, 1316, 1317, 1318, 1319, 1320, 1321, 1322, 1323, 1324, 1325,
       1326, 1327, 1328, 1329, 1330, 1331, 1332, 1333, 1334, 1335, 1336,
       1337, 1338, 1339, 1340, 1341, 1342, 1343, 1344, 1345, 1346, 1347,
       1348, 1349, 1350, 1351, 1352, 1353, 1354, 1355, 1356, 1357, 1358,
       1359, 1360, 1361, 1362, 1363, 1364, 1365, 1366, 1367, 1368, 1369,
       1370, 1371, 1372, 1373, 1374, 1375, 1376, 1377, 1378, 1379, 1380,
       1381, 1382, 1383, 1384, 1385, 1386, 1387, 1388, 1389, 1390, 1391,
       1392, 1393, 1394, 1395, 1396, 1397, 1398, 1399, 1400, 1401, 1402,
       1403, 1404, 1405, 1406, 1407, 1408, 1409, 1410, 1411, 1412, 1413,
       1414, 1415, 1416, 1417, 1418, 1419, 1420, 1421, 1422, 1423, 1424,
       1425, 1426, 1427, 1428, 1429, 1430, 1431, 1432, 1433, 1434, 1435,
       1436, 1437, 1438, 1439, 1440, 1441, 1442, 1443, 1444, 1445, 1446,
       1447, 1448, 1449, 1450, 1451, 1452, 1453, 1454, 1455, 1456, 1457,
       1458, 1459, 1460, 1461, 1462, 1463, 1464, 1465, 1466, 1467, 1468,
       1469, 1470, 1471, 1472, 1473, 1474, 1475, 1476, 1477, 1478, 1479,
       1480, 1481, 1482, 1483, 1484, 1485, 1486, 1487, 1488, 1489, 1490,
       1491, 1492, 1493, 1494, 1495, 1496, 1497, 1498, 1499, 1500, 1501,
       1502, 1503, 1504, 1505, 1506, 1507, 1508, 1509, 1510, 1511, 1512,
       1513, 1514, 1515, 1516, 1517, 1518, 1519, 1520, 1521, 1522, 1523,
       1524, 1525, 1526, 1527, 1528, 1529, 1530, 1531, 1532, 1533, 1534,
       1535, 1536, 1537, 1538, 1539, 1540, 1541, 1542, 1543, 1544, 1545,
       1546, 1547, 1548, 1549, 1550, 1551, 1552, 1553, 1554, 1555, 1556,
       1557, 1558, 1559, 1560, 1561, 1562, 1563, 1564, 1565, 1566, 1567,
       1568, 1569, 1570, 1571, 1572, 1573, 1574, 1575, 1576, 1577, 1578,
       1579, 1580, 1581, 1582, 1583, 1584, 1585, 1586, 1587, 1588, 1589,
       1590, 1591, 1592, 1593, 1594, 1595, 1596, 1597, 1598, 1599, 1600,
       1601, 1602, 1603, 1604, 1605, 1606, 1607, 1608, 1609, 1610, 1611,
       1612, 1613, 1614, 1615, 1616, 1617, 1618, 1619, 1620, 1621, 1622,
       1623, 1624, 1625, 1626, 1627, 1628, 1629, 1630, 1631, 1632, 1633,
       1634, 1635, 1636, 1637, 1638, 1639, 1640, 1641, 1642, 1643, 1644,
       1645, 1646, 1647, 1648, 1649, 1650, 1651, 1652, 1653, 1654, 1655,
       1656, 1657, 1658, 1659, 1660, 1661, 1662, 1663, 1664, 1665, 1666,
       1667, 1668, 1669, 1670, 1671, 1672, 1673, 1674, 1675, 1676, 1677,
       1678, 1679, 1680, 1681, 1682, 1683, 1684, 1685, 1686, 1687, 1688,
       1689, 1690, 1691, 1692, 1693, 1694, 1695, 1696, 1697, 1698, 1699,
       1700, 1701, 1702, 1703, 1704, 1705, 1706, 1707, 1708, 1709, 1710,
       1711, 1712, 1713, 1714, 1715, 1716, 1717, 1718, 1719, 1720, 1721,
       1722, 1723, 1724, 1725, 1726, 1727, 1728, 1729, 1730, 1731, 1732,
       1733, 1734, 1735, 1736, 1737, 1738, 1739, 1740, 1741, 1742, 1743,
       1744, 1745, 1746, 1747, 1748, 1749, 1750, 1751, 1752, 1753, 1754,
       1755, 1756, 1757, 1758, 1759, 1760, 1761, 1762, 1763 ]
   var_type: [ 0, 0, 0, 0, 0, 0, 0, 0, 0, 0, 0, 0, 0, 0, 0, 0, 0, 0, 0,
       0, 0, 0, 0, 0, 0, 0, 0, 0, 0, 0, 0, 0, 0, 0, 0, 0, 0, 0, 0, 0, 0,
       0, 0, 0, 0, 0, 0, 0, 0, 0, 0, 0, 0, 0, 0, 0, 0, 0, 0, 0, 0, 0, 0,
       0, 0, 0, 0, 0, 0, 0, 0, 0, 0, 0, 0, 0, 0, 0, 0, 0, 0, 0, 0, 0, 0,
       0, 0, 0, 0, 0, 0, 0, 0, 0, 0, 0, 0, 0, 0, 0, 0, 0, 0, 0, 0, 0, 0,
       0, 0, 0, 0, 0, 0, 0, 0, 0, 0, 0, 0, 0, 0, 0, 0, 0, 0, 0, 0, 0, 0,
       0, 0, 0, 0, 0, 0, 0, 0, 0, 0, 0, 0, 0, 0, 0, 0, 0, 0, 0, 0, 0, 0,
       0, 0, 0, 0, 0, 0, 0, 0, 0, 0, 0, 0, 0, 0, 0, 0, 0, 0, 0, 0, 0, 0,
       0, 0, 0, 0, 0, 0, 0, 0, 0, 0, 0, 0, 0, 0, 0, 0, 0, 0, 0, 0, 0, 0,
       0, 0, 0, 0, 0, 0, 0, 0, 0, 0, 0, 0, 0, 0, 0, 0, 0, 0, 0, 0, 0, 0,
       0, 0, 0, 0, 0, 0, 0, 0, 0, 0, 0, 0, 0, 0, 0, 0, 0, 0, 0, 0, 0, 0,
       0, 0, 0, 0, 0, 0, 0, 0, 0, 0, 0, 0, 0, 0, 0, 0, 0, 0, 0, 0, 0, 0,
       0, 0, 0, 0, 0, 0, 0, 0, 0, 0, 0, 0, 0, 0, 0, 0, 0, 0, 0, 0, 0, 0,
       0, 0, 0, 0, 0, 0, 0, 0, 0, 0, 0, 0, 0, 0, 0, 0, 0, 0, 0, 0, 0, 0,
       0, 0, 0, 0, 0, 0, 0, 0, 0, 0, 0, 0, 0, 0, 0, 0, 0, 0, 0, 0, 0, 0,
       0, 0, 0, 0, 0, 0, 0, 0, 0, 0, 0, 0, 0, 0, 0, 0, 0, 0, 0, 0, 0, 0,
       0, 0, 0, 0, 0, 0, 0, 0, 0, 0, 0, 0, 0, 0, 0, 0, 0, 0, 0, 0, 0, 0,
       0, 0, 0, 0, 0, 0, 0, 0, 0, 0, 0, 0, 0, 0, 0, 0, 0, 0, 0, 0, 0, 0,
       0, 0, 0, 0, 0, 0, 0, 0, 0, 0, 0, 0, 0, 0, 0, 0, 0, 0, 0, 0, 0, 0,
       0, 0, 0, 0, 0, 0, 0, 0, 0, 0, 0, 0, 0, 0, 0, 0, 0, 0, 0, 0, 0, 0,
       0, 0, 0, 0, 0, 0, 0, 0, 0, 0, 0, 0, 0, 0, 0, 0, 0, 0, 0, 0, 0, 0,
       0, 0, 0, 0, 0, 0, 0, 0, 0, 0, 0, 0, 0, 0, 0, 0, 0, 0, 0, 0, 0, 0,
       0, 0, 0, 0, 0, 0, 0, 0, 0, 0, 0, 0, 0, 0, 0, 0, 0, 0, 0, 0, 0, 0,
       0, 0, 0, 0, 0, 0, 0, 0, 0, 0, 0, 0, 0, 0, 0, 0, 0, 0, 0, 0, 0, 0,
       0, 0, 0, 0, 0, 0, 0, 0, 0, 0, 0, 0, 0, 0, 0, 0, 0, 0, 0, 0, 0, 0,
       0, 0, 0, 0, 0, 0, 0, 0, 0, 0, 0, 0, 0, 0, 0, 0, 0, 0, 0, 0, 0, 0,
       0, 0, 0, 0, 0, 0, 0, 0, 0, 0, 0, 0, 0, 0, 0, 0, 0, 0, 0, 0, 0, 0,
       0, 0, 0, 0, 0, 0, 0, 0, 0, 0, 0, 0, 0, 0, 0, 0, 0, 0, 0, 0, 0, 0,
       0, 0, 0, 0, 0, 0, 0, 0, 0, 0, 0, 0, 0, 0, 0, 0, 0, 0, 0, 0, 0, 0,
       0, 0, 0, 0, 0, 0, 0, 0, 0, 0, 0, 0, 0, 0, 0, 0, 0, 0, 0, 0, 0, 0,
       0, 0, 0, 0, 0, 0, 0, 0, 0, 0, 0, 0, 0, 0, 0, 0, 0, 0, 0, 0, 0, 0,
       0, 0, 0, 0, 0, 0, 0, 0, 0, 0, 0, 0, 0, 0, 0, 0, 0, 0, 0, 0, 0, 0,
       0, 0, 0, 0, 0, 0, 0, 0, 0, 0, 0, 0, 0, 0, 0, 0, 0, 0, 0, 0, 0, 0,
       0, 0, 0, 0, 0, 0, 0, 0, 0, 0, 0, 0, 0, 0, 0, 0, 0, 0, 0, 0, 0, 0,
       0, 0, 0, 0, 0, 0, 0, 0, 0, 0, 0, 0, 0, 0, 0, 0, 0, 0, 0, 0, 0, 0,
       0, 0, 0, 0, 0, 0, 0, 0, 0, 0, 0, 0, 0, 0, 0, 0, 0, 0, 0, 0, 0, 0,
       0, 0, 0, 0, 0, 0, 0, 0, 0, 0, 0, 0, 0, 0, 0, 0, 0, 0, 0, 0, 0, 0,
       0, 0, 0, 0, 0, 0, 0, 0, 0, 0, 0, 0, 0, 0, 0, 0, 0, 0, 0, 0, 0, 0,
       0, 0, 0, 0, 0, 0, 0, 0, 0, 0, 0, 0, 0, 0, 0, 0, 0, 0, 0, 0, 0, 0,
       0, 0, 0, 0, 0, 0, 0, 0, 0, 0, 0, 0, 0, 0, 0, 0, 0, 0, 0, 0, 0, 0,
       0, 0, 0, 0, 0, 0, 0, 0, 0, 0, 0, 0, 0, 0, 0, 0, 0, 0, 0, 0, 0, 0,
       0, 0, 0, 0, 0, 0, 0, 0, 0, 0, 0, 0, 0, 0, 0, 0, 0, 0, 0, 0, 0, 0,
       0, 0, 0, 0, 0, 0, 0, 0, 0, 0, 0, 0, 0, 0, 0, 0, 0, 0, 0, 0, 0, 0,
       0, 0, 0, 0, 0, 0, 0, 0, 0, 0, 0, 0, 0, 0, 0, 0, 0, 0, 0, 0, 0, 0,
       0, 0, 0, 0, 0, 0, 0, 0, 0, 0, 0, 0, 0, 0, 0, 0, 0, 0, 0, 0, 0, 0,
       0, 0, 0, 0, 0, 0, 0, 0, 0, 0, 0, 0, 0, 0, 0, 0, 0, 0, 0, 0, 0, 0,
       0, 0, 0, 0, 0, 0, 0, 0, 0, 0, 0, 0, 0, 0, 0, 0, 0, 0, 0, 0, 0, 0,
       0, 0, 0, 0, 0, 0, 0, 0, 0, 0, 0, 0, 0, 0, 0, 0, 0, 0, 0, 0, 0, 0,
       0, 0, 0, 0, 0, 0, 0, 0, 0, 0, 0, 0, 0, 0, 0, 0, 0, 0, 0, 0, 0, 0,
       0, 0, 0, 0, 0, 0, 0, 0, 0, 0, 0, 0, 0, 0, 0, 0, 0, 0, 0, 0, 0, 0,
       0, 0, 0, 0, 0, 0, 0, 0, 0, 0, 0, 0, 0, 0, 0, 0, 0, 0, 0, 0, 0, 0,
       0, 0, 0, 0, 0, 0, 0, 0, 0, 0, 0, 0, 0, 0, 0, 0, 0, 0, 0, 0, 0, 0,
       0, 0, 0, 0, 0, 0, 0, 0, 0, 0, 0, 0, 0, 0, 0, 0, 0, 0, 0, 0, 0, 0,
       0, 0, 0, 0, 0, 0, 0, 0, 0, 0, 0, 0, 0, 0, 0, 0, 0, 0, 0, 0, 0, 0,
       0, 0, 0, 0, 0, 0, 0, 0, 0, 0, 0, 0, 0, 0, 0, 0, 0, 0, 0, 0, 0, 0,
       0, 0, 0, 0, 0, 0, 0, 0, 0, 0, 0, 0, 0, 0, 0, 0, 0, 0, 0, 0, 0, 0,
       0, 0, 0, 0, 0, 0, 0, 0, 0, 0, 0, 0, 0, 0, 0, 0, 0, 0, 0, 0, 0, 0,
       0, 0, 0, 0, 0, 0, 0, 0, 0, 0, 0, 0, 0, 0, 0, 0, 0, 0, 0, 0, 0, 0,
       0, 0, 0, 0, 0, 0, 0, 0, 0, 0, 0, 0, 0, 0, 0, 0, 0, 0, 0, 0, 0, 0,
       0, 0, 0, 0, 0, 0, 0, 0, 0, 0, 0, 0, 0, 0, 0, 0, 0, 0, 0, 0, 0, 0,
       0, 0, 0, 0, 0, 0, 0, 0, 0, 0, 0, 0, 0, 0, 0, 0, 0, 0, 0, 0, 0, 0,
       0, 0, 0, 0, 0, 0, 0, 0, 0, 0, 0, 0, 0, 0, 0, 0, 0, 0, 0, 0, 0, 0,
       0, 0, 0, 0, 0, 0, 0, 0, 0, 0, 0, 0, 0, 0, 0, 0, 0, 0, 0, 0, 0, 0,
       0, 0, 0, 0, 0, 0, 0, 0, 0, 0, 0, 0, 0, 0, 0, 0, 0, 0, 0, 0, 0, 0,
       0, 0, 0, 0, 0, 0, 0, 0, 0, 0, 0, 0, 0, 0, 0, 0, 0, 0, 0, 0, 0, 0,
       0, 0, 0, 0, 0, 0, 0, 0, 0, 0, 0, 0, 0, 0, 0, 0, 0, 0, 0, 0, 0, 0,
       0, 0, 0, 0, 0, 0, 0, 0, 0, 0, 0, 0, 0, 0, 0, 0, 0, 0, 0, 0, 0, 0,
       0, 0, 0, 0, 0, 0, 0, 0, 0, 0, 0, 0, 0, 0, 0, 0, 0, 0, 0, 0, 0, 0,
       0, 0, 0, 0, 0, 0, 0, 0, 0, 0, 0, 0, 0, 0, 0, 0, 0, 0, 0, 0, 0, 0,
       0, 0, 0, 0, 0, 0, 0, 0, 0, 0, 0, 0, 0, 0, 0, 0, 0, 0, 0, 0, 0, 0,
       0, 0, 0, 0, 0, 0, 0, 0, 0, 0, 0, 0, 0, 0, 0, 0, 0, 0, 0, 0, 0, 0,
       0, 0, 0, 0, 0, 0, 0, 0, 0, 0, 0, 0, 0, 0, 0, 0, 0, 0, 0, 0, 0, 0,
       0, 0, 0, 0, 0, 0, 0, 0, 0, 0, 0, 0, 0, 0, 0, 0, 0, 0, 0, 0, 0, 0,
       0, 0, 0, 0, 0, 0, 0, 0, 0, 0, 0, 0, 0, 0, 0, 0, 0, 0, 0, 0, 0, 0,
       0, 0, 0, 0, 0, 0, 0, 0, 0, 0, 0, 0, 0, 0, 0, 0, 0, 0, 0, 0, 0, 0,
       0, 0, 0, 0, 0, 0, 0, 0, 0, 0, 0, 0, 0, 0, 0, 0, 0, 0, 0, 0, 0, 0,
       0, 0, 0, 0, 0, 0, 0, 0, 0, 0, 0, 0, 0, 0, 0, 0, 0, 0, 0, 0, 0, 0,
       0, 0, 0, 0, 0, 0, 0, 0, 0, 0, 0, 0, 0, 0, 0, 0, 0, 0, 0, 0, 0, 0,
       0, 0, 0, 0, 0, 0, 0, 0, 0, 0, 0, 0, 0, 0, 0, 0, 0, 0, 0, 0, 0, 0,
       0, 0, 0, 0, 0, 0, 0, 0, 0, 0, 0, 0, 0, 0, 0, 0, 0, 0, 0, 0, 0, 0,
       0, 0, 0, 0, 0, 0, 0, 1 ]
   cat_ofs: [ 0, 0, 0, 0, 0, 0, 0, 0, 0, 0, 0, 0, 0, 0, 0, 0, 0, 0, 0, 0,
       0, 0, 0, 0, 0, 0, 0, 0, 0, 0, 0, 0, 0, 0, 0, 0, 0, 0, 0, 0, 0, 0,
       0, 0, 0, 0, 0, 0, 0, 0, 0, 0, 0, 0, 0, 0, 0, 0, 0, 0, 0, 0, 0, 0,
       0, 0, 0, 0, 0, 0, 0, 0, 0, 0, 0, 0, 0, 0, 0, 0, 0, 0, 0, 0, 0, 0,
       0, 0, 0, 0, 0, 0, 0, 0, 0, 0, 0, 0, 0, 0, 0, 0, 0, 0, 0, 0, 0, 0,
       0, 0, 0, 0, 0, 0, 0, 0, 0, 0, 0, 0, 0, 0, 0, 0, 0, 0, 0, 0, 0, 0,
       0, 0, 0, 0, 0, 0, 0, 0, 0, 0, 0, 0, 0, 0, 0, 0, 0, 0, 0, 0, 0, 0,
       0, 0, 0, 0, 0, 0, 0, 0, 0, 0, 0, 0, 0, 0, 0, 0, 0, 0, 0, 0, 0, 0,
       0, 0, 0, 0, 0, 0, 0, 0, 0, 0, 0, 0, 0, 0, 0, 0, 0, 0, 0, 0, 0, 0,
       0, 0, 0, 0, 0, 0, 0, 0, 0, 0, 0, 0, 0, 0, 0, 0, 0, 0, 0, 0, 0, 0,
       0, 0, 0, 0, 0, 0, 0, 0, 0, 0, 0, 0, 0, 0, 0, 0, 0, 0, 0, 0, 0, 0,
       0, 0, 0, 0, 0, 0, 0, 0, 0, 0, 0, 0, 0, 0, 0, 0, 0, 0, 0, 0, 0, 0,
       0, 0, 0, 0, 0, 0, 0, 0, 0, 0, 0, 0, 0, 0, 0, 0, 0, 0, 0, 0, 0, 0,
       0, 0, 0, 0, 0, 0, 0, 0, 0, 0, 0, 0, 0, 0, 0, 0, 0, 0, 0, 0, 0, 0,
       0, 0, 0, 0, 0, 0, 0, 0, 0, 0, 0, 0, 0, 0, 0, 0, 0, 0, 0, 0, 0, 0,
       0, 0, 0, 0, 0, 0, 0, 0, 0, 0, 0, 0, 0, 0, 0, 0, 0, 0, 0, 0, 0, 0,
       0, 0, 0, 0, 0, 0, 0, 0, 0, 0, 0, 0, 0, 0, 0, 0, 0, 0, 0, 0, 0, 0,
       0, 0, 0, 0, 0, 0, 0, 0, 0, 0, 0, 0, 0, 0, 0, 0, 0, 0, 0, 0, 0, 0,
       0, 0, 0, 0, 0, 0, 0, 0, 0, 0, 0, 0, 0, 0, 0, 0, 0, 0, 0, 0, 0, 0,
       0, 0, 0, 0, 0, 0, 0, 0, 0, 0, 0, 0, 0, 0, 0, 0, 0, 0, 0, 0, 0, 0,
       0, 0, 0, 0, 0, 0, 0, 0, 0, 0, 0, 0, 0, 0, 0, 0, 0, 0, 0, 0, 0, 0,
       0, 0, 0, 0, 0, 0, 0, 0, 0, 0, 0, 0, 0, 0, 0, 0, 0, 0, 0, 0, 0, 0,
       0, 0, 0, 0, 0, 0, 0, 0, 0, 0, 0, 0, 0, 0, 0, 0, 0, 0, 0, 0, 0, 0,
       0, 0, 0, 0, 0, 0, 0, 0, 0, 0, 0, 0, 0, 0, 0, 0, 0, 0, 0, 0, 0, 0,
       0, 0, 0, 0, 0, 0, 0, 0, 0, 0, 0, 0, 0, 0, 0, 0, 0, 0, 0, 0, 0, 0,
       0, 0, 0, 0, 0, 0, 0, 0, 0, 0, 0, 0, 0, 0, 0, 0, 0, 0, 0, 0, 0, 0,
       0, 0, 0, 0, 0, 0, 0, 0, 0, 0, 0, 0, 0, 0, 0, 0, 0, 0, 0, 0, 0, 0,
       0, 0, 0, 0, 0, 0, 0, 0, 0, 0, 0, 0, 0, 0, 0, 0, 0, 0, 0, 0, 0, 0,
       0, 0, 0, 0, 0, 0, 0, 0, 0, 0, 0, 0, 0, 0, 0, 0, 0, 0, 0, 0, 0, 0,
       0, 0, 0, 0, 0, 0, 0, 0, 0, 0, 0, 0, 0, 0, 0, 0, 0, 0, 0, 0, 0, 0,
       0, 0, 0, 0, 0, 0, 0, 0, 0, 0, 0, 0, 0, 0, 0, 0, 0, 0, 0, 0, 0, 0,
       0, 0, 0, 0, 0, 0, 0, 0, 0, 0, 0, 0, 0, 0, 0, 0, 0, 0, 0, 0, 0, 0,
       0, 0, 0, 0, 0, 0, 0, 0, 0, 0, 0, 0, 0, 0, 0, 0, 0, 0, 0, 0, 0, 0,
       0, 0, 0, 0, 0, 0, 0, 0, 0, 0, 0, 0, 0, 0, 0, 0, 0, 0, 0, 0, 0, 0,
       0, 0, 0, 0, 0, 0, 0, 0, 0, 0, 0, 0, 0, 0, 0, 0, 0, 0, 0, 0, 0, 0,
       0, 0, 0, 0, 0, 0, 0, 0, 0, 0, 0, 0, 0, 0, 0, 0, 0, 0, 0, 0, 0, 0,
       0, 0, 0, 0, 0, 0, 0, 0, 0, 0, 0, 0, 0, 0, 0, 0, 0, 0, 0, 0, 0, 0,
       0, 0, 0, 0, 0, 0, 0, 0, 0, 0, 0, 0, 0, 0, 0, 0, 0, 0, 0, 0, 0, 0,
       0, 0, 0, 0, 0, 0, 0, 0, 0, 0, 0, 0, 0, 0, 0, 0, 0, 0, 0, 0, 0, 0,
       0, 0, 0, 0, 0, 0, 0, 0, 0, 0, 0, 0, 0, 0, 0, 0, 0, 0, 0, 0, 0, 0,
       0, 0, 0, 0, 0, 0, 0, 0, 0, 0, 0, 0, 0, 0, 0, 0, 0, 0, 0, 0, 0, 0,
       0, 0, 0, 0, 0, 0, 0, 0, 0, 0, 0, 0, 0, 0, 0, 0, 0, 0, 0, 0, 0, 0,
       0, 0, 0, 0, 0, 0, 0, 0, 0, 0, 0, 0, 0, 0, 0, 0, 0, 0, 0, 0, 0, 0,
       0, 0, 0, 0, 0, 0, 0, 0, 0, 0, 0, 0, 0, 0, 0, 0, 0, 0, 0, 0, 0, 0,
       0, 0, 0, 0, 0, 0, 0, 0, 0, 0, 0, 0, 0, 0, 0, 0, 0, 0, 0, 0, 0, 0,
       0, 0, 0, 0, 0, 0, 0, 0, 0, 0, 0, 0, 0, 0, 0, 0, 0, 0, 0, 0, 0, 0,
       0, 0, 0, 0, 0, 0, 0, 0, 0, 0, 0, 0, 0, 0, 0, 0, 0, 0, 0, 0, 0, 0,
       0, 0, 0, 0, 0, 0, 0, 0, 0, 0, 0, 0, 0, 0, 0, 0, 0, 0, 0, 0, 0, 0,
       0, 0, 0, 0, 0, 0, 0, 0, 0, 0, 0, 0, 0, 0, 0, 0, 0, 0, 0, 0, 0, 0,
       0, 0, 0, 0, 0, 0, 0, 0, 0, 0, 0, 0, 0, 0, 0, 0, 0, 0, 0, 0, 0, 0,
       0, 0, 0, 0, 0, 0, 0, 0, 0, 0, 0, 0, 0, 0, 0, 0, 0, 0, 0, 0, 0, 0,
       0, 0, 0, 0, 0, 0, 0, 0, 0, 0, 0, 0, 0, 0, 0, 0, 0, 0, 0, 0, 0, 0,
       0, 0, 0, 0, 0, 0, 0, 0, 0, 0, 0, 0, 0, 0, 0, 0, 0, 0, 0, 0, 0, 0,
       0, 0, 0, 0, 0, 0, 0, 0, 0, 0, 0, 0, 0, 0, 0, 0, 0, 0, 0, 0, 0, 0,
       0, 0, 0, 0, 0, 0, 0, 0, 0, 0, 0, 0, 0, 0, 0, 0, 0, 0, 0, 0, 0, 0,
       0, 0, 0, 0, 0, 0, 0, 0, 0, 0, 0, 0, 0, 0, 0, 0, 0, 0, 0, 0, 0, 0,
       0, 0, 0, 0, 0, 0, 0, 0, 0, 0, 0, 0, 0, 0, 0, 0, 0, 0, 0, 0, 0, 0,
       0, 0, 0, 0, 0, 0, 0, 0, 0, 0, 0, 0, 0, 0, 0, 0, 0, 0, 0, 0, 0, 0,
       0, 0, 0, 0, 0, 0, 0, 0, 0, 0, 0, 0, 0, 0, 0, 0, 0, 0, 0, 0, 0, 0,
       0, 0, 0, 0, 0, 0, 0, 0, 0, 0, 0, 0, 0, 0, 0, 0, 0, 0, 0, 0, 0, 0,
       0, 0, 0, 0, 0, 0, 0, 0, 0, 0, 0, 0, 0, 0, 0, 0, 0, 0, 0, 0, 0, 0,
       0, 0, 0, 0, 0, 0, 0, 0, 0, 0, 0, 0, 0, 0, 0, 0, 0, 0, 0, 0, 0, 0,
       0, 0, 0, 0, 0, 0, 0, 0, 0, 0, 0, 0, 0, 0, 0, 0, 0, 0, 0, 0, 0, 0,
       0, 0, 0, 0, 0, 0, 0, 0, 0, 0, 0, 0, 0, 0, 0, 0, 0, 0, 0, 0, 0, 0,
       0, 0, 0, 0, 0, 0, 0, 0, 0, 0, 0, 0, 0, 0, 0, 0, 0, 0, 0, 0, 0, 0,
       0, 0, 0, 0, 0, 0, 0, 0, 0, 0, 0, 0, 0, 0, 0, 0, 0, 0, 0, 0, 0, 0,
       0, 0, 0, 0, 0, 0, 0, 0, 0, 0, 0, 0, 0, 0, 0, 0, 0, 0, 0, 0, 0, 0,
       0, 0, 0, 0, 0, 0, 0, 0, 0, 0, 0, 0, 0, 0, 0, 0, 0, 0, 0, 0, 0, 0,
       0, 0, 0, 0, 0, 0, 0, 0, 0, 0, 0, 0, 0, 0, 0, 0, 0, 0, 0, 0, 0, 0,
       0, 0, 0, 0, 0, 0, 0, 0, 0, 0, 0, 0, 0, 0, 0, 0, 0, 0, 0, 0, 0, 0,
       0, 0, 0, 0, 0, 0, 0, 0, 0, 0, 0, 0, 0, 0, 0, 0, 0, 0, 0, 0, 0, 0,
       0, 0, 0, 0, 0, 0, 0, 0, 0, 0, 0, 0, 0, 0, 0, 0, 0, 0, 0, 0, 0, 0,
       0, 0, 0, 0, 0, 0, 0, 0, 0, 0, 0, 0, 0, 0, 0, 0, 0, 0, 0, 0, 0, 0,
       0, 0, 0, 0, 0, 0, 0, 0, 0, 0, 0, 0, 0, 0, 0, 0, 0, 0, 0, 0, 0, 0,
       0, 0, 0, 0, 0, 0, 0, 0, 0, 0, 0, 0, 0, 0, 0, 0, 0, 0, 0, 0, 0, 0,
       0, 0, 0, 0, 0, 0, 0, 0, 0, 0, 0, 0, 0, 0, 0, 0, 0, 0, 0, 0, 0, 0,
       0, 0, 0, 0, 0, 0, 0, 0, 0, 0, 0, 0, 0, 0, 0, 0, 0, 0, 0, 0, 0, 0,
       0, 0, 0, 0, 0, 0, 0, 0, 0, 0, 0, 0, 0, 0, 0, 0, 0, 0, 0, 0, 0, 0,
       0, 0, 0, 0, 0, 0, 0, 0, 0, 0, 0, 0, 0, 0, 0, 0, 0, 0, 0, 0, 0, 0,
       0, 0, 0, 0, 0, 0, 0, 0, 0, 0, 0, 0, 0, 0, 0, 0, 0, 0, 0, 0, 0, 0,
       0, 0, 0, 0, 0, 0, 0, 0, 0, 0, 0, 0, 0, 0, 0, 0, 0, 0, 0, 0, 0, 0,
       0, 0, 0, 0, 0, 0, 0, 0, 0, 0, 0, 0, 0, 0, 0, 0, 0, 0, 0, 0, 0, 0,
       0, 0, 0, 0, 0, 0, 0, 0, 0, 0, 0, 0, 0, 0, 0, 0, 0, 0, 0, 0, 0, 0,
       0, 0, 0, 0, 0, 0, 0, 0, 0, 0, 0, 0, 0, 0, 0, 0, 0, 0, 0, 0, 0, 0,
       0, 0, 0, 0, 0, 0, 0, 0, 0, 0, 0, 0, 0, 0, 0, 0, 0, 0, 0, 0, 0, 0,
       0, 0, 0, 0, 0, 0, 0, 0, 0, 0, 0, 0, 0, 0, 0, 0, 0, 0, 0, 0, 0, 0,
       0, 0, 0, 0, 0, 0, 0, 0, 0, 0, 0, 0, 0, 0, 0, 0, 0, 0, 0, 0, 0, 0,
       0, 0, 0, 0, 0, 0, 0, 0, 0, 0, 0, 0, 0, 0, 0, 0, 0, 0, 0, 0, 0, 0,
       0, 0, 0, 0, 0, 0, 0, 0, 0, 0, 0, 0, 0, 0, 0, 0, 0, 0, 0, 0, 0, 0,
       0, 0, 0, 0, 0, 0, 0, 0, 0, 0, 0, 0, 0, 0, 0, 0, 0, 0, 0, 0, 0, 0,
       0, 0, 0, 0, 0, 0, 0, 0, 0, 0, 0, 0, 0, 0, 0, 0, 0, 0, 0, 0, 0, 0,
       0, 0, 0, 0, 0, 0, 0, 0, 0, 0, 0, 0, 0, 0, 0, 0, 0, 0, 0, 0, 0, 0,
       0, 0, 0, 0, 0, 0, 0, 0, 0, 0, 0, 0, 0, 0, 0, 0, 0, 0, 0, 0, 0, 0,
       0, 0, 0, 0, 0, 0, 0, 0, 0, 0, 0, 0, 0, 0, 0, 0, 0, 0, 0, 0, 0, 0,
       0, 0, 0, 0, 0, 0, 0, 0, 0, 0, 0, 0, 0, 0, 0, 0, 0, 0, 0, 0, 0, 0,
       0, 0, 0, 0, 0, 0, 0, 0, 0, 0, 0, 0, 0, 0, 0, 0, 0, 0, 0, 0, 0, 0,
       0, 0, 0, 0, 0, 0, 0, 0, 0, 0, 0, 0, 0, 0, 0, 0, 0, 0, 0, 0, 0, 0,
       0, 0, 0, 0, 0, 0, 0, 0, 0, 0, 0, 0, 0, 0, 0, 0, 0, 0, 0, 0, 0, 0,
       0, 0, 0, 0, 0, 0, 0, 0, 0, 0, 0, 0, 0, 0, 0, 0, 0, 0, 0, 0, 0, 0,
       0, 0, 0, 0, 0, 0, 0, 0, 0, 0, 0, 0, 0, 0, 0, 0, 0, 0, 0, 0, 0, 0,
       0, 0, 0, 0, 0, 0, 0, 0, 0, 0, 0, 0, 0, 0, 0, 0, 0, 0, 0, 0, 0, 0,
       0, 0, 0, 0, 0, 0, 0, 0, 0, 0, 0, 0, 0, 0, 0, 0, 0, 0, 0, 0, 0, 0,
       0, 0, 0, 0, 0, 0, 0, 0, 0, 0, 0, 0, 0, 0, 0, 0, 0, 0, 0, 0, 0, 0,
       0, 0, 0, 0, 0, 0, 0, 0, 0, 0, 0, 0, 0, 0, 0, 0, 0, 0, 0, 0, 0, 0,
       0, 0, 0, 0, 0, 0, 0, 0, 0, 0, 0, 0, 0, 0, 0, 0, 0, 0, 0, 0, 0, 0,
       0, 0, 0, 0, 0, 0, 0, 0, 0, 0, 0, 0, 0, 0, 0, 0, 0, 0, 0, 0, 0, 0,
       0, 0, 0, 0, 0, 0, 0, 0, 0, 0, 0, 0, 0, 0, 0, 0, 0, 0, 0, 0, 0, 0,
       0, 0, 0, 0, 0, 0, 0, 0, 0, 0, 0, 0, 0, 0, 0, 0, 0, 0, 0, 0, 0, 0,
       0, 0, 0, 0, 0, 0, 0, 0, 0, 0, 0, 0, 0, 0, 0, 0, 0, 0, 0, 0, 0, 0,
       0, 0, 0, 0, 0, 0, 0, 0, 0, 0, 0, 0, 0, 0, 0, 0, 0, 0, 0, 0, 0, 0,
       0, 0, 0, 0, 0, 0, 0, 0, 0, 0, 0, 0, 0, 0, 0, 0, 0, 0, 0, 0, 0, 0,
       0, 0, 0, 0, 0, 0, 0, 0, 0, 0, 0, 0, 0, 0, 0, 0, 0, 0, 0, 0, 0, 0,
       0, 0, 0, 0, 0, 0, 0, 0, 0, 0, 0, 0, 0, 0, 0, 0, 0, 0, 0, 0, 0, 0,
       0, 0, 0, 0, 0, 0, 0, 0, 0, 0, 0, 0, 0, 0, 0, 0, 0, 0, 0, 0, 0, 0,
       0, 0, 0, 0, 0, 0, 0, 0, 0, 0, 0, 0, 0, 0, 0, 0, 0, 0, 0, 0, 0, 0,
       0, 0, 0, 0, 0, 0, 0, 0, 0, 0, 0, 0, 0, 0, 0, 0, 0, 0, 0, 0, 0, 0,
       0, 0, 0, 0, 0, 0, 0, 0, 0, 0, 0, 0, 0, 0, 0, 0, 0, 0, 0, 0, 0, 0,
       0, 0, 0, 0, 0, 0, 0, 0, 0, 0, 0, 0, 0, 0, 0, 0, 0, 0, 0, 0, 0, 0,
       0, 0, 0, 0, 0, 0, 0, 0, 0, 0, 0, 0, 0, 0, 0, 0, 0, 0, 0, 0, 0, 0,
       0, 0, 0, 0, 0, 0, 0, 0, 0, 0, 0, 0, 0, 0, 0, 0, 0, 0, 0, 0, 0, 0,
       0, 0, 0, 0, 0, 0, 0, 0, 0, 0, 0, 0, 0, 0, 0, 0, 0, 0, 0, 0, 0, 0,
       0, 0, 0, 0, 0, 0, 0, 0, 0, 0, 0, 0, 0, 0, 0, 0, 0, 0, 0, 0, 0, 0,
       0, 0, 0, 0, 0, 0, 0, 0, 0, 0, 0, 0, 0, 0, 0, 0, 0, 0, 0, 0, 0, 0,
       0, 0, 0, 0, 0, 0, 0, 0, 0, 0, 0, 0, 0, 0, 0, 0, 0, 0, 0, 0, 0, 0,
       0, 0, 0, 0, 0, 0, 0, 0, 0, 0, 0, 0, 0, 0, 0, 0, 0, 0, 0, 0, 0, 0,
       0, 0, 0, 0, 0, 0, 0, 0, 0, 0, 0, 0, 0, 0, 0, 0, 0, 0, 0, 0, 0, 0,
       0, 0, 0, 0, 0, 0, 0, 0, 0, 0, 0, 0, 0, 0, 0, 0, 0, 0, 0, 0, 0, 0,
       0, 0, 0, 0, 0, 0, 0, 0, 0, 0, 0, 0, 0, 0, 0, 0, 0, 0, 0, 0, 0, 0,
       0, 0, 0, 0, 0, 0, 0, 0, 0, 0, 0, 0, 0, 0, 0, 0, 0, 0, 0, 0, 0, 0,
       0, 0, 0, 0, 0, 0, 0, 0, 0, 0, 0, 0, 0, 0, 0, 0, 0, 0, 0, 0, 0, 0,
       0, 0, 0, 0, 0, 0, 0, 0, 0, 0, 0, 0, 0, 0, 0, 0, 0, 0, 0, 0, 0, 0,
       0, 0, 0, 0, 0, 0, 0, 0, 0, 0, 0, 0, 0, 0, 0, 0, 0, 0, 0, 0, 0, 0,
       0, 0, 0, 0, 0, 0, 0, 0, 0, 0, 0, 0, 0, 0, 0, 0, 0, 0, 0, 0, 0, 0,
       0, 0, 0, 0, 0, 0, 0, 0, 0, 0, 0, 0, 0, 0, 0, 0, 0, 0, 0, 0, 0, 0,
       0, 0, 0, 0, 0, 0, 0, 0, 0, 0, 0, 0, 0, 0, 0, 0, 0, 0, 0, 0, 0, 0,
       0, 0, 0, 0, 0, 0, 0, 0, 0, 0, 0, 0, 0, 0, 0, 0, 0, 0, 0, 0, 0, 0,
       0, 0, 0, 0, 0, 0, 0, 0, 0, 0, 0, 0, 0, 0, 0, 0, 0, 0, 0, 0, 0, 0,
       0, 0, 0, 0, 0, 0, 0, 0, 0, 0, 0, 0, 0, 0, 0, 0, 0, 0, 0, 0, 0, 0,
       0, 0, 0, 0, 0, 0, 0, 0, 0, 0, 0, 0, 0, 0, 0, 0, 0, 0, 0, 0, 0, 0,
       0, 0, 0, 0, 0, 0, 0, 0, 0, 0, 0, 0, 0, 0, 0, 0, 0, 0, 0, 0, 0, 0,
       0, 0, 0, 0, 0, 0, 0, 0, 0, 0, 0, 0, 0, 0, 0, 0, 0, 0, 0, 0, 0, 0,
       0, 0, 0, 0, 0, 0, 0, 0, 0, 0, 0, 0, 0, 0, 0, 0, 0, 0, 0, 0, 0, 0,
       0, 0, 0, 0, 0, 0, 0, 0, 0, 0, 0, 0, 0, 0, 0, 0, 0, 0, 0, 0, 0, 0,
       0, 0, 0, 0, 0, 0, 0, 0, 0, 0, 0, 0, 0, 0, 0, 0, 0, 0, 0, 0, 0, 0,
       0, 0, 0, 0, 0, 0, 0, 0, 0, 0, 0, 0, 0, 0, 0, 0, 0, 0, 0, 0, 0, 0,
       0, 0, 0, 0, 0, 0, 0, 0, 0, 0, 0, 0, 0, 0, 0, 0, 0, 0, 0, 0, 0, 0,
       0, 0, 0, 0, 0, 0, 0, 0, 0, 0, 0, 0, 0, 0, 0, 0, 0, 0, 0, 0, 0, 0,
       0, 0, 0, 0, 0, 0, 0, 0, 0, 0, 0, 0, 0, 0, 0, 0, 0, 0, 0, 0, 0, 0,
       0, 0, 0, 0, 0, 0, 0, 0, 0, 0, 0, 0, 0, 0, 0, 0, 0, 0, 0, 0, 0, 0,
       0, 0, 0, 0, 0, 0, 0, 0, 0, 0, 0, 0, 0, 0, 0, 0, 0, 0, 0, 0, 0, 0,
       0, 0, 0, 0, 0, 0, 0, 0, 0, 0, 0, 0, 0, 0, 0, 0, 0, 0, 0, 0, 0, 0,
       0, 0, 0, 0, 0, 0, 0, 0, 0, 0, 0, 0, 0, 0, 0, 0, 0, 0, 0, 0, 0, 0,
       0, 0, 0, 0, 0, 0, 0, 0, 0, 0, 0, 0, 0, 0, 0, 0, 0, 0, 0, 0, 0, 0,
       0, 0, 0, 0, 0, 0, 0, 0, 0, 0, 0, 0, 0, 0, 0, 0, 0, 0, 0, 0, 0, 0,
       0, 0, 0, 0, 0, 0, 0, 0, 0, 0, 0, 0, 0, 0, 0, 0, 0, 0, 0, 0, 0, 0,
       0, 0, 0, 0, 0, 0, 0, 0, 0, 0, 0, 0, 0, 0, 0, 0, 0, 0, 0, 0, 0, 0,
       0, 0, 0, 0, 0, 0, 0, 0, 0, 0, 0, 0, 0, 0, 0, 0, 0, 0, 0, 0, 0, 0,
       0, 0, 0, 0, 0, 0, 0, 0, 0, 0, 0, 0, 0, 0, 0, 0, 0, 0, 0, 0, 0, 0,
       0, 0, 0, 0, 0, 0, 0, 0, 0, 0, 0, 0, 0, 0, 0, 0, 0, 0, 0, 0, 0, 0,
       0, 0, 0, 0, 0, 0, 0, 0, 0, 0, 0, 0, 0, 0, 0, 0, 0, 0, 0, 0, 0, 0,
       0, 0, 0, 0, 0, 0, 0, 0, 0, 0 ]
   class_labels: [ 0, 1, 2, 3, 4, 5 ]
   missing_subst: [ 0., 0., 0., 0., 0., 0., 0., 0., 0., 0., 0., 0., 0.,
       0., 0., 0., 0., 0., 0., 0., 0., 0., 0., 0., 0., 0., 0., 0., 0.,
       0., 0., 0., 0., 0., 0., 0., 0., 0., 0., 0., 0., 0., 0., 0., 0.,
       0., 0., 0., 0., 0., 0., 0., 0., 0., 0., 0., 0., 0., 0., 0., 0.,
       0., 0., 0., 0., 0., 0., 0., 0., 0., 0., 0., 0., 0., 0., 0., 0.,
       0., 0., 0., 0., 0., 0., 0., 0., 0., 0., 0., 0., 0., 0., 0., 0.,
       0., 0., 0., 0., 0., 0., 0., 0., 0., 0., 0., 0., 0., 0., 0., 0.,
       0., 0., 0., 0., 0., 0., 0., 0., 0., 0., 0., 0., 0., 0., 0., 0.,
       0., 0., 0., 0., 0., 0., 0., 0., 0., 0., 0., 0., 0., 0., 0., 0.,
       0., 0., 0., 0., 0., 0., 0., 0., 0., 0., 0., 0., 0., 0., 0., 0.,
       0., 0., 0., 0., 0., 0., 0., 0., 0., 0., 0., 0., 0., 0., 0., 0.,
       0., 0., 0., 0., 0., 0., 0., 0., 0., 0., 0., 0., 0., 0., 0., 0.,
       0., 0., 0., 0., 0., 0., 0., 0., 0., 0., 0., 0., 0., 0., 0., 0.,
       0., 0., 0., 0., 0., 0., 0., 0., 0., 0., 0., 0., 0., 0., 0., 0.,
       0., 0., 0., 0., 0., 0., 0., 0., 0., 0., 0., 0., 0., 0., 0., 0.,
       0., 0., 0., 0., 0., 0., 0., 0., 0., 0., 0., 0., 0., 0., 0., 0.,
       0., 0., 0., 0., 0., 0., 0., 0., 0., 0., 0., 0., 0., 0., 0., 0.,
       0., 0., 0., 0., 0., 0., 0., 0., 0., 0., 0., 0., 0., 0., 0., 0.,
       0., 0., 0., 0., 0., 0., 0., 0., 0., 0., 0., 0., 0., 0., 0., 0.,
       0., 0., 0., 0., 0., 0., 0., 0., 0., 0., 0., 0., 0., 0., 0., 0.,
       0., 0., 0., 0., 0., 0., 0., 0., 0., 0., 0., 0., 0., 0., 0., 0.,
       0., 0., 0., 0., 0., 0., 0., 0., 0., 0., 0., 0., 0., 0., 0., 0.,
       0., 0., 0., 0., 0., 0., 0., 0., 0., 0., 0., 0., 0., 0., 0., 0.,
       0., 0., 0., 0., 0., 0., 0., 0., 0., 0., 0., 0., 0., 0., 0., 0.,
       0., 0., 0., 0., 0., 0., 0., 0., 0., 0., 0., 0., 0., 0., 0., 0.,
       0., 0., 0., 0., 0., 0., 0., 0., 0., 0., 0., 0., 0., 0., 0., 0.,
       0., 0., 0., 0., 0., 0., 0., 0., 0., 0., 0., 0., 0., 0., 0., 0.,
       0., 0., 0., 0., 0., 0., 0., 0., 0., 0., 0., 0., 0., 0., 0., 0.,
       0., 0., 0., 0., 0., 0., 0., 0., 0., 0., 0., 0., 0., 0., 0., 0.,
       0., 0., 0., 0., 0., 0., 0., 0., 0., 0., 0., 0., 0., 0., 0., 0.,
       0., 0., 0., 0., 0., 0., 0., 0., 0., 0., 0., 0., 0., 0., 0., 0.,
       0., 0., 0., 0., 0., 0., 0., 0., 0., 0., 0., 0., 0., 0., 0., 0.,
       0., 0., 0., 0., 0., 0., 0., 0., 0., 0., 0., 0., 0., 0., 0., 0.,
       0., 0., 0., 0., 0., 0., 0., 0., 0., 0., 0., 0., 0., 0., 0., 0.,
       0., 0., 0., 0., 0., 0., 0., 0., 0., 0., 0., 0., 0., 0., 0., 0.,
       0., 0., 0., 0., 0., 0., 0., 0., 0., 0., 0., 0., 0., 0., 0., 0.,
       0., 0., 0., 0., 0., 0., 0., 0., 0., 0., 0., 0., 0., 0., 0., 0.,
       0., 0., 0., 0., 0., 0., 0., 0., 0., 0., 0., 0., 0., 0., 0., 0.,
       0., 0., 0., 0., 0., 0., 0., 0., 0., 0., 0., 0., 0., 0., 0., 0.,
       0., 0., 0., 0., 0., 0., 0., 0., 0., 0., 0., 0., 0., 0., 0., 0.,
       0., 0., 0., 0., 0., 0., 0., 0., 0., 0., 0., 0., 0., 0., 0., 0.,
       0., 0., 0., 0., 0., 0., 0., 0., 0., 0., 0., 0., 0., 0., 0., 0.,
       0., 0., 0., 0., 0., 0., 0., 0., 0., 0., 0., 0., 0., 0., 0., 0.,
       0., 0., 0., 0., 0., 0., 0., 0., 0., 0., 0., 0., 0., 0., 0., 0.,
       0., 0., 0., 0., 0., 0., 0., 0., 0., 0., 0., 0., 0., 0., 0., 0.,
       0., 0., 0., 0., 0., 0., 0., 0., 0., 0., 0., 0., 0., 0., 0., 0.,
       0., 0., 0., 0., 0., 0., 0., 0., 0., 0., 0., 0., 0., 0., 0., 0.,
       0., 0., 0., 0., 0., 0., 0., 0., 0., 0., 0., 0., 0., 0., 0., 0.,
       0., 0., 0., 0., 0., 0., 0., 0., 0., 0., 0., 0., 0., 0., 0., 0.,
       0., 0., 0., 0., 0., 0., 0., 0., 0., 0., 0., 0., 0., 0., 0., 0.,
       0., 0., 0., 0., 0., 0., 0., 0., 0., 0., 0., 0., 0., 0., 0., 0.,
       0., 0., 0., 0., 0., 0., 0., 0., 0., 0., 0., 0., 0., 0., 0., 0.,
       0., 0., 0., 0., 0., 0., 0., 0., 0., 0., 0., 0., 0., 0., 0., 0.,
       0., 0., 0., 0., 0., 0., 0., 0., 0., 0., 0., 0., 0., 0., 0., 0.,
       0., 0., 0., 0., 0., 0., 0., 0., 0., 0., 0., 0., 0., 0., 0., 0.,
       0., 0., 0., 0., 0., 0., 0., 0., 0., 0., 0., 0., 0., 0., 0., 0.,
       0., 0., 0., 0., 0., 0., 0., 0., 0., 0., 0., 0., 0., 0., 0., 0.,
       0., 0., 0., 0., 0., 0., 0., 0., 0., 0., 0., 0., 0., 0., 0., 0.,
       0., 0., 0., 0., 0., 0., 0., 0., 0., 0., 0., 0., 0., 0., 0., 0.,
       0., 0., 0., 0., 0., 0., 0., 0., 0., 0., 0., 0., 0., 0., 0., 0.,
       0., 0., 0., 0., 0., 0., 0., 0., 0., 0., 0., 0., 0., 0., 0., 0.,
       0., 0., 0., 0., 0., 0., 0., 0., 0., 0., 0., 0., 0., 0., 0., 0.,
       0., 0., 0., 0., 0., 0., 0., 0., 0., 0., 0., 0., 0., 0., 0., 0.,
       0., 0., 0., 0., 0., 0., 0., 0., 0., 0., 0., 0., 0., 0., 0., 0.,
       0., 0., 0., 0., 0., 0., 0., 0., 0., 0., 0., 0., 0., 0., 0., 0.,
       0., 0., 0., 0., 0., 0., 0., 0., 0., 0., 0., 0., 0., 0., 0., 0.,
       0., 0., 0., 0., 0., 0., 0., 0., 0., 0., 0., 0., 0., 0., 0., 0.,
       0., 0., 0., 0., 0., 0., 0., 0., 0., 0., 0., 0., 0., 0., 0., 0.,
       0., 0., 0., 0., 0., 0., 0., 0., 0., 0., 0., 0., 0., 0., 0., 0.,
       0., 0., 0., 0., 0., 0., 0., 0., 0., 0., 0., 0., 0., 0., 0., 0.,
       0., 0., 0., 0., 0., 0., 0., 0., 0., 0., 0., 0., 0., 0., 0., 0.,
       0., 0., 0., 0., 0., 0., 0., 0., 0., 0., 0., 0., 0., 0., 0., 0.,
       0., 0., 0., 0., 0., 0., 0., 0., 0., 0., 0., 0., 0., 0., 0., 0.,
       0., 0., 0., 0., 0., 0., 0., 0., 0., 0., 0., 0., 0., 0., 0., 0.,
       0., 0., 0., 0., 0., 0., 0., 0., 0., 0., 0., 0., 0., 0., 0., 0.,
       0., 0., 0., 0., 0., 0., 0., 0., 0., 0., 0., 0., 0., 0., 0., 0.,
       0., 0., 0., 0., 0., 0., 0., 0., 0., 0., 0., 0., 0., 0., 0., 0.,
       0., 0., 0., 0., 0., 0., 0., 0., 0., 0., 0., 0., 0., 0., 0., 0.,
       0., 0., 0., 0., 0., 0., 0., 0., 0., 0., 0., 0., 0., 0., 0., 0.,
       0., 0., 0., 0., 0., 0., 0., 0., 0., 0., 0., 0., 0., 0., 0., 0.,
       0., 0., 0., 0., 0., 0., 0., 0., 0., 0., 0., 0., 0., 0., 0., 0.,
       0., 0., 0., 0., 0., 0., 0., 0., 0., 0., 0., 0., 0., 0., 0., 0.,
       0., 0., 0., 0., 0., 0., 0., 0., 0., 0., 0., 0., 0., 0., 0., 0.,
       0., 0., 0., 0., 0., 0., 0., 0., 0., 0., 0., 0., 0., 0., 0., 0.,
       0., 0., 0., 0., 0., 0., 0., 0., 0., 0., 0., 0., 0., 0., 0., 0.,
       0., 0., 0., 0., 0., 0., 0., 0., 0., 0., 0., 0., 0., 0., 0., 0.,
       0., 0., 0., 0., 0., 0., 0., 0., 0., 0., 0., 0., 0., 0., 0., 0.,
       0., 0., 0., 0., 0., 0., 0., 0., 0., 0., 0., 0., 0., 0., 0., 0.,
       0., 0., 0., 0., 0., 0., 0., 0., 0., 0., 0., 0., 0., 0., 0., 0.,
       0., 0., 0., 0., 0., 0., 0., 0., 0., 0., 0., 0., 0., 0., 0., 0.,
       0., 0., 0., 0., 0., 0., 0., 0., 0., 0., 0., 0., 0., 0., 0., 0.,
       0., 0., 0., 0., 0., 0., 0., 0., 0., 0., 0., 0., 0., 0., 0., 0.,
       0., 0., 0., 0., 0., 0., 0., 0., 0., 0., 0., 0., 0., 0., 0., 0.,
       0., 0., 0., 0., 0., 0., 0., 0., 0., 0., 0., 0., 0., 0., 0., 0.,
       0., 0., 0., 0., 0., 0., 0., 0., 0., 0., 0., 0., 0., 0., 0., 0.,
       0., 0., 0., 0., 0., 0., 0., 0., 0., 0., 0., 0., 0., 0., 0., 0.,
       0., 0., 0., 0., 0., 0., 0., 0., 0., 0., 0., 0., 0., 0., 0., 0.,
       0., 0., 0., 0., 0., 0., 0., 0., 0., 0., 0., 0., 0., 0., 0., 0.,
       0., 0., 0., 0., 0., 0., 0., 0., 0., 0., 0., 0., 0., 0., 0., 0.,
       0., 0., 0., 0., 0., 0., 0., 0., 0., 0., 0., 0., 0., 0., 0., 0.,
       0., 0., 0., 0., 0., 0., 0., 0., 0., 0., 0., 0., 0., 0., 0., 0.,
       0., 0., 0., 0., 0., 0., 0., 0., 0., 0., 0., 0., 0., 0., 0., 0.,
       0., 0., 0., 0., 0., 0., 0., 0., 0., 0., 0., 0., 0., 0., 0., 0.,
       0., 0., 0., 0., 0., 0., 0., 0., 0., 0., 0., 0., 0., 0., 0., 0.,
       0., 0., 0., 0., 0., 0., 0., 0., 0., 0., 0., 0., 0., 0., 0., 0.,
       0., 0., 0., 0., 0., 0., 0., 0., 0., 0., 0., 0., 0., 0., 0., 0.,
       0., 0., 0., 0., 0., 0., 0., 0., 0., 0., 0., 0., 0., 0., 0., 0.,
       0., 0., 0., 0., 0., 0., 0., 0., 0., 0., 0., 0., 0., 0., 0., 0.,
       0., 0., 0., 0., 0., 0., 0., 0., 0., 0., 0., 0., 0., 0., 0., 0.,
       0., 0., 0., 0., 0., 0., 0., 0., 0., 0., 0., 0., 0., 0., 0., 0.,
       0., 0., 0., 0., 0., 0., 0., 0. ]
   nodes:
      -
         depth: 0
         value: 5.
         norm_class_idx: 5
         splits:
            - { var:6, quality:3.4486541748046875e+02,
                le:1.6754891723394394e-02 }
      -
         depth: 1
         value: 4.
         norm_class_idx: 4
         splits:
            - { var:34, quality:1.1151294708251953e+02,
                le:2.8958827257156372e-02 }
      -
         depth: 2
         value: 0.
         norm_class_idx: 0
         splits:
            - { var:604, quality:3.8815963745117188e+01,
                le:8.1777386367321014e-02 }
      -
         depth: 3
         value: 4.
         norm_class_idx: 4
         splits:
            - { var:290, quality:9., le:2.4755296111106873e-01 }
      -
         depth: 4
         value: 4.
         norm_class_idx: 4
      -
         depth: 4
         value: 0.
         norm_class_idx: 0
         splits:
            - { var:0, quality:4., le:3.9767622947692871e-02 }
      -
         depth: 5
         value: 1.
         norm_class_idx: 1
      -
         depth: 5
         value: 0.
         norm_class_idx: 0
      -
         depth: 3
         value: 0.
         norm_class_idx: 0
         splits:
            - { var:83, quality:3.9500000000000000e+01,
                le:1.1167839169502258e-01 }
      -
         depth: 4
         value: 0.
         norm_class_idx: 0
      -
         depth: 4
         value: 3.
         norm_class_idx: 3
         splits:
            - { var:0, quality:4., le:3.2029323279857635e-02 }
      -
         depth: 5
         value: 4.
         norm_class_idx: 4
      -
         depth: 5
         value: 3.
         norm_class_idx: 3
      -
         depth: 2
         value: 4.
         norm_class_idx: 4
         splits:
            - { var:1635, quality:1.0217281341552734e+02,
                le:8.8946804404258728e-02 }
      -
         depth: 3
         value: 4.
         norm_class_idx: 4
         splits:
            - { var:1474, quality:9.6737899780273438e+01,
                le:2.4725489318370819e-02 }
      -
         depth: 4
         value: 0.
         norm_class_idx: 0
         splits:
            - { var:35, quality:1.4399999618530273e+01,
                le:3.0843383073806763e-01 }
      -
         depth: 5
         value: 0.
         norm_class_idx: 0
      -
         depth: 5
         value: 4.
         norm_class_idx: 4
         splits:
            - { var:0, quality:5., le:1.7228597402572632e-01 }
      -
         depth: 6
         value: 4.
         norm_class_idx: 4
      -
         depth: 6
         value: 3.
         norm_class_idx: 3
      -
         depth: 4
         value: 4.
         norm_class_idx: 4
         splits:
            - { var:1231, quality:9.8245185852050781e+01,
                le:1.0806676000356674e-01 }
      -
         depth: 5
         value: 4.
         norm_class_idx: 4
         splits:
            - { var:148, quality:9.7916664123535156e+01,
                le:2.3544636368751526e-01 }
      -
         depth: 6
         value: 4.
         norm_class_idx: 4
         splits:
            - { var:1735, quality:1.0051999664306641e+02,
                le:2.2334000095725060e-02 }
      -
         depth: 7
         value: 0.
         norm_class_idx: 0
         splits:
            - { var:0, quality:4., le:4.2704679071903229e-02 }
      -
         depth: 8
         value: 0.
         norm_class_idx: 0
      -
         depth: 8
         value: 4.
         norm_class_idx: 4
      -
         depth: 7
         value: 4.
         norm_class_idx: 4
         splits:
            - { var:51, quality:100., le:1.4559711515903473e-01 }
      -
         depth: 8
         value: 4.
         norm_class_idx: 4
      -
         depth: 8
         value: 5.
         norm_class_idx: 5
      -
         depth: 6
         value: 3.
         norm_class_idx: 3
         splits:
            - { var:0, quality:3., le:1.8097051978111267e-01 }
      -
         depth: 7
         value: 3.
         norm_class_idx: 3
      -
         depth: 7
         value: 1.
         norm_class_idx: 1
      -
         depth: 5
         value: 5.
         norm_class_idx: 5
         splits:
            - { var:382, quality:9.4722223281860352e+00,
                le:1.0303872823715210e-01 }
      -
         depth: 6
         value: 4.
         norm_class_idx: 4
         splits:
            - { var:7, quality:6.5999999046325684e+00,
                le:1.0349679738283157e-02 }
      -
         depth: 7
         value: 4.
         norm_class_idx: 4
      -
         depth: 7
         value: 1.
         norm_class_idx: 1
         splits:
            - { var:15, quality:5., le:2.7942815795540810e-02 }
      -
         depth: 8
         value: 0.
         norm_class_idx: 0
      -
         depth: 8
         value: 1.
         norm_class_idx: 1
      -
         depth: 6
         value: 5.
         norm_class_idx: 5
         splits:
            - { var:0, quality:8., le:4.0131878107786179e-02 }
      -
         depth: 7
         value: 2.
         norm_class_idx: 2
      -
         depth: 7
         value: 5.
         norm_class_idx: 5
      -
         depth: 3
         value: 5.
         norm_class_idx: 5
         splits:
            - { var:1762, quality:2.5358289718627930e+01,
                le:1.2254030443727970e-02 }
      -
         depth: 4
         value: 4.
         norm_class_idx: 4
         splits:
            - { var:2, quality:11., le:9.2344947159290314e-02 }
      -
         depth: 5
         value: 4.
         norm_class_idx: 4
      -
         depth: 5
         value: 5.
         norm_class_idx: 5
      -
         depth: 4
         value: 5.
         norm_class_idx: 5
         splits:
            - { var:903, quality:2.3946428298950195e+01,
                le:5.4055858403444290e-02 }
      -
         depth: 5
         value: 3.
         norm_class_idx: 3
         splits:
            - { var:359, quality:1.2750000000000000e+01,
                le:1.7183828353881836e-01 }
      -
         depth: 6
         value: 1.
         norm_class_idx: 1
         splits:
            - { var:0, quality:7., le:1.2330026179552078e-01 }
      -
         depth: 7
         value: 1.
         norm_class_idx: 1
      -
         depth: 7
         value: 2.
         norm_class_idx: 2
      -
         depth: 6
         value: 3.
         norm_class_idx: 3
      -
         depth: 5
         value: 5.
         norm_class_idx: 5
         splits:
            - { var:248, quality:2.5230770111083984e+01,
                le:1.8082788586616516e-01 }
      -
         depth: 6
         value: 5.
         norm_class_idx: 5
         splits:
            - { var:15, quality:25., le:1.2202109210193157e-02 }
      -
         depth: 7
         value: 0.
         norm_class_idx: 0
      -
         depth: 7
         value: 5.
         norm_class_idx: 5
      -
         depth: 6
         value: 0.
         norm_class_idx: 0
         splits:
            - { var:87, quality:6.1999998092651367e+00,
                le:5.0339575856924057e-02 }
      -
         depth: 7
         value: 0.
         norm_class_idx: 0
      -
         depth: 7
         value: 3.
         norm_class_idx: 3
         splits:
            - { var:5, quality:4., le:1.0545026510953903e-02 }
      -
         depth: 8
         value: 3.
         norm_class_idx: 3
      -
         depth: 8
         value: 1.
         norm_class_idx: 1
      -
         depth: 1
         value: 5.
         norm_class_idx: 5
         splits:
            - { var:1734, quality:2.9853134155273438e+02,
                le:2.1146506071090698e-02 }
      -
         depth: 2
         value: 0.
         norm_class_idx: 0
         splits:
            - { var:892, quality:4.9117843627929688e+01,
                le:8.1326350569725037e-02 }
      -
         depth: 3
         value: 1.
         norm_class_idx: 1
         splits:
            - { var:1, quality:5.5000000000000000e+00,
                le:1.0288947820663452e-01 }
      -
         depth: 4
         value: 4.
         norm_class_idx: 4
         splits:
            - { var:3, quality:5.1999998092651367e+00,
                le:2.0432114601135254e-02 }
      -
         depth: 5
         value: 5.
         norm_class_idx: 5
      -
         depth: 5
         value: 4.
         norm_class_idx: 4
         splits:
            - { var:2, quality:4., le:1.0588771104812622e-01 }
      -
         depth: 6
         value: 4.
         norm_class_idx: 4
      -
         depth: 6
         value: 2.
         norm_class_idx: 2
      -
         depth: 4
         value: 1.
         norm_class_idx: 1
      -
         depth: 3
         value: 0.
         norm_class_idx: 0
         splits:
            - { var:53, quality:5.2039215087890625e+01,
                le:2.6793819665908813e-01 }
      -
         depth: 4
         value: 0.
         norm_class_idx: 0
         splits:
            - { var:194, quality:51., le:4.1698021814227104e-03 }
      -
         depth: 5
         value: 5.
         norm_class_idx: 5
      -
         depth: 5
         value: 0.
         norm_class_idx: 0
      -
         depth: 4
         value: 4.
         norm_class_idx: 4
      -
         depth: 2
         value: 5.
         norm_class_idx: 5
         splits:
            - { var:1532, quality:2.9434454345703125e+02,
                le:1.6679732128977776e-02 }
      -
         depth: 3
         value: 4.
         norm_class_idx: 4
         splits:
            - { var:973, quality:5.6966064453125000e+01,
                le:5.9734180569648743e-02 }
      -
         depth: 4
         value: 4.
         norm_class_idx: 4
         splits:
            - { var:1702, quality:5.1720428466796875e+01,
                le:3.3755376935005188e-01 }
      -
         depth: 5
         value: 4.
         norm_class_idx: 4
         splits:
            - { var:227, quality:5.5440475463867188e+01,
                le:1.3014313578605652e-01 }
      -
         depth: 6
         value: 4.
         norm_class_idx: 4
         splits:
            - { var:440, quality:55., le:3.9885707199573517e-02 }
      -
         depth: 7
         value: 1.
         norm_class_idx: 1
      -
         depth: 7
         value: 4.
         norm_class_idx: 4
      -
         depth: 6
         value: 0.
         norm_class_idx: 0
         splits:
            - { var:10, quality:6., le:1.9610333442687988e-01 }
      -
         depth: 7
         value: 0.
         norm_class_idx: 0
      -
         depth: 7
         value: 3.
         norm_class_idx: 3
      -
         depth: 5
         value: 0.
         norm_class_idx: 0
         splits:
            - { var:682, quality:8.3928575515747070e+00,
                le:1.0981218516826630e-01 }
      -
         depth: 6
         value: 3.
         norm_class_idx: 3
         splits:
            - { var:3, quality:4.5000000000000000e+00,
                le:5.1034286618232727e-02 }
      -
         depth: 7
         value: 4.
         norm_class_idx: 4
         splits:
            - { var:0, quality:3., le:1.7579121887683868e-01 }
      -
         depth: 8
         value: 4.
         norm_class_idx: 4
      -
         depth: 8
         value: 1.
         norm_class_idx: 1
      -
         depth: 7
         value: 3.
         norm_class_idx: 3
      -
         depth: 6
         value: 0.
         norm_class_idx: 0
         splits:
            - { var:0, quality:8., le:1.7876854538917542e-01 }
      -
         depth: 7
         value: 0.
         norm_class_idx: 0
      -
         depth: 7
         value: 2.
         norm_class_idx: 2
      -
         depth: 4
         value: 5.
         norm_class_idx: 5
         splits:
            - { var:1261, quality:2.3041269302368164e+01,
                le:2.8485119342803955e-02 }
      -
         depth: 5
         value: 0.
         norm_class_idx: 0
         splits:
            - { var:1574, quality:1.8483659744262695e+01,
                le:2.1096825599670410e-01 }
      -
         depth: 6
         value: 4.
         norm_class_idx: 4
         splits:
            - { var:612, quality:1.1666666984558105e+01,
                le:1.5675255656242371e-01 }
      -
         depth: 7
         value: 1.
         norm_class_idx: 1
         splits:
            - { var:40, quality:7.4000000953674316e+00,
                le:1.0062807798385620e-01 }
      -
         depth: 8
         value: 1.
         norm_class_idx: 1
      -
         depth: 8
         value: 5.
         norm_class_idx: 5
         splits:
            - { var:0, quality:5., le:2.0369153469800949e-02 }
      -
         depth: 9
         value: 3.
         norm_class_idx: 3
      -
         depth: 9
         value: 5.
         norm_class_idx: 5
      -
         depth: 7
         value: 4.
         norm_class_idx: 4
      -
         depth: 6
         value: 0.
         norm_class_idx: 0
         splits:
            - { var:11, quality:1.6666666030883789e+01,
                le:1.1572384834289551e-01 }
      -
         depth: 7
         value: 4.
         norm_class_idx: 4
         splits:
            - { var:0, quality:3., le:1.4178286492824554e-01 }
      -
         depth: 8
         value: 4.
         norm_class_idx: 4
      -
         depth: 8
         value: 1.
         norm_class_idx: 1
      -
         depth: 7
         value: 0.
         norm_class_idx: 0
      -
         depth: 5
         value: 5.
         norm_class_idx: 5
         splits:
            - { var:1634, quality:2.1631578445434570e+01,
                le:5.3968891501426697e-02 }
      -
         depth: 6
         value: 3.
         norm_class_idx: 3
      -
         depth: 6
         value: 5.
         norm_class_idx: 5
         splits:
            - { var:53, quality:17., le:2.7619028091430664e-01 }
      -
         depth: 7
         value: 5.
         norm_class_idx: 5
      -
         depth: 7
         value: 1.
         norm_class_idx: 1
         splits:
            - { var:0, quality:2., le:7.1689128875732422e-02 }
      -
         depth: 8
         value: 1.
         norm_class_idx: 1
      -
         depth: 8
         value: 3.
         norm_class_idx: 3
      -
         depth: 3
         value: 5.
         norm_class_idx: 5
         splits:
            - { var:578, quality:2.7626651000976562e+02,
                le:3.4616854786872864e-01 }
      -
         depth: 4
         value: 5.
         norm_class_idx: 5
         splits:
            - { var:1507, quality:2.6486434936523438e+02,
                le:2.2533720731735229e-01 }
      -
         depth: 5
         value: 1.
         norm_class_idx: 1
         splits:
            - { var:290, quality:1.9287654113769531e+02,
                le:6.4003691077232361e-02 }
      -
         depth: 6
         value: 1.
         norm_class_idx: 1
         splits:
            - { var:534, quality:9.4777778625488281e+01,
                le:1.5067046880722046e-01 }
      -
         depth: 7
         value: 2.
         norm_class_idx: 2
         splits:
            - { var:229, quality:4.4079364776611328e+01,
                le:1.6234454512596130e-01 }
      -
         depth: 8
         value: 1.
         norm_class_idx: 1
         splits:
            - { var:1727, quality:1.8969230651855469e+01,
                le:1.5209165215492249e-01 }
      -
         depth: 9
         value: 1.
         norm_class_idx: 1
         splits:
            - { var:483, quality:1.6333333969116211e+01,
                le:7.2420798242092133e-02 }
      -
         depth: 10
         value: 1.
         norm_class_idx: 1
      -
         depth: 10
         value: 2.
         norm_class_idx: 2
         splits:
            - { var:18, quality:5.1111111640930176e+00,
                le:1.3157379627227783e-01 }
      -
         depth: 11
         value: 3.
         norm_class_idx: 3
      -
         depth: 11
         value: 2.
         norm_class_idx: 2
         splits:
            - { var:4, quality:4.6666665077209473e+00,
                le:2.0806090533733368e-01 }
      -
         depth: 12
         value: 1.
         norm_class_idx: 1
         splits:
            - { var:3, quality:3.5000000000000000e+00,
                le:6.7560821771621704e-02 }
      -
         depth: 13
         value: 5.
         norm_class_idx: 5
         splits:
            - { var:4, quality:3., le:1.5797595679759979e-01 }
      -
         depth: 14
         value: 0.
         norm_class_idx: 0
      -
         depth: 14
         value: 5.
         norm_class_idx: 5
      -
         depth: 13
         value: 1.
         norm_class_idx: 1
      -
         depth: 12
         value: 2.
         norm_class_idx: 2
      -
         depth: 9
         value: 5.
         norm_class_idx: 5
         splits:
            - { var:25, quality:10., le:2.0373061299324036e-01 }
      -
         depth: 10
         value: 5.
         norm_class_idx: 5
      -
         depth: 10
         value: 3.
         norm_class_idx: 3
      -
         depth: 8
         value: 2.
         norm_class_idx: 2
         splits:
            - { var:1295, quality:3.8153846740722656e+01,
                le:9.5036096870899200e-02 }
      -
         depth: 9
         value: 1.
         norm_class_idx: 1
      -
         depth: 9
         value: 2.
         norm_class_idx: 2
         splits:
            - { var:90, quality:38., le:2.9410779476165771e-01 }
      -
         depth: 10
         value: 2.
         norm_class_idx: 2
      -
         depth: 10
         value: 3.
         norm_class_idx: 3
      -
         depth: 7
         value: 1.
         norm_class_idx: 1
         splits:
            - { var:145, quality:8.1445045471191406e+01,
                le:1.7657054960727692e-01 }
      -
         depth: 8
         value: 1.
         norm_class_idx: 1
         splits:
            - { var:1296, quality:8.2722221374511719e+01,
                le:2.8150087594985962e-01 }
      -
         depth: 9
         value: 1.
         norm_class_idx: 1
         splits:
            - { var:1483, quality:8.3957443237304688e+01,
                le:1.0692497715353966e-02 }
      -
         depth: 10
         value: 3.
         norm_class_idx: 3
      -
         depth: 10
         value: 1.
         norm_class_idx: 1
         splits:
            - { var:1541, quality:8.4788887023925781e+01,
                le:2.5395317003130913e-02 }
      -
         depth: 11
         value: 4.
         norm_class_idx: 4
         splits:
            - { var:0, quality:4., le:7.2225257754325867e-02 }
      -
         depth: 12
         value: 5.
         norm_class_idx: 5
      -
         depth: 12
         value: 4.
         norm_class_idx: 4
      -
         depth: 11
         value: 1.
         norm_class_idx: 1
         splits:
            - { var:959, quality:8.6068183898925781e+01,
                le:2.3769330233335495e-02 }
      -
         depth: 12
         value: 5.
         norm_class_idx: 5
      -
         depth: 12
         value: 1.
         norm_class_idx: 1
         splits:
            - { var:403, quality:87., le:3.1975397467613220e-01 }
      -
         depth: 13
         value: 1.
         norm_class_idx: 1
      -
         depth: 13
         value: 2.
         norm_class_idx: 2
      -
         depth: 9
         value: 2.
         norm_class_idx: 2
         splits:
            - { var:51, quality:12., le:5.2807323634624481e-02 }
      -
         depth: 10
         value: 1.
         norm_class_idx: 1
      -
         depth: 10
         value: 2.
         norm_class_idx: 2
      -
         depth: 8
         value: 5.
         norm_class_idx: 5
         splits:
            - { var:147, quality:1.3500000000000000e+01,
                le:3.2579209655523300e-02 }
      -
         depth: 9
         value: 3.
         norm_class_idx: 3
         splits:
            - { var:1, quality:4., le:6.4677409827709198e-02 }
      -
         depth: 10
         value: 3.
         norm_class_idx: 3
      -
         depth: 10
         value: 1.
         norm_class_idx: 1
      -
         depth: 9
         value: 5.
         norm_class_idx: 5
      -
         depth: 6
         value: 5.
         norm_class_idx: 5
         splits:
            - { var:516, quality:1.3311758422851562e+02,
                le:2.4235334992408752e-01 }
      -
         depth: 7
         value: 5.
         norm_class_idx: 5
         splits:
            - { var:20, quality:1.0455786132812500e+02,
                le:2.7666735649108887e-01 }
      -
         depth: 8
         value: 5.
         norm_class_idx: 5
         splits:
            - { var:505, quality:1.0354701232910156e+02,
                le:2.0631246268749237e-01 }
      -
         depth: 9
         value: 5.
         norm_class_idx: 5
         splits:
            - { var:768, quality:1.0702087402343750e+02,
                le:1.5532845258712769e-01 }
      -
         depth: 10
         value: 5.
         norm_class_idx: 5
         splits:
            - { var:1489, quality:7.9058822631835938e+01,
                le:7.4441649019718170e-02 }
      -
         depth: 11
         value: 1.
         norm_class_idx: 1
         splits:
            - { var:77, quality:7., le:3.2639406621456146e-02 }
      -
         depth: 12
         value: 2.
         norm_class_idx: 2
         splits:
            - { var:0, quality:2., le:1.0779592394828796e-01 }
      -
         depth: 13
         value: 2.
         norm_class_idx: 2
      -
         depth: 13
         value: 4.
         norm_class_idx: 4
      -
         depth: 12
         value: 1.
         norm_class_idx: 1
      -
         depth: 11
         value: 5.
         norm_class_idx: 5
         splits:
            - { var:225, quality:8.0872337341308594e+01,
                le:3.5696439445018768e-02 }
      -
         depth: 12
         value: 4.
         norm_class_idx: 4
         splits:
            - { var:61, quality:4.4000000953674316e+00,
                le:3.2168194651603699e-02 }
      -
         depth: 13
         value: 4.
         norm_class_idx: 4
      -
         depth: 13
         value: 0.
         norm_class_idx: 0
         splits:
            - { var:1, quality:3., le:7.0450894534587860e-02 }
      -
         depth: 14
         value: 1.
         norm_class_idx: 1
         splits:
            - { var:0, quality:2., le:3.2238427549600601e-02 }
      -
         depth: 15
         value: 5.
         norm_class_idx: 5
      -
         depth: 15
         value: 1.
         norm_class_idx: 1
      -
         depth: 14
         value: 0.
         norm_class_idx: 0
      -
         depth: 12
         value: 5.
         norm_class_idx: 5
         splits:
            - { var:634, quality:8.4744445800781250e+01,
                le:3.7774000316858292e-02 }
      -
         depth: 13
         value: 2.
         norm_class_idx: 2
         splits:
            - { var:4, quality:4., le:1.0240206122398376e-01 }
      -
         depth: 14
         value: 4.
         norm_class_idx: 4
      -
         depth: 14
         value: 2.
         norm_class_idx: 2
      -
         depth: 13
         value: 5.
         norm_class_idx: 5
         splits:
            - { var:242, quality:8.7500000000000000e+01,
                le:4.2087894678115845e-01 }
      -
         depth: 14
         value: 5.
         norm_class_idx: 5
      -
         depth: 14
         value: 3.
         norm_class_idx: 3
         splits:
            - { var:1, quality:3., le:6.1147846281528473e-02 }
      -
         depth: 15
         value: 3.
         norm_class_idx: 3
      -
         depth: 15
         value: 1.
         norm_class_idx: 1
      -
         depth: 10
         value: 5.
         norm_class_idx: 5
         splits:
            - { var:1321, quality:4.6344905853271484e+01,
                le:6.6906906664371490e-02 }
      -
         depth: 11
         value: 1.
         norm_class_idx: 1
         splits:
            - { var:948, quality:1.9317647933959961e+01,
                le:1.0338006913661957e-01 }
      -
         depth: 12
         value: 2.
         norm_class_idx: 2
         splits:
            - { var:2, quality:7.5000000000000000e+00,
                le:9.0706266462802887e-02 }
      -
         depth: 13
         value: 3.
         norm_class_idx: 3
         splits:
            - { var:6, quality:3., le:6.2873557209968567e-02 }
      -
         depth: 14
         value: 1.
         norm_class_idx: 1
      -
         depth: 14
         value: 3.
         norm_class_idx: 3
      -
         depth: 13
         value: 2.
         norm_class_idx: 2
      -
         depth: 12
         value: 1.
         norm_class_idx: 1
         splits:
            - { var:0, quality:17., le:1.9926100969314575e-02 }
      -
         depth: 13
         value: 3.
         norm_class_idx: 3
      -
         depth: 13
         value: 1.
         norm_class_idx: 1
      -
         depth: 11
         value: 5.
         norm_class_idx: 5
         splits:
            - { var:594, quality:4.3677810668945312e+01,
                le:1.3793846964836121e-01 }
      -
         depth: 12
         value: 5.
         norm_class_idx: 5
         splits:
            - { var:980, quality:3.8038887023925781e+01,
                le:5.0271503627300262e-02 }
      -
         depth: 13
         value: 3.
         norm_class_idx: 3
         splits:
            - { var:112, quality:4.3333334922790527e+00,
                le:3.7393957376480103e-02 }
      -
         depth: 14
         value: 3.
         norm_class_idx: 3
      -
         depth: 14
         value: 2.
         norm_class_idx: 2
         splits:
            - { var:4, quality:3., le:2.1614004671573639e-01 }
      -
         depth: 15
         value: 0.
         norm_class_idx: 0
         splits:
            - { var:0, quality:2., le:7.2641603648662567e-02 }
      -
         depth: 16
         value: 0.
         norm_class_idx: 0
      -
         depth: 16
         value: 1.
         norm_class_idx: 1
         splits:
            - { var:0, quality:2., le:1.1836054921150208e-01 }
      -
         depth: 17
         value: 1.
         norm_class_idx: 1
      -
         depth: 17
         value: 4.
         norm_class_idx: 4
      -
         depth: 15
         value: 2.
         norm_class_idx: 2
      -
         depth: 13
         value: 5.
         norm_class_idx: 5
         splits:
            - { var:87, quality:39., le:2.2269532084465027e-02 }
      -
         depth: 14
         value: 0.
         norm_class_idx: 0
      -
         depth: 14
         value: 5.
         norm_class_idx: 5
      -
         depth: 12
         value: 1.
         norm_class_idx: 1
         splits:
            - { var:1417, quality:1.9428571701049805e+01,
                le:2.0178191363811493e-01 }
      -
         depth: 13
         value: 5.
         norm_class_idx: 5
         splits:
            - { var:404, quality:1.5087718963623047e+01,
                le:9.6815809607505798e-02 }
      -
         depth: 14
         value: 3.
         norm_class_idx: 3
         splits:
            - { var:7, quality:8., le:4.0055267512798309e-02 }
      -
         depth: 15
         value: 1.
         norm_class_idx: 1
      -
         depth: 15
         value: 3.
         norm_class_idx: 3
      -
         depth: 14
         value: 5.
         norm_class_idx: 5
         splits:
            - { var:796, quality:1.3942856788635254e+01,
                le:1.1798617243766785e-01 }
      -
         depth: 15
         value: 1.
         norm_class_idx: 1
         splits:
            - { var:0, quality:3.6666667461395264e+00,
                le:1.2924775481224060e-01 }
      -
         depth: 16
         value: 1.
         norm_class_idx: 1
      -
         depth: 16
         value: 2.
         norm_class_idx: 2
         splits:
            - { var:0, quality:3., le:1.9113427400588989e-01 }
      -
         depth: 17
         value: 2.
         norm_class_idx: 2
      -
         depth: 17
         value: 0.
         norm_class_idx: 0
      -
         depth: 15
         value: 5.
         norm_class_idx: 5
         splits:
            - { var:36, quality:14., le:3.2635428011417389e-02 }
      -
         depth: 16
         value: 4.
         norm_class_idx: 4
      -
         depth: 16
         value: 5.
         norm_class_idx: 5
      -
         depth: 13
         value: 1.
         norm_class_idx: 1
         splits:
            - { var:708, quality:1.6600000381469727e+01,
                le:1.2869656085968018e-01 }
      -
         depth: 14
         value: 4.
         norm_class_idx: 4
         splits:
            - { var:2, quality:5., le:6.4932085573673248e-02 }
      -
         depth: 15
         value: 4.
         norm_class_idx: 4
      -
         depth: 15
         value: 3.
         norm_class_idx: 3
      -
         depth: 14
         value: 1.
         norm_class_idx: 1
      -
         depth: 9
         value: 2.
         norm_class_idx: 2
         splits:
            - { var:1423, quality:1.4666666984558105e+01,
                le:1.0752988606691360e-01 }
      -
         depth: 10
         value: 2.
         norm_class_idx: 2
      -
         depth: 10
         value: 4.
         norm_class_idx: 4
         splits:
            - { var:44, quality:8.1111106872558594e+00,
                le:4.4360347092151642e-02 }
      -
         depth: 11
         value: 4.
         norm_class_idx: 4
      -
         depth: 11
         value: 0.
         norm_class_idx: 0
         splits:
            - { var:61, quality:4.6666665077209473e+00,
                le:6.7760452628135681e-02 }
      -
         depth: 12
         value: 0.
         norm_class_idx: 0
      -
         depth: 12
         value: 1.
         norm_class_idx: 1
         splits:
            - { var:1, quality:3.5000000000000000e+00,
                le:9.3974798917770386e-02 }
      -
         depth: 13
         value: 5.
         norm_class_idx: 5
         splits:
            - { var:0, quality:3., le:1.7729811370372772e-01 }
      -
         depth: 14
         value: 5.
         norm_class_idx: 5
      -
         depth: 14
         value: 2.
         norm_class_idx: 2
      -
         depth: 13
         value: 1.
         norm_class_idx: 1
      -
         depth: 8
         value: 3.
         norm_class_idx: 3
         splits:
            - { var:78, quality:2.2093566894531250e+01,
                le:4.7706954181194305e-02 }
      -
         depth: 9
         value: 1.
         norm_class_idx: 1
         splits:
            - { var:1102, quality:1.4181818008422852e+01,
                le:9.1624967753887177e-02 }
      -
         depth: 10
         value: 1.
         norm_class_idx: 1
         splits:
            - { var:4, quality:11., le:1.4362411201000214e-01 }
      -
         depth: 11
         value: 1.
         norm_class_idx: 1
      -
         depth: 11
         value: 3.
         norm_class_idx: 3
      -
         depth: 10
         value: 0.
         norm_class_idx: 0
         splits:
            - { var:239, quality:10., le:1.1121203750371933e-01 }
      -
         depth: 11
         value: 5.
         norm_class_idx: 5
      -
         depth: 11
         value: 0.
         norm_class_idx: 0
         splits:
            - { var:160, quality:8.5000000000000000e+00,
                le:1.1907859146595001e-01 }
      -
         depth: 12
         value: 2.
         norm_class_idx: 2
         splits:
            - { var:0, quality:3., le:8.1541568040847778e-02 }
      -
         depth: 13
         value: 3.
         norm_class_idx: 3
      -
         depth: 13
         value: 2.
         norm_class_idx: 2
      -
         depth: 12
         value: 0.
         norm_class_idx: 0
      -
         depth: 9
         value: 3.
         norm_class_idx: 3
         splits:
            - { var:36, quality:18., le:1.2872837483882904e-01 }
      -
         depth: 10
         value: 1.
         norm_class_idx: 1
      -
         depth: 10
         value: 3.
         norm_class_idx: 3
      -
         depth: 7
         value: 1.
         norm_class_idx: 1
         splits:
            - { var:156, quality:5.3065326690673828e+01,
                le:2.7961754798889160e-01 }
      -
         depth: 8
         value: 1.
         norm_class_idx: 1
         splits:
            - { var:595, quality:4.8191490173339844e+01,
                le:2.9212561249732971e-01 }
      -
         depth: 9
         value: 1.
         norm_class_idx: 1
         splits:
            - { var:1444, quality:4.7219551086425781e+01,
                le:2.7110850811004639e-01 }
      -
         depth: 10
         value: 5.
         norm_class_idx: 5
         splits:
            - { var:1280, quality:3.9321430206298828e+01,
                le:2.4040538817644119e-02 }
      -
         depth: 11
         value: 0.
         norm_class_idx: 0
         splits:
            - { var:1338, quality:2.1326314926147461e+01,
                le:1.4376348257064819e-01 }
      -
         depth: 12
         value: 4.
         norm_class_idx: 4
         splits:
            - { var:1058, quality:1.3942856788635254e+01,
                le:1.3134230673313141e-01 }
      -
         depth: 13
         value: 4.
         norm_class_idx: 4
         splits:
            - { var:37, quality:14., le:2.3245954513549805e-01 }
      -
         depth: 14
         value: 4.
         norm_class_idx: 4
      -
         depth: 14
         value: 3.
         norm_class_idx: 3
      -
         depth: 13
         value: 0.
         norm_class_idx: 0
         splits:
            - { var:10, quality:3.6666667461395264e+00,
                le:9.3860298395156860e-02 }
      -
         depth: 14
         value: 1.
         norm_class_idx: 1
      -
         depth: 14
         value: 0.
         norm_class_idx: 0
         splits:
            - { var:0, quality:3., le:9.2302143573760986e-02 }
      -
         depth: 15
         value: 0.
         norm_class_idx: 0
      -
         depth: 15
         value: 3.
         norm_class_idx: 3
      -
         depth: 12
         value: 0.
         norm_class_idx: 0
         splits:
            - { var:866, quality:1.8458333969116211e+01,
                le:9.0838313102722168e-02 }
      -
         depth: 13
         value: 1.
         norm_class_idx: 1
         splits:
            - { var:54, quality:7., le:3.0604895949363708e-01 }
      -
         depth: 14
         value: 1.
         norm_class_idx: 1
      -
         depth: 14
         value: 0.
         norm_class_idx: 0
         splits:
            - { var:0, quality:2., le:3.5911396145820618e-02 }
      -
         depth: 15
         value: 0.
         norm_class_idx: 0
      -
         depth: 15
         value: 3.
         norm_class_idx: 3
      -
         depth: 13
         value: 0.
         norm_class_idx: 0
         splits:
            - { var:7, quality:16., le:1.9988855719566345e-01 }
      -
         depth: 14
         value: 0.
         norm_class_idx: 0
      -
         depth: 14
         value: 4.
         norm_class_idx: 4
      -
         depth: 11
         value: 5.
         norm_class_idx: 5
         splits:
            - { var:192, quality:3.6699298858642578e+01,
                le:1.1254046857357025e-01 }
      -
         depth: 12
         value: 5.
         norm_class_idx: 5
         splits:
            - { var:88, quality:3.6463619232177734e+01,
                le:1.3664770126342773e-01 }
      -
         depth: 13
         value: 1.
         norm_class_idx: 1
         splits:
            - { var:789, quality:2.6193244934082031e+01,
                le:9.1288961470127106e-02 }
      -
         depth: 14
         value: 2.
         norm_class_idx: 2
         splits:
            - { var:1684, quality:1.5478787422180176e+01,
                le:9.8003506660461426e-02 }
      -
         depth: 15
         value: 3.
         norm_class_idx: 3
         splits:
            - { var:55, quality:11., le:1.8746338784694672e-01 }
      -
         depth: 16
         value: 5.
         norm_class_idx: 5
      -
         depth: 16
         value: 3.
         norm_class_idx: 3
      -
         depth: 15
         value: 2.
         norm_class_idx: 2
         splits:
            - { var:52, quality:1.3666666984558105e+01,
                le:9.7235843539237976e-02 }
      -
         depth: 16
         value: 2.
         norm_class_idx: 2
      -
         depth: 16
         value: 4.
         norm_class_idx: 4
         splits:
            - { var:0, quality:3., le:1.7239868640899658e-01 }
      -
         depth: 17
         value: 4.
         norm_class_idx: 4
      -
         depth: 17
         value: 5.
         norm_class_idx: 5
      -
         depth: 14
         value: 1.
         norm_class_idx: 1
         splits:
            - { var:1221, quality:2.4533332824707031e+01,
                le:1.4485689997673035e-01 }
      -
         depth: 15
         value: 1.
         norm_class_idx: 1
         splits:
            - { var:668, quality:2.4500000000000000e+01,
                le:2.6928588747978210e-01 }
      -
         depth: 16
         value: 1.
         norm_class_idx: 1
      -
         depth: 16
         value: 2.
         norm_class_idx: 2
         splits:
            - { var:1, quality:4., le:9.9474914371967316e-02 }
      -
         depth: 17
         value: 2.
         norm_class_idx: 2
      -
         depth: 17
         value: 4.
         norm_class_idx: 4
      -
         depth: 15
         value: 5.
         norm_class_idx: 5
         splits:
            - { var:165, quality:1.0714285850524902e+01,
                le:1.3417428731918335e-01 }
      -
         depth: 16
         value: 1.
         norm_class_idx: 1
         splits:
            - { var:3, quality:5.5000000000000000e+00,
                le:3.8497928529977798e-02 }
      -
         depth: 17
         value: 1.
         norm_class_idx: 1
         splits:
            - { var:4, quality:4., le:8.2494914531707764e-02 }
      -
         depth: 18
         value: 0.
         norm_class_idx: 0
      -
         depth: 18
         value: 1.
         norm_class_idx: 1
      -
         depth: 17
         value: 2.
         norm_class_idx: 2
      -
         depth: 16
         value: 5.
         norm_class_idx: 5
      -
         depth: 13
         value: 5.
         norm_class_idx: 5
         splits:
            - { var:1278, quality:2.5307691574096680e+01,
                le:4.4519655406475067e-02 }
      -
         depth: 14
         value: 0.
         norm_class_idx: 0
         splits:
            - { var:1, quality:5., le:4.9390457570552826e-02 }
      -
         depth: 15
         value: 2.
         norm_class_idx: 2
      -
         depth: 15
         value: 0.
         norm_class_idx: 0
      -
         depth: 14
         value: 5.
         norm_class_idx: 5
         splits:
            - { var:488, quality:26., le:2.7593341469764709e-01 }
      -
         depth: 15
         value: 5.
         norm_class_idx: 5
      -
         depth: 15
         value: 4.
         norm_class_idx: 4
      -
         depth: 12
         value: 3.
         norm_class_idx: 3
         splits:
            - { var:11, quality:13., le:3.1000483036041260e-01 }
      -
         depth: 13
         value: 3.
         norm_class_idx: 3
      -
         depth: 13
         value: 1.
         norm_class_idx: 1
      -
         depth: 10
         value: 1.
         norm_class_idx: 1
         splits:
            - { var:438, quality:2.6641025543212891e+01,
                le:7.7380046248435974e-02 }
      -
         depth: 11
         value: 3.
         norm_class_idx: 3
         splits:
            - { var:0, quality:6., le:2.5323545932769775e-01 }
      -
         depth: 12
         value: 3.
         norm_class_idx: 3
      -
         depth: 12
         value: 0.
         norm_class_idx: 0
      -
         depth: 11
         value: 1.
         norm_class_idx: 1
         splits:
            - { var:73, quality:26., le:3.4455609321594238e-01 }
      -
         depth: 12
         value: 1.
         norm_class_idx: 1
      -
         depth: 12
         value: 2.
         norm_class_idx: 2
      -
         depth: 9
         value: 2.
         norm_class_idx: 2
      -
         depth: 8
         value: 2.
         norm_class_idx: 2
      -
         depth: 5
         value: 5.
         norm_class_idx: 5
         splits:
            - { var:1333, quality:1.1348569488525391e+02,
                le:8.2617495208978653e-03 }
      -
         depth: 6
         value: 3.
         norm_class_idx: 3
         splits:
            - { var:1, quality:18., le:3.4407552331686020e-02 }
      -
         depth: 7
         value: 0.
         norm_class_idx: 0
      -
         depth: 7
         value: 3.
         norm_class_idx: 3
      -
         depth: 6
         value: 5.
         norm_class_idx: 5
         splits:
            - { var:1761, quality:1.0912642669677734e+02,
                le:1.5155394561588764e-02 }
      -
         depth: 7
         value: 4.
         norm_class_idx: 4
         splits:
            - { var:1165, quality:1.6166666030883789e+01,
                le:2.1632882952690125e-01 }
      -
         depth: 8
         value: 5.
         norm_class_idx: 5
         splits:
            - { var:70, quality:6.7500000000000000e+00,
                le:1.1552992463111877e-01 }
      -
         depth: 9
         value: 0.
         norm_class_idx: 0
         splits:
            - { var:9, quality:5.5999999046325684e+00,
                le:1.7394864559173584e-01 }
      -
         depth: 10
         value: 0.
         norm_class_idx: 0
         splits:
            - { var:4, quality:5., le:1.2559567391872406e-01 }
      -
         depth: 11
         value: 4.
         norm_class_idx: 4
      -
         depth: 11
         value: 0.
         norm_class_idx: 0
      -
         depth: 10
         value: 3.
         norm_class_idx: 3
      -
         depth: 9
         value: 5.
         norm_class_idx: 5
      -
         depth: 8
         value: 4.
         norm_class_idx: 4
      -
         depth: 7
         value: 5.
         norm_class_idx: 5
         splits:
            - { var:400, quality:1.1291208648681641e+02,
                le:1.4164971187710762e-02 }
      -
         depth: 8
         value: 3.
         norm_class_idx: 3
         splits:
            - { var:3, quality:14., le:1.7149181663990021e-01 }
      -
         depth: 9
         value: 3.
         norm_class_idx: 3
      -
         depth: 9
         value: 4.
         norm_class_idx: 4
      -
         depth: 8
         value: 5.
         norm_class_idx: 5
         splits:
            - { var:1467, quality:1.1362753295898438e+02,
                le:7.8636907041072845e-02 }
      -
         depth: 9
         value: 5.
         norm_class_idx: 5
         splits:
            - { var:422, quality:3.3730770111083984e+01,
                le:4.1199650615453720e-02 }
      -
         depth: 10
         value: 2.
         norm_class_idx: 2
         splits:
            - { var:42, quality:16., le:7.5416088104248047e-02 }
      -
         depth: 11
         value: 2.
         norm_class_idx: 2
      -
         depth: 11
         value: 5.
         norm_class_idx: 5
      -
         depth: 10
         value: 5.
         norm_class_idx: 5
         splits:
            - { var:176, quality:3.1393102645874023e+01,
                le:2.1209263801574707e-01 }
      -
         depth: 11
         value: 5.
         norm_class_idx: 5
         splits:
            - { var:1665, quality:2.6283332824707031e+01,
                le:5.5091671645641327e-02 }
      -
         depth: 12
         value: 3.
         norm_class_idx: 3
         splits:
            - { var:47, quality:8.3999996185302734e+00,
                le:1.2948174774646759e-01 }
      -
         depth: 13
         value: 3.
         norm_class_idx: 3
      -
         depth: 13
         value: 0.
         norm_class_idx: 0
         splits:
            - { var:0, quality:5., le:1.4429283142089844e-01 }
      -
         depth: 14
         value: 0.
         norm_class_idx: 0
      -
         depth: 14
         value: 4.
         norm_class_idx: 4
      -
         depth: 12
         value: 5.
         norm_class_idx: 5
         splits:
            - { var:386, quality:2.8844444274902344e+01,
                le:1.6899216175079346e-01 }
      -
         depth: 13
         value: 5.
         norm_class_idx: 5
         splits:
            - { var:628, quality:2.6740739822387695e+01,
                le:1.9417241215705872e-01 }
      -
         depth: 14
         value: 5.
         norm_class_idx: 5
         splits:
            - { var:3, quality:27., le:7.4401693418622017e-03 }
      -
         depth: 15
         value: 2.
         norm_class_idx: 2
      -
         depth: 15
         value: 5.
         norm_class_idx: 5
      -
         depth: 14
         value: 0.
         norm_class_idx: 0
         splits:
            - { var:0, quality:3., le:1.7106710001826286e-02 }
      -
         depth: 15
         value: 3.
         norm_class_idx: 3
      -
         depth: 15
         value: 0.
         norm_class_idx: 0
      -
         depth: 13
         value: 1.
         norm_class_idx: 1
         splits:
            - { var:1143, quality:1.2222222328186035e+01,
                le:1.2786683440208435e-01 }
      -
         depth: 14
         value: 5.
         norm_class_idx: 5
         splits:
            - { var:161, quality:6., le:2.1616396307945251e-01 }
      -
         depth: 15
         value: 5.
         norm_class_idx: 5
      -
         depth: 15
         value: 0.
         norm_class_idx: 0
         splits:
            - { var:0, quality:2., le:9.0411350131034851e-02 }
      -
         depth: 16
         value: 4.
         norm_class_idx: 4
      -
         depth: 16
         value: 0.
         norm_class_idx: 0
         splits:
            - { var:0, quality:2., le:1.1096648871898651e-01 }
      -
         depth: 17
         value: 0.
         norm_class_idx: 0
      -
         depth: 17
         value: 2.
         norm_class_idx: 2
      -
         depth: 14
         value: 1.
         norm_class_idx: 1
      -
         depth: 11
         value: 1.
         norm_class_idx: 1
         splits:
            - { var:1588, quality:20., le:1.7481714487075806e-01 }
      -
         depth: 12
         value: 1.
         norm_class_idx: 1
      -
         depth: 12
         value: 2.
         norm_class_idx: 2
      -
         depth: 9
         value: 5.
         norm_class_idx: 5
         splits:
            - { var:1439, quality:9.9521583557128906e+01,
                le:3.6753326654434204e-01 }
      -
         depth: 10
         value: 5.
         norm_class_idx: 5
         splits:
            - { var:1471, quality:1.0204866790771484e+02,
                le:9.4027027487754822e-02 }
      -
         depth: 11
         value: 2.
         norm_class_idx: 2
         splits:
            - { var:942, quality:1.1823529243469238e+01,
                le:1.0182930529117584e-01 }
      -
         depth: 12
         value: 5.
         norm_class_idx: 5
      -
         depth: 12
         value: 2.
         norm_class_idx: 2
         splits:
            - { var:977, quality:1.1250000000000000e+01,
                le:1.3394320011138916e-01 }
      -
         depth: 13
         value: 2.
         norm_class_idx: 2
      -
         depth: 13
         value: 1.
         norm_class_idx: 1
         splits:
            - { var:29, quality:4.8000001907348633e+00,
                le:2.1872320771217346e-01 }
      -
         depth: 14
         value: 3.
         norm_class_idx: 3
         splits:
            - { var:0, quality:3.6666667461395264e+00,
                le:1.2327700853347778e-01 }
      -
         depth: 15
         value: 3.
         norm_class_idx: 3
      -
         depth: 15
         value: 4.
         norm_class_idx: 4
         splits:
            - { var:0, quality:3., le:2.3030585050582886e-01 }
      -
         depth: 16
         value: 0.
         norm_class_idx: 0
      -
         depth: 16
         value: 4.
         norm_class_idx: 4
      -
         depth: 14
         value: 1.
         norm_class_idx: 1
      -
         depth: 11
         value: 5.
         norm_class_idx: 5
         splits:
            - { var:1030, quality:1.0256771087646484e+02,
                le:4.8778824508190155e-02 }
      -
         depth: 12
         value: 3.
         norm_class_idx: 3
         splits:
            - { var:1, quality:4.6666665077209473e+00,
                le:8.1691920757293701e-02 }
      -
         depth: 13
         value: 0.
         norm_class_idx: 0
         splits:
            - { var:1, quality:3., le:3.2953284680843353e-02 }
      -
         depth: 14
         value: 1.
         norm_class_idx: 1
      -
         depth: 14
         value: 0.
         norm_class_idx: 0
      -
         depth: 13
         value: 3.
         norm_class_idx: 3
      -
         depth: 12
         value: 5.
         norm_class_idx: 5
         splits:
            - { var:227, quality:1.0583870697021484e+02,
                le:1.2251283973455429e-02 }
      -
         depth: 13
         value: 4.
         norm_class_idx: 4
         splits:
            - { var:0, quality:4., le:5.7633817195892334e-02 }
      -
         depth: 14
         value: 4.
         norm_class_idx: 4
      -
         depth: 14
         value: 0.
         norm_class_idx: 0
      -
         depth: 13
         value: 5.
         norm_class_idx: 5
         splits:
            - { var:949, quality:1.0903333282470703e+02,
                le:5.9962112456560135e-02 }
      -
         depth: 14
         value: 3.
         norm_class_idx: 3
         splits:
            - { var:0, quality:4., le:1.3805024325847626e-01 }
      -
         depth: 15
         value: 3.
         norm_class_idx: 3
      -
         depth: 15
         value: 2.
         norm_class_idx: 2
      -
         depth: 14
         value: 5.
         norm_class_idx: 5
         splits:
            - { var:1287, quality:1.1030508422851562e+02,
                le:2.7801030874252319e-01 }
      -
         depth: 15
         value: 5.
         norm_class_idx: 5
         splits:
            - { var:291, quality:1.1210344696044922e+02,
                le:3.4748715162277222e-01 }
      -
         depth: 16
         value: 5.
         norm_class_idx: 5
         splits:
            - { var:25, quality:1.1301754760742188e+02,
                le:2.5514739751815796e-01 }
      -
         depth: 17
         value: 5.
         norm_class_idx: 5
         splits:
            - { var:26, quality:114., le:1.8996160477399826e-02 }
      -
         depth: 18
         value: 4.
         norm_class_idx: 4
      -
         depth: 18
         value: 5.
         norm_class_idx: 5
      -
         depth: 17
         value: 2.
         norm_class_idx: 2
      -
         depth: 16
         value: 3.
         norm_class_idx: 3
      -
         depth: 15
         value: 1.
         norm_class_idx: 1
      -
         depth: 10
         value: 3.
         norm_class_idx: 3
         splits:
            - { var:3, quality:9., le:1.4777343720197678e-02 }
      -
         depth: 11
         value: 5.
         norm_class_idx: 5
      -
         depth: 11
         value: 3.
         norm_class_idx: 3
      -
         depth: 4
         value: 3.
         norm_class_idx: 3
         splits:
            - { var:674, quality:4.7372295379638672e+01,
                le:1.4687345921993256e-01 }
      -
         depth: 5
         value: 3.
         norm_class_idx: 3
         splits:
            - { var:5, quality:42., le:1.5012420713901520e-02 }
      -
         depth: 6
         value: 5.
         norm_class_idx: 5
      -
         depth: 6
         value: 3.
         norm_class_idx: 3
      -
         depth: 5
         value: 5.
         norm_class_idx: 5
         splits:
            - { var:1, quality:11., le:6.4432561397552490e-02 }
      -
         depth: 6
         value: 2.
         norm_class_idx: 2
      -
         depth: 6
         value: 5.
         norm_class_idx: 5
