%YAML:1.0
---
opencv_ml_dtree:
   format: 3
   is_classifier: 1
   var_all: 1765
   var_count: 1764
   ord_var_count: 1764
   cat_var_count: 1
   training_params:
      use_surrogates: 0
      max_categories: 6
      regression_accuracy: 9.9999997764825821e-03
      max_depth: 20
      min_sample_count: 2
      cross_validation_folds: 0
   global_var_idx: 1
   var_idx: [ 0, 1, 2, 3, 4, 5, 6, 7, 8, 9, 10, 11, 12, 13, 14, 15, 16,
       17, 18, 19, 20, 21, 22, 23, 24, 25, 26, 27, 28, 29, 30, 31, 32,
       33, 34, 35, 36, 37, 38, 39, 40, 41, 42, 43, 44, 45, 46, 47, 48,
       49, 50, 51, 52, 53, 54, 55, 56, 57, 58, 59, 60, 61, 62, 63, 64,
       65, 66, 67, 68, 69, 70, 71, 72, 73, 74, 75, 76, 77, 78, 79, 80,
       81, 82, 83, 84, 85, 86, 87, 88, 89, 90, 91, 92, 93, 94, 95, 96,
       97, 98, 99, 100, 101, 102, 103, 104, 105, 106, 107, 108, 109, 110,
       111, 112, 113, 114, 115, 116, 117, 118, 119, 120, 121, 122, 123,
       124, 125, 126, 127, 128, 129, 130, 131, 132, 133, 134, 135, 136,
       137, 138, 139, 140, 141, 142, 143, 144, 145, 146, 147, 148, 149,
       150, 151, 152, 153, 154, 155, 156, 157, 158, 159, 160, 161, 162,
       163, 164, 165, 166, 167, 168, 169, 170, 171, 172, 173, 174, 175,
       176, 177, 178, 179, 180, 181, 182, 183, 184, 185, 186, 187, 188,
       189, 190, 191, 192, 193, 194, 195, 196, 197, 198, 199, 200, 201,
       202, 203, 204, 205, 206, 207, 208, 209, 210, 211, 212, 213, 214,
       215, 216, 217, 218, 219, 220, 221, 222, 223, 224, 225, 226, 227,
       228, 229, 230, 231, 232, 233, 234, 235, 236, 237, 238, 239, 240,
       241, 242, 243, 244, 245, 246, 247, 248, 249, 250, 251, 252, 253,
       254, 255, 256, 257, 258, 259, 260, 261, 262, 263, 264, 265, 266,
       267, 268, 269, 270, 271, 272, 273, 274, 275, 276, 277, 278, 279,
       280, 281, 282, 283, 284, 285, 286, 287, 288, 289, 290, 291, 292,
       293, 294, 295, 296, 297, 298, 299, 300, 301, 302, 303, 304, 305,
       306, 307, 308, 309, 310, 311, 312, 313, 314, 315, 316, 317, 318,
       319, 320, 321, 322, 323, 324, 325, 326, 327, 328, 329, 330, 331,
       332, 333, 334, 335, 336, 337, 338, 339, 340, 341, 342, 343, 344,
       345, 346, 347, 348, 349, 350, 351, 352, 353, 354, 355, 356, 357,
       358, 359, 360, 361, 362, 363, 364, 365, 366, 367, 368, 369, 370,
       371, 372, 373, 374, 375, 376, 377, 378, 379, 380, 381, 382, 383,
       384, 385, 386, 387, 388, 389, 390, 391, 392, 393, 394, 395, 396,
       397, 398, 399, 400, 401, 402, 403, 404, 405, 406, 407, 408, 409,
       410, 411, 412, 413, 414, 415, 416, 417, 418, 419, 420, 421, 422,
       423, 424, 425, 426, 427, 428, 429, 430, 431, 432, 433, 434, 435,
       436, 437, 438, 439, 440, 441, 442, 443, 444, 445, 446, 447, 448,
       449, 450, 451, 452, 453, 454, 455, 456, 457, 458, 459, 460, 461,
       462, 463, 464, 465, 466, 467, 468, 469, 470, 471, 472, 473, 474,
       475, 476, 477, 478, 479, 480, 481, 482, 483, 484, 485, 486, 487,
       488, 489, 490, 491, 492, 493, 494, 495, 496, 497, 498, 499, 500,
       501, 502, 503, 504, 505, 506, 507, 508, 509, 510, 511, 512, 513,
       514, 515, 516, 517, 518, 519, 520, 521, 522, 523, 524, 525, 526,
       527, 528, 529, 530, 531, 532, 533, 534, 535, 536, 537, 538, 539,
       540, 541, 542, 543, 544, 545, 546, 547, 548, 549, 550, 551, 552,
       553, 554, 555, 556, 557, 558, 559, 560, 561, 562, 563, 564, 565,
       566, 567, 568, 569, 570, 571, 572, 573, 574, 575, 576, 577, 578,
       579, 580, 581, 582, 583, 584, 585, 586, 587, 588, 589, 590, 591,
       592, 593, 594, 595, 596, 597, 598, 599, 600, 601, 602, 603, 604,
       605, 606, 607, 608, 609, 610, 611, 612, 613, 614, 615, 616, 617,
       618, 619, 620, 621, 622, 623, 624, 625, 626, 627, 628, 629, 630,
       631, 632, 633, 634, 635, 636, 637, 638, 639, 640, 641, 642, 643,
       644, 645, 646, 647, 648, 649, 650, 651, 652, 653, 654, 655, 656,
       657, 658, 659, 660, 661, 662, 663, 664, 665, 666, 667, 668, 669,
       670, 671, 672, 673, 674, 675, 676, 677, 678, 679, 680, 681, 682,
       683, 684, 685, 686, 687, 688, 689, 690, 691, 692, 693, 694, 695,
       696, 697, 698, 699, 700, 701, 702, 703, 704, 705, 706, 707, 708,
       709, 710, 711, 712, 713, 714, 715, 716, 717, 718, 719, 720, 721,
       722, 723, 724, 725, 726, 727, 728, 729, 730, 731, 732, 733, 734,
       735, 736, 737, 738, 739, 740, 741, 742, 743, 744, 745, 746, 747,
       748, 749, 750, 751, 752, 753, 754, 755, 756, 757, 758, 759, 760,
       761, 762, 763, 764, 765, 766, 767, 768, 769, 770, 771, 772, 773,
       774, 775, 776, 777, 778, 779, 780, 781, 782, 783, 784, 785, 786,
       787, 788, 789, 790, 791, 792, 793, 794, 795, 796, 797, 798, 799,
       800, 801, 802, 803, 804, 805, 806, 807, 808, 809, 810, 811, 812,
       813, 814, 815, 816, 817, 818, 819, 820, 821, 822, 823, 824, 825,
       826, 827, 828, 829, 830, 831, 832, 833, 834, 835, 836, 837, 838,
       839, 840, 841, 842, 843, 844, 845, 846, 847, 848, 849, 850, 851,
       852, 853, 854, 855, 856, 857, 858, 859, 860, 861, 862, 863, 864,
       865, 866, 867, 868, 869, 870, 871, 872, 873, 874, 875, 876, 877,
       878, 879, 880, 881, 882, 883, 884, 885, 886, 887, 888, 889, 890,
       891, 892, 893, 894, 895, 896, 897, 898, 899, 900, 901, 902, 903,
       904, 905, 906, 907, 908, 909, 910, 911, 912, 913, 914, 915, 916,
       917, 918, 919, 920, 921, 922, 923, 924, 925, 926, 927, 928, 929,
       930, 931, 932, 933, 934, 935, 936, 937, 938, 939, 940, 941, 942,
       943, 944, 945, 946, 947, 948, 949, 950, 951, 952, 953, 954, 955,
       956, 957, 958, 959, 960, 961, 962, 963, 964, 965, 966, 967, 968,
       969, 970, 971, 972, 973, 974, 975, 976, 977, 978, 979, 980, 981,
       982, 983, 984, 985, 986, 987, 988, 989, 990, 991, 992, 993, 994,
       995, 996, 997, 998, 999, 1000, 1001, 1002, 1003, 1004, 1005, 1006,
       1007, 1008, 1009, 1010, 1011, 1012, 1013, 1014, 1015, 1016, 1017,
       1018, 1019, 1020, 1021, 1022, 1023, 1024, 1025, 1026, 1027, 1028,
       1029, 1030, 1031, 1032, 1033, 1034, 1035, 1036, 1037, 1038, 1039,
       1040, 1041, 1042, 1043, 1044, 1045, 1046, 1047, 1048, 1049, 1050,
       1051, 1052, 1053, 1054, 1055, 1056, 1057, 1058, 1059, 1060, 1061,
       1062, 1063, 1064, 1065, 1066, 1067, 1068, 1069, 1070, 1071, 1072,
       1073, 1074, 1075, 1076, 1077, 1078, 1079, 1080, 1081, 1082, 1083,
       1084, 1085, 1086, 1087, 1088, 1089, 1090, 1091, 1092, 1093, 1094,
       1095, 1096, 1097, 1098, 1099, 1100, 1101, 1102, 1103, 1104, 1105,
       1106, 1107, 1108, 1109, 1110, 1111, 1112, 1113, 1114, 1115, 1116,
       1117, 1118, 1119, 1120, 1121, 1122, 1123, 1124, 1125, 1126, 1127,
       1128, 1129, 1130, 1131, 1132, 1133, 1134, 1135, 1136, 1137, 1138,
       1139, 1140, 1141, 1142, 1143, 1144, 1145, 1146, 1147, 1148, 1149,
       1150, 1151, 1152, 1153, 1154, 1155, 1156, 1157, 1158, 1159, 1160,
       1161, 1162, 1163, 1164, 1165, 1166, 1167, 1168, 1169, 1170, 1171,
       1172, 1173, 1174, 1175, 1176, 1177, 1178, 1179, 1180, 1181, 1182,
       1183, 1184, 1185, 1186, 1187, 1188, 1189, 1190, 1191, 1192, 1193,
       1194, 1195, 1196, 1197, 1198, 1199, 1200, 1201, 1202, 1203, 1204,
       1205, 1206, 1207, 1208, 1209, 1210, 1211, 1212, 1213, 1214, 1215,
       1216, 1217, 1218, 1219, 1220, 1221, 1222, 1223, 1224, 1225, 1226,
       1227, 1228, 1229, 1230, 1231, 1232, 1233, 1234, 1235, 1236, 1237,
       1238, 1239, 1240, 1241, 1242, 1243, 1244, 1245, 1246, 1247, 1248,
       1249, 1250, 1251, 1252, 1253, 1254, 1255, 1256, 1257, 1258, 1259,
       1260, 1261, 1262, 1263, 1264, 1265, 1266, 1267, 1268, 1269, 1270,
       1271, 1272, 1273, 1274, 1275, 1276, 1277, 1278, 1279, 1280, 1281,
       1282, 1283, 1284, 1285, 1286, 1287, 1288, 1289, 1290, 1291, 1292,
       1293, 1294, 1295, 1296, 1297, 1298, 1299, 1300, 1301, 1302, 1303,
       1304, 1305, 1306, 1307, 1308, 1309, 1310, 1311, 1312, 1313, 1314,
       1315, 1316, 1317, 1318, 1319, 1320, 1321, 1322, 1323, 1324, 1325,
       1326, 1327, 1328, 1329, 1330, 1331, 1332, 1333, 1334, 1335, 1336,
       1337, 1338, 1339, 1340, 1341, 1342, 1343, 1344, 1345, 1346, 1347,
       1348, 1349, 1350, 1351, 1352, 1353, 1354, 1355, 1356, 1357, 1358,
       1359, 1360, 1361, 1362, 1363, 1364, 1365, 1366, 1367, 1368, 1369,
       1370, 1371, 1372, 1373, 1374, 1375, 1376, 1377, 1378, 1379, 1380,
       1381, 1382, 1383, 1384, 1385, 1386, 1387, 1388, 1389, 1390, 1391,
       1392, 1393, 1394, 1395, 1396, 1397, 1398, 1399, 1400, 1401, 1402,
       1403, 1404, 1405, 1406, 1407, 1408, 1409, 1410, 1411, 1412, 1413,
       1414, 1415, 1416, 1417, 1418, 1419, 1420, 1421, 1422, 1423, 1424,
       1425, 1426, 1427, 1428, 1429, 1430, 1431, 1432, 1433, 1434, 1435,
       1436, 1437, 1438, 1439, 1440, 1441, 1442, 1443, 1444, 1445, 1446,
       1447, 1448, 1449, 1450, 1451, 1452, 1453, 1454, 1455, 1456, 1457,
       1458, 1459, 1460, 1461, 1462, 1463, 1464, 1465, 1466, 1467, 1468,
       1469, 1470, 1471, 1472, 1473, 1474, 1475, 1476, 1477, 1478, 1479,
       1480, 1481, 1482, 1483, 1484, 1485, 1486, 1487, 1488, 1489, 1490,
       1491, 1492, 1493, 1494, 1495, 1496, 1497, 1498, 1499, 1500, 1501,
       1502, 1503, 1504, 1505, 1506, 1507, 1508, 1509, 1510, 1511, 1512,
       1513, 1514, 1515, 1516, 1517, 1518, 1519, 1520, 1521, 1522, 1523,
       1524, 1525, 1526, 1527, 1528, 1529, 1530, 1531, 1532, 1533, 1534,
       1535, 1536, 1537, 1538, 1539, 1540, 1541, 1542, 1543, 1544, 1545,
       1546, 1547, 1548, 1549, 1550, 1551, 1552, 1553, 1554, 1555, 1556,
       1557, 1558, 1559, 1560, 1561, 1562, 1563, 1564, 1565, 1566, 1567,
       1568, 1569, 1570, 1571, 1572, 1573, 1574, 1575, 1576, 1577, 1578,
       1579, 1580, 1581, 1582, 1583, 1584, 1585, 1586, 1587, 1588, 1589,
       1590, 1591, 1592, 1593, 1594, 1595, 1596, 1597, 1598, 1599, 1600,
       1601, 1602, 1603, 1604, 1605, 1606, 1607, 1608, 1609, 1610, 1611,
       1612, 1613, 1614, 1615, 1616, 1617, 1618, 1619, 1620, 1621, 1622,
       1623, 1624, 1625, 1626, 1627, 1628, 1629, 1630, 1631, 1632, 1633,
       1634, 1635, 1636, 1637, 1638, 1639, 1640, 1641, 1642, 1643, 1644,
       1645, 1646, 1647, 1648, 1649, 1650, 1651, 1652, 1653, 1654, 1655,
       1656, 1657, 1658, 1659, 1660, 1661, 1662, 1663, 1664, 1665, 1666,
       1667, 1668, 1669, 1670, 1671, 1672, 1673, 1674, 1675, 1676, 1677,
       1678, 1679, 1680, 1681, 1682, 1683, 1684, 1685, 1686, 1687, 1688,
       1689, 1690, 1691, 1692, 1693, 1694, 1695, 1696, 1697, 1698, 1699,
       1700, 1701, 1702, 1703, 1704, 1705, 1706, 1707, 1708, 1709, 1710,
       1711, 1712, 1713, 1714, 1715, 1716, 1717, 1718, 1719, 1720, 1721,
       1722, 1723, 1724, 1725, 1726, 1727, 1728, 1729, 1730, 1731, 1732,
       1733, 1734, 1735, 1736, 1737, 1738, 1739, 1740, 1741, 1742, 1743,
       1744, 1745, 1746, 1747, 1748, 1749, 1750, 1751, 1752, 1753, 1754,
       1755, 1756, 1757, 1758, 1759, 1760, 1761, 1762, 1763 ]
   var_type: [ 0, 0, 0, 0, 0, 0, 0, 0, 0, 0, 0, 0, 0, 0, 0, 0, 0, 0, 0,
       0, 0, 0, 0, 0, 0, 0, 0, 0, 0, 0, 0, 0, 0, 0, 0, 0, 0, 0, 0, 0, 0,
       0, 0, 0, 0, 0, 0, 0, 0, 0, 0, 0, 0, 0, 0, 0, 0, 0, 0, 0, 0, 0, 0,
       0, 0, 0, 0, 0, 0, 0, 0, 0, 0, 0, 0, 0, 0, 0, 0, 0, 0, 0, 0, 0, 0,
       0, 0, 0, 0, 0, 0, 0, 0, 0, 0, 0, 0, 0, 0, 0, 0, 0, 0, 0, 0, 0, 0,
       0, 0, 0, 0, 0, 0, 0, 0, 0, 0, 0, 0, 0, 0, 0, 0, 0, 0, 0, 0, 0, 0,
       0, 0, 0, 0, 0, 0, 0, 0, 0, 0, 0, 0, 0, 0, 0, 0, 0, 0, 0, 0, 0, 0,
       0, 0, 0, 0, 0, 0, 0, 0, 0, 0, 0, 0, 0, 0, 0, 0, 0, 0, 0, 0, 0, 0,
       0, 0, 0, 0, 0, 0, 0, 0, 0, 0, 0, 0, 0, 0, 0, 0, 0, 0, 0, 0, 0, 0,
       0, 0, 0, 0, 0, 0, 0, 0, 0, 0, 0, 0, 0, 0, 0, 0, 0, 0, 0, 0, 0, 0,
       0, 0, 0, 0, 0, 0, 0, 0, 0, 0, 0, 0, 0, 0, 0, 0, 0, 0, 0, 0, 0, 0,
       0, 0, 0, 0, 0, 0, 0, 0, 0, 0, 0, 0, 0, 0, 0, 0, 0, 0, 0, 0, 0, 0,
       0, 0, 0, 0, 0, 0, 0, 0, 0, 0, 0, 0, 0, 0, 0, 0, 0, 0, 0, 0, 0, 0,
       0, 0, 0, 0, 0, 0, 0, 0, 0, 0, 0, 0, 0, 0, 0, 0, 0, 0, 0, 0, 0, 0,
       0, 0, 0, 0, 0, 0, 0, 0, 0, 0, 0, 0, 0, 0, 0, 0, 0, 0, 0, 0, 0, 0,
       0, 0, 0, 0, 0, 0, 0, 0, 0, 0, 0, 0, 0, 0, 0, 0, 0, 0, 0, 0, 0, 0,
       0, 0, 0, 0, 0, 0, 0, 0, 0, 0, 0, 0, 0, 0, 0, 0, 0, 0, 0, 0, 0, 0,
       0, 0, 0, 0, 0, 0, 0, 0, 0, 0, 0, 0, 0, 0, 0, 0, 0, 0, 0, 0, 0, 0,
       0, 0, 0, 0, 0, 0, 0, 0, 0, 0, 0, 0, 0, 0, 0, 0, 0, 0, 0, 0, 0, 0,
       0, 0, 0, 0, 0, 0, 0, 0, 0, 0, 0, 0, 0, 0, 0, 0, 0, 0, 0, 0, 0, 0,
       0, 0, 0, 0, 0, 0, 0, 0, 0, 0, 0, 0, 0, 0, 0, 0, 0, 0, 0, 0, 0, 0,
       0, 0, 0, 0, 0, 0, 0, 0, 0, 0, 0, 0, 0, 0, 0, 0, 0, 0, 0, 0, 0, 0,
       0, 0, 0, 0, 0, 0, 0, 0, 0, 0, 0, 0, 0, 0, 0, 0, 0, 0, 0, 0, 0, 0,
       0, 0, 0, 0, 0, 0, 0, 0, 0, 0, 0, 0, 0, 0, 0, 0, 0, 0, 0, 0, 0, 0,
       0, 0, 0, 0, 0, 0, 0, 0, 0, 0, 0, 0, 0, 0, 0, 0, 0, 0, 0, 0, 0, 0,
       0, 0, 0, 0, 0, 0, 0, 0, 0, 0, 0, 0, 0, 0, 0, 0, 0, 0, 0, 0, 0, 0,
       0, 0, 0, 0, 0, 0, 0, 0, 0, 0, 0, 0, 0, 0, 0, 0, 0, 0, 0, 0, 0, 0,
       0, 0, 0, 0, 0, 0, 0, 0, 0, 0, 0, 0, 0, 0, 0, 0, 0, 0, 0, 0, 0, 0,
       0, 0, 0, 0, 0, 0, 0, 0, 0, 0, 0, 0, 0, 0, 0, 0, 0, 0, 0, 0, 0, 0,
       0, 0, 0, 0, 0, 0, 0, 0, 0, 0, 0, 0, 0, 0, 0, 0, 0, 0, 0, 0, 0, 0,
       0, 0, 0, 0, 0, 0, 0, 0, 0, 0, 0, 0, 0, 0, 0, 0, 0, 0, 0, 0, 0, 0,
       0, 0, 0, 0, 0, 0, 0, 0, 0, 0, 0, 0, 0, 0, 0, 0, 0, 0, 0, 0, 0, 0,
       0, 0, 0, 0, 0, 0, 0, 0, 0, 0, 0, 0, 0, 0, 0, 0, 0, 0, 0, 0, 0, 0,
       0, 0, 0, 0, 0, 0, 0, 0, 0, 0, 0, 0, 0, 0, 0, 0, 0, 0, 0, 0, 0, 0,
       0, 0, 0, 0, 0, 0, 0, 0, 0, 0, 0, 0, 0, 0, 0, 0, 0, 0, 0, 0, 0, 0,
       0, 0, 0, 0, 0, 0, 0, 0, 0, 0, 0, 0, 0, 0, 0, 0, 0, 0, 0, 0, 0, 0,
       0, 0, 0, 0, 0, 0, 0, 0, 0, 0, 0, 0, 0, 0, 0, 0, 0, 0, 0, 0, 0, 0,
       0, 0, 0, 0, 0, 0, 0, 0, 0, 0, 0, 0, 0, 0, 0, 0, 0, 0, 0, 0, 0, 0,
       0, 0, 0, 0, 0, 0, 0, 0, 0, 0, 0, 0, 0, 0, 0, 0, 0, 0, 0, 0, 0, 0,
       0, 0, 0, 0, 0, 0, 0, 0, 0, 0, 0, 0, 0, 0, 0, 0, 0, 0, 0, 0, 0, 0,
       0, 0, 0, 0, 0, 0, 0, 0, 0, 0, 0, 0, 0, 0, 0, 0, 0, 0, 0, 0, 0, 0,
       0, 0, 0, 0, 0, 0, 0, 0, 0, 0, 0, 0, 0, 0, 0, 0, 0, 0, 0, 0, 0, 0,
       0, 0, 0, 0, 0, 0, 0, 0, 0, 0, 0, 0, 0, 0, 0, 0, 0, 0, 0, 0, 0, 0,
       0, 0, 0, 0, 0, 0, 0, 0, 0, 0, 0, 0, 0, 0, 0, 0, 0, 0, 0, 0, 0, 0,
       0, 0, 0, 0, 0, 0, 0, 0, 0, 0, 0, 0, 0, 0, 0, 0, 0, 0, 0, 0, 0, 0,
       0, 0, 0, 0, 0, 0, 0, 0, 0, 0, 0, 0, 0, 0, 0, 0, 0, 0, 0, 0, 0, 0,
       0, 0, 0, 0, 0, 0, 0, 0, 0, 0, 0, 0, 0, 0, 0, 0, 0, 0, 0, 0, 0, 0,
       0, 0, 0, 0, 0, 0, 0, 0, 0, 0, 0, 0, 0, 0, 0, 0, 0, 0, 0, 0, 0, 0,
       0, 0, 0, 0, 0, 0, 0, 0, 0, 0, 0, 0, 0, 0, 0, 0, 0, 0, 0, 0, 0, 0,
       0, 0, 0, 0, 0, 0, 0, 0, 0, 0, 0, 0, 0, 0, 0, 0, 0, 0, 0, 0, 0, 0,
       0, 0, 0, 0, 0, 0, 0, 0, 0, 0, 0, 0, 0, 0, 0, 0, 0, 0, 0, 0, 0, 0,
       0, 0, 0, 0, 0, 0, 0, 0, 0, 0, 0, 0, 0, 0, 0, 0, 0, 0, 0, 0, 0, 0,
       0, 0, 0, 0, 0, 0, 0, 0, 0, 0, 0, 0, 0, 0, 0, 0, 0, 0, 0, 0, 0, 0,
       0, 0, 0, 0, 0, 0, 0, 0, 0, 0, 0, 0, 0, 0, 0, 0, 0, 0, 0, 0, 0, 0,
       0, 0, 0, 0, 0, 0, 0, 0, 0, 0, 0, 0, 0, 0, 0, 0, 0, 0, 0, 0, 0, 0,
       0, 0, 0, 0, 0, 0, 0, 0, 0, 0, 0, 0, 0, 0, 0, 0, 0, 0, 0, 0, 0, 0,
       0, 0, 0, 0, 0, 0, 0, 0, 0, 0, 0, 0, 0, 0, 0, 0, 0, 0, 0, 0, 0, 0,
       0, 0, 0, 0, 0, 0, 0, 0, 0, 0, 0, 0, 0, 0, 0, 0, 0, 0, 0, 0, 0, 0,
       0, 0, 0, 0, 0, 0, 0, 0, 0, 0, 0, 0, 0, 0, 0, 0, 0, 0, 0, 0, 0, 0,
       0, 0, 0, 0, 0, 0, 0, 0, 0, 0, 0, 0, 0, 0, 0, 0, 0, 0, 0, 0, 0, 0,
       0, 0, 0, 0, 0, 0, 0, 0, 0, 0, 0, 0, 0, 0, 0, 0, 0, 0, 0, 0, 0, 0,
       0, 0, 0, 0, 0, 0, 0, 0, 0, 0, 0, 0, 0, 0, 0, 0, 0, 0, 0, 0, 0, 0,
       0, 0, 0, 0, 0, 0, 0, 0, 0, 0, 0, 0, 0, 0, 0, 0, 0, 0, 0, 0, 0, 0,
       0, 0, 0, 0, 0, 0, 0, 0, 0, 0, 0, 0, 0, 0, 0, 0, 0, 0, 0, 0, 0, 0,
       0, 0, 0, 0, 0, 0, 0, 0, 0, 0, 0, 0, 0, 0, 0, 0, 0, 0, 0, 0, 0, 0,
       0, 0, 0, 0, 0, 0, 0, 0, 0, 0, 0, 0, 0, 0, 0, 0, 0, 0, 0, 0, 0, 0,
       0, 0, 0, 0, 0, 0, 0, 0, 0, 0, 0, 0, 0, 0, 0, 0, 0, 0, 0, 0, 0, 0,
       0, 0, 0, 0, 0, 0, 0, 0, 0, 0, 0, 0, 0, 0, 0, 0, 0, 0, 0, 0, 0, 0,
       0, 0, 0, 0, 0, 0, 0, 0, 0, 0, 0, 0, 0, 0, 0, 0, 0, 0, 0, 0, 0, 0,
       0, 0, 0, 0, 0, 0, 0, 0, 0, 0, 0, 0, 0, 0, 0, 0, 0, 0, 0, 0, 0, 0,
       0, 0, 0, 0, 0, 0, 0, 0, 0, 0, 0, 0, 0, 0, 0, 0, 0, 0, 0, 0, 0, 0,
       0, 0, 0, 0, 0, 0, 0, 0, 0, 0, 0, 0, 0, 0, 0, 0, 0, 0, 0, 0, 0, 0,
       0, 0, 0, 0, 0, 0, 0, 0, 0, 0, 0, 0, 0, 0, 0, 0, 0, 0, 0, 0, 0, 0,
       0, 0, 0, 0, 0, 0, 0, 0, 0, 0, 0, 0, 0, 0, 0, 0, 0, 0, 0, 0, 0, 0,
       0, 0, 0, 0, 0, 0, 0, 0, 0, 0, 0, 0, 0, 0, 0, 0, 0, 0, 0, 0, 0, 0,
       0, 0, 0, 0, 0, 0, 0, 0, 0, 0, 0, 0, 0, 0, 0, 0, 0, 0, 0, 0, 0, 0,
       0, 0, 0, 0, 0, 0, 0, 0, 0, 0, 0, 0, 0, 0, 0, 0, 0, 0, 0, 0, 0, 0,
       0, 0, 0, 0, 0, 0, 0, 0, 0, 0, 0, 0, 0, 0, 0, 0, 0, 0, 0, 0, 0, 0,
       0, 0, 0, 0, 0, 0, 0, 0, 0, 0, 0, 0, 0, 0, 0, 0, 0, 0, 0, 0, 0, 0,
       0, 0, 0, 0, 0, 0, 0, 0, 0, 0, 0, 0, 0, 0, 0, 0, 0, 0, 0, 0, 0, 0,
       0, 0, 0, 0, 0, 0, 0, 1 ]
   cat_ofs: [ 0, 0, 0, 0, 0, 0, 0, 0, 0, 0, 0, 0, 0, 0, 0, 0, 0, 0, 0, 0,
       0, 0, 0, 0, 0, 0, 0, 0, 0, 0, 0, 0, 0, 0, 0, 0, 0, 0, 0, 0, 0, 0,
       0, 0, 0, 0, 0, 0, 0, 0, 0, 0, 0, 0, 0, 0, 0, 0, 0, 0, 0, 0, 0, 0,
       0, 0, 0, 0, 0, 0, 0, 0, 0, 0, 0, 0, 0, 0, 0, 0, 0, 0, 0, 0, 0, 0,
       0, 0, 0, 0, 0, 0, 0, 0, 0, 0, 0, 0, 0, 0, 0, 0, 0, 0, 0, 0, 0, 0,
       0, 0, 0, 0, 0, 0, 0, 0, 0, 0, 0, 0, 0, 0, 0, 0, 0, 0, 0, 0, 0, 0,
       0, 0, 0, 0, 0, 0, 0, 0, 0, 0, 0, 0, 0, 0, 0, 0, 0, 0, 0, 0, 0, 0,
       0, 0, 0, 0, 0, 0, 0, 0, 0, 0, 0, 0, 0, 0, 0, 0, 0, 0, 0, 0, 0, 0,
       0, 0, 0, 0, 0, 0, 0, 0, 0, 0, 0, 0, 0, 0, 0, 0, 0, 0, 0, 0, 0, 0,
       0, 0, 0, 0, 0, 0, 0, 0, 0, 0, 0, 0, 0, 0, 0, 0, 0, 0, 0, 0, 0, 0,
       0, 0, 0, 0, 0, 0, 0, 0, 0, 0, 0, 0, 0, 0, 0, 0, 0, 0, 0, 0, 0, 0,
       0, 0, 0, 0, 0, 0, 0, 0, 0, 0, 0, 0, 0, 0, 0, 0, 0, 0, 0, 0, 0, 0,
       0, 0, 0, 0, 0, 0, 0, 0, 0, 0, 0, 0, 0, 0, 0, 0, 0, 0, 0, 0, 0, 0,
       0, 0, 0, 0, 0, 0, 0, 0, 0, 0, 0, 0, 0, 0, 0, 0, 0, 0, 0, 0, 0, 0,
       0, 0, 0, 0, 0, 0, 0, 0, 0, 0, 0, 0, 0, 0, 0, 0, 0, 0, 0, 0, 0, 0,
       0, 0, 0, 0, 0, 0, 0, 0, 0, 0, 0, 0, 0, 0, 0, 0, 0, 0, 0, 0, 0, 0,
       0, 0, 0, 0, 0, 0, 0, 0, 0, 0, 0, 0, 0, 0, 0, 0, 0, 0, 0, 0, 0, 0,
       0, 0, 0, 0, 0, 0, 0, 0, 0, 0, 0, 0, 0, 0, 0, 0, 0, 0, 0, 0, 0, 0,
       0, 0, 0, 0, 0, 0, 0, 0, 0, 0, 0, 0, 0, 0, 0, 0, 0, 0, 0, 0, 0, 0,
       0, 0, 0, 0, 0, 0, 0, 0, 0, 0, 0, 0, 0, 0, 0, 0, 0, 0, 0, 0, 0, 0,
       0, 0, 0, 0, 0, 0, 0, 0, 0, 0, 0, 0, 0, 0, 0, 0, 0, 0, 0, 0, 0, 0,
       0, 0, 0, 0, 0, 0, 0, 0, 0, 0, 0, 0, 0, 0, 0, 0, 0, 0, 0, 0, 0, 0,
       0, 0, 0, 0, 0, 0, 0, 0, 0, 0, 0, 0, 0, 0, 0, 0, 0, 0, 0, 0, 0, 0,
       0, 0, 0, 0, 0, 0, 0, 0, 0, 0, 0, 0, 0, 0, 0, 0, 0, 0, 0, 0, 0, 0,
       0, 0, 0, 0, 0, 0, 0, 0, 0, 0, 0, 0, 0, 0, 0, 0, 0, 0, 0, 0, 0, 0,
       0, 0, 0, 0, 0, 0, 0, 0, 0, 0, 0, 0, 0, 0, 0, 0, 0, 0, 0, 0, 0, 0,
       0, 0, 0, 0, 0, 0, 0, 0, 0, 0, 0, 0, 0, 0, 0, 0, 0, 0, 0, 0, 0, 0,
       0, 0, 0, 0, 0, 0, 0, 0, 0, 0, 0, 0, 0, 0, 0, 0, 0, 0, 0, 0, 0, 0,
       0, 0, 0, 0, 0, 0, 0, 0, 0, 0, 0, 0, 0, 0, 0, 0, 0, 0, 0, 0, 0, 0,
       0, 0, 0, 0, 0, 0, 0, 0, 0, 0, 0, 0, 0, 0, 0, 0, 0, 0, 0, 0, 0, 0,
       0, 0, 0, 0, 0, 0, 0, 0, 0, 0, 0, 0, 0, 0, 0, 0, 0, 0, 0, 0, 0, 0,
       0, 0, 0, 0, 0, 0, 0, 0, 0, 0, 0, 0, 0, 0, 0, 0, 0, 0, 0, 0, 0, 0,
       0, 0, 0, 0, 0, 0, 0, 0, 0, 0, 0, 0, 0, 0, 0, 0, 0, 0, 0, 0, 0, 0,
       0, 0, 0, 0, 0, 0, 0, 0, 0, 0, 0, 0, 0, 0, 0, 0, 0, 0, 0, 0, 0, 0,
       0, 0, 0, 0, 0, 0, 0, 0, 0, 0, 0, 0, 0, 0, 0, 0, 0, 0, 0, 0, 0, 0,
       0, 0, 0, 0, 0, 0, 0, 0, 0, 0, 0, 0, 0, 0, 0, 0, 0, 0, 0, 0, 0, 0,
       0, 0, 0, 0, 0, 0, 0, 0, 0, 0, 0, 0, 0, 0, 0, 0, 0, 0, 0, 0, 0, 0,
       0, 0, 0, 0, 0, 0, 0, 0, 0, 0, 0, 0, 0, 0, 0, 0, 0, 0, 0, 0, 0, 0,
       0, 0, 0, 0, 0, 0, 0, 0, 0, 0, 0, 0, 0, 0, 0, 0, 0, 0, 0, 0, 0, 0,
       0, 0, 0, 0, 0, 0, 0, 0, 0, 0, 0, 0, 0, 0, 0, 0, 0, 0, 0, 0, 0, 0,
       0, 0, 0, 0, 0, 0, 0, 0, 0, 0, 0, 0, 0, 0, 0, 0, 0, 0, 0, 0, 0, 0,
       0, 0, 0, 0, 0, 0, 0, 0, 0, 0, 0, 0, 0, 0, 0, 0, 0, 0, 0, 0, 0, 0,
       0, 0, 0, 0, 0, 0, 0, 0, 0, 0, 0, 0, 0, 0, 0, 0, 0, 0, 0, 0, 0, 0,
       0, 0, 0, 0, 0, 0, 0, 0, 0, 0, 0, 0, 0, 0, 0, 0, 0, 0, 0, 0, 0, 0,
       0, 0, 0, 0, 0, 0, 0, 0, 0, 0, 0, 0, 0, 0, 0, 0, 0, 0, 0, 0, 0, 0,
       0, 0, 0, 0, 0, 0, 0, 0, 0, 0, 0, 0, 0, 0, 0, 0, 0, 0, 0, 0, 0, 0,
       0, 0, 0, 0, 0, 0, 0, 0, 0, 0, 0, 0, 0, 0, 0, 0, 0, 0, 0, 0, 0, 0,
       0, 0, 0, 0, 0, 0, 0, 0, 0, 0, 0, 0, 0, 0, 0, 0, 0, 0, 0, 0, 0, 0,
       0, 0, 0, 0, 0, 0, 0, 0, 0, 0, 0, 0, 0, 0, 0, 0, 0, 0, 0, 0, 0, 0,
       0, 0, 0, 0, 0, 0, 0, 0, 0, 0, 0, 0, 0, 0, 0, 0, 0, 0, 0, 0, 0, 0,
       0, 0, 0, 0, 0, 0, 0, 0, 0, 0, 0, 0, 0, 0, 0, 0, 0, 0, 0, 0, 0, 0,
       0, 0, 0, 0, 0, 0, 0, 0, 0, 0, 0, 0, 0, 0, 0, 0, 0, 0, 0, 0, 0, 0,
       0, 0, 0, 0, 0, 0, 0, 0, 0, 0, 0, 0, 0, 0, 0, 0, 0, 0, 0, 0, 0, 0,
       0, 0, 0, 0, 0, 0, 0, 0, 0, 0, 0, 0, 0, 0, 0, 0, 0, 0, 0, 0, 0, 0,
       0, 0, 0, 0, 0, 0, 0, 0, 0, 0, 0, 0, 0, 0, 0, 0, 0, 0, 0, 0, 0, 0,
       0, 0, 0, 0, 0, 0, 0, 0, 0, 0, 0, 0, 0, 0, 0, 0, 0, 0, 0, 0, 0, 0,
       0, 0, 0, 0, 0, 0, 0, 0, 0, 0, 0, 0, 0, 0, 0, 0, 0, 0, 0, 0, 0, 0,
       0, 0, 0, 0, 0, 0, 0, 0, 0, 0, 0, 0, 0, 0, 0, 0, 0, 0, 0, 0, 0, 0,
       0, 0, 0, 0, 0, 0, 0, 0, 0, 0, 0, 0, 0, 0, 0, 0, 0, 0, 0, 0, 0, 0,
       0, 0, 0, 0, 0, 0, 0, 0, 0, 0, 0, 0, 0, 0, 0, 0, 0, 0, 0, 0, 0, 0,
       0, 0, 0, 0, 0, 0, 0, 0, 0, 0, 0, 0, 0, 0, 0, 0, 0, 0, 0, 0, 0, 0,
       0, 0, 0, 0, 0, 0, 0, 0, 0, 0, 0, 0, 0, 0, 0, 0, 0, 0, 0, 0, 0, 0,
       0, 0, 0, 0, 0, 0, 0, 0, 0, 0, 0, 0, 0, 0, 0, 0, 0, 0, 0, 0, 0, 0,
       0, 0, 0, 0, 0, 0, 0, 0, 0, 0, 0, 0, 0, 0, 0, 0, 0, 0, 0, 0, 0, 0,
       0, 0, 0, 0, 0, 0, 0, 0, 0, 0, 0, 0, 0, 0, 0, 0, 0, 0, 0, 0, 0, 0,
       0, 0, 0, 0, 0, 0, 0, 0, 0, 0, 0, 0, 0, 0, 0, 0, 0, 0, 0, 0, 0, 0,
       0, 0, 0, 0, 0, 0, 0, 0, 0, 0, 0, 0, 0, 0, 0, 0, 0, 0, 0, 0, 0, 0,
       0, 0, 0, 0, 0, 0, 0, 0, 0, 0, 0, 0, 0, 0, 0, 0, 0, 0, 0, 0, 0, 0,
       0, 0, 0, 0, 0, 0, 0, 0, 0, 0, 0, 0, 0, 0, 0, 0, 0, 0, 0, 0, 0, 0,
       0, 0, 0, 0, 0, 0, 0, 0, 0, 0, 0, 0, 0, 0, 0, 0, 0, 0, 0, 0, 0, 0,
       0, 0, 0, 0, 0, 0, 0, 0, 0, 0, 0, 0, 0, 0, 0, 0, 0, 0, 0, 0, 0, 0,
       0, 0, 0, 0, 0, 0, 0, 0, 0, 0, 0, 0, 0, 0, 0, 0, 0, 0, 0, 0, 0, 0,
       0, 0, 0, 0, 0, 0, 0, 0, 0, 0, 0, 0, 0, 0, 0, 0, 0, 0, 0, 0, 0, 0,
       0, 0, 0, 0, 0, 0, 0, 0, 0, 0, 0, 0, 0, 0, 0, 0, 0, 0, 0, 0, 0, 0,
       0, 0, 0, 0, 0, 0, 0, 0, 0, 0, 0, 0, 0, 0, 0, 0, 0, 0, 0, 0, 0, 0,
       0, 0, 0, 0, 0, 0, 0, 0, 0, 0, 0, 0, 0, 0, 0, 0, 0, 0, 0, 0, 0, 0,
       0, 0, 0, 0, 0, 0, 0, 0, 0, 0, 0, 0, 0, 0, 0, 0, 0, 0, 0, 0, 0, 0,
       0, 0, 0, 0, 0, 0, 0, 0, 0, 0, 0, 0, 0, 0, 0, 0, 0, 0, 0, 0, 0, 0,
       0, 0, 0, 0, 0, 0, 0, 0, 0, 0, 0, 0, 0, 0, 0, 0, 0, 0, 0, 0, 0, 0,
       0, 0, 0, 0, 0, 0, 0, 0, 0, 0, 0, 0, 0, 0, 0, 0, 0, 0, 0, 0, 0, 0,
       0, 0, 0, 0, 0, 0, 0, 0, 0, 0, 0, 0, 0, 0, 0, 0, 0, 0, 0, 0, 0, 0,
       0, 0, 0, 0, 0, 0, 0, 0, 0, 0, 0, 0, 0, 0, 0, 0, 0, 0, 0, 0, 0, 0,
       0, 0, 0, 0, 0, 0, 0, 0, 0, 0, 0, 0, 0, 0, 0, 0, 0, 0, 0, 0, 0, 0,
       0, 0, 0, 0, 0, 0, 0, 0, 0, 0, 0, 0, 0, 0, 0, 0, 0, 0, 0, 0, 0, 0,
       0, 0, 0, 0, 0, 0, 0, 0, 0, 0, 0, 0, 0, 0, 0, 0, 0, 0, 0, 0, 0, 0,
       0, 0, 0, 0, 0, 0, 0, 0, 0, 0, 0, 0, 0, 0, 0, 0, 0, 0, 0, 0, 0, 0,
       0, 0, 0, 0, 0, 0, 0, 0, 0, 0, 0, 0, 0, 0, 0, 0, 0, 0, 0, 0, 0, 0,
       0, 0, 0, 0, 0, 0, 0, 0, 0, 0, 0, 0, 0, 0, 0, 0, 0, 0, 0, 0, 0, 0,
       0, 0, 0, 0, 0, 0, 0, 0, 0, 0, 0, 0, 0, 0, 0, 0, 0, 0, 0, 0, 0, 0,
       0, 0, 0, 0, 0, 0, 0, 0, 0, 0, 0, 0, 0, 0, 0, 0, 0, 0, 0, 0, 0, 0,
       0, 0, 0, 0, 0, 0, 0, 0, 0, 0, 0, 0, 0, 0, 0, 0, 0, 0, 0, 0, 0, 0,
       0, 0, 0, 0, 0, 0, 0, 0, 0, 0, 0, 0, 0, 0, 0, 0, 0, 0, 0, 0, 0, 0,
       0, 0, 0, 0, 0, 0, 0, 0, 0, 0, 0, 0, 0, 0, 0, 0, 0, 0, 0, 0, 0, 0,
       0, 0, 0, 0, 0, 0, 0, 0, 0, 0, 0, 0, 0, 0, 0, 0, 0, 0, 0, 0, 0, 0,
       0, 0, 0, 0, 0, 0, 0, 0, 0, 0, 0, 0, 0, 0, 0, 0, 0, 0, 0, 0, 0, 0,
       0, 0, 0, 0, 0, 0, 0, 0, 0, 0, 0, 0, 0, 0, 0, 0, 0, 0, 0, 0, 0, 0,
       0, 0, 0, 0, 0, 0, 0, 0, 0, 0, 0, 0, 0, 0, 0, 0, 0, 0, 0, 0, 0, 0,
       0, 0, 0, 0, 0, 0, 0, 0, 0, 0, 0, 0, 0, 0, 0, 0, 0, 0, 0, 0, 0, 0,
       0, 0, 0, 0, 0, 0, 0, 0, 0, 0, 0, 0, 0, 0, 0, 0, 0, 0, 0, 0, 0, 0,
       0, 0, 0, 0, 0, 0, 0, 0, 0, 0, 0, 0, 0, 0, 0, 0, 0, 0, 0, 0, 0, 0,
       0, 0, 0, 0, 0, 0, 0, 0, 0, 0, 0, 0, 0, 0, 0, 0, 0, 0, 0, 0, 0, 0,
       0, 0, 0, 0, 0, 0, 0, 0, 0, 0, 0, 0, 0, 0, 0, 0, 0, 0, 0, 0, 0, 0,
       0, 0, 0, 0, 0, 0, 0, 0, 0, 0, 0, 0, 0, 0, 0, 0, 0, 0, 0, 0, 0, 0,
       0, 0, 0, 0, 0, 0, 0, 0, 0, 0, 0, 0, 0, 0, 0, 0, 0, 0, 0, 0, 0, 0,
       0, 0, 0, 0, 0, 0, 0, 0, 0, 0, 0, 0, 0, 0, 0, 0, 0, 0, 0, 0, 0, 0,
       0, 0, 0, 0, 0, 0, 0, 0, 0, 0, 0, 0, 0, 0, 0, 0, 0, 0, 0, 0, 0, 0,
       0, 0, 0, 0, 0, 0, 0, 0, 0, 0, 0, 0, 0, 0, 0, 0, 0, 0, 0, 0, 0, 0,
       0, 0, 0, 0, 0, 0, 0, 0, 0, 0, 0, 0, 0, 0, 0, 0, 0, 0, 0, 0, 0, 0,
       0, 0, 0, 0, 0, 0, 0, 0, 0, 0, 0, 0, 0, 0, 0, 0, 0, 0, 0, 0, 0, 0,
       0, 0, 0, 0, 0, 0, 0, 0, 0, 0, 0, 0, 0, 0, 0, 0, 0, 0, 0, 0, 0, 0,
       0, 0, 0, 0, 0, 0, 0, 0, 0, 0, 0, 0, 0, 0, 0, 0, 0, 0, 0, 0, 0, 0,
       0, 0, 0, 0, 0, 0, 0, 0, 0, 0, 0, 0, 0, 0, 0, 0, 0, 0, 0, 0, 0, 0,
       0, 0, 0, 0, 0, 0, 0, 0, 0, 0, 0, 0, 0, 0, 0, 0, 0, 0, 0, 0, 0, 0,
       0, 0, 0, 0, 0, 0, 0, 0, 0, 0, 0, 0, 0, 0, 0, 0, 0, 0, 0, 0, 0, 0,
       0, 0, 0, 0, 0, 0, 0, 0, 0, 0, 0, 0, 0, 0, 0, 0, 0, 0, 0, 0, 0, 0,
       0, 0, 0, 0, 0, 0, 0, 0, 0, 0, 0, 0, 0, 0, 0, 0, 0, 0, 0, 0, 0, 0,
       0, 0, 0, 0, 0, 0, 0, 0, 0, 0, 0, 0, 0, 0, 0, 0, 0, 0, 0, 0, 0, 0,
       0, 0, 0, 0, 0, 0, 0, 0, 0, 0, 0, 0, 0, 0, 0, 0, 0, 0, 0, 0, 0, 0,
       0, 0, 0, 0, 0, 0, 0, 0, 0, 0, 0, 0, 0, 0, 0, 0, 0, 0, 0, 0, 0, 0,
       0, 0, 0, 0, 0, 0, 0, 0, 0, 0, 0, 0, 0, 0, 0, 0, 0, 0, 0, 0, 0, 0,
       0, 0, 0, 0, 0, 0, 0, 0, 0, 0, 0, 0, 0, 0, 0, 0, 0, 0, 0, 0, 0, 0,
       0, 0, 0, 0, 0, 0, 0, 0, 0, 0, 0, 0, 0, 0, 0, 0, 0, 0, 0, 0, 0, 0,
       0, 0, 0, 0, 0, 0, 0, 0, 0, 0, 0, 0, 0, 0, 0, 0, 0, 0, 0, 0, 0, 0,
       0, 0, 0, 0, 0, 0, 0, 0, 0, 0, 0, 0, 0, 0, 0, 0, 0, 0, 0, 0, 0, 0,
       0, 0, 0, 0, 0, 0, 0, 0, 0, 0, 0, 0, 0, 0, 0, 0, 0, 0, 0, 0, 0, 0,
       0, 0, 0, 0, 0, 0, 0, 0, 0, 0, 0, 0, 0, 0, 0, 0, 0, 0, 0, 0, 0, 0,
       0, 0, 0, 0, 0, 0, 0, 0, 0, 0, 0, 0, 0, 0, 0, 0, 0, 0, 0, 0, 0, 0,
       0, 0, 0, 0, 0, 0, 0, 0, 0, 0, 0, 0, 0, 0, 0, 0, 0, 0, 0, 0, 0, 0,
       0, 0, 0, 0, 0, 0, 0, 0, 0, 0, 0, 0, 0, 0, 0, 0, 0, 0, 0, 0, 0, 0,
       0, 0, 0, 0, 0, 0, 0, 0, 0, 0, 0, 0, 0, 0, 0, 0, 0, 0, 0, 0, 0, 0,
       0, 0, 0, 0, 0, 0, 0, 0, 0, 0, 0, 0, 0, 0, 0, 0, 0, 0, 0, 0, 0, 0,
       0, 0, 0, 0, 0, 0, 0, 0, 0, 0, 0, 0, 0, 0, 0, 0, 0, 0, 0, 0, 0, 0,
       0, 0, 0, 0, 0, 0, 0, 0, 0, 0, 0, 0, 0, 0, 0, 0, 0, 0, 0, 0, 0, 0,
       0, 0, 0, 0, 0, 0, 0, 0, 0, 0, 0, 0, 0, 0, 0, 0, 0, 0, 0, 0, 0, 0,
       0, 0, 0, 0, 0, 0, 0, 0, 0, 0, 0, 0, 0, 0, 0, 0, 0, 0, 0, 0, 0, 0,
       0, 0, 0, 0, 0, 0, 0, 0, 0, 0, 0, 0, 0, 0, 0, 0, 0, 0, 0, 0, 0, 0,
       0, 0, 0, 0, 0, 0, 0, 0, 0, 0, 0, 0, 0, 0, 0, 0, 0, 0, 0, 0, 0, 0,
       0, 0, 0, 0, 0, 0, 0, 0, 0, 0, 0, 0, 0, 0, 0, 0, 0, 0, 0, 0, 0, 0,
       0, 0, 0, 0, 0, 0, 0, 0, 0, 0, 0, 0, 0, 0, 0, 0, 0, 0, 0, 0, 0, 0,
       0, 0, 0, 0, 0, 0, 0, 0, 0, 0, 0, 0, 0, 0, 0, 0, 0, 0, 0, 0, 0, 0,
       0, 0, 0, 0, 0, 0, 0, 0, 0, 0, 0, 0, 0, 0, 0, 0, 0, 0, 0, 0, 0, 0,
       0, 0, 0, 0, 0, 0, 0, 0, 0, 0, 0, 0, 0, 0, 0, 0, 0, 0, 0, 0, 0, 0,
       0, 0, 0, 0, 0, 0, 0, 0, 0, 0, 0, 0, 0, 0, 0, 0, 0, 0, 0, 0, 0, 0,
       0, 0, 0, 0, 0, 0, 0, 0, 0, 0, 0, 0, 0, 0, 0, 0, 0, 0, 0, 0, 0, 0,
       0, 0, 0, 0, 0, 0, 0, 0, 0, 0, 0, 0, 0, 0, 0, 0, 0, 0, 0, 0, 0, 0,
       0, 0, 0, 0, 0, 0, 0, 0, 0, 0, 0, 0, 0, 0, 0, 0, 0, 0, 0, 0, 0, 0,
       0, 0, 0, 0, 0, 0, 0, 0, 0, 0, 0, 0, 0, 0, 0, 0, 0, 0, 0, 0, 0, 0,
       0, 0, 0, 0, 0, 0, 0, 0, 0, 0, 0, 0, 0, 0, 0, 0, 0, 0, 0, 0, 0, 0,
       0, 0, 0, 0, 0, 0, 0, 0, 0, 0, 0, 0, 0, 0, 0, 0, 0, 0, 0, 0, 0, 0,
       0, 0, 0, 0, 0, 0, 0, 0, 0, 0, 0, 0, 0, 0, 0, 0, 0, 0, 0, 0, 0, 0,
       0, 0, 0, 0, 0, 0, 0, 0, 0, 0, 0, 0, 0, 0, 0, 0, 0, 0, 0, 0, 0, 0,
       0, 0, 0, 0, 0, 0, 0, 0, 0, 0, 0, 0, 0, 0, 0, 0, 0, 0, 0, 0, 0, 0,
       0, 0, 0, 0, 0, 0, 0, 0, 0, 0, 0, 0, 0, 0, 0, 0, 0, 0, 0, 0, 0, 0,
       0, 0, 0, 0, 0, 0, 0, 0, 0, 0, 0, 0, 0, 0, 0, 0, 0, 0, 0, 0, 0, 0,
       0, 0, 0, 0, 0, 0, 0, 0, 0, 0, 0, 0, 0, 0, 0, 0, 0, 0, 0, 0, 0, 0,
       0, 0, 0, 0, 0, 0, 0, 0, 0, 0, 0, 0, 0, 0, 0, 0, 0, 0, 0, 0, 0, 0,
       0, 0, 0, 0, 0, 0, 0, 0, 0, 0, 0, 0, 0, 0, 0, 0, 0, 0, 0, 0, 0, 0,
       0, 0, 0, 0, 0, 0, 0, 0, 0, 0, 0, 0, 0, 0, 0, 0, 0, 0, 0, 0, 0, 0,
       0, 0, 0, 0, 0, 0, 0, 0, 0, 0, 0, 0, 0, 0, 0, 0, 0, 0, 0, 0, 0, 0,
       0, 0, 0, 0, 0, 0, 0, 0, 0, 0, 0, 0, 0, 0, 0, 0, 0, 0, 0, 0, 0, 0,
       0, 0, 0, 0, 0, 0, 0, 0, 0, 0 ]
   class_labels: [ 0, 1, 2, 3, 4, 5 ]
   missing_subst: [ 0., 0., 0., 0., 0., 0., 0., 0., 0., 0., 0., 0., 0.,
       0., 0., 0., 0., 0., 0., 0., 0., 0., 0., 0., 0., 0., 0., 0., 0.,
       0., 0., 0., 0., 0., 0., 0., 0., 0., 0., 0., 0., 0., 0., 0., 0.,
       0., 0., 0., 0., 0., 0., 0., 0., 0., 0., 0., 0., 0., 0., 0., 0.,
       0., 0., 0., 0., 0., 0., 0., 0., 0., 0., 0., 0., 0., 0., 0., 0.,
       0., 0., 0., 0., 0., 0., 0., 0., 0., 0., 0., 0., 0., 0., 0., 0.,
       0., 0., 0., 0., 0., 0., 0., 0., 0., 0., 0., 0., 0., 0., 0., 0.,
       0., 0., 0., 0., 0., 0., 0., 0., 0., 0., 0., 0., 0., 0., 0., 0.,
       0., 0., 0., 0., 0., 0., 0., 0., 0., 0., 0., 0., 0., 0., 0., 0.,
       0., 0., 0., 0., 0., 0., 0., 0., 0., 0., 0., 0., 0., 0., 0., 0.,
       0., 0., 0., 0., 0., 0., 0., 0., 0., 0., 0., 0., 0., 0., 0., 0.,
       0., 0., 0., 0., 0., 0., 0., 0., 0., 0., 0., 0., 0., 0., 0., 0.,
       0., 0., 0., 0., 0., 0., 0., 0., 0., 0., 0., 0., 0., 0., 0., 0.,
       0., 0., 0., 0., 0., 0., 0., 0., 0., 0., 0., 0., 0., 0., 0., 0.,
       0., 0., 0., 0., 0., 0., 0., 0., 0., 0., 0., 0., 0., 0., 0., 0.,
       0., 0., 0., 0., 0., 0., 0., 0., 0., 0., 0., 0., 0., 0., 0., 0.,
       0., 0., 0., 0., 0., 0., 0., 0., 0., 0., 0., 0., 0., 0., 0., 0.,
       0., 0., 0., 0., 0., 0., 0., 0., 0., 0., 0., 0., 0., 0., 0., 0.,
       0., 0., 0., 0., 0., 0., 0., 0., 0., 0., 0., 0., 0., 0., 0., 0.,
       0., 0., 0., 0., 0., 0., 0., 0., 0., 0., 0., 0., 0., 0., 0., 0.,
       0., 0., 0., 0., 0., 0., 0., 0., 0., 0., 0., 0., 0., 0., 0., 0.,
       0., 0., 0., 0., 0., 0., 0., 0., 0., 0., 0., 0., 0., 0., 0., 0.,
       0., 0., 0., 0., 0., 0., 0., 0., 0., 0., 0., 0., 0., 0., 0., 0.,
       0., 0., 0., 0., 0., 0., 0., 0., 0., 0., 0., 0., 0., 0., 0., 0.,
       0., 0., 0., 0., 0., 0., 0., 0., 0., 0., 0., 0., 0., 0., 0., 0.,
       0., 0., 0., 0., 0., 0., 0., 0., 0., 0., 0., 0., 0., 0., 0., 0.,
       0., 0., 0., 0., 0., 0., 0., 0., 0., 0., 0., 0., 0., 0., 0., 0.,
       0., 0., 0., 0., 0., 0., 0., 0., 0., 0., 0., 0., 0., 0., 0., 0.,
       0., 0., 0., 0., 0., 0., 0., 0., 0., 0., 0., 0., 0., 0., 0., 0.,
       0., 0., 0., 0., 0., 0., 0., 0., 0., 0., 0., 0., 0., 0., 0., 0.,
       0., 0., 0., 0., 0., 0., 0., 0., 0., 0., 0., 0., 0., 0., 0., 0.,
       0., 0., 0., 0., 0., 0., 0., 0., 0., 0., 0., 0., 0., 0., 0., 0.,
       0., 0., 0., 0., 0., 0., 0., 0., 0., 0., 0., 0., 0., 0., 0., 0.,
       0., 0., 0., 0., 0., 0., 0., 0., 0., 0., 0., 0., 0., 0., 0., 0.,
       0., 0., 0., 0., 0., 0., 0., 0., 0., 0., 0., 0., 0., 0., 0., 0.,
       0., 0., 0., 0., 0., 0., 0., 0., 0., 0., 0., 0., 0., 0., 0., 0.,
       0., 0., 0., 0., 0., 0., 0., 0., 0., 0., 0., 0., 0., 0., 0., 0.,
       0., 0., 0., 0., 0., 0., 0., 0., 0., 0., 0., 0., 0., 0., 0., 0.,
       0., 0., 0., 0., 0., 0., 0., 0., 0., 0., 0., 0., 0., 0., 0., 0.,
       0., 0., 0., 0., 0., 0., 0., 0., 0., 0., 0., 0., 0., 0., 0., 0.,
       0., 0., 0., 0., 0., 0., 0., 0., 0., 0., 0., 0., 0., 0., 0., 0.,
       0., 0., 0., 0., 0., 0., 0., 0., 0., 0., 0., 0., 0., 0., 0., 0.,
       0., 0., 0., 0., 0., 0., 0., 0., 0., 0., 0., 0., 0., 0., 0., 0.,
       0., 0., 0., 0., 0., 0., 0., 0., 0., 0., 0., 0., 0., 0., 0., 0.,
       0., 0., 0., 0., 0., 0., 0., 0., 0., 0., 0., 0., 0., 0., 0., 0.,
       0., 0., 0., 0., 0., 0., 0., 0., 0., 0., 0., 0., 0., 0., 0., 0.,
       0., 0., 0., 0., 0., 0., 0., 0., 0., 0., 0., 0., 0., 0., 0., 0.,
       0., 0., 0., 0., 0., 0., 0., 0., 0., 0., 0., 0., 0., 0., 0., 0.,
       0., 0., 0., 0., 0., 0., 0., 0., 0., 0., 0., 0., 0., 0., 0., 0.,
       0., 0., 0., 0., 0., 0., 0., 0., 0., 0., 0., 0., 0., 0., 0., 0.,
       0., 0., 0., 0., 0., 0., 0., 0., 0., 0., 0., 0., 0., 0., 0., 0.,
       0., 0., 0., 0., 0., 0., 0., 0., 0., 0., 0., 0., 0., 0., 0., 0.,
       0., 0., 0., 0., 0., 0., 0., 0., 0., 0., 0., 0., 0., 0., 0., 0.,
       0., 0., 0., 0., 0., 0., 0., 0., 0., 0., 0., 0., 0., 0., 0., 0.,
       0., 0., 0., 0., 0., 0., 0., 0., 0., 0., 0., 0., 0., 0., 0., 0.,
       0., 0., 0., 0., 0., 0., 0., 0., 0., 0., 0., 0., 0., 0., 0., 0.,
       0., 0., 0., 0., 0., 0., 0., 0., 0., 0., 0., 0., 0., 0., 0., 0.,
       0., 0., 0., 0., 0., 0., 0., 0., 0., 0., 0., 0., 0., 0., 0., 0.,
       0., 0., 0., 0., 0., 0., 0., 0., 0., 0., 0., 0., 0., 0., 0., 0.,
       0., 0., 0., 0., 0., 0., 0., 0., 0., 0., 0., 0., 0., 0., 0., 0.,
       0., 0., 0., 0., 0., 0., 0., 0., 0., 0., 0., 0., 0., 0., 0., 0.,
       0., 0., 0., 0., 0., 0., 0., 0., 0., 0., 0., 0., 0., 0., 0., 0.,
       0., 0., 0., 0., 0., 0., 0., 0., 0., 0., 0., 0., 0., 0., 0., 0.,
       0., 0., 0., 0., 0., 0., 0., 0., 0., 0., 0., 0., 0., 0., 0., 0.,
       0., 0., 0., 0., 0., 0., 0., 0., 0., 0., 0., 0., 0., 0., 0., 0.,
       0., 0., 0., 0., 0., 0., 0., 0., 0., 0., 0., 0., 0., 0., 0., 0.,
       0., 0., 0., 0., 0., 0., 0., 0., 0., 0., 0., 0., 0., 0., 0., 0.,
       0., 0., 0., 0., 0., 0., 0., 0., 0., 0., 0., 0., 0., 0., 0., 0.,
       0., 0., 0., 0., 0., 0., 0., 0., 0., 0., 0., 0., 0., 0., 0., 0.,
       0., 0., 0., 0., 0., 0., 0., 0., 0., 0., 0., 0., 0., 0., 0., 0.,
       0., 0., 0., 0., 0., 0., 0., 0., 0., 0., 0., 0., 0., 0., 0., 0.,
       0., 0., 0., 0., 0., 0., 0., 0., 0., 0., 0., 0., 0., 0., 0., 0.,
       0., 0., 0., 0., 0., 0., 0., 0., 0., 0., 0., 0., 0., 0., 0., 0.,
       0., 0., 0., 0., 0., 0., 0., 0., 0., 0., 0., 0., 0., 0., 0., 0.,
       0., 0., 0., 0., 0., 0., 0., 0., 0., 0., 0., 0., 0., 0., 0., 0.,
       0., 0., 0., 0., 0., 0., 0., 0., 0., 0., 0., 0., 0., 0., 0., 0.,
       0., 0., 0., 0., 0., 0., 0., 0., 0., 0., 0., 0., 0., 0., 0., 0.,
       0., 0., 0., 0., 0., 0., 0., 0., 0., 0., 0., 0., 0., 0., 0., 0.,
       0., 0., 0., 0., 0., 0., 0., 0., 0., 0., 0., 0., 0., 0., 0., 0.,
       0., 0., 0., 0., 0., 0., 0., 0., 0., 0., 0., 0., 0., 0., 0., 0.,
       0., 0., 0., 0., 0., 0., 0., 0., 0., 0., 0., 0., 0., 0., 0., 0.,
       0., 0., 0., 0., 0., 0., 0., 0., 0., 0., 0., 0., 0., 0., 0., 0.,
       0., 0., 0., 0., 0., 0., 0., 0., 0., 0., 0., 0., 0., 0., 0., 0.,
       0., 0., 0., 0., 0., 0., 0., 0., 0., 0., 0., 0., 0., 0., 0., 0.,
       0., 0., 0., 0., 0., 0., 0., 0., 0., 0., 0., 0., 0., 0., 0., 0.,
       0., 0., 0., 0., 0., 0., 0., 0., 0., 0., 0., 0., 0., 0., 0., 0.,
       0., 0., 0., 0., 0., 0., 0., 0., 0., 0., 0., 0., 0., 0., 0., 0.,
       0., 0., 0., 0., 0., 0., 0., 0., 0., 0., 0., 0., 0., 0., 0., 0.,
       0., 0., 0., 0., 0., 0., 0., 0., 0., 0., 0., 0., 0., 0., 0., 0.,
       0., 0., 0., 0., 0., 0., 0., 0., 0., 0., 0., 0., 0., 0., 0., 0.,
       0., 0., 0., 0., 0., 0., 0., 0., 0., 0., 0., 0., 0., 0., 0., 0.,
       0., 0., 0., 0., 0., 0., 0., 0., 0., 0., 0., 0., 0., 0., 0., 0.,
       0., 0., 0., 0., 0., 0., 0., 0., 0., 0., 0., 0., 0., 0., 0., 0.,
       0., 0., 0., 0., 0., 0., 0., 0., 0., 0., 0., 0., 0., 0., 0., 0.,
       0., 0., 0., 0., 0., 0., 0., 0., 0., 0., 0., 0., 0., 0., 0., 0.,
       0., 0., 0., 0., 0., 0., 0., 0., 0., 0., 0., 0., 0., 0., 0., 0.,
       0., 0., 0., 0., 0., 0., 0., 0., 0., 0., 0., 0., 0., 0., 0., 0.,
       0., 0., 0., 0., 0., 0., 0., 0., 0., 0., 0., 0., 0., 0., 0., 0.,
       0., 0., 0., 0., 0., 0., 0., 0., 0., 0., 0., 0., 0., 0., 0., 0.,
       0., 0., 0., 0., 0., 0., 0., 0., 0., 0., 0., 0., 0., 0., 0., 0.,
       0., 0., 0., 0., 0., 0., 0., 0., 0., 0., 0., 0., 0., 0., 0., 0.,
       0., 0., 0., 0., 0., 0., 0., 0., 0., 0., 0., 0., 0., 0., 0., 0.,
       0., 0., 0., 0., 0., 0., 0., 0., 0., 0., 0., 0., 0., 0., 0., 0.,
       0., 0., 0., 0., 0., 0., 0., 0., 0., 0., 0., 0., 0., 0., 0., 0.,
       0., 0., 0., 0., 0., 0., 0., 0., 0., 0., 0., 0., 0., 0., 0., 0.,
       0., 0., 0., 0., 0., 0., 0., 0., 0., 0., 0., 0., 0., 0., 0., 0.,
       0., 0., 0., 0., 0., 0., 0., 0., 0., 0., 0., 0., 0., 0., 0., 0.,
       0., 0., 0., 0., 0., 0., 0., 0., 0., 0., 0., 0., 0., 0., 0., 0.,
       0., 0., 0., 0., 0., 0., 0., 0., 0., 0., 0., 0., 0., 0., 0., 0.,
       0., 0., 0., 0., 0., 0., 0., 0., 0., 0., 0., 0., 0., 0., 0., 0.,
       0., 0., 0., 0., 0., 0., 0., 0. ]
   nodes:
      -
         depth: 0
         value: 5.
         norm_class_idx: 5
         splits:
            - { var:1761, quality:3.4610876464843750e+02,
                le:1.8099762499332428e-02 }
      -
         depth: 1
         value: 4.
         norm_class_idx: 4
         splits:
            - { var:1735, quality:1.0982406616210938e+02,
                le:1.6513995826244354e-02 }
      -
         depth: 2
         value: 0.
         norm_class_idx: 0
         splits:
            - { var:0, quality:29., le:2.6380503177642822e-01 }
      -
         depth: 3
         value: 0.
         norm_class_idx: 0
      -
         depth: 3
         value: 4.
         norm_class_idx: 4
      -
         depth: 2
         value: 4.
         norm_class_idx: 4
         splits:
            - { var:760, quality:1.0233175659179688e+02,
                le:2.4876156449317932e-01 }
      -
         depth: 3
         value: 5.
         norm_class_idx: 5
         splits:
            - { var:609, quality:2.3062015533447266e+01,
                le:1.7862841486930847e-01 }
      -
         depth: 4
         value: 3.
         norm_class_idx: 3
         splits:
            - { var:277, quality:2.0500000000000000e+01,
                le:7.2182044386863708e-02 }
      -
         depth: 5
         value: 4.
         norm_class_idx: 4
         splits:
            - { var:1091, quality:1.8799999237060547e+01,
                le:1.2713664770126343e-01 }
      -
         depth: 6
         value: 4.
         norm_class_idx: 4
         splits:
            - { var:6, quality:13., le:3.6082740873098373e-02 }
      -
         depth: 7
         value: 4.
         norm_class_idx: 4
      -
         depth: 7
         value: 1.
         norm_class_idx: 1
         splits:
            - { var:0, quality:2., le:8.2077741622924805e-02 }
      -
         depth: 8
         value: 1.
         norm_class_idx: 1
      -
         depth: 8
         value: 2.
         norm_class_idx: 2
      -
         depth: 6
         value: 0.
         norm_class_idx: 0
      -
         depth: 5
         value: 3.
         norm_class_idx: 3
         splits:
            - { var:332, quality:1.6600000381469727e+01,
                le:2.0039677619934082e-01 }
      -
         depth: 6
         value: 3.
         norm_class_idx: 3
      -
         depth: 6
         value: 5.
         norm_class_idx: 5
         splits:
            - { var:2, quality:5., le:4.5144267380237579e-02 }
      -
         depth: 7
         value: 1.
         norm_class_idx: 1
      -
         depth: 7
         value: 5.
         norm_class_idx: 5
      -
         depth: 4
         value: 5.
         norm_class_idx: 5
         splits:
            - { var:225, quality:16., le:5.0488658249378204e-02 }
      -
         depth: 5
         value: 1.
         norm_class_idx: 1
         splits:
            - { var:0, quality:2., le:9.1733507812023163e-02 }
      -
         depth: 6
         value: 3.
         norm_class_idx: 3
      -
         depth: 6
         value: 1.
         norm_class_idx: 1
      -
         depth: 5
         value: 5.
         norm_class_idx: 5
      -
         depth: 3
         value: 4.
         norm_class_idx: 4
         splits:
            - { var:308, quality:1.0101695251464844e+02,
                le:2.2698439657688141e-01 }
      -
         depth: 4
         value: 4.
         norm_class_idx: 4
         splits:
            - { var:1559, quality:1.0059459686279297e+02,
                le:2.1329626441001892e-01 }
      -
         depth: 5
         value: 4.
         norm_class_idx: 4
         splits:
            - { var:1577, quality:1.0187036895751953e+02,
                le:1.5717720985412598e-01 }
      -
         depth: 6
         value: 4.
         norm_class_idx: 4
         splits:
            - { var:441, quality:1.0405660247802734e+02,
                le:7.1713174693286419e-03 }
      -
         depth: 7
         value: 3.
         norm_class_idx: 3
      -
         depth: 7
         value: 4.
         norm_class_idx: 4
         splits:
            - { var:140, quality:1.0401905059814453e+02,
                le:2.6660120487213135e-01 }
      -
         depth: 8
         value: 4.
         norm_class_idx: 4
         splits:
            - { var:231, quality:105., le:3.1719672679901123e-01 }
      -
         depth: 9
         value: 4.
         norm_class_idx: 4
      -
         depth: 9
         value: 0.
         norm_class_idx: 0
      -
         depth: 8
         value: 5.
         norm_class_idx: 5
      -
         depth: 6
         value: 5.
         norm_class_idx: 5
         splits:
            - { var:0, quality:3., le:7.7677175402641296e-02 }
      -
         depth: 7
         value: 0.
         norm_class_idx: 0
      -
         depth: 7
         value: 5.
         norm_class_idx: 5
      -
         depth: 5
         value: 5.
         norm_class_idx: 5
         splits:
            - { var:6, quality:5.6666665077209473e+00,
                le:1.0375417768955231e-02 }
      -
         depth: 6
         value: 0.
         norm_class_idx: 0
         splits:
            - { var:0, quality:3., le:2.5808857753872871e-02 }
      -
         depth: 7
         value: 4.
         norm_class_idx: 4
      -
         depth: 7
         value: 0.
         norm_class_idx: 0
      -
         depth: 6
         value: 5.
         norm_class_idx: 5
      -
         depth: 4
         value: 0.
         norm_class_idx: 0
         splits:
            - { var:325, quality:1.2714285850524902e+01,
                le:1.7832067608833313e-01 }
      -
         depth: 5
         value: 1.
         norm_class_idx: 1
         splits:
            - { var:10, quality:5.5000000000000000e+00,
                le:9.5716826617717743e-02 }
      -
         depth: 6
         value: 4.
         norm_class_idx: 4
      -
         depth: 6
         value: 1.
         norm_class_idx: 1
         splits:
            - { var:2, quality:4., le:1.1852735280990601e-01 }
      -
         depth: 7
         value: 1.
         norm_class_idx: 1
      -
         depth: 7
         value: 3.
         norm_class_idx: 3
      -
         depth: 5
         value: 0.
         norm_class_idx: 0
      -
         depth: 1
         value: 5.
         norm_class_idx: 5
         splits:
            - { var:1531, quality:2.9849691772460938e+02,
                le:1.5722537413239479e-02 }
      -
         depth: 2
         value: 4.
         norm_class_idx: 4
         splits:
            - { var:37, quality:6.8076354980468750e+01,
                le:1.4019817113876343e-01 }
      -
         depth: 3
         value: 4.
         norm_class_idx: 4
         splits:
            - { var:739, quality:6.2210296630859375e+01,
                le:7.5210802257061005e-02 }
      -
         depth: 4
         value: 4.
         norm_class_idx: 4
         splits:
            - { var:539, quality:5.7766895294189453e+01,
                le:8.2006804645061493e-02 }
      -
         depth: 5
         value: 4.
         norm_class_idx: 4
         splits:
            - { var:237, quality:5.5035713195800781e+01,
                le:3.3530771732330322e-01 }
      -
         depth: 6
         value: 4.
         norm_class_idx: 4
         splits:
            - { var:47, quality:56., le:1.5401454642415047e-02 }
      -
         depth: 7
         value: 3.
         norm_class_idx: 3
      -
         depth: 7
         value: 4.
         norm_class_idx: 4
      -
         depth: 6
         value: 0.
         norm_class_idx: 0
      -
         depth: 5
         value: 4.
         norm_class_idx: 4
         splits:
            - { var:423, quality:1.2625000000000000e+01,
                le:2.1640467643737793e-01 }
      -
         depth: 6
         value: 5.
         norm_class_idx: 5
         splits:
            - { var:400, quality:8., le:2.0766399800777435e-01 }
      -
         depth: 7
         value: 0.
         norm_class_idx: 0
         splits:
            - { var:259, quality:6.4285712242126465e+00,
                le:2.1946419030427933e-02 }
      -
         depth: 8
         value: 0.
         norm_class_idx: 0
      -
         depth: 8
         value: 3.
         norm_class_idx: 3
         splits:
            - { var:6, quality:5., le:6.0816615819931030e-02 }
      -
         depth: 9
         value: 3.
         norm_class_idx: 3
      -
         depth: 9
         value: 1.
         norm_class_idx: 1
         splits:
            - { var:0, quality:4., le:5.7817514985799789e-02 }
      -
         depth: 10
         value: 1.
         norm_class_idx: 1
      -
         depth: 10
         value: 2.
         norm_class_idx: 2
      -
         depth: 7
         value: 5.
         norm_class_idx: 5
      -
         depth: 6
         value: 4.
         norm_class_idx: 4
      -
         depth: 4
         value: 1.
         norm_class_idx: 1
         splits:
            - { var:95, quality:1.9299999237060547e+01,
                le:1.0840162634849548e-01 }
      -
         depth: 5
         value: 5.
         norm_class_idx: 5
         splits:
            - { var:1622, quality:1.6989898681640625e+01,
                le:1.5262925624847412e-01 }
      -
         depth: 6
         value: 5.
         norm_class_idx: 5
         splits:
            - { var:472, quality:1.6819047927856445e+01,
                le:2.6757121086120605e-01 }
      -
         depth: 7
         value: 5.
         norm_class_idx: 5
         splits:
            - { var:53, quality:15., le:6.4365074038505554e-02 }
      -
         depth: 8
         value: 0.
         norm_class_idx: 0
      -
         depth: 8
         value: 5.
         norm_class_idx: 5
      -
         depth: 7
         value: 4.
         norm_class_idx: 4
         splits:
            - { var:0, quality:7., le:2.5207591056823730e-01 }
      -
         depth: 8
         value: 4.
         norm_class_idx: 4
      -
         depth: 8
         value: 1.
         norm_class_idx: 1
      -
         depth: 6
         value: 3.
         norm_class_idx: 3
         splits:
            - { var:534, quality:1.2857142448425293e+01,
                le:3.0863681435585022e-01 }
      -
         depth: 7
         value: 3.
         norm_class_idx: 3
      -
         depth: 7
         value: 0.
         norm_class_idx: 0
         splits:
            - { var:0, quality:3.7999999523162842e+00,
                le:1.6480270028114319e-01 }
      -
         depth: 8
         value: 0.
         norm_class_idx: 0
         splits:
            - { var:3, quality:3.6666667461395264e+00,
                le:5.9667207300662994e-02 }
      -
         depth: 9
         value: 4.
         norm_class_idx: 4
      -
         depth: 9
         value: 0.
         norm_class_idx: 0
         splits:
            - { var:3, quality:3., le:1.0240694135427475e-01 }
      -
         depth: 10
         value: 2.
         norm_class_idx: 2
      -
         depth: 10
         value: 0.
         norm_class_idx: 0
      -
         depth: 8
         value: 1.
         norm_class_idx: 1
      -
         depth: 5
         value: 1.
         norm_class_idx: 1
         splits:
            - { var:2, quality:13., le:6.5743029117584229e-02 }
      -
         depth: 6
         value: 0.
         norm_class_idx: 0
         splits:
            - { var:0, quality:2., le:4.3397955596446991e-02 }
      -
         depth: 7
         value: 0.
         norm_class_idx: 0
      -
         depth: 7
         value: 3.
         norm_class_idx: 3
      -
         depth: 6
         value: 1.
         norm_class_idx: 1
      -
         depth: 3
         value: 0.
         norm_class_idx: 0
         splits:
            - { var:395, quality:2.9071428298950195e+01,
                le:1.3738074898719788e-01 }
      -
         depth: 4
         value: 3.
         norm_class_idx: 3
         splits:
            - { var:126, quality:6.5555553436279297e+00,
                le:9.6716821193695068e-02 }
      -
         depth: 5
         value: 3.
         norm_class_idx: 3
      -
         depth: 5
         value: 0.
         norm_class_idx: 0
         splits:
            - { var:11, quality:5.3333334922790527e+00,
                le:2.3850730061531067e-01 }
      -
         depth: 6
         value: 4.
         norm_class_idx: 4
         splits:
            - { var:3, quality:4.6666665077209473e+00,
                le:2.0821642130613327e-02 }
      -
         depth: 7
         value: 5.
         norm_class_idx: 5
         splits:
            - { var:1, quality:3., le:5.0246782600879669e-02 }
      -
         depth: 8
         value: 5.
         norm_class_idx: 5
      -
         depth: 8
         value: 1.
         norm_class_idx: 1
      -
         depth: 7
         value: 4.
         norm_class_idx: 4
      -
         depth: 6
         value: 0.
         norm_class_idx: 0
      -
         depth: 4
         value: 0.
         norm_class_idx: 0
         splits:
            - { var:4, quality:28., le:1.4850883185863495e-01 }
      -
         depth: 5
         value: 0.
         norm_class_idx: 0
      -
         depth: 5
         value: 3.
         norm_class_idx: 3
      -
         depth: 2
         value: 5.
         norm_class_idx: 5
         splits:
            - { var:1257, quality:2.7587161254882812e+02,
                le:6.6760487854480743e-02 }
      -
         depth: 3
         value: 1.
         norm_class_idx: 1
         splits:
            - { var:245, quality:1.6065220642089844e+02,
                le:2.7435000985860825e-02 }
      -
         depth: 4
         value: 0.
         norm_class_idx: 0
         splits:
            - { var:238, quality:3.7075000762939453e+01,
                le:7.5321570038795471e-02 }
      -
         depth: 5
         value: 0.
         norm_class_idx: 0
         splits:
            - { var:7, quality:29., le:1.0390590876340866e-01 }
      -
         depth: 6
         value: 0.
         norm_class_idx: 0
      -
         depth: 6
         value: 3.
         norm_class_idx: 3
      -
         depth: 5
         value: 4.
         norm_class_idx: 4
         splits:
            - { var:1280, quality:1.8028572082519531e+01,
                le:3.4854788333177567e-02 }
      -
         depth: 6
         value: 4.
         norm_class_idx: 4
         splits:
            - { var:455, quality:1.8200000762939453e+01,
                le:1.0058544576168060e-01 }
      -
         depth: 7
         value: 4.
         norm_class_idx: 4
      -
         depth: 7
         value: 0.
         norm_class_idx: 0
         splits:
            - { var:2, quality:10., le:5.8304350823163986e-02 }
      -
         depth: 8
         value: 4.
         norm_class_idx: 4
      -
         depth: 8
         value: 0.
         norm_class_idx: 0
      -
         depth: 6
         value: 3.
         norm_class_idx: 3
         splits:
            - { var:1250, quality:1.5476922988891602e+01,
                le:6.0307275503873825e-02 }
      -
         depth: 7
         value: 3.
         norm_class_idx: 3
         splits:
            - { var:0, quality:1.1666666984558105e+01,
                le:4.8781022429466248e-02 }
      -
         depth: 8
         value: 0.
         norm_class_idx: 0
         splits:
            - { var:0, quality:3., le:3.1888730823993683e-02 }
      -
         depth: 9
         value: 0.
         norm_class_idx: 0
      -
         depth: 9
         value: 4.
         norm_class_idx: 4
      -
         depth: 8
         value: 3.
         norm_class_idx: 3
      -
         depth: 7
         value: 5.
         norm_class_idx: 5
         splits:
            - { var:1015, quality:1.2199999809265137e+01,
                le:4.8721633851528168e-02 }
      -
         depth: 8
         value: 1.
         norm_class_idx: 1
         splits:
            - { var:0, quality:4., le:4.1153170168399811e-02 }
      -
         depth: 9
         value: 0.
         norm_class_idx: 0
      -
         depth: 9
         value: 1.
         norm_class_idx: 1
      -
         depth: 8
         value: 5.
         norm_class_idx: 5
      -
         depth: 4
         value: 1.
         norm_class_idx: 1
         splits:
            - { var:1320, quality:1.5422857666015625e+02,
                le:5.3433917462825775e-02 }
      -
         depth: 5
         value: 1.
         norm_class_idx: 1
         splits:
            - { var:503, quality:6.2249042510986328e+01,
                le:2.6695704460144043e-01 }
      -
         depth: 6
         value: 1.
         norm_class_idx: 1
         splits:
            - { var:968, quality:5.6308643341064453e+01,
                le:2.7320660650730133e-02 }
      -
         depth: 7
         value: 5.
         norm_class_idx: 5
      -
         depth: 7
         value: 1.
         norm_class_idx: 1
         splits:
            - { var:1321, quality:5.7809955596923828e+01,
                le:1.2029188126325607e-01 }
      -
         depth: 8
         value: 1.
         norm_class_idx: 1
         splits:
            - { var:1600, quality:6.2187500000000000e+01,
                le:5.0162363797426224e-02 }
      -
         depth: 9
         value: 2.
         norm_class_idx: 2
      -
         depth: 9
         value: 1.
         norm_class_idx: 1
         splits:
            - { var:65, quality:6.1032257080078125e+01,
                le:6.6208019852638245e-02 }
      -
         depth: 10
         value: 4.
         norm_class_idx: 4
      -
         depth: 10
         value: 1.
         norm_class_idx: 1
         splits:
            - { var:91, quality:62., le:3.5018518567085266e-01 }
      -
         depth: 11
         value: 1.
         norm_class_idx: 1
      -
         depth: 11
         value: 2.
         norm_class_idx: 2
      -
         depth: 8
         value: 2.
         norm_class_idx: 2
         splits:
            - { var:411, quality:6.1111111640930176e+00,
                le:5.8260649442672729e-02 }
      -
         depth: 9
         value: 2.
         norm_class_idx: 2
      -
         depth: 9
         value: 5.
         norm_class_idx: 5
         splits:
            - { var:31, quality:4.6666665077209473e+00,
                le:1.8413761258125305e-01 }
      -
         depth: 10
         value: 0.
         norm_class_idx: 0
         splits:
            - { var:1, quality:3.5000000000000000e+00,
                le:1.2221142649650574e-01 }
      -
         depth: 11
         value: 0.
         norm_class_idx: 0
         splits:
            - { var:0, quality:3., le:1.7973501980304718e-01 }
      -
         depth: 12
         value: 0.
         norm_class_idx: 0
      -
         depth: 12
         value: 3.
         norm_class_idx: 3
      -
         depth: 11
         value: 1.
         norm_class_idx: 1
      -
         depth: 10
         value: 5.
         norm_class_idx: 5
      -
         depth: 6
         value: 2.
         norm_class_idx: 2
         splits:
            - { var:184, quality:18., le:9.6585482358932495e-02 }
      -
         depth: 7
         value: 1.
         norm_class_idx: 1
      -
         depth: 7
         value: 2.
         norm_class_idx: 2
      -
         depth: 5
         value: 5.
         norm_class_idx: 5
         splits:
            - { var:1420, quality:1.2316841888427734e+02,
                le:6.2113627791404724e-03 }
      -
         depth: 6
         value: 3.
         norm_class_idx: 3
      -
         depth: 6
         value: 5.
         norm_class_idx: 5
         splits:
            - { var:689, quality:1.2308908081054688e+02,
                le:1.8501913547515869e-01 }
      -
         depth: 7
         value: 5.
         norm_class_idx: 5
         splits:
            - { var:818, quality:9.6415077209472656e+01,
                le:1.1098279803991318e-01 }
      -
         depth: 8
         value: 2.
         norm_class_idx: 2
         splits:
            - { var:588, quality:3.6189189910888672e+01,
                le:1.2217157334089279e-01 }
      -
         depth: 9
         value: 2.
         norm_class_idx: 2
         splits:
            - { var:1275, quality:2.9062500000000000e+01,
                le:8.6157575249671936e-02 }
      -
         depth: 10
         value: 3.
         norm_class_idx: 3
      -
         depth: 10
         value: 2.
         norm_class_idx: 2
         splits:
            - { var:4, quality:2.7234043121337891e+01,
                le:9.0921282768249512e-02 }
      -
         depth: 11
         value: 4.
         norm_class_idx: 4
         splits:
            - { var:901, quality:1.0600000381469727e+01,
                le:1.2924140691757202e-01 }
      -
         depth: 12
         value: 4.
         norm_class_idx: 4
      -
         depth: 12
         value: 1.
         norm_class_idx: 1
         splits:
            - { var:296, quality:7.1999998092651367e+00,
                le:7.7964283525943756e-02 }
      -
         depth: 13
         value: 1.
         norm_class_idx: 1
      -
         depth: 13
         value: 3.
         norm_class_idx: 3
         splits:
            - { var:10, quality:4., le:2.5073936581611633e-01 }
      -
         depth: 14
         value: 3.
         norm_class_idx: 3
      -
         depth: 14
         value: 0.
         norm_class_idx: 0
      -
         depth: 11
         value: 2.
         norm_class_idx: 2
         splits:
            - { var:274, quality:2.9941390991210938e+01,
                le:1.3571360707283020e-01 }
      -
         depth: 12
         value: 2.
         norm_class_idx: 2
         splits:
            - { var:19, quality:21., le:5.1345407962799072e-02 }
      -
         depth: 13
         value: 1.
         norm_class_idx: 1
      -
         depth: 13
         value: 2.
         norm_class_idx: 2
      -
         depth: 12
         value: 5.
         norm_class_idx: 5
         splits:
            - { var:281, quality:1.9406061172485352e+01,
                le:2.7628138661384583e-01 }
      -
         depth: 13
         value: 5.
         norm_class_idx: 5
         splits:
            - { var:14, quality:15., le:1.1806203424930573e-01 }
      -
         depth: 14
         value: 5.
         norm_class_idx: 5
      -
         depth: 14
         value: 2.
         norm_class_idx: 2
      -
         depth: 13
         value: 2.
         norm_class_idx: 2
         splits:
            - { var:31, quality:9.6666669845581055e+00,
                le:2.6585590839385986e-01 }
      -
         depth: 14
         value: 3.
         norm_class_idx: 3
         splits:
            - { var:0, quality:3., le:9.9204033613204956e-02 }
      -
         depth: 15
         value: 1.
         norm_class_idx: 1
      -
         depth: 15
         value: 3.
         norm_class_idx: 3
      -
         depth: 14
         value: 2.
         norm_class_idx: 2
      -
         depth: 9
         value: 1.
         norm_class_idx: 1
         splits:
            - { var:493, quality:2.5071428298950195e+01,
                le:2.0811587572097778e-01 }
      -
         depth: 10
         value: 5.
         norm_class_idx: 5
         splits:
            - { var:862, quality:1.0952381134033203e+01,
                le:7.6564945280551910e-02 }
      -
         depth: 11
         value: 5.
         norm_class_idx: 5
      -
         depth: 11
         value: 0.
         norm_class_idx: 0
         splits:
            - { var:191, quality:8., le:7.4235320091247559e-02 }
      -
         depth: 12
         value: 0.
         norm_class_idx: 0
         splits:
            - { var:1194, quality:8., le:7.1472533047199249e-02 }
      -
         depth: 13
         value: 0.
         norm_class_idx: 0
      -
         depth: 13
         value: 1.
         norm_class_idx: 1
         splits:
            - { var:239, quality:6.3333334922790527e+00,
                le:1.6216696798801422e-01 }
      -
         depth: 14
         value: 1.
         norm_class_idx: 1
      -
         depth: 14
         value: 4.
         norm_class_idx: 4
         splits:
            - { var:36, quality:4.6666665077209473e+00,
                le:1.8224495649337769e-01 }
      -
         depth: 15
         value: 3.
         norm_class_idx: 3
         splits:
            - { var:0, quality:3., le:8.1014141440391541e-02 }
      -
         depth: 16
         value: 5.
         norm_class_idx: 5
      -
         depth: 16
         value: 3.
         norm_class_idx: 3
      -
         depth: 15
         value: 4.
         norm_class_idx: 4
      -
         depth: 12
         value: 2.
         norm_class_idx: 2
         splits:
            - { var:3, quality:6., le:3.1381368637084961e-02 }
      -
         depth: 13
         value: 5.
         norm_class_idx: 5
      -
         depth: 13
         value: 2.
         norm_class_idx: 2
      -
         depth: 10
         value: 1.
         norm_class_idx: 1
         splits:
            - { var:127, quality:2.5600000381469727e+01,
                le:6.7466720938682556e-02 }
      -
         depth: 11
         value: 0.
         norm_class_idx: 0
         splits:
            - { var:1, quality:5., le:5.0502710044384003e-02 }
      -
         depth: 12
         value: 5.
         norm_class_idx: 5
      -
         depth: 12
         value: 0.
         norm_class_idx: 0
      -
         depth: 11
         value: 1.
         norm_class_idx: 1
      -
         depth: 8
         value: 5.
         norm_class_idx: 5
         splits:
            - { var:1634, quality:8.2217826843261719e+01,
                le:2.4623842909932137e-02 }
      -
         depth: 9
         value: 0.
         norm_class_idx: 0
         splits:
            - { var:13, quality:1.4654545783996582e+01,
                le:8.3851076662540436e-02 }
      -
         depth: 10
         value: 0.
         norm_class_idx: 0
         splits:
            - { var:0, quality:10., le:2.0121860504150391e-01 }
      -
         depth: 11
         value: 0.
         norm_class_idx: 0
      -
         depth: 11
         value: 4.
         norm_class_idx: 4
      -
         depth: 10
         value: 2.
         norm_class_idx: 2
         splits:
            - { var:724, quality:1.3571428298950195e+01,
                le:1.2604863941669464e-01 }
      -
         depth: 11
         value: 2.
         norm_class_idx: 2
      -
         depth: 11
         value: 3.
         norm_class_idx: 3
         splits:
            - { var:1215, quality:1.1142857551574707e+01,
                le:1.7134974896907806e-01 }
      -
         depth: 12
         value: 3.
         norm_class_idx: 3
      -
         depth: 12
         value: 4.
         norm_class_idx: 4
         splits:
            - { var:14, quality:7., le:4.7704711556434631e-02 }
      -
         depth: 13
         value: 5.
         norm_class_idx: 5
      -
         depth: 13
         value: 4.
         norm_class_idx: 4
      -
         depth: 9
         value: 5.
         norm_class_idx: 5
         splits:
            - { var:1603, quality:8.4102561950683594e+01,
                le:1.3124510645866394e-02 }
      -
         depth: 10
         value: 4.
         norm_class_idx: 4
         splits:
            - { var:323, quality:9., le:1.3330489397048950e-01 }
      -
         depth: 11
         value: 4.
         norm_class_idx: 4
      -
         depth: 11
         value: 0.
         norm_class_idx: 0
         splits:
            - { var:39, quality:5.6666665077209473e+00,
                le:5.5084645748138428e-02 }
      -
         depth: 12
         value: 0.
         norm_class_idx: 0
      -
         depth: 12
         value: 2.
         norm_class_idx: 2
         splits:
            - { var:2, quality:3., le:1.6100966930389404e-01 }
      -
         depth: 13
         value: 2.
         norm_class_idx: 2
      -
         depth: 13
         value: 1.
         norm_class_idx: 1
      -
         depth: 10
         value: 5.
         norm_class_idx: 5
         splits:
            - { var:977, quality:8.8986114501953125e+01,
                le:2.8302502632141113e-01 }
      -
         depth: 11
         value: 5.
         norm_class_idx: 5
         splits:
            - { var:144, quality:9.2061515808105469e+01,
                le:5.8483898639678955e-02 }
      -
         depth: 12
         value: 0.
         norm_class_idx: 0
         splits:
            - { var:41, quality:6.7142858505249023e+00,
                le:2.3553978651762009e-02 }
      -
         depth: 13
         value: 0.
         norm_class_idx: 0
      -
         depth: 13
         value: 1.
         norm_class_idx: 1
         splits:
            - { var:3, quality:5.5000000000000000e+00,
                le:4.0782071650028229e-02 }
      -
         depth: 14
         value: 1.
         norm_class_idx: 1
      -
         depth: 14
         value: 2.
         norm_class_idx: 2
         splits:
            - { var:2, quality:4., le:1.3529939949512482e-01 }
      -
         depth: 15
         value: 2.
         norm_class_idx: 2
      -
         depth: 15
         value: 5.
         norm_class_idx: 5
      -
         depth: 12
         value: 5.
         norm_class_idx: 5
         splits:
            - { var:233, quality:9.6208129882812500e+01,
                le:4.1621066629886627e-02 }
      -
         depth: 13
         value: 3.
         norm_class_idx: 3
         splits:
            - { var:68, quality:7.5000000000000000e+00,
                le:2.6073992252349854e-02 }
      -
         depth: 14
         value: 3.
         norm_class_idx: 3
      -
         depth: 14
         value: 5.
         norm_class_idx: 5
         splits:
            - { var:3, quality:3., le:9.5077708363533020e-02 }
      -
         depth: 15
         value: 0.
         norm_class_idx: 0
      -
         depth: 15
         value: 5.
         norm_class_idx: 5
      -
         depth: 13
         value: 5.
         norm_class_idx: 5
         splits:
            - { var:756, quality:9.8647827148437500e+01,
                le:1.0940512642264366e-02 }
      -
         depth: 14
         value: 1.
         norm_class_idx: 1
         splits:
            - { var:35, quality:5., le:2.3885068297386169e-01 }
      -
         depth: 15
         value: 1.
         norm_class_idx: 1
      -
         depth: 15
         value: 2.
         norm_class_idx: 2
         splits:
            - { var:0, quality:2., le:5.3437888622283936e-02 }
      -
         depth: 16
         value: 4.
         norm_class_idx: 4
      -
         depth: 16
         value: 2.
         norm_class_idx: 2
         splits:
            - { var:0, quality:2., le:8.6972892284393311e-02 }
      -
         depth: 17
         value: 2.
         norm_class_idx: 2
      -
         depth: 17
         value: 3.
         norm_class_idx: 3
      -
         depth: 14
         value: 5.
         norm_class_idx: 5
         splits:
            - { var:1481, quality:1.0071865081787109e+02,
                le:2.2173456847667694e-02 }
      -
         depth: 15
         value: 1.
         norm_class_idx: 1
         splits:
            - { var:14, quality:3., le:1.4806362986564636e-01 }
      -
         depth: 16
         value: 0.
         norm_class_idx: 0
         splits:
            - { var:0, quality:2., le:4.3168477714061737e-02 }
      -
         depth: 17
         value: 0.
         norm_class_idx: 0
      -
         depth: 17
         value: 2.
         norm_class_idx: 2
         splits:
            - { var:0, quality:2., le:7.9509779810905457e-02 }
      -
         depth: 18
         value: 2.
         norm_class_idx: 2
      -
         depth: 18
         value: 4.
         norm_class_idx: 4
      -
         depth: 16
         value: 1.
         norm_class_idx: 1
      -
         depth: 15
         value: 5.
         norm_class_idx: 5
         splits:
            - { var:562, quality:1.0421923065185547e+02,
                le:4.0188979357481003e-02 }
      -
         depth: 16
         value: 2.
         norm_class_idx: 2
         splits:
            - { var:55, quality:4., le:1.8481782078742981e-01 }
      -
         depth: 17
         value: 2.
         norm_class_idx: 2
      -
         depth: 17
         value: 3.
         norm_class_idx: 3
      -
         depth: 16
         value: 5.
         norm_class_idx: 5
         splits:
            - { var:84, quality:104., le:3.3964946866035461e-01 }
      -
         depth: 17
         value: 5.
         norm_class_idx: 5
      -
         depth: 17
         value: 2.
         norm_class_idx: 2
      -
         depth: 11
         value: 1.
         norm_class_idx: 1
         splits:
            - { var:19, quality:9., le:1.0420067608356476e-01 }
      -
         depth: 12
         value: 2.
         norm_class_idx: 2
         splits:
            - { var:3, quality:5., le:9.0701781213283539e-02 }
      -
         depth: 13
         value: 2.
         norm_class_idx: 2
      -
         depth: 13
         value: 0.
         norm_class_idx: 0
      -
         depth: 12
         value: 1.
         norm_class_idx: 1
      -
         depth: 7
         value: 1.
         norm_class_idx: 1
         splits:
            - { var:328, quality:5.2136707305908203e+01,
                le:3.0424320697784424e-01 }
      -
         depth: 8
         value: 1.
         norm_class_idx: 1
         splits:
            - { var:1564, quality:5.3693405151367188e+01,
                le:1.9170954823493958e-01 }
      -
         depth: 9
         value: 5.
         norm_class_idx: 5
         splits:
            - { var:327, quality:1.8148147583007812e+01,
                le:1.8926355987787247e-02 }
      -
         depth: 10
         value: 3.
         norm_class_idx: 3
      -
         depth: 10
         value: 5.
         norm_class_idx: 5
         splits:
            - { var:663, quality:1.7486841201782227e+01,
                le:1.2633991241455078e-01 }
      -
         depth: 11
         value: 1.
         norm_class_idx: 1
         splits:
            - { var:19, quality:6.6666665077209473e+00,
                le:1.5816181898117065e-01 }
      -
         depth: 12
         value: 1.
         norm_class_idx: 1
      -
         depth: 12
         value: 3.
         norm_class_idx: 3
         splits:
            - { var:0, quality:3., le:1.1550763249397278e-01 }
      -
         depth: 13
         value: 3.
         norm_class_idx: 3
      -
         depth: 13
         value: 2.
         norm_class_idx: 2
      -
         depth: 11
         value: 5.
         norm_class_idx: 5
         splits:
            - { var:48, quality:1.7666666030883789e+01,
                le:8.6185429245233536e-03 }
      -
         depth: 12
         value: 4.
         norm_class_idx: 4
         splits:
            - { var:0, quality:3., le:2.8887066990137100e-02 }
      -
         depth: 13
         value: 4.
         norm_class_idx: 4
      -
         depth: 13
         value: 1.
         norm_class_idx: 1
      -
         depth: 12
         value: 5.
         norm_class_idx: 5
      -
         depth: 9
         value: 1.
         norm_class_idx: 1
         splits:
            - { var:1459, quality:5.1217391967773438e+01,
                le:3.2224854826927185e-01 }
      -
         depth: 10
         value: 1.
         norm_class_idx: 1
         splits:
            - { var:1400, quality:5.2717639923095703e+01,
                le:1.8537211418151855e-01 }
      -
         depth: 11
         value: 1.
         norm_class_idx: 1
         splits:
            - { var:700, quality:5.5495536804199219e+01,
                le:2.1856880187988281e-01 }
      -
         depth: 12
         value: 1.
         norm_class_idx: 1
         splits:
            - { var:466, quality:5.6961750030517578e+01,
                le:2.0389910787343979e-02 }
      -
         depth: 13
         value: 4.
         norm_class_idx: 4
         splits:
            - { var:1, quality:3., le:3.7034235894680023e-02 }
      -
         depth: 14
         value: 3.
         norm_class_idx: 3
      -
         depth: 14
         value: 4.
         norm_class_idx: 4
      -
         depth: 13
         value: 1.
         norm_class_idx: 1
         splits:
            - { var:363, quality:5.9033897399902344e+01,
                le:3.0321988463401794e-01 }
      -
         depth: 14
         value: 1.
         norm_class_idx: 1
         splits:
            - { var:259, quality:59., le:5.3199375979602337e-03 }
      -
         depth: 15
         value: 5.
         norm_class_idx: 5
      -
         depth: 15
         value: 1.
         norm_class_idx: 1
      -
         depth: 14
         value: 5.
         norm_class_idx: 5
      -
         depth: 12
         value: 0.
         norm_class_idx: 0
         splits:
            - { var:23, quality:5.5000000000000000e+00,
                le:2.9731128364801407e-02 }
      -
         depth: 13
         value: 4.
         norm_class_idx: 4
         splits:
            - { var:6, quality:4., le:1.0741141438484192e-01 }
      -
         depth: 14
         value: 4.
         norm_class_idx: 4
      -
         depth: 14
         value: 5.
         norm_class_idx: 5
      -
         depth: 13
         value: 0.
         norm_class_idx: 0
      -
         depth: 11
         value: 5.
         norm_class_idx: 5
         splits:
            - { var:50, quality:9.5000000000000000e+00,
                le:9.5541320741176605e-02 }
      -
         depth: 12
         value: 5.
         norm_class_idx: 5
         splits:
            - { var:1516, quality:9.6000003814697266e+00,
                le:1.8716821074485779e-01 }
      -
         depth: 13
         value: 0.
         norm_class_idx: 0
         splits:
            - { var:171, quality:7.3333334922790527e+00,
                le:1.2833882868289948e-01 }
      -
         depth: 14
         value: 0.
         norm_class_idx: 0
         splits:
            - { var:2, quality:6., le:8.3745524287223816e-02 }
      -
         depth: 15
         value: 4.
         norm_class_idx: 4
      -
         depth: 15
         value: 0.
         norm_class_idx: 0
      -
         depth: 14
         value: 1.
         norm_class_idx: 1
      -
         depth: 13
         value: 5.
         norm_class_idx: 5
      -
         depth: 12
         value: 2.
         norm_class_idx: 2
      -
         depth: 10
         value: 0.
         norm_class_idx: 0
      -
         depth: 8
         value: 2.
         norm_class_idx: 2
         splits:
            - { var:0, quality:11., le:5.6110449135303497e-02 }
      -
         depth: 9
         value: 5.
         norm_class_idx: 5
      -
         depth: 9
         value: 2.
         norm_class_idx: 2
      -
         depth: 3
         value: 5.
         norm_class_idx: 5
         splits:
            - { var:1334, quality:1.6549774169921875e+02,
                le:7.8975046053528786e-03 }
      -
         depth: 4
         value: 3.
         norm_class_idx: 3
      -
         depth: 4
         value: 5.
         norm_class_idx: 5
         splits:
            - { var:1724, quality:1.5485467529296875e+02,
                le:1.0190899670124054e-01 }
      -
         depth: 5
         value: 5.
         norm_class_idx: 5
         splits:
            - { var:1336, quality:1.4319808959960938e+02,
                le:2.9844832420349121e-01 }
      -
         depth: 6
         value: 5.
         norm_class_idx: 5
         splits:
            - { var:863, quality:1.4140286254882812e+02,
                le:8.3992972970008850e-02 }
      -
         depth: 7
         value: 3.
         norm_class_idx: 3
         splits:
            - { var:1690, quality:2.3438888549804688e+01,
                le:1.1166490614414215e-01 }
      -
         depth: 8
         value: 1.
         norm_class_idx: 1
         splits:
            - { var:256, quality:1.7225296020507812e+01,
                le:1.3447658717632294e-01 }
      -
         depth: 9
         value: 1.
         norm_class_idx: 1
         splits:
            - { var:1363, quality:1.7125000000000000e+01,
                le:2.3545610904693604e-01 }
      -
         depth: 10
         value: 1.
         norm_class_idx: 1
         splits:
            - { var:0, quality:16., le:1.2225759215652943e-02 }
      -
         depth: 11
         value: 4.
         norm_class_idx: 4
      -
         depth: 11
         value: 1.
         norm_class_idx: 1
      -
         depth: 10
         value: 2.
         norm_class_idx: 2
         splits:
            - { var:55, quality:5., le:1.0254660993814468e-01 }
      -
         depth: 11
         value: 3.
         norm_class_idx: 3
      -
         depth: 11
         value: 2.
         norm_class_idx: 2
      -
         depth: 9
         value: 5.
         norm_class_idx: 5
         splits:
            - { var:442, quality:1.0892307281494141e+01,
                le:9.4679653644561768e-02 }
      -
         depth: 10
         value: 3.
         norm_class_idx: 3
         splits:
            - { var:147, quality:6.1111111640930176e+00,
                le:4.0256112813949585e-02 }
      -
         depth: 11
         value: 2.
         norm_class_idx: 2
         splits:
            - { var:2, quality:4.6666665077209473e+00,
                le:5.2070308476686478e-02 }
      -
         depth: 12
         value: 2.
         norm_class_idx: 2
      -
         depth: 12
         value: 0.
         norm_class_idx: 0
         splits:
            - { var:2, quality:3.5000000000000000e+00,
                le:6.7297071218490601e-02 }
      -
         depth: 13
         value: 0.
         norm_class_idx: 0
      -
         depth: 13
         value: 1.
         norm_class_idx: 1
         splits:
            - { var:1, quality:3., le:6.3156776130199432e-02 }
      -
         depth: 14
         value: 4.
         norm_class_idx: 4
      -
         depth: 14
         value: 1.
         norm_class_idx: 1
      -
         depth: 11
         value: 3.
         norm_class_idx: 3
      -
         depth: 10
         value: 5.
         norm_class_idx: 5
         splits:
            - { var:2, quality:10., le:7.4330456554889679e-02 }
      -
         depth: 11
         value: 0.
         norm_class_idx: 0
      -
         depth: 11
         value: 5.
         norm_class_idx: 5
      -
         depth: 8
         value: 3.
         norm_class_idx: 3
         splits:
            - { var:1443, quality:2.0333333969116211e+01,
                le:1.2875165045261383e-01 }
      -
         depth: 9
         value: 3.
         norm_class_idx: 3
         splits:
            - { var:36, quality:17., le:6.7888274788856506e-02 }
      -
         depth: 10
         value: 0.
         norm_class_idx: 0
      -
         depth: 10
         value: 3.
         norm_class_idx: 3
      -
         depth: 9
         value: 5.
         norm_class_idx: 5
      -
         depth: 7
         value: 5.
         norm_class_idx: 5
         splits:
            - { var:1591, quality:1.3960305786132812e+02,
                le:3.3351576328277588e-01 }
      -
         depth: 8
         value: 5.
         norm_class_idx: 5
         splits:
            - { var:1729, quality:1.4345852661132812e+02,
                le:3.7890160083770752e-01 }
      -
         depth: 9
         value: 5.
         norm_class_idx: 5
         splits:
            - { var:1539, quality:1.4830870056152344e+02,
                le:8.7901391088962555e-02 }
      -
         depth: 10
         value: 5.
         norm_class_idx: 5
         splits:
            - { var:1054, quality:2.2255813598632812e+01,
                le:5.2043423056602478e-02 }
      -
         depth: 11
         value: 5.
         norm_class_idx: 5
      -
         depth: 11
         value: 1.
         norm_class_idx: 1
         splits:
            - { var:1601, quality:1.7195652008056641e+01,
                le:1.9833523035049438e-01 }
      -
         depth: 12
         value: 5.
         norm_class_idx: 5
         splits:
            - { var:1618, quality:1.3166666984558105e+01,
                le:1.4427936077117920e-01 }
      -
         depth: 13
         value: 5.
         norm_class_idx: 5
         splits:
            - { var:6, quality:12., le:7.1233338676393032e-03 }
      -
         depth: 14
         value: 0.
         norm_class_idx: 0
      -
         depth: 14
         value: 5.
         norm_class_idx: 5
      -
         depth: 13
         value: 3.
         norm_class_idx: 3
         splits:
            - { var:51, quality:6., le:6.2123931944370270e-02 }
      -
         depth: 14
         value: 0.
         norm_class_idx: 0
         splits:
            - { var:0, quality:4., le:1.6234341263771057e-01 }
      -
         depth: 15
         value: 0.
         norm_class_idx: 0
      -
         depth: 15
         value: 4.
         norm_class_idx: 4
      -
         depth: 14
         value: 3.
         norm_class_idx: 3
      -
         depth: 12
         value: 1.
         norm_class_idx: 1
         splits:
            - { var:1090, quality:1.7809524536132812e+01,
                le:1.3349924981594086e-01 }
      -
         depth: 13
         value: 1.
         norm_class_idx: 1
         splits:
            - { var:22, quality:14., le:1.0265159606933594e-01 }
      -
         depth: 14
         value: 0.
         norm_class_idx: 0
      -
         depth: 14
         value: 1.
         norm_class_idx: 1
      -
         depth: 13
         value: 3.
         norm_class_idx: 3
         splits:
            - { var:12, quality:8., le:2.1516323089599609e-02 }
      -
         depth: 14
         value: 0.
         norm_class_idx: 0
      -
         depth: 14
         value: 3.
         norm_class_idx: 3
      -
         depth: 10
         value: 5.
         norm_class_idx: 5
         splits:
            - { var:437, quality:1.4088278198242188e+02,
                le:1.8294975161552429e-02 }
      -
         depth: 11
         value: 3.
         norm_class_idx: 3
         splits:
            - { var:0, quality:6., le:1.2520681321620941e-01 }
      -
         depth: 12
         value: 3.
         norm_class_idx: 3
      -
         depth: 12
         value: 1.
         norm_class_idx: 1
      -
         depth: 11
         value: 5.
         norm_class_idx: 5
         splits:
            - { var:900, quality:1.4436897277832031e+02,
                le:4.8849523067474365e-02 }
      -
         depth: 12
         value: 1.
         norm_class_idx: 1
         splits:
            - { var:170, quality:1.0199999809265137e+01,
                le:2.6710647344589233e-01 }
      -
         depth: 13
         value: 5.
         norm_class_idx: 5
         splits:
            - { var:48, quality:8.3999996185302734e+00,
                le:1.1974754929542542e-01 }
      -
         depth: 14
         value: 3.
         norm_class_idx: 3
         splits:
            - { var:1, quality:5., le:1.4606161415576935e-01 }
      -
         depth: 15
         value: 3.
         norm_class_idx: 3
      -
         depth: 15
         value: 2.
         norm_class_idx: 2
      -
         depth: 14
         value: 5.
         norm_class_idx: 5
      -
         depth: 13
         value: 1.
         norm_class_idx: 1
      -
         depth: 12
         value: 5.
         norm_class_idx: 5
         splits:
            - { var:540, quality:1.4412121582031250e+02,
                le:2.3864192888140678e-02 }
      -
         depth: 13
         value: 5.
         norm_class_idx: 5
         splits:
            - { var:85, quality:7.7142858505249023e+00,
                le:7.0797979831695557e-02 }
      -
         depth: 14
         value: 3.
         norm_class_idx: 3
         splits:
            - { var:23, quality:5., le:5.4237373173236847e-02 }
      -
         depth: 15
         value: 3.
         norm_class_idx: 3
      -
         depth: 15
         value: 0.
         norm_class_idx: 0
         splits:
            - { var:0, quality:2., le:6.0196362435817719e-02 }
      -
         depth: 16
         value: 1.
         norm_class_idx: 1
      -
         depth: 16
         value: 0.
         norm_class_idx: 0
      -
         depth: 14
         value: 5.
         norm_class_idx: 5
      -
         depth: 13
         value: 5.
         norm_class_idx: 5
         splits:
            - { var:1599, quality:1.4422367858886719e+02,
                le:3.6848807334899902e-01 }
      -
         depth: 14
         value: 5.
         norm_class_idx: 5
         splits:
            - { var:19, quality:1.4509333801269531e+02,
                le:2.0238559693098068e-02 }
      -
         depth: 15
         value: 2.
         norm_class_idx: 2
      -
         depth: 15
         value: 5.
         norm_class_idx: 5
         splits:
            - { var:774, quality:1.4668026733398438e+02,
                le:3.1245666742324829e-01 }
      -
         depth: 16
         value: 5.
         norm_class_idx: 5
         splits:
            - { var:249, quality:147., le:3.6243057250976562e-01 }
      -
         depth: 17
         value: 5.
         norm_class_idx: 5
      -
         depth: 17
         value: 2.
         norm_class_idx: 2
      -
         depth: 16
         value: 1.
         norm_class_idx: 1
         splits:
            - { var:0, quality:3., le:2.8769046068191528e-01 }
      -
         depth: 17
         value: 1.
         norm_class_idx: 1
      -
         depth: 17
         value: 5.
         norm_class_idx: 5
      -
         depth: 14
         value: 1.
         norm_class_idx: 1
      -
         depth: 9
         value: 4.
         norm_class_idx: 4
         splits:
            - { var:112, quality:9.8222217559814453e+00,
                le:4.1768617928028107e-02 }
      -
         depth: 10
         value: 4.
         norm_class_idx: 4
         splits:
            - { var:4, quality:9., le:2.7705213427543640e-01 }
      -
         depth: 11
         value: 4.
         norm_class_idx: 4
      -
         depth: 11
         value: 0.
         norm_class_idx: 0
      -
         depth: 10
         value: 2.
         norm_class_idx: 2
         splits:
            - { var:56, quality:5.6666665077209473e+00,
                le:1.7943920195102692e-01 }
      -
         depth: 11
         value: 2.
         norm_class_idx: 2
      -
         depth: 11
         value: 3.
         norm_class_idx: 3
         splits:
            - { var:0, quality:3.5000000000000000e+00,
                le:1.6665984690189362e-01 }
      -
         depth: 12
         value: 3.
         norm_class_idx: 3
         splits:
            - { var:0, quality:3., le:8.6045399308204651e-02 }
      -
         depth: 13
         value: 0.
         norm_class_idx: 0
      -
         depth: 13
         value: 3.
         norm_class_idx: 3
      -
         depth: 12
         value: 5.
         norm_class_idx: 5
      -
         depth: 8
         value: 2.
         norm_class_idx: 2
         splits:
            - { var:511, quality:1.2931818008422852e+01,
                le:3.2424755394458771e-02 }
      -
         depth: 9
         value: 0.
         norm_class_idx: 0
         splits:
            - { var:9, quality:6.6666665077209473e+00,
                le:8.8202148675918579e-02 }
      -
         depth: 10
         value: 4.
         norm_class_idx: 4
         splits:
            - { var:7, quality:3., le:8.8475763797760010e-02 }
      -
         depth: 11
         value: 4.
         norm_class_idx: 4
      -
         depth: 11
         value: 1.
         norm_class_idx: 1
      -
         depth: 10
         value: 0.
         norm_class_idx: 0
      -
         depth: 9
         value: 2.
         norm_class_idx: 2
         splits:
            - { var:2, quality:11., le:1.3903024792671204e-01 }
      -
         depth: 10
         value: 2.
         norm_class_idx: 2
      -
         depth: 10
         value: 1.
         norm_class_idx: 1
      -
         depth: 6
         value: 2.
         norm_class_idx: 2
         splits:
            - { var:441, quality:2.3399999618530273e+01,
                le:4.5027516782283783e-02 }
      -
         depth: 7
         value: 2.
         norm_class_idx: 2
      -
         depth: 7
         value: 1.
         norm_class_idx: 1
         splits:
            - { var:47, quality:7., le:3.6395236849784851e-02 }
      -
         depth: 8
         value: 1.
         norm_class_idx: 1
      -
         depth: 8
         value: 5.
         norm_class_idx: 5
         splits:
            - { var:0, quality:5., le:5.9292256832122803e-02 }
      -
         depth: 9
         value: 0.
         norm_class_idx: 0
      -
         depth: 9
         value: 5.
         norm_class_idx: 5
      -
         depth: 5
         value: 3.
         norm_class_idx: 3
         splits:
            - { var:52, quality:3.7978260040283203e+01,
                le:5.5666092783212662e-02 }
      -
         depth: 6
         value: 5.
         norm_class_idx: 5
         splits:
            - { var:1455, quality:9.6000003814697266e+00,
                le:1.4126367866992950e-01 }
      -
         depth: 7
         value: 1.
         norm_class_idx: 1
         splits:
            - { var:3, quality:7.3333334922790527e+00,
                le:4.0290661156177521e-02 }
      -
         depth: 8
         value: 1.
         norm_class_idx: 1
      -
         depth: 8
         value: 2.
         norm_class_idx: 2
         splits:
            - { var:4, quality:6., le:1.4341166615486145e-01 }
      -
         depth: 9
         value: 4.
         norm_class_idx: 4
      -
         depth: 9
         value: 2.
         norm_class_idx: 2
      -
         depth: 7
         value: 5.
         norm_class_idx: 5
      -
         depth: 6
         value: 3.
         norm_class_idx: 3
         splits:
            - { var:55, quality:4.0285713195800781e+01,
                le:6.0024529695510864e-02 }
      -
         depth: 7
         value: 5.
         norm_class_idx: 5
      -
         depth: 7
         value: 3.
         norm_class_idx: 3
         splits:
            - { var:405, quality:40., le:2.5880378484725952e-01 }
      -
         depth: 8
         value: 3.
         norm_class_idx: 3
      -
         depth: 8
         value: 1.
         norm_class_idx: 1
         splits:
            - { var:0, quality:2., le:3.6806806921958923e-02 }
      -
         depth: 9
         value: 4.
         norm_class_idx: 4
      -
         depth: 9
         value: 1.
         norm_class_idx: 1
